SNNS network definition file V1.4-3D
generated at Wed Jan 14 14:14:20 2015

network name : default
source files :
no. of units : 220
no. of connections : 8500
no. of unit types : 0
no. of site types : 0


learning function : Rprop
update function   : Topological_Order


unit default section :

act      | bias     | st | subnet | layer | act func     | out func
---------|----------|----|--------|-------|--------------|-------------
 0.00000 |  0.00000 | h  |      0 |     1 | Act_Logistic | Out_Identity 
---------|----------|----|--------|-------|--------------|-------------


unit definition section :

no. | typeName | unitName | act      | bias     | st | position | act func     | out func | sites
----|----------|----------|----------|----------|----|----------|--------------|----------|-------
  1 |          | noName   |  0.00000 | -0.27653 | i  |  1, 1, 1 | Act_Identity |          | 
  2 |          | noName   |  0.00000 |  0.77898 | i  |  2, 1, 1 | Act_Identity |          | 
  3 |          | noName   |  0.00000 | -0.96936 | i  |  3, 1, 1 | Act_Identity |          | 
  4 |          | noName   |  0.00000 |  0.75866 | i  |  4, 1, 1 | Act_Identity |          | 
  5 |          | noName   |  0.00000 |  0.91375 | i  |  5, 1, 1 | Act_Identity |          | 
  6 |          | noName   |  1.00000 | -0.93292 | i  |  6, 1, 1 | Act_Identity |          | 
  7 |          | noName   |  1.00000 | -0.15641 | i  |  7, 1, 1 | Act_Identity |          | 
  8 |          | noName   |  1.00000 | -0.47435 | i  |  8, 1, 1 | Act_Identity |          | 
  9 |          | noName   |  1.00000 |  0.27958 | i  |  9, 1, 1 | Act_Identity |          | 
 10 |          | noName   |  0.00000 |  0.11295 | i  | 10, 1, 1 | Act_Identity |          | 
 11 |          | noName   |  0.00000 |  0.84265 | i  |  1, 2, 1 | Act_Identity |          | 
 12 |          | noName   |  0.00000 | -0.57988 | i  |  2, 2, 1 | Act_Identity |          | 
 13 |          | noName   |  1.00000 |  0.01962 | i  |  3, 2, 1 | Act_Identity |          | 
 14 |          | noName   |  1.00000 |  0.32926 | i  |  4, 2, 1 | Act_Identity |          | 
 15 |          | noName   |  1.00000 |  0.76281 | i  |  5, 2, 1 | Act_Identity |          | 
 16 |          | noName   |  1.00000 | -0.68462 | i  |  6, 2, 1 | Act_Identity |          | 
 17 |          | noName   |  1.00000 | -0.72356 | i  |  7, 2, 1 | Act_Identity |          | 
 18 |          | noName   |  1.00000 |  0.00058 | i  |  8, 2, 1 | Act_Identity |          | 
 19 |          | noName   |  1.00000 |  0.61492 | i  |  9, 2, 1 | Act_Identity |          | 
 20 |          | noName   |  1.00000 | -0.41343 | i  | 10, 2, 1 | Act_Identity |          | 
 21 |          | noName   |  0.00000 | -0.29710 | i  |  1, 3, 1 | Act_Identity |          | 
 22 |          | noName   |  1.00000 |  0.83319 | i  |  2, 3, 1 | Act_Identity |          | 
 23 |          | noName   |  1.00000 |  0.28501 | i  |  3, 3, 1 | Act_Identity |          | 
 24 |          | noName   |  1.00000 |  0.56102 | i  |  4, 3, 1 | Act_Identity |          | 
 25 |          | noName   |  1.00000 | -0.63897 | i  |  5, 3, 1 | Act_Identity |          | 
 26 |          | noName   |  1.00000 |  0.50908 | i  |  6, 3, 1 | Act_Identity |          | 
 27 |          | noName   |  1.00000 |  0.12247 | i  |  7, 3, 1 | Act_Identity |          | 
 28 |          | noName   |  0.00000 |  0.00369 | i  |  8, 3, 1 | Act_Identity |          | 
 29 |          | noName   |  1.00000 | -0.48466 | i  |  9, 3, 1 | Act_Identity |          | 
 30 |          | noName   |  0.00000 |  0.55644 | i  | 10, 3, 1 | Act_Identity |          | 
 31 |          | noName   |  0.00000 |  0.57921 | i  |  1, 4, 1 | Act_Identity |          | 
 32 |          | noName   |  1.00000 |  0.45073 | i  |  2, 4, 1 | Act_Identity |          | 
 33 |          | noName   |  1.00000 | -0.11734 | i  |  3, 4, 1 | Act_Identity |          | 
 34 |          | noName   |  0.00000 |  0.84863 | i  |  4, 4, 1 | Act_Identity |          | 
 35 |          | noName   |  0.00000 | -0.03842 | i  |  5, 4, 1 | Act_Identity |          | 
 36 |          | noName   |  0.00000 |  0.20261 | i  |  6, 4, 1 | Act_Identity |          | 
 37 |          | noName   |  0.00000 |  0.90246 | i  |  7, 4, 1 | Act_Identity |          | 
 38 |          | noName   |  0.00000 | -0.95495 | i  |  8, 4, 1 | Act_Identity |          | 
 39 |          | noName   |  0.00000 | -0.64141 | i  |  9, 4, 1 | Act_Identity |          | 
 40 |          | noName   |  0.00000 |  0.79034 | i  | 10, 4, 1 | Act_Identity |          | 
 41 |          | noName   |  0.00000 |  0.58818 | i  |  1, 5, 1 | Act_Identity |          | 
 42 |          | noName   |  1.00000 |  0.28599 | i  |  2, 5, 1 | Act_Identity |          | 
 43 |          | noName   |  1.00000 |  0.80810 | i  |  3, 5, 1 | Act_Identity |          | 
 44 |          | noName   |  0.00000 |  0.72649 | i  |  4, 5, 1 | Act_Identity |          | 
 45 |          | noName   |  0.00000 |  0.52391 | i  |  5, 5, 1 | Act_Identity |          | 
 46 |          | noName   |  0.00000 | -0.54711 | i  |  6, 5, 1 | Act_Identity |          | 
 47 |          | noName   |  0.00000 | -0.23655 | i  |  7, 5, 1 | Act_Identity |          | 
 48 |          | noName   |  0.00000 |  0.35441 | i  |  8, 5, 1 | Act_Identity |          | 
 49 |          | noName   |  0.00000 |  0.56761 | i  |  9, 5, 1 | Act_Identity |          | 
 50 |          | noName   |  0.00000 | -0.69091 | i  | 10, 5, 1 | Act_Identity |          | 
 51 |          | noName   |  0.00000 | -0.07529 | i  |  1, 6, 1 | Act_Identity |          | 
 52 |          | noName   |  1.00000 | -0.39305 | i  |  2, 6, 1 | Act_Identity |          | 
 53 |          | noName   |  1.00000 |  0.82385 | i  |  3, 6, 1 | Act_Identity |          | 
 54 |          | noName   |  1.00000 |  0.83056 | i  |  4, 6, 1 | Act_Identity |          | 
 55 |          | noName   |  1.00000 | -0.50621 | i  |  5, 6, 1 | Act_Identity |          | 
 56 |          | noName   |  0.00000 | -0.51170 | i  |  6, 6, 1 | Act_Identity |          | 
 57 |          | noName   |  0.00000 |  0.44920 | i  |  7, 6, 1 | Act_Identity |          | 
 58 |          | noName   |  0.00000 | -0.95904 | i  |  8, 6, 1 | Act_Identity |          | 
 59 |          | noName   |  0.00000 |  0.91949 | i  |  9, 6, 1 | Act_Identity |          | 
 60 |          | noName   |  0.00000 | -0.90924 | i  | 10, 6, 1 | Act_Identity |          | 
 61 |          | noName   |  0.00000 | -0.14890 | i  |  1, 7, 1 | Act_Identity |          | 
 62 |          | noName   |  1.00000 |  0.66417 | i  |  2, 7, 1 | Act_Identity |          | 
 63 |          | noName   |  1.00000 | -0.80779 | i  |  3, 7, 1 | Act_Identity |          | 
 64 |          | noName   |  1.00000 |  0.95941 | i  |  4, 7, 1 | Act_Identity |          | 
 65 |          | noName   |  1.00000 | -0.15513 | i  |  5, 7, 1 | Act_Identity |          | 
 66 |          | noName   |  1.00000 |  0.90356 | i  |  6, 7, 1 | Act_Identity |          | 
 67 |          | noName   |  0.00000 |  0.75292 | i  |  7, 7, 1 | Act_Identity |          | 
 68 |          | noName   |  0.00000 |  0.61638 | i  |  8, 7, 1 | Act_Identity |          | 
 69 |          | noName   |  0.00000 |  0.32957 | i  |  9, 7, 1 | Act_Identity |          | 
 70 |          | noName   |  0.00000 | -0.33506 | i  | 10, 7, 1 | Act_Identity |          | 
 71 |          | noName   |  0.00000 |  0.07682 | i  |  1, 8, 1 | Act_Identity |          | 
 72 |          | noName   |  1.00000 | -0.94134 | i  |  2, 8, 1 | Act_Identity |          | 
 73 |          | noName   |  1.00000 |  0.04569 | i  |  3, 8, 1 | Act_Identity |          | 
 74 |          | noName   |  1.00000 |  0.53191 | i  |  4, 8, 1 | Act_Identity |          | 
 75 |          | noName   |  1.00000 | -0.00375 | i  |  5, 8, 1 | Act_Identity |          | 
 76 |          | noName   |  1.00000 |  0.04031 | i  |  6, 8, 1 | Act_Identity |          | 
 77 |          | noName   |  0.00000 | -0.02158 | i  |  7, 8, 1 | Act_Identity |          | 
 78 |          | noName   |  0.00000 |  0.80804 | i  |  8, 8, 1 | Act_Identity |          | 
 79 |          | noName   |  0.00000 |  0.82391 | i  |  9, 8, 1 | Act_Identity |          | 
 80 |          | noName   |  0.00000 |  0.95251 | i  | 10, 8, 1 | Act_Identity |          | 
 81 |          | noName   |  0.00000 | -0.03336 | i  |  1, 9, 1 | Act_Identity |          | 
 82 |          | noName   |  1.00000 | -0.06174 | i  |  2, 9, 1 | Act_Identity |          | 
 83 |          | noName   |  1.00000 |  0.33921 | i  |  3, 9, 1 | Act_Identity |          | 
 84 |          | noName   |  0.00000 | -0.88610 | i  |  4, 9, 1 | Act_Identity |          | 
 85 |          | noName   |  0.00000 | -0.91742 | i  |  5, 9, 1 | Act_Identity |          | 
 86 |          | noName   |  1.00000 |  0.62139 | i  |  6, 9, 1 | Act_Identity |          | 
 87 |          | noName   |  1.00000 | -0.29905 | i  |  7, 9, 1 | Act_Identity |          | 
 88 |          | noName   |  0.00000 |  0.28391 | i  |  8, 9, 1 | Act_Identity |          | 
 89 |          | noName   |  0.00000 | -0.65740 | i  |  9, 9, 1 | Act_Identity |          | 
 90 |          | noName   |  0.00000 | -0.07370 | i  | 10, 9, 1 | Act_Identity |          | 
 91 |          | noName   |  0.00000 | -0.65239 | i  |  1,10, 1 | Act_Identity |          | 
 92 |          | noName   |  1.00000 | -0.78997 | i  |  2,10, 1 | Act_Identity |          | 
 93 |          | noName   |  1.00000 | -0.68694 | i  |  3,10, 1 | Act_Identity |          | 
 94 |          | noName   |  0.00000 |  0.72521 | i  |  4,10, 1 | Act_Identity |          | 
 95 |          | noName   |  0.00000 | -0.05081 | i  |  5,10, 1 | Act_Identity |          | 
 96 |          | noName   |  1.00000 | -0.97565 | i  |  6,10, 1 | Act_Identity |          | 
 97 |          | noName   |  1.00000 | -0.82684 | i  |  7,10, 1 | Act_Identity |          | 
 98 |          | noName   |  0.00000 |  0.75494 | i  |  8,10, 1 | Act_Identity |          | 
 99 |          | noName   |  0.00000 |  0.47142 | i  |  9,10, 1 | Act_Identity |          | 
100 |          | noName   |  0.00000 | -0.70080 | i  | 10,10, 1 | Act_Identity |          | 
101 |          | noName   |  0.00000 | -0.20298 | i  |  1,11, 1 | Act_Identity |          | 
102 |          | noName   |  1.00000 | -0.37944 | i  |  2,11, 1 | Act_Identity |          | 
103 |          | noName   |  1.00000 |  0.41661 | i  |  3,11, 1 | Act_Identity |          | 
104 |          | noName   |  0.00000 | -0.42460 | i  |  4,11, 1 | Act_Identity |          | 
105 |          | noName   |  0.00000 | -0.58184 | i  |  5,11, 1 | Act_Identity |          | 
106 |          | noName   |  1.00000 | -0.94769 | i  |  6,11, 1 | Act_Identity |          | 
107 |          | noName   |  1.00000 |  0.30229 | i  |  7,11, 1 | Act_Identity |          | 
108 |          | noName   |  0.00000 |  0.17655 | i  |  8,11, 1 | Act_Identity |          | 
109 |          | noName   |  0.00000 |  0.43828 | i  |  9,11, 1 | Act_Identity |          | 
110 |          | noName   |  0.00000 |  0.72893 | i  | 10,11, 1 | Act_Identity |          | 
111 |          | noName   |  0.00000 | -0.55937 | i  |  1,12, 1 | Act_Identity |          | 
112 |          | noName   |  0.00000 | -0.88018 | i  |  2,12, 1 | Act_Identity |          | 
113 |          | noName   |  0.00000 | -0.05698 | i  |  3,12, 1 | Act_Identity |          | 
114 |          | noName   |  0.00000 |  0.98029 | i  |  4,12, 1 | Act_Identity |          | 
115 |          | noName   |  0.00000 | -0.91839 | i  |  5,12, 1 | Act_Identity |          | 
116 |          | noName   |  1.00000 |  0.93811 | i  |  6,12, 1 | Act_Identity |          | 
117 |          | noName   |  1.00000 |  0.48753 | i  |  7,12, 1 | Act_Identity |          | 
118 |          | noName   |  0.00000 |  0.68090 | i  |  8,12, 1 | Act_Identity |          | 
119 |          | noName   |  0.00000 | -0.01883 | i  |  9,12, 1 | Act_Identity |          | 
120 |          | noName   |  0.00000 |  0.22361 | i  | 10,12, 1 | Act_Identity |          | 
121 |          | noName   |  0.00000 |  0.71386 | i  |  1,13, 1 | Act_Identity |          | 
122 |          | noName   |  0.00000 | -0.35209 | i  |  2,13, 1 | Act_Identity |          | 
123 |          | noName   |  0.00000 |  0.45836 | i  |  3,13, 1 | Act_Identity |          | 
124 |          | noName   |  0.00000 | -0.29240 | i  |  4,13, 1 | Act_Identity |          | 
125 |          | noName   |  0.00000 |  0.36277 | i  |  5,13, 1 | Act_Identity |          | 
126 |          | noName   |  1.00000 | -0.14475 | i  |  6,13, 1 | Act_Identity |          | 
127 |          | noName   |  0.00000 |  0.00296 | i  |  7,13, 1 | Act_Identity |          | 
128 |          | noName   |  0.00000 | -0.31272 | i  |  8,13, 1 | Act_Identity |          | 
129 |          | noName   |  0.00000 | -0.75701 | i  |  9,13, 1 | Act_Identity |          | 
130 |          | noName   |  0.00000 |  0.77624 | i  | 10,13, 1 | Act_Identity |          | 
131 |          | noName   |  0.00000 |  0.49657 | i  |  1,14, 1 | Act_Identity |          | 
132 |          | noName   |  1.00000 |  0.61296 | i  |  2,14, 1 | Act_Identity |          | 
133 |          | noName   |  1.00000 |  0.71953 | i  |  3,14, 1 | Act_Identity |          | 
134 |          | noName   |  0.00000 | -0.83172 | i  |  4,14, 1 | Act_Identity |          | 
135 |          | noName   |  1.00000 |  0.10898 | i  |  5,14, 1 | Act_Identity |          | 
136 |          | noName   |  1.00000 | -0.35234 | i  |  6,14, 1 | Act_Identity |          | 
137 |          | noName   |  0.00000 | -0.71569 | i  |  7,14, 1 | Act_Identity |          | 
138 |          | noName   |  0.00000 |  0.61150 | i  |  8,14, 1 | Act_Identity |          | 
139 |          | noName   |  0.00000 | -0.06644 | i  |  9,14, 1 | Act_Identity |          | 
140 |          | noName   |  0.00000 | -0.98743 | i  | 10,14, 1 | Act_Identity |          | 
141 |          | noName   |  1.00000 |  0.77123 | i  |  1,15, 1 | Act_Identity |          | 
142 |          | noName   |  1.00000 | -0.88733 | i  |  2,15, 1 | Act_Identity |          | 
143 |          | noName   |  1.00000 |  0.42283 | i  |  3,15, 1 | Act_Identity |          | 
144 |          | noName   |  1.00000 |  0.92926 | i  |  4,15, 1 | Act_Identity |          | 
145 |          | noName   |  1.00000 |  0.77831 | i  |  5,15, 1 | Act_Identity |          | 
146 |          | noName   |  1.00000 |  0.08988 | i  |  6,15, 1 | Act_Identity |          | 
147 |          | noName   |  0.00000 | -0.31248 | i  |  7,15, 1 | Act_Identity |          | 
148 |          | noName   |  0.00000 |  0.97247 | i  |  8,15, 1 | Act_Identity |          | 
149 |          | noName   |  0.00000 | -0.14066 | i  |  9,15, 1 | Act_Identity |          | 
150 |          | noName   |  0.00000 | -0.95349 | i  | 10,15, 1 | Act_Identity |          | 
151 |          | noName   |  0.00000 |  0.72161 | i  |  1,16, 1 | Act_Identity |          | 
152 |          | noName   |  1.00000 |  0.64586 | i  |  2,16, 1 | Act_Identity |          | 
153 |          | noName   |  1.00000 | -0.95239 | i  |  3,16, 1 | Act_Identity |          | 
154 |          | noName   |  1.00000 | -0.74877 | i  |  4,16, 1 | Act_Identity |          | 
155 |          | noName   |  1.00000 | -0.38475 | i  |  5,16, 1 | Act_Identity |          | 
156 |          | noName   |  0.00000 |  0.99225 | i  |  6,16, 1 | Act_Identity |          | 
157 |          | noName   |  0.00000 |  0.27403 | i  |  7,16, 1 | Act_Identity |          | 
158 |          | noName   |  0.00000 |  0.73260 | i  |  8,16, 1 | Act_Identity |          | 
159 |          | noName   |  0.00000 | -0.18113 | i  |  9,16, 1 | Act_Identity |          | 
160 |          | noName   |  0.00000 |  0.05210 | i  | 10,16, 1 | Act_Identity |          | 
161 |          | noName   |  0.00021 | -0.45045 | o  | 26, 1, 1 |||
162 |          | noName   |  0.00001 | -0.17984 | o  | 26, 2, 1 |||
163 |          | noName   |  0.00055 | -0.51332 | o  | 26, 3, 1 |||
164 |          | noName   |  0.00000 | -0.59883 | o  | 26, 4, 1 |||
165 |          | noName   |  0.00000 | -0.45908 | o  | 26, 5, 1 |||
166 |          | noName   |  0.99147 | -0.66433 | o  | 26, 6, 1 |||
167 |          | noName   |  0.00003 | -0.56067 | o  | 26, 7, 1 |||
168 |          | noName   |  0.00000 | -0.27225 | o  | 26, 8, 1 |||
169 |          | noName   |  0.00001 | -0.25500 | o  | 26, 9, 1 |||
170 |          | noName   |  0.00283 | -0.44573 | o  | 26,10, 1 |||
171 |          | noName   |  0.96779 | -0.30390 | h  | 16, 2, 1 |||
172 |          | noName   |  0.98294 | -0.03325 | h  | 17, 2, 1 |||
173 |          | noName   |  0.87610 | -0.66414 | h  | 18, 2, 1 |||
174 |          | noName   |  0.87113 |  0.26927 | h  | 19, 2, 1 |||
175 |          | noName   |  0.90327 | -0.01583 | h  | 20, 2, 1 |||
176 |          | noName   |  0.79946 |  0.58995 | h  | 16, 3, 1 |||
177 |          | noName   |  0.96869 | -0.01222 | h  | 17, 3, 1 |||
178 |          | noName   |  0.85551 |  0.46125 | h  | 18, 3, 1 |||
179 |          | noName   |  0.00005 | -0.19602 | h  | 19, 3, 1 |||
180 |          | noName   |  0.84906 | -0.24590 | h  | 20, 3, 1 |||
181 |          | noName   |  0.81197 |  0.37158 | h  | 16, 4, 1 |||
182 |          | noName   |  0.46611 | -0.13037 | h  | 17, 4, 1 |||
183 |          | noName   |  0.97224 | -0.09857 | h  | 18, 4, 1 |||
184 |          | noName   |  0.78293 | -0.29993 | h  | 19, 4, 1 |||
185 |          | noName   |  0.30808 |  0.07207 | h  | 20, 4, 1 |||
186 |          | noName   |  0.94620 | -0.03740 | h  | 16, 5, 1 |||
187 |          | noName   |  0.61452 |  0.13147 | h  | 17, 5, 1 |||
188 |          | noName   |  0.11958 |  0.29638 | h  | 18, 5, 1 |||
189 |          | noName   |  0.70588 | -0.13418 | h  | 19, 5, 1 |||
190 |          | noName   |  0.01308 |  0.33194 | h  | 20, 5, 1 |||
191 |          | noName   |  0.94054 | -0.29434 | h  | 16, 6, 1 |||
192 |          | noName   |  0.88038 |  0.17356 | h  | 17, 6, 1 |||
193 |          | noName   |  0.09688 |  0.35713 | h  | 18, 6, 1 |||
194 |          | noName   |  0.44700 |  0.16515 | h  | 19, 6, 1 |||
195 |          | noName   |  0.90494 |  0.08974 | h  | 20, 6, 1 |||
196 |          | noName   |  0.58542 |  0.00156 | h  | 16, 7, 1 |||
197 |          | noName   |  0.69728 | -0.44725 | h  | 17, 7, 1 |||
198 |          | noName   |  0.93396 | -0.18852 | h  | 18, 7, 1 |||
199 |          | noName   |  0.03565 |  0.58129 | h  | 19, 7, 1 |||
200 |          | noName   |  0.34964 |  0.42037 | h  | 20, 7, 1 |||
201 |          | noName   |  0.75370 | -0.17939 | h  | 16, 8, 1 |||
202 |          | noName   |  0.06862 |  0.39743 | h  | 17, 8, 1 |||
203 |          | noName   |  0.10490 |  0.43331 | h  | 18, 8, 1 |||
204 |          | noName   |  0.00439 |  0.21366 | h  | 19, 8, 1 |||
205 |          | noName   |  0.91765 | -0.04462 | h  | 20, 8, 1 |||
206 |          | noName   |  0.43274 | -0.05703 | h  | 16, 9, 1 |||
207 |          | noName   |  0.55699 |  0.15014 | h  | 17, 9, 1 |||
208 |          | noName   |  0.91293 | -0.18411 | h  | 18, 9, 1 |||
209 |          | noName   |  0.07340 |  0.02978 | h  | 19, 9, 1 |||
210 |          | noName   |  0.22079 |  0.11690 | h  | 20, 9, 1 |||
211 |          | noName   |  0.11328 |  0.77891 | h  | 16,10, 1 |||
212 |          | noName   |  0.82554 | -0.28707 | h  | 17,10, 1 |||
213 |          | noName   |  0.55310 |  0.32246 | h  | 18,10, 1 |||
214 |          | noName   |  0.82994 | -0.25833 | h  | 19,10, 1 |||
215 |          | noName   |  0.99621 | -0.10981 | h  | 20,10, 1 |||
216 |          | noName   |  0.06943 |  0.52493 | h  | 16,11, 1 |||
217 |          | noName   |  0.00157 |  0.64218 | h  | 17,11, 1 |||
218 |          | noName   |  0.98729 | -0.02859 | h  | 18,11, 1 |||
219 |          | noName   |  0.88630 |  0.33033 | h  | 19,11, 1 |||
220 |          | noName   |  0.28356 | -0.06773 | h  | 20,11, 1 |||
----|----------|----------|----------|----------|----|----------|--------------|----------|-------


connection definition section :

target | site | source:weight
-------|------|----------------------------------------------------------------------------------------------------------------
   161 |      | 220: 0.63082, 219: 0.77275, 218: 0.13222, 217:-0.11898, 216:-0.91664, 215:-0.24922, 214: 0.02184, 213:-0.25132,
                212:-0.44515, 211:-1.27006, 210: 0.27644, 209:-1.05395, 208:-2.15077, 207: 0.57007, 206: 1.93318, 205:-0.19282,
                204:-0.54085, 203: 0.95354, 202: 0.11152, 201:-0.20248, 200:-0.43393, 199:-0.97034, 198: 0.15396, 197: 0.86009,
                196:-1.11122, 195: 0.37053, 194: 0.22211, 193:-1.84486, 192:-2.95383, 191:-1.26371, 190:-0.99170, 189: 0.30964,
                188:-0.01296, 187:-0.97066, 186:-0.28544, 185: 0.86251, 184: 0.40680, 183:-0.24920, 182: 1.18808, 181:-1.92911,
                180: 0.53523, 179:-0.07473, 178:-1.29565, 177: 0.86435, 176: 0.59458, 175:-1.59223, 174:-0.86507, 173:-0.77995,
                172:-0.12235, 171: 0.26812
   162 |      | 220: 0.81108, 219: 0.89146, 218:-1.79028, 217: 1.40471, 216:-0.81892, 215:-1.84196, 214:-0.92942, 213: 0.86476,
                212:-0.41646, 211: 1.10751, 210:-0.54326, 209: 0.48776, 208: 0.08159, 207:-0.82189, 206: 0.64232, 205:-1.47519,
                204:-0.73937, 203:-0.38061, 202: 0.84143, 201:-1.19274, 200: 0.07402, 199:-0.36609, 198:-1.31563, 197:-0.16529,
                196: 0.95396, 195: 0.08708, 194: 0.06206, 193: 0.35620, 192:-0.30113, 191: 0.37139, 190: 0.74333, 189: 0.39036,
                188: 0.38234, 187: 0.40887, 186:-2.45804, 185:-0.85738, 184:-1.96610, 183: 0.46216, 182:-0.68102, 181: 0.14076,
                180: 0.27833, 179: 0.02246, 178: 0.32861, 177:-0.87574, 176:-0.34846, 175: 0.52747, 174: 0.36271, 173:-1.59816,
                172: 0.61549, 171:-1.62133
   163 |      | 220:-0.16001, 219: 1.66907, 218: 0.37387, 217: 0.66958, 216: 1.09574, 215: 0.37471, 214:-0.13193, 213: 0.84802,
                212:-1.17903, 211: 1.60388, 210:-1.86813, 209: 1.24895, 208: 0.06944, 207: 0.24761, 206:-0.99682, 205: 0.43524,
                204: 2.00072, 203:-1.02381, 202:-2.31655, 201: 1.12040, 200:-1.53473, 199: 1.86168, 198: 0.06273, 197: 1.17071,
                196: 0.27504, 195:-0.28780, 194:-0.29610, 193:-1.25116, 192:-0.35086, 191: 0.26500, 190:-1.49993, 189:-2.93971,
                188:-0.56300, 187:-2.23482, 186: 0.07622, 185:-0.92567, 184: 0.00642, 183:-0.57774, 182: 0.37983, 181:-0.53062,
                180:-1.73499, 179:-1.08522, 178:-1.91984, 177: 2.04119, 176:-0.35674, 175:-0.14731, 174: 0.62335, 173: 0.68314,
                172:-1.32478, 171:-3.06668
   164 |      | 220:-1.56482, 219:-1.65523, 218: 0.24364, 217: 2.46716, 216:-0.75567, 215: 0.39206, 214: 0.71100, 213: 0.93576,
                212:-0.68947, 211:-0.10120, 210: 1.46369, 209:-1.75129, 208:-0.52869, 207: 0.05444, 206:-0.54213, 205:-0.50211,
                204: 2.29211, 203:-0.31627, 202:-1.43364, 201: 0.25879, 200: 1.64559, 199:-1.02619, 198: 0.16433, 197:-1.13798,
                196:-1.76383, 195:-0.58820, 194:-2.01768, 193: 0.66773, 192:-0.41474, 191: 0.08084, 190: 1.47654, 189: 0.56176,
                188:-0.77320, 187: 0.50618, 186:-1.71587, 185:-1.20415, 184:-0.91289, 183:-2.41967, 182: 0.71318, 181:-1.54090,
                180: 0.61325, 179: 2.83066, 178:-0.59309, 177:-1.53666, 176:-0.41024, 175: 0.53424, 174:-0.00114, 173: 0.07009,
                172:-2.04522, 171: 0.60216
   165 |      | 220: 0.05354, 219:-1.04946, 218: 0.30178, 217:-0.23328, 216: 1.50423, 215: 0.29821, 214: 0.04641, 213:-0.84621,
                212:-0.18440, 211: 1.42331, 210: 0.81140, 209: 1.18364, 208:-1.90813, 207:-1.20476, 206:-1.10795, 205:-0.22887,
                204:-0.67950, 203: 1.10014, 202: 0.14838, 201: 0.37990, 200:-1.03030, 199: 0.97040, 198:-0.87872, 197: 0.97415,
                196:-0.59670, 195:-2.89184, 194:-0.23751, 193: 0.80405, 192: 0.34645, 191:-1.33168, 190: 0.28313, 189:-0.94698,
                188:-0.16491, 187:-0.88735, 186:-0.04034, 185: 0.49946, 184:-2.42651, 183:-0.09629, 182:-0.60438, 181: 0.56588,
                180:-0.44180, 179:-0.09984, 178: 0.72432, 177:-0.61117, 176: 0.24848, 175:-1.04833, 174:-1.31616, 173:-1.14745,
                172: 0.42707, 171: 0.30408
   166 |      | 220:-1.74794, 219: 0.99186, 218: 0.09479, 217:-1.74837, 216:-0.65280, 215: 0.14159, 214:-1.28133, 213: 0.69592,
                212: 3.20467, 211:-1.47096, 210:-0.51525, 209:-0.96058, 208:-0.64076, 207: 0.09071, 206: 1.17008, 205:-0.75919,
                204:-1.70878, 203:-1.57549, 202:-1.83110, 201:-1.55715, 200: 1.13207, 199:-1.06531, 198:-0.12335, 197:-1.12274,
                196: 1.38373, 195:-0.80548, 194:-1.86115, 193:-2.26678, 192:-0.02785, 191: 0.75109, 190:-1.39444, 189:-0.96425,
                188:-3.16158, 187: 1.27893, 186: 0.57937, 185:-0.62173, 184: 0.03214, 183: 0.16331, 182:-0.25564, 181:-0.00742,
                180: 0.23880, 179:-0.94810, 178: 1.31784, 177: 1.44000, 176: 0.62925, 175: 0.33123, 174: 0.58969, 173: 1.01729,
                172: 0.76655, 171: 0.46393
   167 |      | 220:-2.75435, 219: 0.01723, 218:-2.27717, 217:-0.68990, 216:-0.90744, 215:-0.16202, 214: 0.66624, 213:-1.64656,
                212:-1.02129, 211:-0.85192, 210: 0.53182, 209:-1.58026, 208: 1.16620, 207: 0.42402, 206:-1.38844, 205: 0.22185,
                204: 0.04886, 203: 2.16790, 202: 1.05170, 201: 0.50497, 200:-1.42126, 199:-1.03261, 198:-0.20558, 197:-1.87319,
                196: 1.73986, 195: 0.24293, 194: 0.38520, 193: 1.25661, 192: 0.29340, 191:-2.35879, 190:-0.01437, 189:-0.56347,
                188: 0.30093, 187: 1.59693, 186: 0.19770, 185:-1.35513, 184: 0.66169, 183:-0.35834, 182:-2.46988, 181: 0.66566,
                180:-1.64483, 179: 0.66738, 178:-1.02020, 177: 0.80933, 176: 0.78591, 175: 1.36289, 174:-1.57517, 173:-2.21229,
                172:-0.68779, 171:-0.83645
   168 |      | 220: 0.11539, 219:-1.35538, 218: 0.92788, 217:-1.21506, 216: 1.63186, 215:-2.61192, 214:-1.93256, 213:-1.58829,
                212:-0.38948, 211:-1.61269, 210:-1.35537, 209:-0.50031, 208:-0.12178, 207:-1.10920, 206: 0.06636, 205: 0.48370,
                204: 0.98671, 203:-0.65565, 202: 0.75638, 201:-2.28496, 200: 1.44338, 199: 1.56913, 198:-1.62342, 197:-1.43906,
                196:-1.28157, 195: 0.42653, 194: 0.65762, 193: 0.13189, 192:-0.66224, 191:-0.27746, 190:-0.24041, 189: 0.77156,
                188:-0.09913, 187: 0.32013, 186: 0.51819, 185: 1.26097, 184: 0.95388, 183:-0.98706, 182:-0.62006, 181:-0.50738,
                180:-1.21032, 179:-0.82047, 178: 0.49430, 177:-0.43708, 176:-0.20270, 175:-1.20013, 174: 0.92943, 173: 0.61643,
                172:-2.59222, 171: 1.11295
   169 |      | 220: 1.34377, 219:-2.24257, 218:-0.94447, 217:-1.73609, 216:-1.83924, 215: 0.30691, 214:-0.75959, 213:-0.04930,
                212:-0.09102, 211:-1.00171, 210: 0.03855, 209: 1.88674, 208: 0.43411, 207: 1.15317, 206: 0.38964, 205:-1.75825,
                204:-2.19598, 203:-2.13446, 202: 0.81660, 201:-0.26598, 200:-1.41350, 199:-1.84089, 198: 0.37410, 197:-1.34562,
                196:-1.91517, 195:-0.31563, 194: 0.79052, 193: 1.45915, 192: 0.47160, 191: 0.29277, 190:-2.04772, 189: 0.12871,
                188:-0.48617, 187:-1.92811, 186:-0.69872, 185:-2.07712, 184: 0.36823, 183: 1.43703, 182: 1.89296, 181: 1.44657,
                180: 0.75596, 179:-0.96437, 178:-2.29703, 177:-2.84886, 176:-2.41104, 175:-1.41043, 174:-2.79256, 173: 1.84169,
                172:-0.45991, 171: 1.21632
   170 |      | 220: 0.92671, 219:-1.64907, 218:-0.42739, 217:-1.04351, 216:-2.10101, 215: 0.22379, 214: 0.70032, 213:-2.11312,
                212:-0.94218, 211:-1.15506, 210:-1.44990, 209:-1.45341, 208: 0.96923, 207:-2.43970, 206:-1.29349, 205:-0.02752,
                204:-1.90348, 203:-1.35777, 202:-2.04901, 201: 0.29540, 200:-2.22489, 199:-1.94669, 198:-0.07515, 197: 2.08628,
                196:-0.85178, 195: 0.34653, 194:-1.08067, 193:-1.83286, 192:-0.05776, 191: 1.11117, 190: 1.46594, 189:-0.17537,
                188: 0.22006, 187:-1.37095, 186:-0.31282, 185: 1.33377, 184: 0.51272, 183:-0.06763, 182:-1.10001, 181:-2.08620,
                180: 0.42256, 179:-1.20941, 178: 0.83473, 177:-1.90854, 176:-1.69066, 175: 1.09003, 174: 1.15577, 173:-0.03725,
                172: 1.17632, 171: 0.18505
   171 |      | 160:-0.39940, 159:-0.42381, 158:-0.59212, 157:-0.67358, 156:-0.49651, 155:-0.37557, 154:-0.08483, 153: 0.07012,
                152: 0.10813, 151: 0.05564, 150:-0.19982, 149:-0.13051, 148:-0.24473, 147:-0.23255, 146:-0.03067, 145:-0.12401,
                144:-0.00828, 143:-0.25053, 142:-0.19976, 141: 0.13751, 140: 0.32297, 139:-0.27313, 138:-0.22032, 137: 0.43938,
                136:-0.23398, 135: 0.02160, 134:-0.30731, 133:-0.17053, 132:-0.27435, 131: 0.39981, 130: 0.17300, 129: 0.02462,
                128: 0.25706, 127:-0.02656, 126: 0.04319, 125:-0.46573, 124:-0.83382, 123:-0.32715, 122:-0.41037, 121: 0.04918,
                120: 0.30955, 119: 0.21552, 118: 0.18867, 117: 0.30599, 116:-0.14573, 115:-0.04122, 114:-0.33999, 113:-0.07508,
                112:-0.16393, 111: 0.10678, 110: 0.72536, 109: 0.65552, 108: 0.19287, 107: 0.00865, 106: 0.16542, 105:-0.05745,
                104:-0.43317, 103: 0.07814, 102: 0.33935, 101: 0.00401, 100: 0.56644,  99: 0.45111,  98: 0.09955,  97:-0.14334,
                 96: 0.04727,  95:-0.00545,  94:-0.13321,  93: 0.43406,  92: 0.25508,  91: 0.04933,  90:-0.01333,  89: 0.14346,
                 88: 0.32343,  87: 0.12213,  86: 0.06783,  85: 0.42764,  84: 0.14710,  83: 0.40996,  82: 0.30606,  81: 0.08788,
                 80:-0.07058,  79: 0.28425,  78: 0.32138,  77: 0.17422,  76: 0.14061,  75:-0.15454,  74: 0.30493,  73: 0.34937,
                 72: 0.31955,  71: 0.10999,  70: 0.15309,  69:-0.21382,  68: 0.24970,  67: 0.26106,  66: 0.15724,  65: 0.16306,
                 64:-0.22861,  63:-0.07093,  62: 0.19775,  61: 0.13696,  60:-0.06933,  59: 0.01292,  58: 0.07557,  57: 0.13506,
                 56:-0.09440,  55: 0.07355,  54:-0.19227,  53:-0.07416,  52:-0.22898,  51:-0.01109,  50:-0.14546,  49: 0.20200,
                 48: 0.05063,  47: 0.11891,  46:-0.08545,  45: 0.02296,  44:-0.11828,  43:-0.05959,  42: 0.04692,  41:-0.06522,
                 40: 0.04598,  39: 0.37158,  38:-0.04020,  37: 0.18167,  36: 0.04687,  35:-0.15372,  34:-0.30873,  33: 0.00030,
                 32: 0.04041,  31:-0.03196,  30: 0.38942,  29: 0.30924,  28: 0.30371,  27: 0.10126,  26: 0.17664,  25:-0.27126,
                 24: 0.24629,  23: 0.38834,  22:-0.17483,  21:-0.12753,  20: 0.50298,  19: 0.18951,  18: 0.17727,  17: 0.06234,
                 16: 0.05209,  15: 0.16718,  14: 0.07287,  13: 0.01761,  12:-0.05347,  11: 0.14139,  10: 0.63150,   9: 0.21930,
                  8:-0.15857,   7:-0.15285,   6: 0.11762,   5:-0.08516,   4:-0.03810,   3: 0.04083,   2: 0.49655,   1: 0.25540
   172 |      | 160:-0.09739, 159: 0.18837, 158: 0.46657, 157:-0.14525, 156:-0.09614, 155: 0.41051, 154: 0.08781, 153: 0.13664,
                152:-0.22675, 151:-0.08739, 150: 0.03827, 149: 0.02590, 148:-0.12644, 147:-0.13679, 146:-0.12385, 145:-0.06718,
                144: 0.28509, 143:-0.15828, 142:-0.25955, 141: 0.16596, 140:-0.06320, 139:-0.33180, 138:-0.07088, 137: 0.34580,
                136: 0.11937, 135: 0.19300, 134:-0.00125, 133:-0.03298, 132:-0.14005, 131: 0.00502, 130:-0.13862, 129:-0.18687,
                128: 0.08220, 127:-0.00011, 126: 0.21645, 125:-0.17637, 124: 0.06899, 123:-0.26588, 122:-0.26476, 121:-0.04834,
                120: 0.05541, 119: 0.10745, 118: 0.05870, 117: 0.23383, 116:-0.05812, 115: 0.20616, 114: 0.21458, 113:-0.43313,
                112:-0.16833, 111:-0.02348, 110: 0.20774, 109: 0.05121, 108: 0.00874, 107: 0.11977, 106: 0.27610, 105: 0.35638,
                104: 0.23863, 103:-0.38506, 102:-0.00914, 101:-0.07641, 100:-0.08621,  99:-0.23309,  98:-0.31384,  97:-0.14876,
                 96:-0.08431,  95: 0.11305,  94: 0.24443,  93: 0.14171,  92: 0.00204,  91:-0.06098,  90: 0.09809,  89: 0.06616,
                 88:-0.51787,  87:-0.20892,  86:-0.17058,  85:-0.31160,  84: 0.03600,  83: 0.19290,  82: 0.47118,  81:-0.02032,
                 80: 0.31898,  79: 0.02766,  78:-0.42178,  77:-0.22607,  76: 0.19270,  75: 0.09942,  74: 0.07620,  73: 0.11728,
                 72: 0.20640,  71: 0.22449,  70: 0.67559,  69: 0.46302,  68: 0.06402,  67: 0.39546,  66: 0.26457,  65: 0.25357,
                 64: 0.39869,  63: 0.50846,  62: 0.57380,  61: 0.39764,  60: 0.15762,  59:-0.11562,  58: 0.07784,  57:-0.30504,
                 56: 0.12031,  55: 0.33582,  54: 0.51130,  53: 0.62351,  52: 0.70342,  51: 0.28006,  50:-0.06393,  49:-0.49613,
                 48:-0.27715,  47: 0.02316,  46:-0.07954,  45: 0.21375,  44: 0.58683,  43: 0.35294,  42: 0.29232,  41: 0.15843,
                 40:-0.18794,  39:-0.35711,  38:-0.26668,  37:-0.06268,  36: 0.20170,  35: 0.24283,  34: 0.25507,  33: 0.04257,
                 32:-0.11380,  31: 0.14324,  30: 0.20079,  29: 0.10791,  28: 0.21244,  27: 0.07304,  26:-0.28121,  25: 0.04288,
                 24:-0.04993,  23:-0.33385,  22:-0.28065,  21:-0.22851,  20: 0.21136,  19: 0.14351,  18: 0.03029,  17:-0.24121,
                 16:-0.63363,  15:-0.49154,  14:-0.40013,  13:-0.55587,  12:-0.24662,  11:-0.32146,  10: 0.13285,   9: 0.19564,
                  8: 0.25255,   7:-0.06130,   6:-0.05852,   5:-0.20564,   4:-0.36192,   3: 0.26061,   2: 0.58834,   1: 0.02520
   173 |      | 160:-0.20096, 159: 0.29239, 158: 0.00740, 157: 0.38471, 156: 0.04755, 155: 0.15992, 154: 0.21143, 153: 0.14049,
                152: 0.34999, 151: 0.33742, 150: 0.04252, 149: 0.15307, 148: 0.03166, 147: 0.14631, 146:-0.10597, 145:-0.16839,
                144: 0.05739, 143: 0.31543, 142: 0.34296, 141: 0.31301, 140: 0.29441, 139:-0.19304, 138:-0.35019, 137:-0.26507,
                136:-0.10775, 135:-0.06573, 134: 0.01373, 133:-0.08828, 132: 0.33254, 131: 0.38810, 130: 0.03758, 129:-0.24563,
                128:-0.50881, 127:-0.19392, 126:-0.20576, 125:-0.16824, 124:-0.51442, 123: 0.00529, 122:-0.10140, 121: 0.20286,
                120:-0.13648, 119:-0.21317, 118:-0.25899, 117:-0.22618, 116:-0.19167, 115:-0.49140, 114:-0.39713, 113: 0.12109,
                112:-0.27767, 111:-0.15619, 110:-0.21408, 109: 0.07959, 108:-0.16481, 107:-0.14711, 106:-0.10459, 105:-0.31921,
                104:-0.21559, 103:-0.10971, 102:-0.59077, 101:-0.20911, 100:-0.40132,  99:-0.00936,  98:-0.01550,  97: 0.04036,
                 96: 0.04933,  95:-0.20861,  94:-0.17270,  93:-0.15822,  92:-0.62320,  91:-0.38812,  90:-0.19019,  89:-0.24781,
                 88: 0.22228,  87: 0.13274,  86: 0.17996,  85: 0.00831,  84: 0.04713,  83:-0.14165,  82:-0.34346,  81:-0.42064,
                 80:-0.38641,  79: 0.00575,  78: 0.09686,  77:-0.06525,  76: 0.20575,  75: 0.01923,  74:-0.27238,  73:-0.62357,
                 72:-0.30263,  71:-0.63805,  70: 0.01585,  69: 0.13986,  68: 0.21690,  67:-0.12128,  66: 0.00562,  65: 0.04713,
                 64:-0.20525,  63:-0.14119,  62:-0.35832,  61:-0.25203,  60: 0.05509,  59: 0.41187,  58: 0.27342,  57: 0.28141,
                 56:-0.10419,  55:-0.07617,  54:-0.00164,  53:-0.17216,  52: 0.09589,  51:-0.01094,  50: 0.12573,  49: 0.26924,
                 48: 0.11869,  47: 0.02848,  46:-0.14138,  45:-0.12920,  44:-0.19322,  43: 0.09628,  42:-0.16083,  41: 0.11248,
                 40: 0.17059,  39: 0.00695,  38: 0.13512,  37: 0.11254,  36: 0.00668,  35:-0.01742,  34: 0.30719,  33: 0.31091,
                 32:-0.15093,  31: 0.23453,  30: 0.19260,  29: 0.17690,  28: 0.05028,  27: 0.03227,  26: 0.31340,  25: 0.15498,
                 24: 0.29076,  23: 0.40498,  22: 0.14116,  21:-0.07334,  20: 0.46114,  19: 0.31087,  18: 0.15259,  17: 0.43349,
                 16: 0.38660,  15: 0.47346,  14: 0.37406,  13: 0.65756,  12: 0.30195,  11:-0.09046,  10: 0.09497,   9: 0.21578,
                  8: 0.00851,   7:-0.17906,   6: 0.24784,   5: 0.13916,   4: 0.35598,   3: 0.38648,   2: 0.14858,   1:-0.29864
   174 |      | 160: 0.21483, 159: 0.10792, 158: 0.02969, 157: 0.19869, 156: 0.13961, 155: 0.25454, 154: 0.34368, 153:-0.01210,
                152: 0.09077, 151: 0.13087, 150:-0.04615, 149:-0.10101, 148:-0.04996, 147:-0.05345, 146:-0.14429, 145: 0.00078,
                144: 0.20096, 143: 0.31447, 142: 0.55944, 141: 0.22110, 140:-0.18650, 139:-0.14366, 138: 0.03158, 137:-0.21610,
                136: 0.08241, 135: 0.19462, 134:-0.01131, 133: 0.22967, 132:-0.09601, 131:-0.05085, 130:-0.19947, 129:-0.64251,
                128: 0.13159, 127: 0.00172, 126:-0.04833, 125:-0.10990, 124: 0.03200, 123:-0.18416, 122:-0.58153, 121:-0.34362,
                120:-0.33593, 119:-0.23905, 118: 0.26360, 117:-0.05814, 116:-0.10913, 115: 0.00492, 114:-0.18252, 113:-0.64462,
                112:-0.70966, 111:-0.35003, 110:-0.24793, 109:-0.27003, 108: 0.31745, 107: 0.04785, 106:-0.25881, 105: 0.15624,
                104: 0.16241, 103:-0.19202, 102:-0.81052, 101:-0.61073, 100: 0.19290,  99: 0.16533,  98: 0.09141,  97: 0.06477,
                 96:-0.03481,  95: 0.34142,  94:-0.26572,  93:-0.19609,  92:-0.55349,  91:-0.29839,  90: 0.32350,  89:-0.13066,
                 88:-0.20840,  87:-0.02825,  86:-0.00328,  85:-0.01031,  84: 0.19964,  83:-0.34477,  82:-0.15871,  81:-0.07454,
                 80: 0.06406,  79: 0.12471,  78: 0.23203,  77:-0.46238,  76:-0.25671,  75: 0.30386,  74:-0.14393,  73:-0.11769,
                 72:-0.01992,  71: 0.21211,  70:-0.27458,  69: 0.01375,  68: 0.02497,  67:-0.27889,  66:-0.09152,  65: 0.08207,
                 64:-0.10734,  63:-0.27951,  62:-0.24194,  61: 0.16927,  60:-0.26758,  59:-0.25653,  58: 0.12807,  57:-0.09205,
                 56:-0.22701,  55:-0.38506,  54:-0.48064,  53:-0.29282,  52:-0.12318,  51:-0.11454,  50:-0.39852,  49:-0.15485,
                 48: 0.02619,  47: 0.11632,  46: 0.01611,  45:-0.42480,  44:-0.22577,  43:-0.05294,  42:-0.33472,  41:-0.11995,
                 40:-0.07521,  39:-0.04929,  38: 0.01488,  37: 0.14174,  36:-0.10654,  35: 0.18894,  34: 0.06137,  33:-0.07744,
                 32:-0.40943,  31:-0.37911,  30:-0.16178,  29:-0.05698,  28: 0.40301,  27: 0.02246,  26: 0.55977,  25: 0.20088,
                 24: 0.59435,  23: 0.11936,  22: 0.14314,  21: 0.05077,  20: 0.05854,  19: 0.29814,  18: 0.32677,  17:-0.07296,
                 16: 0.70510,  15: 0.50414,  14: 0.56014,  13: 0.44728,  12: 0.46257,  11: 0.25530,  10:-0.10493,   9:-0.22646,
                  8: 0.28042,   7: 0.15216,   6: 0.49804,   5: 0.34754,   4: 0.19519,   3: 0.19438,   2:-0.28611,   1: 0.02009
   175 |      | 160: 0.10855, 159: 0.24447, 158: 0.19842, 157: 0.37111, 156:-0.03856, 155: 0.21142, 154: 0.26480, 153: 0.23022,
                152: 0.19417, 151: 0.24123, 150: 0.23299, 149: 0.15575, 148: 0.05427, 147: 0.08692, 146: 0.49313, 145: 0.19342,
                144: 0.48069, 143: 0.19908, 142: 0.33762, 141: 0.36024, 140:-0.05944, 139: 0.09351, 138: 0.41587, 137: 0.18838,
                136: 0.11083, 135: 0.24254, 134: 0.04339, 133: 0.18788, 132:-0.18461, 131:-0.16291, 130: 0.19973, 129: 0.25940,
                128: 0.19204, 127:-0.09235, 126: 0.22573, 125:-0.16431, 124: 0.21565, 123:-0.00556, 122:-0.59591, 121:-0.17785,
                120: 0.33609, 119: 0.27040, 118: 0.09753, 117: 0.11528, 116:-0.12524, 115:-0.03409, 114:-0.12558, 113:-0.50016,
                112:-0.87601, 111:-0.17321, 110: 0.39519, 109:-0.07660, 108: 0.03693, 107: 0.21935, 106: 0.02611, 105: 0.08988,
                104: 0.00042, 103:-0.51754, 102:-0.46127, 101:-0.31578, 100: 0.26879,  99:-0.14718,  98: 0.11214,  97: 0.07495,
                 96:-0.11730,  95: 0.33236,  94: 0.06654,  93:-0.10023,  92:-0.41753,  91:-0.22833,  90:-0.03192,  89:-0.04522,
                 88:-0.14810,  87:-0.04852,  86:-0.03667,  85: 0.04500,  84: 0.22247,  83:-0.12210,  82: 0.10195,  81: 0.03121,
                 80:-0.26215,  79:-0.19996,  78: 0.19893,  77:-0.15775,  76:-0.07413,  75: 0.11506,  74: 0.15421,  73: 0.27068,
                 72: 0.12290,  71: 0.19698,  70:-0.43789,  69: 0.02979,  68:-0.12506,  67: 0.14132,  66: 0.04764,  65: 0.13273,
                 64:-0.13548,  63:-0.03325,  62: 0.11643,  61: 0.16515,  60:-0.41511,  59:-0.45429,  58:-0.08703,  57:-0.28357,
                 56:-0.09555,  55: 0.00572,  54:-0.08312,  53: 0.14064,  52: 0.05033,  51:-0.11536,  50:-0.65615,  49:-0.58286,
                 48:-0.36193,  47:-0.01725,  46:-0.00752,  45: 0.14563,  44: 0.01703,  43: 0.05818,  42:-0.02025,  41:-0.07538,
                 40:-0.49807,  39:-0.30089,  38:-0.12501,  37:-0.04993,  36:-0.10320,  35: 0.11881,  34: 0.14430,  33:-0.10031,
                 32:-0.00828,  31:-0.34747,  30:-0.04107,  29:-0.17373,  28: 0.22990,  27: 0.21996,  26:-0.18723,  25:-0.10179,
                 24:-0.01434,  23:-0.10218,  22:-0.08902,  21:-0.19506,  20:-0.11943,  19: 0.30161,  18: 0.01882,  17:-0.05272,
                 16:-0.13805,  15: 0.04055,  14:-0.17922,  13:-0.33882,  12:-0.27141,  11:-0.24003,  10: 0.23217,   9: 0.03935,
                  8: 0.23542,   7:-0.01414,   6: 0.00683,   5:-0.00478,   4: 0.08612,   3:-0.08669,   2: 0.02016,   1:-0.10580
   176 |      | 160: 0.02988, 159:-0.20414, 158:-0.25300, 157:-0.05444, 156:-0.16855, 155:-0.00564, 154:-0.23036, 153:-0.23653,
                152: 0.10346, 151:-0.09123, 150: 0.01952, 149:-0.04814, 148:-0.07140, 147:-0.06537, 146: 0.24286, 145:-0.05966,
                144:-0.15816, 143:-0.34856, 142:-0.14123, 141:-0.01991, 140:-0.34249, 139: 0.01832, 138: 0.08919, 137:-0.13486,
                136: 0.07316, 135:-0.08394, 134:-0.06151, 133: 0.06223, 132:-0.08501, 131: 0.05238, 130:-0.32316, 129:-0.01593,
                128: 0.21299, 127: 0.41273, 126: 0.58451, 125: 0.32171, 124: 0.28139, 123: 0.07321, 122:-0.15454, 121:-0.17615,
                120: 0.05274, 119: 0.34587, 118: 0.13753, 117: 0.04031, 116: 0.13617, 115:-0.18430, 114:-0.08794, 113:-0.08887,
                112: 0.34650, 111: 0.34966, 110: 0.30610, 109: 0.00477, 108:-0.05311, 107: 0.11395, 106:-0.14931, 105:-0.11907,
                104:-0.18996, 103: 0.11867, 102: 0.29820, 101: 0.26766, 100: 0.27373,  99: 0.15581,  98: 0.09178,  97: 0.02173,
                 96:-0.27061,  95:-0.34035,  94:-0.30913,  93: 0.25640,  92: 0.27615,  91: 0.27675,  90: 0.18622,  89: 0.03241,
                 88:-0.00167,  87:-0.37006,  86:-0.38012,  85:-0.21040,  84:-0.18780,  83:-0.07463,  82: 0.25034,  81: 0.33715,
                 80: 0.18499,  79: 0.15360,  78: 0.06040,  77:-0.18695,  76:-0.49453,  75:-0.13579,  74:-0.08878,  73: 0.24924,
                 72: 0.40062,  71: 0.33996,  70:-0.00086,  69:-0.16612,  68: 0.01660,  67:-0.19707,  66:-0.23622,  65: 0.15192,
                 64:-0.08026,  63: 0.31503,  62: 0.46104,  61:-0.07232,  60:-0.48773,  59:-0.48344,  58:-0.24772,  57:-0.09616,
                 56:-0.02206,  55:-0.05990,  54: 0.05749,  53: 0.01721,  52: 0.10259,  51:-0.14718,  50:-0.50997,  49:-0.41309,
                 48:-0.26784,  47:-0.11142,  46: 0.27960,  45: 0.24832,  44: 0.15888,  43:-0.18265,  42:-0.16032,  41:-0.01170,
                 40:-0.09964,  39:-0.10002,  38:-0.17368,  37: 0.01052,  36: 0.04147,  35: 0.03233,  34:-0.08576,  33:-0.08384,
                 32: 0.18008,  31:-0.18254,  30: 0.00295,  29: 0.38259,  28: 0.11736,  27: 0.01088,  26:-0.06605,  25:-0.07120,
                 24: 0.03879,  23:-0.11721,  22:-0.14878,  21: 0.05834,  20: 0.33143,  19: 0.31473,  18: 0.38357,  17:-0.03052,
                 16: 0.00139,  15:-0.13559,  14:-0.15380,  13:-0.16223,  12: 0.13752,  11: 0.29776,  10: 0.26564,   9: 0.24683,
                  8:-0.16977,   7:-0.22932,   6:-0.01010,   5:-0.01161,   4: 0.03276,   3:-0.20447,   2: 0.31949,   1: 0.15735
   177 |      | 160: 0.26990, 159: 0.08438, 158: 0.04714, 157: 0.47993, 156: 0.35840, 155: 0.29402, 154: 0.04766, 153:-0.14844,
                152: 0.51995, 151: 0.27846, 150: 0.08212, 149: 0.21475, 148: 0.28031, 147: 0.23805, 146: 0.34266, 145: 0.23405,
                144: 0.00677, 143: 0.02429, 142: 0.57102, 141: 0.32834, 140:-0.37816, 139: 0.13209, 138: 0.20359, 137:-0.14571,
                136: 0.25142, 135: 0.30379, 134: 0.20607, 133: 0.50693, 132: 0.28243, 131: 0.17889, 130:-0.52409, 129: 0.16890,
                128: 0.35130, 127: 0.23463, 126: 0.23260, 125: 0.29190, 124: 0.49561, 123: 0.56495, 122: 0.51175, 121:-0.04004,
                120:-0.44577, 119:-0.00229, 118: 0.02141, 117:-0.39515, 116:-0.07153, 115:-0.23700, 114:-0.09174, 113:-0.06444,
                112: 0.66566, 111: 0.10933, 110:-0.60690, 109:-0.28538, 108:-0.24669, 107:-0.21584, 106:-0.52069, 105: 0.07984,
                104: 0.00346, 103:-0.06840, 102: 0.21881, 101: 0.04887, 100:-0.26040,  99:-0.45521,  98:-0.21056,  97:-0.38754,
                 96:-0.43260,  95:-0.25970,  94:-0.58179,  93:-0.10846,  92: 0.21436,  91: 0.42131,  90:-0.04879,  89:-0.41532,
                 88:-0.26037,  87:-0.29384,  86:-0.19192,  85:-0.45138,  84:-0.47699,  83:-0.70523,  82: 0.00162,  81: 0.40684,
                 80: 0.07968,  79:-0.16542,  78:-0.07829,  77:-0.29762,  76:-0.33749,  75:-0.53045,  74:-0.46451,  73:-0.12015,
                 72: 0.15680,  71: 0.11114,  70:-0.24662,  69:-0.01738,  68:-0.39806,  67:-0.58442,  66:-0.32666,  65:-0.12231,
                 64: 0.05925,  63: 0.41178,  62: 0.20107,  61:-0.14318,  60:-0.41035,  59:-0.78108,  58:-0.36442,  57:-0.31641,
                 56:-0.21775,  55:-0.12528,  54:-0.00109,  53:-0.00388,  52: 0.40741,  51:-0.09648,  50:-0.66016,  49:-0.93403,
                 48:-0.16836,  47:-0.13984,  46: 0.17747,  45:-0.07887,  44: 0.36386,  43: 0.06542,  42:-0.37288,  41: 0.20629,
                 40:-0.48777,  39:-0.81104,  38: 0.12657,  37:-0.19158,  36:-0.11920,  35: 0.15244,  34: 0.20144,  33: 0.26852,
                 32: 0.25400,  31:-0.07633,  30: 0.05729,  29: 0.30806,  28: 0.30956,  27: 0.07401,  26:-0.29801,  25: 0.17219,
                 24:-0.16014,  23:-0.14575,  22: 0.04390,  21: 0.19996,  20: 0.57050,  19: 1.00279,  18: 0.32317,  17: 0.01214,
                 16: 0.29374,  15: 0.43808,  14: 0.11453,  13:-0.03287,  12: 0.44587,  11: 0.03683,  10:-0.01484,   9: 0.32970,
                  8: 0.20069,   7: 0.03534,   6:-0.09849,   5:-0.19594,   4:-0.09271,   3:-0.07614,   2: 0.05342,   1:-0.02920
   178 |      | 160:-0.04678, 159:-0.13910, 158:-0.19662, 157:-0.47785, 156:-0.58215, 155:-0.14981, 154:-0.16426, 153:-0.26681,
                152:-0.48651, 151:-0.33013, 150: 0.00345, 149:-0.23689, 148:-0.24859, 147:-0.37620, 146:-0.12795, 145:-0.36153,
                144: 0.02873, 143:-0.18991, 142:-0.20280, 141:-0.03521, 140:-0.07639, 139:-0.37467, 138: 0.16559, 137: 0.05813,
                136:-0.03219, 135:-0.08111, 134:-0.57999, 133:-0.18582, 132:-0.63051, 131: 0.11599, 130:-0.14075, 129:-0.44636,
                128: 0.26345, 127:-0.03230, 126: 0.38811, 125:-0.18835, 124:-0.19660, 123:-0.35838, 122:-0.65687, 121:-0.39528,
                120: 0.10554, 119: 0.21451, 118: 0.13575, 117: 0.04354, 116:-0.03129, 115: 0.42701, 114: 0.01218, 113:-0.34681,
                112:-0.68146, 111:-0.13333, 110: 0.35179, 109: 0.10034, 108: 0.31303, 107: 0.16112, 106: 0.09504, 105: 0.20129,
                104:-0.01236, 103:-0.20219, 102:-0.30357, 101:-0.32256, 100: 0.51589,  99: 0.35124,  98: 0.19327,  97: 0.15985,
                 96: 0.31004,  95: 0.35299,  94:-0.06523,  93: 0.08580,  92:-0.25749,  91:-0.28807,  90: 0.14045,  89: 0.38095,
                 88: 0.10938,  87: 0.30987,  86:-0.06186,  85: 0.24161,  84: 0.03890,  83: 0.25237,  82: 0.26076,  81:-0.19632,
                 80:-0.13615,  79: 0.20879,  78: 0.28092,  77: 0.05260,  76:-0.14627,  75: 0.05189,  74: 0.09122,  73: 0.64291,
                 72: 0.27713,  71: 0.15223,  70: 0.04016,  69: 0.31065,  68: 0.23528,  67: 0.13355,  66:-0.07807,  65: 0.27670,
                 64: 0.12369,  63: 0.23293,  62:-0.01364,  61: 0.12945,  60:-0.39918,  59:-0.09338,  58: 0.04537,  57: 0.00717,
                 56: 0.05713,  55: 0.02139,  54:-0.13767,  53: 0.04304,  52:-0.21306,  51:-0.14666,  50:-0.72182,  49:-0.13222,
                 48:-0.19933,  47: 0.29817,  46:-0.05481,  45: 0.03174,  44:-0.10193,  43:-0.21145,  42:-0.16152,  41:-0.06152,
                 40:-0.35712,  39:-0.17204,  38: 0.04679,  37: 0.28907,  36:-0.07170,  35:-0.00976,  34: 0.15415,  33:-0.00104,
                 32:-0.13730,  31:-0.35102,  30:-0.04633,  29: 0.00907,  28: 0.30399,  27: 0.17706,  26: 0.25395,  25:-0.02329,
                 24: 0.38617,  23: 0.08375,  22:-0.03308,  21: 0.16905,  20: 0.20796,  19: 0.21804,  18: 0.08828,  17:-0.12185,
                 16: 0.12274,  15: 0.43355,  14: 0.43332,  13: 0.05383,  12: 0.45971,  11: 0.40796,  10: 0.34228,   9:-0.14884,
                  8: 0.09105,   7:-0.15857,   6: 0.25882,   5: 0.25080,   4:-0.11174,   3: 0.43643,   2: 0.49457,   1: 0.28934
   179 |      | 160: 0.03844, 159: 0.10113, 158:-0.02121, 157: 0.02117, 156: 0.00288, 155: 0.20973, 154: 0.18077, 153:-0.06562,
                152: 0.02286, 151: 0.01476, 150: 0.12049, 149: 0.02609, 148: 0.08809, 147: 0.21975, 146:-0.08604, 145:-0.03212,
                144:-0.24517, 143:-0.01450, 142:-0.01151, 141:-0.17751, 140: 0.27707, 139: 0.20707, 138: 0.39050, 137:-0.04533,
                136:-0.03131, 135:-0.26625, 134:-0.24683, 133:-0.19946, 132:-0.10362, 131:-0.06992, 130: 0.35987, 129: 0.35845,
                128: 0.10500, 127:-0.10003, 126:-0.32616, 125:-0.27337, 124:-0.35847, 123:-0.13449, 122: 0.06415, 121: 0.09686,
                120: 0.37031, 119: 0.22699, 118:-0.23620, 117:-0.59722, 116:-0.35687, 115:-0.26124, 114:-0.46159, 113:-0.39615,
                112:-0.50075, 111:-0.26408, 110: 0.51711, 109: 0.03870, 108:-0.23976, 107:-0.17520, 106:-0.30921, 105:-0.26862,
                104:-0.47951, 103:-0.28677, 102:-0.41690, 101:-0.30169, 100: 0.27799,  99: 0.32623,  98: 0.01938,  97: 0.08003,
                 96:-0.19988,  95:-0.15162,  94:-0.15621,  93:-0.14370,  92:-0.16864,  91:-0.25727,  90:-0.01281,  89: 0.01827,
                 88:-0.10043,  87:-0.12226,  86: 0.16840,  85: 0.02794,  84:-0.16188,  83:-0.26400,  82:-0.38509,  81:-0.07113,
                 80:-0.25406,  79:-0.10540,  78: 0.33608,  77: 0.14534,  76: 0.25203,  75: 0.18283,  74:-0.11678,  73: 0.06356,
                 72:-0.42764,  71:-0.26590,  70:-0.41299,  69:-0.14331,  68: 0.06005,  67: 0.57610,  66: 0.15004,  65:-0.10246,
                 64:-0.37207,  63:-0.23389,  62:-0.53003,  61:-0.42891,  60:-0.10786,  59: 0.02626,  58: 0.36533,  57: 0.29668,
                 56:-0.31307,  55:-0.41136,  54:-0.27593,  53:-0.23421,  52:-0.42678,  51:-0.43413,  50: 0.31249,  49: 0.32679,
                 48: 0.13285,  47: 0.14875,  46:-0.11763,  45:-0.17276,  44:-0.27501,  43:-0.25027,  42:-0.28510,  41:-0.04800,
                 40: 0.35798,  39: 0.32336,  38:-0.10324,  37: 0.08467,  36:-0.31865,  35: 0.02051,  34:-0.09941,  33: 0.04067,
                 32:-0.09027,  31: 0.10165,  30:-0.08780,  29:-0.09827,  28:-0.12895,  27: 0.21246,  26:-0.02312,  25:-0.20600,
                 24:-0.00343,  23: 0.04379,  22: 0.09676,  21:-0.02046,  20:-0.47679,  19:-0.28676,  18: 0.03679,  17:-0.08623,
                 16:-0.00845,  15:-0.44044,  14:-0.18127,  13:-0.18608,  12: 0.10610,  11:-0.06224,  10: 0.00700,   9:-0.05211,
                  8:-0.22254,   7: 0.09112,   6:-0.48295,   5:-0.15779,   4: 0.09792,   3: 0.04171,   2:-0.10689,   1:-0.02592
   180 |      | 160:-0.31931, 159:-0.11842, 158:-0.06960, 157:-0.27209, 156:-0.17708, 155: 0.05316, 154: 0.29270, 153: 0.36821,
                152: 0.00786, 151:-0.32088, 150:-0.13694, 149:-0.20965, 148:-0.00466, 147: 0.00020, 146:-0.06037, 145: 0.08044,
                144: 0.20689, 143: 0.20146, 142:-0.28796, 141:-0.04262, 140: 0.15167, 139:-0.07474, 138:-0.05826, 137: 0.12279,
                136: 0.14677, 135:-0.00566, 134:-0.35859, 133:-0.32452, 132:-0.12325, 131: 0.16794, 130: 0.13117, 129: 0.01622,
                128: 0.08457, 127: 0.05523, 126: 0.07045, 125:-0.41432, 124:-0.25074, 123:-0.49903, 122:-0.10976, 121: 0.01517,
                120: 0.34504, 119: 0.33780, 118: 0.11969, 117: 0.10207, 116:-0.34778, 115: 0.04387, 114:-0.05216, 113:-0.29031,
                112:-0.15545, 111:-0.11634, 110: 0.53346, 109: 0.27375, 108:-0.13582, 107:-0.26281, 106: 0.13687, 105:-0.09879,
                104:-0.11308, 103:-0.20772, 102:-0.15913, 101:-0.16972, 100: 0.17698,  99: 0.26947,  98:-0.31405,  97:-0.18785,
                 96:-0.12483,  95:-0.08681,  94: 0.18510,  93:-0.01038,  92:-0.15380,  91:-0.30701,  90:-0.08731,  89:-0.13609,
                 88:-0.59222,  87:-0.32199,  86:-0.19541,  85: 0.15144,  84: 0.26006,  83: 0.22997,  82: 0.23590,  81:-0.13322,
                 80: 0.11536,  79: 0.12074,  78:-0.18222,  77:-0.32015,  76: 0.04989,  75: 0.10995,  74: 0.07051,  73: 0.12753,
                 72: 0.16289,  71:-0.11837,  70: 0.53689,  69: 0.18485,  68: 0.13173,  67: 0.27944,  66: 0.36790,  65: 0.19438,
                 64:-0.03129,  63: 0.07545,  62: 0.06582,  61: 0.26109,  60: 0.22455,  59: 0.48474,  58: 0.34349,  57: 0.40139,
                 56: 0.17878,  55: 0.22497,  54: 0.19020,  53: 0.11064,  52: 0.19558,  51:-0.01136,  50: 0.00512,  49: 0.00599,
                 48:-0.18428,  47: 0.07296,  46: 0.14961,  45: 0.07885,  44: 0.00112,  43: 0.18310,  42: 0.21617,  41: 0.02015,
                 40:-0.00308,  39: 0.07679,  38:-0.23616,  37: 0.33851,  36: 0.33285,  35: 0.15827,  34: 0.02995,  33: 0.06495,
                 32:-0.07682,  31: 0.11761,  30:-0.16093,  29:-0.09636,  28:-0.03370,  27: 0.17682,  26: 0.02444,  25:-0.10944,
                 24: 0.18883,  23: 0.01094,  22:-0.10781,  21:-0.03317,  20:-0.22267,  19:-0.34544,  18: 0.02892,  17: 0.28057,
                 16: 0.00645,  15:-0.01056,  14:-0.07856,  13:-0.16241,  12:-0.12919,  11:-0.02401,  10:-0.08187,   9: 0.20343,
                  8: 0.38539,   7: 0.06735,   6: 0.11477,   5:-0.07120,   4:-0.14173,   3: 0.11674,   2: 0.24166,   1: 0.13346
   181 |      | 160: 0.08990, 159:-0.06352, 158: 0.04625, 157: 0.13044, 156:-0.22528, 155:-0.25414, 154:-0.78194, 153:-0.37039,
                152:-0.18358, 151:-0.02352, 150: 0.13614, 149: 0.32709, 148:-0.07877, 147: 0.16400, 146:-0.34063, 145:-0.17621,
                144:-0.25837, 143:-0.46598, 142:-0.24376, 141:-0.04711, 140: 0.13908, 139:-0.19836, 138: 0.08469, 137: 0.19460,
                136:-0.21313, 135:-0.30965, 134:-0.13901, 133: 0.13928, 132: 0.02093, 131: 0.32504, 130:-0.04919, 129: 0.05638,
                128: 0.12433, 127:-0.08880, 126:-0.01360, 125: 0.29785, 124: 0.19298, 123: 0.27519, 122: 0.26154, 121: 0.32290,
                120: 0.04393, 119:-0.07762, 118:-0.08057, 117:-0.24218, 116: 0.12404, 115: 0.50354, 114: 0.40983, 113: 0.42476,
                112: 0.63386, 111: 0.30481, 110:-0.07779, 109: 0.17401, 108:-0.21973, 107:-0.09741, 106: 0.24392, 105: 0.25227,
                104: 0.10918, 103: 0.31552, 102: 0.25371, 101: 0.31846, 100:-0.28736,  99:-0.25276,  98:-0.12876,  97: 0.37425,
                 96: 0.28759,  95: 0.38793,  94: 0.20576,  93: 0.26825,  92: 0.29028,  91: 0.23054,  90:-0.31098,  89:-0.32374,
                 88: 0.11370,  87: 0.26614,  86: 0.26371,  85: 0.19447,  84: 0.02616,  83: 0.25636,  82:-0.04820,  81:-0.00583,
                 80:-0.32426,  79:-0.19188,  78: 0.06268,  77: 0.50829,  76: 0.38875,  75: 0.08285,  74: 0.02832,  73:-0.00185,
                 72:-0.06916,  71:-0.23521,  70:-0.20729,  69:-0.14533,  68: 0.24776,  67: 0.29998,  66: 0.24103,  65: 0.13998,
                 64: 0.16810,  63: 0.27387,  62:-0.13401,  61:-0.05753,  60:-0.53708,  59:-0.26359,  58:-0.13443,  57: 0.09417,
                 56: 0.13007,  55: 0.12337,  54: 0.20520,  53: 0.26363,  52: 0.03480,  51:-0.09117,  50:-0.33869,  49:-0.26006,
                 48:-0.22589,  47:-0.21911,  46:-0.16583,  45: 0.06516,  44: 0.11021,  43: 0.14151,  42: 0.09785,  41: 0.05343,
                 40:-0.33916,  39:-0.17242,  38: 0.02528,  37:-0.16775,  36: 0.16360,  35:-0.15229,  34: 0.00532,  33: 0.25663,
                 32: 0.11104,  31: 0.00856,  30:-0.04866,  29: 0.18333,  28: 0.09917,  27: 0.06910,  26:-0.41586,  25: 0.01118,
                 24:-0.01226,  23: 0.09335,  22: 0.12861,  21: 0.21188,  20: 0.27194,  19: 0.00306,  18:-0.23911,  17:-0.12943,
                 16:-0.25801,  15:-0.13416,  14: 0.04333,  13: 0.19717,  12: 0.01948,  11: 0.24956,  10: 0.40578,   9: 0.07773,
                  8:-0.12666,   7:-0.00040,   6:-0.08124,   5:-0.10194,   4:-0.23785,   3:-0.20014,   2: 0.51218,   1: 0.21343
   182 |      | 160:-0.07046, 159: 0.13923, 158: 0.18512, 157:-0.04958, 156: 0.17063, 155: 0.22920, 154: 0.43377, 153: 0.14743,
                152: 0.08588, 151: 0.09245, 150: 0.01300, 149:-0.12862, 148: 0.14204, 147:-0.07813, 146: 0.09404, 145: 0.11169,
                144:-0.15136, 143: 0.27441, 142:-0.15253, 141:-0.19789, 140: 0.35226, 139:-0.00026, 138:-0.52359, 137:-0.28533,
                136: 0.02041, 135:-0.08291, 134:-0.01385, 133:-0.11344, 132: 0.22418, 131: 0.37103, 130:-0.01658, 129:-0.08770,
                128:-0.38849, 127: 0.05020, 126:-0.23668, 125:-0.14662, 124:-0.32665, 123: 0.13798, 122: 0.60904, 121: 0.59643,
                120:-0.15976, 119:-0.28642, 118:-0.16108, 117: 0.10535, 116:-0.27117, 115:-0.51442, 114:-0.12947, 113: 0.29546,
                112: 0.66246, 111: 0.18446, 110: 0.00939, 109:-0.01344, 108:-0.19155, 107:-0.18721, 106:-0.19373, 105:-0.47206,
                104:-0.20768, 103: 0.12482, 102:-0.27058, 101:-0.06043, 100:-0.29450,  99: 0.11325,  98:-0.21289,  97:-0.11466,
                 96:-0.28208,  95:-0.67474,  94:-0.36571,  93:-0.47265,  92:-0.20433,  91:-0.31576,  90:-0.19535,  89:-0.20750,
                 88:-0.35034,  87:-0.05592,  86:-0.16873,  85:-0.30439,  84:-0.32360,  83:-0.08871,  82:-0.28930,  81:-0.22139,
                 80: 0.00118,  79:-0.13576,  78:-0.45234,  77:-0.21089,  76: 0.26876,  75:-0.09136,  74:-0.26334,  73:-0.65619,
                 72:-0.37795,  71:-0.61310,  70: 0.33047,  69:-0.20054,  68:-0.04130,  67: 0.05947,  66: 0.12203,  65:-0.13158,
                 64:-0.04391,  63:-0.29039,  62:-0.21868,  61:-0.21488,  60: 0.39520,  59: 0.24335,  58: 0.23247,  57: 0.21199,
                 56:-0.00020,  55: 0.16287,  54: 0.07613,  53: 0.06591,  52: 0.12811,  51:-0.07804,  50: 0.78468,  49: 0.51006,
                 48: 0.23486,  47:-0.13997,  46: 0.13643,  45:-0.04567,  44:-0.05357,  43: 0.20224,  42: 0.22924,  41: 0.01876,
                 40: 0.54182,  39: 0.10345,  38: 0.20021,  37: 0.20790,  36: 0.11876,  35: 0.14291,  34: 0.23461,  33: 0.21468,
                 32: 0.24575,  31: 0.32097,  30: 0.04518,  29: 0.19210,  28:-0.08840,  27: 0.12419,  26: 0.02918,  25:-0.00728,
                 24: 0.04605,  23: 0.35648,  22: 0.26091,  21: 0.04799,  20:-0.02701,  19:-0.21623,  18: 0.20852,  17: 0.30411,
                 16: 0.43395,  15: 0.18798,  14: 0.34903,  13: 0.19212,  12: 0.08506,  11: 0.06374,  10:-0.18893,   9:-0.11405,
                  8:-0.03521,   7:-0.12265,   6:-0.12722,   5:-0.09577,   4: 0.10620,   3: 0.15618,   2: 0.11783,   1:-0.12657
   183 |      | 160:-0.12223, 159: 0.05687, 158: 0.24304, 157:-0.17813, 156: 0.15962, 155:-0.05209, 154:-0.26075, 153:-0.13904,
                152:-0.36012, 151:-0.18237, 150:-0.06226, 149: 0.06113, 148: 0.12630, 147: 0.02143, 146: 0.13381, 145: 0.17764,
                144: 0.07676, 143:-0.36603, 142:-0.41759, 141: 0.01431, 140: 0.06156, 139: 0.07398, 138: 0.02640, 137: 0.52970,
                136: 0.17185, 135: 0.26002, 134: 0.08964, 133: 0.04525, 132: 0.00574, 131:-0.19562, 130: 0.06025, 129: 0.13997,
                128:-0.03629, 127: 0.07010, 126: 0.27101, 125: 0.05805, 124: 0.28372, 123:-0.15227, 122:-0.13510, 121:-0.12881,
                120: 0.14268, 119: 0.05854, 118:-0.03237, 117: 0.32077, 116: 0.25969, 115: 0.35815, 114: 0.40710, 113: 0.21405,
                112: 0.31753, 111: 0.15190, 110: 0.08799, 109: 0.19988, 108: 0.04770, 107:-0.09770, 106: 0.20104, 105: 0.00953,
                104: 0.17901, 103: 0.03007, 102: 0.38910, 101: 0.21314, 100:-0.02385,  99:-0.01201,  98:-0.09817,  97:-0.02098,
                 96: 0.00486,  95:-0.19467,  94: 0.15692,  93: 0.14826,  92: 0.13419,  91: 0.20660,  90: 0.06297,  89: 0.13239,
                 88:-0.02671,  87:-0.08512,  86:-0.33939,  85:-0.30328,  84:-0.09292,  83: 0.20445,  82: 0.30396,  81: 0.04102,
                 80: 0.17216,  79: 0.00563,  78:-0.37386,  77: 0.12647,  76: 0.09435,  75: 0.12056,  74:-0.00539,  73:-0.09725,
                 72: 0.03403,  71: 0.11820,  70: 0.41010,  69: 0.14568,  68: 0.04327,  67: 0.05432,  66: 0.00081,  65:-0.00572,
                 64: 0.30640,  63: 0.49786,  62: 0.51207,  61: 0.36354,  60: 0.06776,  59:-0.05604,  58:-0.19443,  57:-0.14829,
                 56: 0.25523,  55: 0.45418,  54: 0.43567,  53: 0.40982,  52: 0.51848,  51: 0.34887,  50:-0.11624,  49:-0.27882,
                 48:-0.38615,  47:-0.14220,  46: 0.05313,  45: 0.24665,  44: 0.32888,  43: 0.01360,  42: 0.23626,  41: 0.02893,
                 40:-0.34875,  39:-0.23426,  38:-0.12889,  37:-0.15818,  36: 0.16415,  35: 0.20627,  34: 0.02897,  33:-0.08474,
                 32: 0.05877,  31: 0.15465,  30: 0.10562,  29: 0.06917,  28: 0.25851,  27: 0.00957,  26:-0.42006,  25: 0.08696,
                 24:-0.34087,  23:-0.11839,  22:-0.13934,  21:-0.08191,  20: 0.09330,  19: 0.09631,  18: 0.08807,  17: 0.22827,
                 16:-0.30459,  15:-0.23366,  14:-0.16797,  13:-0.32885,  12:-0.37935,  11:-0.28212,  10: 0.10435,   9: 0.03029,
                  8: 0.27371,   7: 0.06210,   6: 0.15669,   5:-0.12175,   4:-0.22443,   3:-0.02811,   2: 0.35876,   1:-0.01681
   184 |      | 160:-0.09757, 159: 0.10174, 158:-0.12953, 157: 0.10972, 156: 0.45233, 155: 0.02222, 154: 0.39354, 153: 0.21907,
                152: 0.48723, 151: 0.35796, 150: 0.04878, 149: 0.10739, 148: 0.00960, 147: 0.04794, 146: 0.06400, 145:-0.04028,
                144:-0.00969, 143: 0.25077, 142: 0.58356, 141: 0.32826, 140: 0.08764, 139: 0.09892, 138: 0.01692, 137: 0.32467,
                136:-0.05516, 135: 0.03652, 134: 0.21268, 133: 0.02502, 132: 0.47010, 131: 0.31119, 130: 0.12087, 129: 0.23397,
                128: 0.00878, 127:-0.13926, 126:-0.18940, 125: 0.06131, 124:-0.23876, 123: 0.22572, 122: 0.33681, 121: 0.10294,
                120: 0.01945, 119:-0.09508, 118:-0.17581, 117:-0.17764, 116:-0.17684, 115:-0.26965, 114:-0.42367, 113: 0.23655,
                112: 0.20440, 111:-0.00288, 110: 0.09543, 109: 0.17653, 108: 0.08004, 107: 0.05337, 106:-0.19073, 105:-0.29789,
                104:-0.09707, 103: 0.10802, 102: 0.07618, 101:-0.11008, 100: 0.13080,  99: 0.16172,  98: 0.11695,  97:-0.11614,
                 96:-0.14779,  95:-0.15839,  94:-0.15619,  93:-0.01340,  92:-0.20173,  91: 0.06100,  90: 0.10089,  89:-0.02936,
                 88: 0.06610,  87: 0.02227,  86: 0.12666,  85:-0.13473,  84:-0.20981,  83:-0.29498,  82:-0.39962,  81:-0.05955,
                 80:-0.11662,  79:-0.31430,  78: 0.00290,  77: 0.02274,  76:-0.18325,  75:-0.16730,  74:-0.35806,  73:-0.56545,
                 72:-0.15687,  71: 0.01263,  70:-0.23674,  69:-0.15751,  68: 0.10105,  67:-0.03716,  66:-0.26345,  65:-0.32675,
                 64:-0.31463,  63:-0.35438,  62: 0.02220,  61:-0.09817,  60: 0.10230,  59: 0.01482,  58: 0.07456,  57:-0.17190,
                 56:-0.35099,  55:-0.29243,  54:-0.23444,  53:-0.29684,  52: 0.05994,  51: 0.06942,  50: 0.09648,  49: 0.16858,
                 48:-0.11738,  47:-0.08938,  46:-0.18439,  45:-0.28103,  44: 0.07431,  43:-0.06789,  42:-0.21181,  41: 0.08731,
                 40: 0.04778,  39:-0.03247,  38: 0.00750,  37:-0.09164,  36:-0.03915,  35:-0.02488,  34: 0.00100,  33:-0.28648,
                 32:-0.17276,  31: 0.01417,  30: 0.40950,  29: 0.05550,  28: 0.11345,  27: 0.21143,  26: 0.32648,  25: 0.25569,
                 24: 0.13112,  23:-0.04129,  22:-0.00013,  21:-0.17927,  20: 0.47933,  19: 0.56977,  18: 0.51088,  17: 0.34055,
                 16: 0.29833,  15: 0.37180,  14: 0.10104,  13: 0.21219,  12:-0.06008,  11:-0.10915,  10: 0.16429,   9: 0.39435,
                  8: 0.25705,   7:-0.05439,   6: 0.08030,   5: 0.09037,   4: 0.20098,   3:-0.00690,   2: 0.10754,   1: 0.02606
   185 |      | 160: 0.00453, 159:-0.21656, 158:-0.48695, 157:-0.68758, 156:-0.35978, 155:-0.15118, 154:-0.11990, 153:-0.31613,
                152:-0.15431, 151:-0.37886, 150:-0.11112, 149:-0.37980, 148:-0.39620, 147:-0.49514, 146:-0.18139, 145:-0.22665,
                144:-0.25901, 143:-0.48581, 142: 0.03568, 141:-0.03996, 140:-0.29938, 139:-0.38030, 138:-0.21414, 137: 0.01984,
                136: 0.02241, 135:-0.03956, 134:-0.24020, 133:-0.16134, 132:-0.13142, 131:-0.29842, 130:-0.37370, 129:-0.33588,
                128: 0.04859, 127: 0.14455, 126:-0.15127, 125:-0.35677, 124:-0.32881, 123:-0.17761, 122:-0.23832, 121:-0.57372,
                120:-0.29202, 119:-0.02430, 118: 0.10216, 117: 0.31288, 116:-0.17566, 115: 0.08041, 114:-0.14320, 113:-0.32125,
                112:-0.25470, 111:-0.15243, 110: 0.12689, 109: 0.12147, 108: 0.39285, 107: 0.23284, 106:-0.04205, 105: 0.15025,
                104: 0.06591, 103: 0.26758, 102: 0.08661, 101:-0.07472, 100: 0.41130,  99: 0.31398,  98: 0.11250,  97:-0.02815,
                 96: 0.22448,  95: 0.11319,  94:-0.14212,  93: 0.17738,  92: 0.21668,  91: 0.15213,  90: 0.47126,  89: 0.45042,
                 88: 0.19383,  87: 0.24227,  86:-0.19851,  85:-0.01308,  84: 0.07565,  83: 0.29133,  82: 0.28972,  81: 0.12311,
                 80: 0.49239,  79: 0.19528,  78: 0.16853,  77: 0.03731,  76:-0.52352,  75:-0.08873,  74:-0.05625,  73: 0.32431,
                 72: 0.41735,  71: 0.38395,  70: 0.50271,  69: 0.27447,  68: 0.30055,  67: 0.08995,  66:-0.37677,  65: 0.01877,
                 64: 0.02300,  63:-0.06886,  62: 0.19276,  61: 0.10362,  60: 0.58559,  59: 0.13635,  58:-0.00694,  57:-0.21196,
                 56:-0.01500,  55:-0.30780,  54:-0.08833,  53:-0.18552,  52:-0.16491,  51:-0.09075,  50:-0.01514,  49: 0.51252,
                 48: 0.31431,  47: 0.31181,  46:-0.18261,  45:-0.19725,  44: 0.12890,  43:-0.10832,  42:-0.29544,  41:-0.18547,
                 40: 0.14513,  39: 0.21164,  38: 0.17442,  37: 0.11237,  36:-0.17879,  35:-0.32774,  34:-0.19583,  33:-0.06627,
                 32:-0.10936,  31:-0.02241,  30: 0.36092,  29: 0.05882,  28: 0.15945,  27:-0.25288,  26: 0.37858,  25:-0.16337,
                 24: 0.19342,  23: 0.03546,  22: 0.01611,  21:-0.05335,  20: 0.14986,  19: 0.17449,  18:-0.12555,  17:-0.06860,
                 16: 0.13711,  15: 0.12688,  14: 0.10133,  13: 0.21108,  12: 0.31328,  11: 0.17078,  10:-0.09280,   9:-0.01278,
                  8: 0.07645,   7: 0.00757,   6: 0.00115,   5:-0.04220,   4:-0.01163,   3: 0.39207,   2: 0.06783,   1: 0.20186
   186 |      | 160: 0.00848, 159:-0.18519, 158:-0.24100, 157: 0.05049, 156:-0.05881, 155:-0.17278, 154:-0.12227, 153:-0.18181,
                152: 0.22253, 151: 0.17996, 150: 0.05501, 149:-0.05627, 148: 0.05248, 147: 0.13176, 146: 0.13953, 145:-0.11385,
                144:-0.01710, 143:-0.00252, 142: 0.46326, 141: 0.50014, 140:-0.02054, 139: 0.07433, 138: 0.05571, 137: 0.24168,
                136:-0.19227, 135:-0.08023, 134:-0.08565, 133:-0.08391, 132: 0.35709, 131: 0.31961, 130:-0.08529, 129: 0.17114,
                128: 0.12018, 127: 0.03102, 126:-0.04884, 125: 0.05957, 124:-0.07036, 123: 0.03049, 122: 0.09059, 121: 0.07377,
                120:-0.13990, 119:-0.03717, 118: 0.04565, 117:-0.01937, 116: 0.07294, 115: 0.10502, 114:-0.03012, 113: 0.31029,
                112: 0.15957, 111: 0.17299, 110:-0.09195, 109: 0.09095, 108: 0.01410, 107: 0.14077, 106: 0.17455, 105: 0.18430,
                104: 0.05168, 103: 0.17923, 102: 0.27479, 101: 0.16069, 100: 0.00177,  99:-0.02704,  98: 0.00013,  97: 0.00749,
                 96: 0.03564,  95: 0.08162,  94:-0.13834,  93: 0.26267,  92: 0.21594,  91: 0.16048,  90: 0.02376,  89: 0.11121,
                 88: 0.22005,  87: 0.06654,  86:-0.08281,  85:-0.29003,  84:-0.10096,  83:-0.19831,  82:-0.08270,  81: 0.06894,
                 80: 0.08590,  79: 0.12886,  78: 0.07554,  77: 0.00104,  76:-0.09927,  75:-0.33748,  74:-0.49687,  73:-0.23876,
                 72: 0.09698,  71: 0.05341,  70: 0.28022,  69: 0.38243,  68: 0.24649,  67:-0.21281,  66:-0.26417,  65:-0.28067,
                 64:-0.25099,  63:-0.05426,  62: 0.33181,  61: 0.07343,  60: 0.21039,  59: 0.21785,  58: 0.09495,  57:-0.21503,
                 56:-0.31993,  55:-0.25301,  54:-0.17111,  53: 0.02893,  52: 0.37301,  51: 0.30173,  50: 0.15367,  49: 0.02898,
                 48:-0.29253,  47:-0.19540,  46:-0.11801,  45:-0.08542,  44: 0.01086,  43:-0.01276,  42:-0.04940,  41: 0.27768,
                 40: 0.30493,  39:-0.18823,  38:-0.20950,  37:-0.17429,  36: 0.00364,  35: 0.03705,  34: 0.02489,  33:-0.08026,
                 32: 0.04273,  31: 0.12225,  30: 0.53292,  29: 0.21153,  28: 0.05248,  27: 0.09820,  26: 0.29099,  25: 0.02959,
                 24:-0.05736,  23:-0.03693,  22: 0.12855,  21: 0.08704,  20: 0.66043,  19: 0.61075,  18: 0.35388,  17: 0.06084,
                 16: 0.07576,  15: 0.12957,  14: 0.00234,  13: 0.08456,  12: 0.13528,  11: 0.04844,  10: 0.39730,   9: 0.41632,
                  8: 0.07736,   7:-0.21438,   6:-0.01612,   5:-0.19327,   4: 0.07621,   3: 0.20612,   2: 0.35187,   1: 0.11482
   187 |      | 160:-0.12354, 159:-0.13725, 158:-0.14407, 157: 0.03513, 156:-0.33407, 155: 0.26607, 154:-0.06781, 153: 0.09765,
                152: 0.08427, 151:-0.06903, 150:-0.02284, 149: 0.01796, 148:-0.23648, 147:-0.20296, 146:-0.30154, 145:-0.11003,
                144: 0.15072, 143: 0.03876, 142:-0.13189, 141:-0.05039, 140:-0.20827, 139:-0.01774, 138: 0.33793, 137:-0.09846,
                136:-0.27136, 135:-0.00409, 134:-0.03635, 133: 0.23902, 132:-0.31314, 131: 0.22969, 130:-0.02575, 129: 0.09034,
                128: 0.04337, 127:-0.08986, 126: 0.28993, 125: 0.24604, 124: 0.28364, 123: 0.19781, 122:-0.31049, 121:-0.12051,
                120: 0.48075, 119: 0.34062, 118: 0.04013, 117:-0.11946, 116:-0.12987, 115:-0.19374, 114:-0.32004, 113:-0.27373,
                112:-0.26320, 111: 0.06608, 110: 0.58712, 109: 0.06142, 108:-0.05922, 107:-0.00592, 106:-0.20745, 105: 0.05359,
                104:-0.08098, 103:-0.33621, 102:-0.12026, 101:-0.12944, 100: 0.79942,  99: 0.18453,  98:-0.02779,  97:-0.23782,
                 96:-0.19762,  95: 0.29059,  94: 0.12338,  93:-0.06365,  92: 0.05721,  91: 0.15287,  90: 0.25499,  89:-0.19243,
                 88:-0.11361,  87:-0.02066,  86: 0.04193,  85: 0.31512,  84: 0.10131,  83:-0.04901,  82: 0.03874,  81: 0.26859,
                 80:-0.39462,  79:-0.17525,  78: 0.11176,  77:-0.20638,  76: 0.11788,  75:-0.05752,  74: 0.28810,  73: 0.49116,
                 72: 0.26948,  71: 0.33252,  70:-0.80250,  69:-0.15518,  68:-0.13342,  67:-0.06214,  66:-0.00600,  65: 0.17296,
                 64: 0.06856,  63: 0.09179,  62:-0.05436,  61:-0.12019,  60:-0.99277,  59:-0.42863,  58: 0.03074,  57: 0.15428,
                 56:-0.40014,  55:-0.37517,  54:-0.28210,  53:-0.11255,  52:-0.50838,  51:-0.38732,  50:-1.00804,  49:-0.70280,
                 48:-0.26797,  47: 0.00360,  46: 0.15166,  45:-0.38346,  44:-0.20471,  43:-0.20020,  42:-0.25843,  41:-0.10586,
                 40:-0.41379,  39:-0.19053,  38:-0.09981,  37: 0.16324,  36: 0.03741,  35: 0.13213,  34:-0.16646,  33:-0.07854,
                 32:-0.37231,  31:-0.41059,  30: 0.13870,  29: 0.12058,  28: 0.23434,  27: 0.46645,  26: 0.01667,  25:-0.05182,
                 24: 0.36508,  23:-0.09725,  22:-0.19454,  21: 0.02754,  20: 0.41625,  19: 0.43163,  18: 0.45950,  17: 0.47834,
                 16: 0.23305,  15: 0.35243,  14:-0.04544,  13: 0.05450,  12: 0.08228,  11: 0.21269,  10: 0.64310,   9:-0.08941,
                  8:-0.16455,   7:-0.34520,   6: 0.16814,   5: 0.08614,   4:-0.13593,   3:-0.24862,   2: 0.27873,   1:-0.09464
   188 |      | 160: 0.17167, 159:-0.03786, 158: 0.09117, 157:-0.30333, 156: 0.26129, 155:-0.01400, 154: 0.02538, 153: 0.04922,
                152: 0.00729, 151: 0.03207, 150:-0.12075, 149:-0.00719, 148:-0.05609, 147: 0.24530, 146:-0.05984, 145: 0.03837,
                144:-0.41049, 143:-0.31827, 142:-0.14180, 141:-0.01572, 140: 0.01988, 139:-0.06257, 138:-0.18703, 137:-0.04404,
                136:-0.13911, 135:-0.28571, 134: 0.09423, 133: 0.12084, 132: 0.16171, 131:-0.19892, 130:-0.04971, 129:-0.24486,
                128:-0.07835, 127: 0.00130, 126:-0.44648, 125: 0.03253, 124: 0.35065, 123: 0.26707, 122: 0.12236, 121: 0.04235,
                120: 0.05938, 119:-0.12736, 118:-0.01563, 117: 0.22991, 116: 0.09151, 115: 0.49571, 114: 0.46579, 113: 0.10311,
                112: 0.33773, 111: 0.25289, 110: 0.08162, 109:-0.05704, 108: 0.13849, 107: 0.22220, 106: 0.37544, 105: 0.30411,
                104: 0.11213, 103: 0.31605, 102: 0.47579, 101: 0.26735, 100: 0.16426,  99: 0.13457,  98: 0.06497,  97: 0.04521,
                 96:-0.04298,  95: 0.28378,  94: 0.26740,  93:-0.15311,  92: 0.44962,  91: 0.28789,  90: 0.26038,  89: 0.15636,
                 88: 0.24455,  87: 0.08089,  86: 0.25166,  85: 0.19881,  84: 0.15317,  83:-0.12930,  82: 0.07288,  81: 0.17529,
                 80: 0.27326,  79: 0.02314,  78: 0.24579,  77: 0.41243,  76:-0.19769,  75: 0.36765,  74: 0.21838,  73: 0.05792,
                 72: 0.15163,  71: 0.15763,  70: 0.24926,  69: 0.13680,  68: 0.01114,  67: 0.22242,  66: 0.18243,  65:-0.03518,
                 64: 0.08464,  63: 0.00020,  62: 0.08056,  61: 0.12053,  60: 0.63002,  59: 0.24366,  58: 0.16854,  57: 0.13278,
                 56: 0.01688,  55:-0.38145,  54: 0.03728,  53:-0.09479,  52:-0.24126,  51:-0.05351,  50: 0.65419,  49: 0.38979,
                 48: 0.41989,  47: 0.00396,  46:-0.06562,  45: 0.02977,  44: 0.04422,  43:-0.08877,  42:-0.10571,  41:-0.08574,
                 40: 0.20763,  39: 0.13686,  38: 0.10463,  37:-0.21954,  36:-0.02719,  35:-0.15753,  34:-0.34207,  33:-0.08641,
                 32:-0.14175,  31:-0.07276,  30: 0.01209,  29:-0.20559,  28:-0.05563,  27:-0.15877,  26:-0.06457,  25:-0.17712,
                 24:-0.13937,  23:-0.11809,  22:-0.19666,  21: 0.10530,  20:-0.30621,  19:-0.32774,  18:-0.11035,  17:-0.23304,
                 16:-0.16522,  15:-0.34756,  14:-0.01597,  13:-0.26058,  12:-0.27295,  11: 0.01820,  10:-0.14252,   9:-0.15859,
                  8:-0.03497,   7: 0.11216,   6:-0.04944,   5:-0.01278,   4:-0.03942,   3:-0.23269,   2:-0.50981,   1:-0.06781
   189 |      | 160:-0.32516, 159:-0.31860, 158:-0.33070, 157:-0.47215, 156:-0.01043, 155: 0.25968, 154: 0.29032, 153: 0.26029,
                152:-0.28682, 151:-0.29305, 150:-0.29880, 149:-0.12941, 148:-0.09978, 147:-0.20649, 146:-0.05447, 145: 0.10498,
                144:-0.02709, 143:-0.00248, 142:-0.36364, 141:-0.16593, 140: 0.17732, 139:-0.30006, 138:-0.22983, 137: 0.09105,
                136:-0.24841, 135: 0.06834, 134:-0.15711, 133: 0.03457, 132:-0.19400, 131: 0.28147, 130: 0.08843, 129:-0.25162,
                128: 0.23648, 127: 0.00363, 126: 0.15668, 125:-0.18965, 124:-0.10489, 123:-0.04649, 122: 0.00132, 121: 0.09104,
                120: 0.18858, 119:-0.00456, 118: 0.37314, 117: 0.41629, 116:-0.04051, 115: 0.13978, 114:-0.03906, 113:-0.11252,
                112: 0.01532, 111: 0.23036, 110: 0.44313, 109: 0.40924, 108: 0.09492, 107:-0.09597, 106: 0.07140, 105:-0.10169,
                104:-0.09254, 103: 0.12537, 102: 0.23382, 101: 0.26918, 100: 0.48594,  99: 0.42437,  98: 0.09779,  97:-0.23376,
                 96:-0.29566,  95: 0.01415,  94: 0.00765,  93: 0.01879,  92: 0.31838,  91: 0.21143,  90:-0.10186,  89: 0.02155,
                 88: 0.04147,  87:-0.04889,  86:-0.06736,  85: 0.55633,  84: 0.08728,  83: 0.23485,  82: 0.20972,  81: 0.11712,
                 80:-0.39777,  79:-0.11633,  78:-0.02179,  77:-0.09274,  76:-0.17574,  75: 0.33753,  74: 0.40084,  73: 0.26660,
                 72: 0.04800,  71: 0.00007,  70:-0.20951,  69:-0.39806,  68:-0.14654,  67: 0.16305,  66: 0.20446,  65: 0.12617,
                 64:-0.08396,  63: 0.04321,  62:-0.13983,  61:-0.10465,  60:-0.00926,  59: 0.11291,  58: 0.07893,  57: 0.35082,
                 56:-0.02085,  55:-0.22628,  54:-0.18232,  53:-0.03693,  52:-0.50778,  51:-0.44898,  50:-0.04861,  49: 0.27622,
                 48: 0.10256,  47: 0.27521,  46: 0.08112,  45:-0.16124,  44:-0.07732,  43:-0.16477,  42:-0.25083,  41:-0.13817,
                 40:-0.06507,  39: 0.35056,  38:-0.02826,  37: 0.44473,  36: 0.06851,  35:-0.03316,  34:-0.25881,  33:-0.21520,
                 32:-0.36010,  31:-0.08973,  30: 0.00495,  29:-0.11058,  28: 0.20286,  27: 0.21237,  26: 0.20133,  25:-0.18549,
                 24: 0.40737,  23: 0.01405,  22:-0.41262,  21:-0.21330,  20:-0.00558,  19:-0.29726,  18: 0.25101,  17: 0.30036,
                 16: 0.20917,  15: 0.19297,  14: 0.20091,  13:-0.11223,  12:-0.28506,  11:-0.03322,  10: 0.07088,   9: 0.00136,
                  8: 0.09613,   7: 0.15697,   6: 0.12780,   5: 0.12969,   4: 0.11248,   3:-0.50411,   2:-0.46552,   1: 0.00916
   190 |      | 160: 0.05161, 159:-0.01226, 158:-0.15324, 157:-0.22135, 156:-0.21861, 155: 0.01558, 154: 0.45786, 153: 0.01150,
                152:-0.20742, 151:-0.27820, 150: 0.07595, 149:-0.23966, 148:-0.08109, 147: 0.02342, 146: 0.07311, 145:-0.23175,
                144:-0.16257, 143:-0.08281, 142:-0.20443, 141:-0.04223, 140:-0.11483, 139:-0.06467, 138: 0.04505, 137:-0.12016,
                136: 0.02371, 135:-0.18230, 134:-0.30601, 133:-0.40598, 132:-0.47761, 131:-0.34960, 130: 0.12797, 129:-0.33788,
                128: 0.25140, 127:-0.22846, 126: 0.02887, 125:-0.33778, 124:-0.08231, 123:-0.34999, 122:-0.47748, 121:-0.40142,
                120: 0.32377, 119: 0.17891, 118: 0.18738, 117: 0.18193, 116:-0.08994, 115: 0.35146, 114: 0.07094, 113:-0.43624,
                112:-1.07878, 111:-0.28101, 110: 0.42485, 109: 0.18623, 108: 0.01736, 107: 0.21896, 106: 0.06160, 105: 0.15186,
                104:-0.01511, 103:-0.27944, 102:-0.32308, 101:-0.34841, 100: 0.60068,  99: 0.51325,  98: 0.00482,  97:-0.00662,
                 96: 0.14429,  95: 0.25800,  94: 0.20561,  93:-0.18223,  92:-0.20783,  91:-0.48797,  90: 0.22605,  89: 0.41420,
                 88: 0.09433,  87: 0.05708,  86: 0.22383,  85: 0.42848,  84: 0.22702,  83: 0.04489,  82: 0.18890,  81:-0.16767,
                 80: 0.34549,  79: 0.26687,  78: 0.28107,  77: 0.07570,  76: 0.04801,  75: 0.28345,  74: 0.26009,  73: 0.46061,
                 72: 0.14633,  71: 0.21884,  70: 0.19424,  69: 0.40913,  68: 0.09677,  67: 0.35726,  66: 0.13330,  65: 0.28924,
                 64:-0.10930,  63:-0.26177,  62:-0.10613,  61: 0.07282,  60: 0.20056,  59: 0.48373,  58: 0.34693,  57: 0.08937,
                 56:-0.09471,  55:-0.32732,  54:-0.18134,  53:-0.25368,  52:-0.54123,  51:-0.23464,  50: 0.18798,  49: 0.45820,
                 48:-0.03642,  47: 0.03529,  46:-0.02809,  45:-0.09476,  44:-0.19277,  43:-0.15361,  42:-0.19258,  41:-0.06706,
                 40: 0.16353,  39: 0.15100,  38:-0.18752,  37: 0.19534,  36: 0.01785,  35: 0.17855,  34:-0.00562,  33:-0.14671,
                 32:-0.25031,  31:-0.25146,  30:-0.16823,  29:-0.46178,  28:-0.16115,  27:-0.07884,  26: 0.17492,  25:-0.42168,
                 24: 0.14639,  23: 0.20432,  22: 0.03644,  21:-0.02282,  20:-0.58778,  19:-0.44806,  18:-0.22393,  17:-0.25419,
                 16:-0.05471,  15:-0.04075,  14:-0.09355,  13:-0.04698,  12: 0.10148,  11: 0.05804,  10:-0.28042,   9:-0.37400,
                  8: 0.05209,   7: 0.02909,   6: 0.04482,   5: 0.14080,   4:-0.09677,   3: 0.04193,   2:-0.24890,   1: 0.03703
   191 |      | 160:-0.20973, 159: 0.08762, 158: 0.20136, 157: 0.17876, 156: 0.21203, 155: 0.48818, 154: 0.23407, 153: 0.27812,
                152:-0.00642, 151: 0.07536, 150:-0.01441, 149:-0.02628, 148: 0.13888, 147: 0.09340, 146:-0.01133, 145: 0.02980,
                144: 0.25639, 143: 0.36340, 142: 0.25930, 141: 0.06617, 140:-0.00803, 139:-0.19201, 138:-0.17701, 137:-0.08443,
                136:-0.02666, 135: 0.07444, 134: 0.01618, 133: 0.09718, 132: 0.02110, 131: 0.02366, 130: 0.04793, 129:-0.28569,
                128:-0.39997, 127:-0.15242, 126:-0.02203, 125:-0.26943, 124:-0.17782, 123:-0.17466, 122:-0.37492, 121:-0.01147,
                120: 0.03769, 119:-0.09252, 118:-0.10768, 117:-0.10166, 116:-0.00129, 115:-0.12339, 114: 0.07208, 113:-0.03973,
                112:-0.70616, 111:-0.32276, 110: 0.12428, 109:-0.09568, 108:-0.00122, 107: 0.00726, 106: 0.05625, 105: 0.08294,
                104: 0.22857, 103:-0.22320, 102:-0.74259, 101:-0.43949, 100:-0.21320,  99: 0.00252,  98: 0.05106,  97:-0.01714,
                 96: 0.04893,  95: 0.05853,  94: 0.13652,  93:-0.19446,  92:-0.62921,  91:-0.47189,  90:-0.14094,  89:-0.18417,
                 88: 0.01931,  87: 0.02487,  86: 0.01331,  85:-0.08095,  84: 0.06250,  83:-0.15832,  82:-0.20551,  81:-0.37888,
                 80:-0.32000,  79:-0.11611,  78:-0.21710,  77:-0.14305,  76: 0.32322,  75: 0.18016,  74:-0.12521,  73:-0.44352,
                 72:-0.43349,  71:-0.34447,  70:-0.04510,  69:-0.05656,  68:-0.04624,  67: 0.08125,  66: 0.26249,  65: 0.20721,
                 64:-0.18168,  63:-0.18610,  62:-0.35036,  61: 0.12342,  60:-0.12469,  59: 0.23932,  58: 0.13194,  57: 0.30995,
                 56: 0.17314,  55: 0.02341,  54:-0.03715,  53:-0.14959,  52: 0.12565,  51: 0.05425,  50: 0.04484,  49: 0.17741,
                 48: 0.00689,  47: 0.21973,  46:-0.03130,  45: 0.03059,  44:-0.12385,  43: 0.02280,  42:-0.04132,  41:-0.01678,
                 40:-0.03614,  39: 0.08868,  38: 0.04090,  37: 0.15819,  36: 0.13720,  35: 0.20479,  34: 0.23751,  33: 0.17008,
                 32:-0.17519,  31: 0.01048,  30:-0.02514,  29:-0.00226,  28: 0.12141,  27: 0.23677,  26: 0.32626,  25: 0.28354,
                 24: 0.35096,  23: 0.27526,  22: 0.04741,  21:-0.18886,  20: 0.00348,  19:-0.10157,  18: 0.03563,  17: 0.20462,
                 16: 0.42484,  15: 0.43398,  14: 0.49845,  13: 0.41694,  12: 0.17871,  11:-0.10722,  10:-0.16013,   9: 0.00184,
                  8: 0.12405,   7: 0.04371,   6: 0.28126,   5: 0.03083,   4: 0.21140,   3: 0.27818,   2: 0.05974,   1:-0.19908
   192 |      | 160: 0.10454, 159: 0.11918, 158: 0.17481, 157: 0.29322, 156:-0.10338, 155:-0.06651, 154:-0.23160, 153: 0.11019,
                152: 0.05006, 151: 0.18142, 150: 0.20036, 149: 0.26168, 148: 0.15836, 147: 0.28406, 146: 0.21410, 145: 0.02297,
                144: 0.06497, 143:-0.00882, 142: 0.09113, 141: 0.15272, 140: 0.19486, 139: 0.07033, 138: 0.18257, 137: 0.03765,
                136:-0.10344, 135: 0.02647, 134:-0.11949, 133: 0.09346, 132:-0.23854, 131:-0.05434, 130: 0.26227, 129: 0.10745,
                128: 0.00987, 127:-0.18500, 126: 0.15560, 125: 0.29733, 124: 0.15283, 123: 0.08566, 122:-0.35519, 121: 0.04146,
                120: 0.21448, 119: 0.07348, 118:-0.01307, 117:-0.10263, 116: 0.39351, 115: 0.52449, 114: 0.21258, 113:-0.07078,
                112:-0.42229, 111: 0.01495, 110: 0.02419, 109: 0.17001, 108:-0.02462, 107: 0.18987, 106: 0.45639, 105: 0.40126,
                104: 0.11929, 103:-0.16556, 102:-0.24824, 101: 0.05085, 100:-0.08953,  99:-0.08489,  98: 0.07789,  97: 0.26357,
                 96: 0.33280,  95: 0.34205,  94: 0.16963,  93:-0.02336,  92:-0.08288,  91:-0.01480,  90:-0.13946,  89: 0.00323,
                 88: 0.31549,  87: 0.21257,  86: 0.31676,  85: 0.25687,  84: 0.05417,  83:-0.04348,  82:-0.03437,  81:-0.11168,
                 80:-0.09639,  79: 0.06021,  78: 0.13015,  77: 0.37552,  76: 0.38588,  75: 0.17230,  74: 0.13518,  73:-0.04934,
                 72:-0.07564,  71:-0.25239,  70:-0.16857,  69: 0.08541,  68: 0.13106,  67: 0.35364,  66: 0.31897,  65: 0.14695,
                 64:-0.11852,  63: 0.04279,  62:-0.11822,  61:-0.03175,  60:-0.31880,  59: 0.00154,  58: 0.00100,  57: 0.15673,
                 56: 0.15438,  55: 0.15663,  54:-0.03837,  53: 0.05072,  52:-0.00012,  51: 0.12660,  50:-0.31785,  49:-0.24208,
                 48:-0.09251,  47: 0.08439,  46:-0.05420,  45: 0.36782,  44:-0.08950,  43:-0.03813,  42: 0.00634,  41: 0.09837,
                 40:-0.26138,  39:-0.05959,  38:-0.05415,  37: 0.00011,  36: 0.00550,  35:-0.04837,  34: 0.16815,  33: 0.03490,
                 32:-0.02604,  31:-0.07511,  30:-0.03347,  29: 0.04510,  28:-0.03750,  27:-0.03381,  26:-0.21936,  25:-0.10972,
                 24:-0.10339,  23:-0.09084,  22:-0.12632,  21: 0.03432,  20: 0.17290,  19: 0.03182,  18:-0.18163,  17:-0.16763,
                 16:-0.11787,  15:-0.03056,  14:-0.03524,  13: 0.01157,  12: 0.03984,  11:-0.00018,  10: 0.28145,   9: 0.14036,
                  8:-0.13025,   7:-0.01926,   6: 0.00261,   5: 0.21832,   4: 0.23001,   3: 0.18158,   2: 0.12150,   1: 0.02189
   193 |      | 160:-0.01767, 159:-0.34337, 158:-0.26360, 157:-0.21223, 156: 0.04480, 155:-0.38821, 154:-0.39741, 153: 0.02041,
                152: 0.02109, 151: 0.10642, 150:-0.26344, 149:-0.02573, 148:-0.13863, 147: 0.09395, 146:-0.08655, 145:-0.07409,
                144:-0.17300, 143:-0.06379, 142:-0.58066, 141:-0.20307, 140: 0.33797, 139: 0.16390, 138: 0.03219, 137:-0.16173,
                136:-0.41822, 135:-0.47591, 134:-0.01612, 133:-0.20077, 132:-0.38139, 131:-0.11754, 130: 0.40624, 129: 0.46255,
                128:-0.04205, 127: 0.06297, 126:-0.23420, 125: 0.11002, 124: 0.20683, 123: 0.14530, 122: 0.02043, 121: 0.32477,
                120: 0.47368, 119: 0.20466, 118:-0.20077, 117: 0.03222, 116: 0.32055, 115: 0.38909, 114: 0.40870, 113: 0.35028,
                112: 0.38163, 111: 0.40690, 110: 0.34926, 109: 0.30855, 108: 0.00138, 107: 0.18328, 106: 0.42945, 105: 0.00548,
                104: 0.00120, 103: 0.27518, 102: 0.55158, 101: 0.51570, 100: 0.02410,  99:-0.00349,  98: 0.00701,  97: 0.28161,
                 96: 0.11760,  95: 0.32602,  94: 0.33041,  93: 0.16625,  92: 0.60859,  91: 0.54271,  90:-0.21472,  89:-0.19994,
                 88: 0.19564,  87: 0.02380,  86: 0.56757,  85: 0.69570,  84: 0.03281,  83: 0.18626,  82: 0.04746,  81: 0.21279,
                 80:-0.04860,  79:-0.12006,  78: 0.08879,  77: 0.51194,  76: 0.61009,  75: 0.44670,  74: 0.57275,  73: 0.27698,
                 72: 0.16209,  71:-0.11232,  70:-0.19531,  69:-0.27352,  68:-0.09041,  67: 0.37612,  66: 0.56293,  65: 0.09632,
                 64:-0.05237,  63:-0.14363,  62:-0.25915,  61:-0.20367,  60:-0.15042,  59: 0.13012,  58: 0.21109,  57: 0.45786,
                 56: 0.08402,  55:-0.20050,  54: 0.02094,  53:-0.28445,  52:-0.50382,  51:-0.03056,  50:-0.01479,  49: 0.19718,
                 48: 0.18385,  47:-0.08965,  46:-0.07097,  45: 0.04730,  44:-0.21110,  43:-0.04605,  42:-0.06852,  41:-0.14004,
                 40:-0.17444,  39: 0.36455,  38:-0.32522,  37: 0.01814,  36: 0.07339,  35:-0.32705,  34:-0.28618,  33:-0.14786,
                 32:-0.05308,  31:-0.11247,  30:-0.20313,  29:-0.10645,  28:-0.43691,  27: 0.12241,  26:-0.10682,  25:-0.36485,
                 24:-0.33737,  23:-0.18658,  22:-0.24553,  21: 0.13854,  20:-0.06951,  19:-0.35133,  18:-0.46387,  17:-0.15427,
                 16:-0.26966,  15:-0.42186,  14:-0.10901,  13:-0.08314,  12:-0.15568,  11: 0.18587,  10: 0.23196,   9:-0.07045,
                  8:-0.32101,   7:-0.05874,   6:-0.13646,   5: 0.08695,   4: 0.10984,   3:-0.31777,   2:-0.31980,   1: 0.01406
   194 |      | 160: 0.12047, 159:-0.11944, 158:-0.02212, 157:-0.08096, 156: 0.11174, 155:-0.36619, 154:-0.28183, 153:-0.14780,
                152:-0.02907, 151:-0.06385, 150:-0.12157, 149: 0.02817, 148: 0.06274, 147: 0.14276, 146:-0.12911, 145: 0.15371,
                144:-0.20363, 143:-0.33649, 142:-0.21906, 141:-0.05922, 140:-0.03142, 139: 0.01641, 138:-0.08876, 137: 0.31787,
                136:-0.11122, 135:-0.01646, 134: 0.15475, 133:-0.06208, 132: 0.13612, 131:-0.21646, 130:-0.06757, 129: 0.04132,
                128:-0.00912, 127: 0.05636, 126:-0.12721, 125: 0.27638, 124: 0.50569, 123: 0.08148, 122: 0.16802, 121:-0.15952,
                120:-0.01043, 119:-0.17071, 118:-0.11536, 117: 0.32035, 116: 0.47555, 115: 0.71923, 114: 0.78092, 113: 0.49764,
                112: 0.53453, 111: 0.21223, 110:-0.13753, 109: 0.11867, 108: 0.17489, 107: 0.08892, 106: 0.14533, 105: 0.11220,
                104: 0.26687, 103: 0.56636, 102: 0.74033, 101: 0.30562, 100: 0.07824,  99: 0.04022,  98: 0.15445,  97:-0.07639,
                 96:-0.07459,  95: 0.08506,  94: 0.41381,  93: 0.24268,  92: 0.51174,  91: 0.42476,  90: 0.17035,  89:-0.02290,
                 88: 0.25498,  87:-0.05738,  86:-0.19463,  85: 0.02812,  84:-0.06818,  83: 0.23697,  82: 0.14763,  81: 0.21133,
                 80: 0.37572,  79:-0.08667,  78:-0.18473,  77: 0.20694,  76:-0.33423,  75: 0.06168,  74:-0.02539,  73:-0.21142,
                 72: 0.06436,  71: 0.23338,  70: 0.17372,  69:-0.08490,  68:-0.17238,  67:-0.03463,  66: 0.01654,  65:-0.13466,
                 64: 0.02101,  63:-0.09667,  62: 0.09149,  61: 0.19434,  60: 0.23680,  59: 0.07434,  58:-0.10690,  57: 0.03233,
                 56: 0.04554,  55:-0.20253,  54:-0.02541,  53:-0.16357,  52:-0.07325,  51: 0.23904,  50: 0.13378,  49: 0.24860,
                 48: 0.15673,  47:-0.11383,  46:-0.05185,  45:-0.06050,  44: 0.14038,  43:-0.10295,  42: 0.05912,  41: 0.00719,
                 40:-0.13467,  39: 0.19718,  38: 0.05296,  37:-0.19178,  36: 0.04643,  35:-0.27289,  34:-0.37528,  33:-0.23950,
                 32:-0.07059,  31: 0.03063,  30:-0.07110,  29:-0.02110,  28:-0.07082,  27:-0.27576,  26: 0.01702,  25: 0.04214,
                 24:-0.10076,  23:-0.10296,  22:-0.06605,  21: 0.14802,  20: 0.01625,  19:-0.03950,  18:-0.05947,  17:-0.07434,
                 16:-0.11993,  15:-0.08459,  14: 0.09379,  13: 0.16169,  12:-0.27196,  11: 0.05477,  10: 0.05700,   9:-0.08806,
                  8:-0.01587,   7: 0.20976,   6: 0.22241,   5:-0.24202,   4:-0.11893,   3:-0.31654,   2:-0.26172,   1: 0.03504
   195 |      | 160: 0.07924, 159: 0.09139, 158:-0.06404, 157: 0.10086, 156: 0.33859, 155: 0.11677, 154: 0.40490, 153: 0.37619,
                152: 0.32537, 151: 0.22962, 150: 0.02033, 149:-0.01348, 148: 0.08590, 147:-0.00689, 146: 0.01193, 145: 0.18054,
                144: 0.14056, 143: 0.29236, 142: 0.40715, 141: 0.11574, 140:-0.00730, 139:-0.06145, 138: 0.10828, 137: 0.29599,
                136: 0.14756, 135: 0.23121, 134: 0.29820, 133: 0.08173, 132: 0.23307, 131: 0.05430, 130:-0.00426, 129: 0.11071,
                128: 0.23167, 127: 0.08205, 126:-0.02571, 125: 0.06966, 124: 0.08977, 123: 0.18489, 122: 0.19269, 121:-0.06044,
                120:-0.01196, 119:-0.04983, 118:-0.00125, 117: 0.05787, 116:-0.11655, 115:-0.22486, 114:-0.17327, 113: 0.02492,
                112: 0.04074, 111:-0.18156, 110: 0.15494, 109:-0.02072, 108: 0.19560, 107: 0.00725, 106:-0.21859, 105:-0.09915,
                104: 0.23534, 103: 0.01223, 102:-0.27048, 101:-0.32190, 100: 0.19244,  99: 0.08654,  98: 0.02372,  97:-0.13312,
                 96:-0.14103,  95: 0.15563,  94: 0.27312,  93:-0.10367,  92:-0.35031,  91:-0.03852,  90: 0.09268,  89:-0.11725,
                 88:-0.26295,  87:-0.18569,  86: 0.07282,  85: 0.20538,  84:-0.00331,  83:-0.27888,  82:-0.30001,  81:-0.11613,
                 80:-0.10424,  79:-0.49761,  78:-0.25039,  77:-0.15473,  76:-0.18408,  75: 0.35444,  74:-0.10974,  73:-0.46657,
                 72:-0.23921,  71: 0.00969,  70:-0.33107,  69:-0.39299,  68:-0.09583,  67: 0.04398,  66:-0.06678,  65:-0.03892,
                 64:-0.15506,  63:-0.26718,  62:-0.07005,  61: 0.02237,  60: 0.03858,  59:-0.07601,  58: 0.09007,  57:-0.10077,
                 56:-0.27435,  55:-0.03165,  54:-0.29602,  53:-0.16991,  52:-0.02931,  51:-0.05558,  50: 0.08187,  49: 0.16232,
                 48:-0.00949,  47:-0.07905,  46: 0.02934,  45:-0.18560,  44: 0.16082,  43: 0.00391,  42:-0.17333,  41:-0.10292,
                 40:-0.11337,  39: 0.01496,  38: 0.02958,  37:-0.06461,  36: 0.09069,  35: 0.17078,  34:-0.04052,  33:-0.14956,
                 32:-0.25131,  31:-0.13030,  30: 0.28884,  29:-0.07290,  28: 0.09480,  27: 0.12531,  26: 0.20482,  25: 0.28325,
                 24: 0.21736,  23:-0.00040,  22:-0.13437,  21:-0.34934,  20: 0.22970,  19: 0.34149,  18: 0.42316,  17: 0.31973,
                 16: 0.30679,  15: 0.19162,  14: 0.03997,  13: 0.07837,  12:-0.19468,  11:-0.18605,  10: 0.12827,   9: 0.11457,
                  8: 0.35734,   7: 0.14724,   6: 0.23972,   5:-0.02460,   4: 0.06563,   3:-0.16905,   2:-0.04004,   1: 0.00163
   196 |      | 160: 0.27286, 159: 0.12728, 158: 0.34623, 157: 0.63756, 156: 0.11651, 155: 0.19827, 154:-0.05873, 153:-0.12461,
                152:-0.06196, 151:-0.05719, 150: 0.22856, 149: 0.43913, 148: 0.23202, 147: 0.19214, 146: 0.25334, 145: 0.20980,
                144: 0.19680, 143: 0.13856, 142: 0.08148, 141: 0.02052, 140:-0.19848, 139: 0.30338, 138: 0.48288, 137: 0.28274,
                136: 0.16865, 135: 0.28182, 134:-0.07261, 133: 0.22657, 132: 0.07915, 131: 0.25271, 130:-0.13396, 129: 0.01303,
                128: 0.41719, 127:-0.11737, 126: 0.44461, 125: 0.28303, 124: 0.53986, 123: 0.23329, 122:-0.16082, 121: 0.03432,
                120: 0.10364, 119:-0.01474, 118:-0.00962, 117:-0.48996, 116:-0.11163, 115: 0.15695, 114: 0.05512, 113: 0.01992,
                112: 0.27461, 111: 0.09097, 110:-0.24467, 109:-0.12244, 108:-0.26543, 107:-0.58118, 106:-0.36647, 105: 0.20813,
                104: 0.27262, 103:-0.24951, 102:-0.05288, 101:-0.18866, 100:-0.11231,  99:-0.48994,  98:-0.37988,  97:-0.19757,
                 96:-0.12121,  95: 0.35588,  94: 0.09560,  93: 0.09081,  92:-0.10031,  91:-0.02286,  90:-0.29892,  89:-0.48333,
                 88:-0.40988,  87: 0.12909,  86: 0.12251,  85: 0.19225,  84:-0.10476,  83:-0.29487,  82:-0.11131,  81: 0.18711,
                 80:-0.43948,  79:-0.24070,  78:-0.18422,  77:-0.15730,  76:-0.08740,  75:-0.05827,  74:-0.04628,  73: 0.04058,
                 72:-0.12012,  71: 0.25046,  70:-0.54525,  69: 0.33203,  68: 0.00068,  67:-0.14451,  66:-0.06423,  65: 0.12400,
                 64: 0.22240,  63: 0.30903,  62: 0.06464,  61: 0.04288,  60:-0.75346,  59:-0.51663,  58:-0.28090,  57:-0.27909,
                 56:-0.04215,  55:-0.10397,  54:-0.04849,  53: 0.38605,  52: 0.24759,  51: 0.02154,  50:-0.90525,  49:-0.87827,
                 48:-0.52227,  47:-0.20552,  46: 0.15326,  45:-0.06437,  44: 0.17211,  43:-0.07621,  42:-0.06588,  41: 0.24211,
                 40:-0.73691,  39:-0.70629,  38:-0.10881,  37:-0.09314,  36: 0.01142,  35: 0.07428,  34: 0.28481,  33: 0.01699,
                 32:-0.10754,  31:-0.24838,  30:-0.21747,  29:-0.12914,  28: 0.21061,  27: 0.12358,  26:-0.40425,  25: 0.12944,
                 24: 0.10514,  23:-0.49558,  22:-0.05036,  21:-0.06170,  20: 0.17015,  19: 0.61864,  18: 0.05630,  17:-0.04426,
                 16:-0.27913,  15: 0.10200,  14:-0.25104,  13:-0.24597,  12:-0.17700,  11:-0.13362,  10: 0.26545,   9:-0.02834,
                  8: 0.14482,   7: 0.22560,   6: 0.24328,   5: 0.00934,   4:-0.18807,   3:-0.31305,   2:-0.00741,   1:-0.01445
   197 |      | 160: 0.03374, 159:-0.00807, 158: 0.25333, 157:-0.27791, 156:-0.09922, 155: 0.54680, 154: 0.13603, 153:-0.16863,
                152:-0.01984, 151:-0.05723, 150:-0.13594, 149:-0.15115, 148:-0.13446, 147:-0.05289, 146:-0.13048, 145:-0.05943,
                144:-0.03006, 143:-0.23395, 142: 0.30807, 141: 0.45610, 140:-0.38262, 139:-0.19901, 138:-0.53779, 137:-0.16698,
                136:-0.04794, 135: 0.04590, 134:-0.21418, 133: 0.13015, 132: 0.17459, 131:-0.18062, 130:-0.49480, 129:-0.47561,
                128:-0.21419, 127:-0.14799, 126:-0.07817, 125:-0.29478, 124:-0.01464, 123:-0.13464, 122:-0.22763, 121:-0.25470,
                120:-0.49139, 119:-0.04058, 118: 0.09635, 117: 0.07869, 116:-0.28690, 115:-0.04249, 114: 0.10237, 113:-0.35460,
                112:-0.42645, 111:-0.22794, 110:-0.05668, 109:-0.05813, 108: 0.28758, 107: 0.43039, 106: 0.17774, 105: 0.19013,
                104:-0.19832, 103:-0.12522, 102:-0.06628, 101:-0.04914, 100:-0.06508,  99:-0.01154,  98: 0.01808,  97: 0.05075,
                 96: 0.03413,  95:-0.23451,  94:-0.23998,  93:-0.00628,  92: 0.02594,  91:-0.06081,  90: 0.18592,  89: 0.38837,
                 88:-0.03134,  87: 0.02684,  86:-0.26401,  85:-0.59068,  84: 0.10283,  83: 0.02073,  82: 0.23816,  81: 0.15489,
                 80: 0.58014,  79: 0.38849,  78: 0.09607,  77:-0.14998,  76:-0.43560,  75:-0.11167,  74: 0.27292,  73: 0.32700,
                 72: 0.22788,  71: 0.31526,  70: 0.80354,  69: 0.50266,  68: 0.26911,  67: 0.00215,  66:-0.47540,  65: 0.20143,
                 64: 0.38460,  63: 0.33597,  62: 0.41909,  61: 0.33337,  60: 0.84603,  59: 0.27550,  58:-0.10778,  57:-0.50297,
                 56:-0.08518,  55: 0.15195,  54: 0.30415,  53: 0.24098,  52: 0.32225,  51: 0.19083,  50: 0.58584,  49: 0.06173,
                 48: 0.03567,  47: 0.16283,  46:-0.31084,  45: 0.22160,  44: 0.35238,  43: 0.24218,  42: 0.08999,  41:-0.02878,
                 40: 0.53886,  39: 0.09093,  38:-0.17712,  37:-0.30432,  36:-0.28556,  35:-0.04931,  34: 0.06580,  33: 0.31747,
                 32: 0.09907,  31: 0.03625,  30: 0.09355,  29: 0.02017,  28: 0.02975,  27:-0.34038,  26:-0.26722,  25: 0.02042,
                 24: 0.07222,  23: 0.15547,  22: 0.07552,  21:-0.14596,  20:-0.23327,  19:-0.13742,  18:-0.31189,  17:-0.59234,
                 16:-0.53285,  15:-0.15741,  14:-0.14383,  13:-0.13745,  12: 0.00960,  11:-0.12032,  10:-0.45858,   9: 0.04819,
                  8: 0.12543,   7:-0.25272,   6:-0.40707,   5:-0.08788,   4: 0.03406,   3: 0.40234,   2:-0.04551,   1:-0.09010
   198 |      | 160: 0.07631, 159: 0.15313, 158: 0.18257, 157: 0.14432, 156: 0.16932, 155: 0.09257, 154: 0.30836, 153: 0.32935,
                152: 0.39904, 151: 0.22506, 150: 0.14973, 149: 0.13923, 148: 0.21943, 147: 0.20202, 146: 0.17490, 145: 0.04086,
                144: 0.13109, 143: 0.25033, 142: 0.27434, 141: 0.31080, 140: 0.22138, 139: 0.16903, 138:-0.03113, 137: 0.03015,
                136: 0.11298, 135: 0.07278, 134:-0.03811, 133:-0.17049, 132: 0.09774, 131: 0.19676, 130: 0.14501, 129: 0.23319,
                128:-0.11107, 127: 0.02828, 126: 0.01200, 125:-0.15971, 124:-0.29235, 123:-0.11010, 122:-0.00109, 121: 0.17511,
                120: 0.17741, 119: 0.14552, 118:-0.02264, 117: 0.00481, 116:-0.33724, 115:-0.31728, 114:-0.37228, 113:-0.15583,
                112: 0.05965, 111: 0.04723, 110: 0.22762, 109:-0.04975, 108:-0.07479, 107: 0.07068, 106:-0.08024, 105:-0.10447,
                104:-0.17146, 103:-0.23866, 102:-0.06395, 101: 0.03665, 100: 0.00022,  99:-0.10431,  98:-0.17662,  97:-0.06274,
                 96: 0.02493,  95:-0.16048,  94:-0.08694,  93:-0.05473,  92:-0.03285,  91: 0.00203,  90:-0.04911,  89:-0.03781,
                 88:-0.28237,  87:-0.18088,  86: 0.03987,  85:-0.28556,  84: 0.10605,  83:-0.19443,  82: 0.05159,  81: 0.02854,
                 80: 0.04213,  79: 0.02388,  78:-0.05865,  77:-0.15097,  76: 0.00433,  75:-0.17205,  74:-0.10002,  73:-0.34057,
                 72: 0.02784,  71:-0.14765,  70: 0.21176,  69: 0.14413,  68: 0.10913,  67: 0.08239,  66: 0.05731,  65:-0.07629,
                 64:-0.09913,  63:-0.01332,  62: 0.16819,  61: 0.06925,  60: 0.07214,  59: 0.12408,  58: 0.12052,  57:-0.02787,
                 56:-0.05276,  55: 0.20910,  54: 0.27291,  53: 0.14530,  52: 0.33834,  51: 0.06384,  50: 0.13003,  49:-0.02445,
                 48:-0.10758,  47:-0.11768,  46: 0.07030,  45: 0.20618,  44: 0.15671,  43: 0.18756,  42: 0.29312,  41: 0.07685,
                 40:-0.05178,  39:-0.03772,  38:-0.15377,  37:-0.14155,  36: 0.11095,  35: 0.06014,  34: 0.11687,  33: 0.15423,
                 32: 0.24448,  31: 0.12085,  30: 0.14319,  29: 0.06508,  28:-0.13216,  27: 0.04791,  26:-0.16431,  25:-0.14339,
                 24:-0.05856,  23: 0.03614,  22: 0.09089,  21:-0.02160,  20: 0.24079,  19: 0.14659,  18: 0.07019,  17:-0.11684,
                 16:-0.04426,  15:-0.06075,  14:-0.02829,  13:-0.06022,  12:-0.06546,  11:-0.12785,  10: 0.07123,   9: 0.30843,
                  8: 0.06025,   7:-0.09147,   6:-0.14462,   5: 0.02412,   4: 0.17094,   3: 0.12082,   2: 0.23777,   1:-0.04811
   199 |      | 160: 0.38933, 159: 0.01882, 158: 0.07473, 157: 0.43238, 156: 0.10532, 155:-0.00393, 154:-0.60211, 153:-0.79665,
