SNNS network definition file V1.4-3D
generated at Wed Jan 14 14:37:10 2015

network name : default
source files :
no. of units : 230
no. of connections : 7400
no. of unit types : 0
no. of site types : 0


learning function : Rprop
update function   : Topological_Order


unit default section :

act      | bias     | st | subnet | layer | act func     | out func
---------|----------|----|--------|-------|--------------|-------------
 0.00000 |  0.00000 | h  |      0 |     1 | Act_Logistic | Out_Identity 
---------|----------|----|--------|-------|--------------|-------------


unit definition section :

no. | typeName | unitName | act      | bias     | st | position | act func     | out func | sites
----|----------|----------|----------|----------|----|----------|--------------|----------|-------
  1 |          | noName   |  0.00000 |  0.49614 | i  |  1, 1, 1 | Act_Identity |          | 
  2 |          | noName   |  0.00000 |  0.61968 | i  |  2, 1, 1 | Act_Identity |          | 
  3 |          | noName   |  0.00000 | -0.75610 | i  |  3, 1, 1 | Act_Identity |          | 
  4 |          | noName   |  1.00000 |  0.27989 | i  |  4, 1, 1 | Act_Identity |          | 
  5 |          | noName   |  1.00000 | -0.23515 | i  |  5, 1, 1 | Act_Identity |          | 
  6 |          | noName   |  1.00000 |  0.57347 | i  |  6, 1, 1 | Act_Identity |          | 
  7 |          | noName   |  1.00000 |  0.23118 | i  |  7, 1, 1 | Act_Identity |          | 
  8 |          | noName   |  1.00000 |  0.38536 | i  |  8, 1, 1 | Act_Identity |          | 
  9 |          | noName   |  0.00000 | -0.59319 | i  |  9, 1, 1 | Act_Identity |          | 
 10 |          | noName   |  0.00000 |  0.29167 | i  | 10, 1, 1 | Act_Identity |          | 
 11 |          | noName   |  0.00000 | -0.41453 | i  |  1, 2, 1 | Act_Identity |          | 
 12 |          | noName   |  0.00000 | -0.52855 | i  |  2, 2, 1 | Act_Identity |          | 
 13 |          | noName   |  1.00000 |  0.67394 | i  |  3, 2, 1 | Act_Identity |          | 
 14 |          | noName   |  1.00000 |  0.99622 | i  |  4, 2, 1 | Act_Identity |          | 
 15 |          | noName   |  1.00000 | -0.29167 | i  |  5, 2, 1 | Act_Identity |          | 
 16 |          | noName   |  1.00000 | -0.86834 | i  |  6, 2, 1 | Act_Identity |          | 
 17 |          | noName   |  1.00000 | -0.60790 | i  |  7, 2, 1 | Act_Identity |          | 
 18 |          | noName   |  1.00000 |  0.38969 | i  |  8, 2, 1 | Act_Identity |          | 
 19 |          | noName   |  1.00000 |  0.95007 | i  |  9, 2, 1 | Act_Identity |          | 
 20 |          | noName   |  0.00000 |  0.94116 | i  | 10, 2, 1 | Act_Identity |          | 
 21 |          | noName   |  0.00000 | -0.04202 | i  |  1, 3, 1 | Act_Identity |          | 
 22 |          | noName   |  0.00000 |  0.91632 | i  |  2, 3, 1 | Act_Identity |          | 
 23 |          | noName   |  1.00000 |  0.07663 | i  |  3, 3, 1 | Act_Identity |          | 
 24 |          | noName   |  1.00000 | -0.69439 | i  |  4, 3, 1 | Act_Identity |          | 
 25 |          | noName   |  1.00000 |  0.04196 | i  |  5, 3, 1 | Act_Identity |          | 
 26 |          | noName   |  1.00000 | -0.09836 | i  |  6, 3, 1 | Act_Identity |          | 
 27 |          | noName   |  1.00000 | -0.89966 | i  |  7, 3, 1 | Act_Identity |          | 
 28 |          | noName   |  1.00000 | -0.77947 | i  |  8, 3, 1 | Act_Identity |          | 
 29 |          | noName   |  1.00000 |  0.56120 | i  |  9, 3, 1 | Act_Identity |          | 
 30 |          | noName   |  1.00000 | -0.11582 | i  | 10, 3, 1 | Act_Identity |          | 
 31 |          | noName   |  0.00000 | -0.46409 | i  |  1, 4, 1 | Act_Identity |          | 
 32 |          | noName   |  1.00000 | -0.24747 | i  |  2, 4, 1 | Act_Identity |          | 
 33 |          | noName   |  1.00000 |  0.48460 | i  |  3, 4, 1 | Act_Identity |          | 
 34 |          | noName   |  1.00000 |  0.45042 | i  |  4, 4, 1 | Act_Identity |          | 
 35 |          | noName   |  1.00000 |  0.14444 | i  |  5, 4, 1 | Act_Identity |          | 
 36 |          | noName   |  0.00000 | -0.94360 | i  |  6, 4, 1 | Act_Identity |          | 
 37 |          | noName   |  0.00000 | -0.96777 | i  |  7, 4, 1 | Act_Identity |          | 
 38 |          | noName   |  1.00000 | -0.11374 | i  |  8, 4, 1 | Act_Identity |          | 
 39 |          | noName   |  1.00000 | -0.77105 | i  |  9, 4, 1 | Act_Identity |          | 
 40 |          | noName   |  1.00000 | -0.26029 | i  | 10, 4, 1 | Act_Identity |          | 
 41 |          | noName   |  0.00000 |  0.83203 | i  |  1, 5, 1 | Act_Identity |          | 
 42 |          | noName   |  1.00000 | -0.04209 | i  |  2, 5, 1 | Act_Identity |          | 
 43 |          | noName   |  1.00000 | -0.45720 | i  |  3, 5, 1 | Act_Identity |          | 
 44 |          | noName   |  1.00000 |  0.38719 | i  |  4, 5, 1 | Act_Identity |          | 
 45 |          | noName   |  0.00000 |  0.59520 | i  |  5, 5, 1 | Act_Identity |          | 
 46 |          | noName   |  0.00000 |  0.13364 | i  |  6, 5, 1 | Act_Identity |          | 
 47 |          | noName   |  0.00000 |  0.87384 | i  |  7, 5, 1 | Act_Identity |          | 
 48 |          | noName   |  0.00000 |  0.05826 | i  |  8, 5, 1 | Act_Identity |          | 
 49 |          | noName   |  1.00000 |  0.87506 | i  |  9, 5, 1 | Act_Identity |          | 
 50 |          | noName   |  1.00000 |  0.55943 | i  | 10, 5, 1 | Act_Identity |          | 
 51 |          | noName   |  0.00000 |  0.36680 | i  |  1, 6, 1 | Act_Identity |          | 
 52 |          | noName   |  1.00000 | -0.43059 | i  |  2, 6, 1 | Act_Identity |          | 
 53 |          | noName   |  1.00000 | -0.53087 | i  |  3, 6, 1 | Act_Identity |          | 
 54 |          | noName   |  1.00000 |  0.10141 | i  |  4, 6, 1 | Act_Identity |          | 
 55 |          | noName   |  0.00000 | -0.35319 | i  |  5, 6, 1 | Act_Identity |          | 
 56 |          | noName   |  0.00000 |  0.37443 | i  |  6, 6, 1 | Act_Identity |          | 
 57 |          | noName   |  0.00000 |  0.02896 | i  |  7, 6, 1 | Act_Identity |          | 
 58 |          | noName   |  0.00000 |  0.76708 | i  |  8, 6, 1 | Act_Identity |          | 
 59 |          | noName   |  1.00000 |  0.80596 | i  |  9, 6, 1 | Act_Identity |          | 
 60 |          | noName   |  1.00000 |  0.85455 | i  | 10, 6, 1 | Act_Identity |          | 
 61 |          | noName   |  1.00000 |  0.43907 | i  |  1, 7, 1 | Act_Identity |          | 
 62 |          | noName   |  1.00000 |  0.81762 | i  |  2, 7, 1 | Act_Identity |          | 
 63 |          | noName   |  1.00000 |  0.31535 | i  |  3, 7, 1 | Act_Identity |          | 
 64 |          | noName   |  0.00000 |  0.83135 | i  |  4, 7, 1 | Act_Identity |          | 
 65 |          | noName   |  0.00000 |  0.52843 | i  |  5, 7, 1 | Act_Identity |          | 
 66 |          | noName   |  0.00000 | -0.11545 | i  |  6, 7, 1 | Act_Identity |          | 
 67 |          | noName   |  0.00000 |  0.92621 | i  |  7, 7, 1 | Act_Identity |          | 
 68 |          | noName   |  0.00000 |  0.11515 | i  |  8, 7, 1 | Act_Identity |          | 
 69 |          | noName   |  1.00000 | -0.32408 | i  |  9, 7, 1 | Act_Identity |          | 
 70 |          | noName   |  1.00000 |  0.40239 | i  | 10, 7, 1 | Act_Identity |          | 
 71 |          | noName   |  1.00000 |  0.62072 | i  |  1, 8, 1 | Act_Identity |          | 
 72 |          | noName   |  1.00000 | -0.09952 | i  |  2, 8, 1 | Act_Identity |          | 
 73 |          | noName   |  1.00000 | -0.12687 | i  |  3, 8, 1 | Act_Identity |          | 
 74 |          | noName   |  0.00000 |  0.67064 | i  |  4, 8, 1 | Act_Identity |          | 
 75 |          | noName   |  0.00000 |  0.67736 | i  |  5, 8, 1 | Act_Identity |          | 
 76 |          | noName   |  0.00000 |  0.82202 | i  |  6, 8, 1 | Act_Identity |          | 
 77 |          | noName   |  0.00000 |  0.80688 | i  |  7, 8, 1 | Act_Identity |          | 
 78 |          | noName   |  1.00000 | -0.14316 | i  |  8, 8, 1 | Act_Identity |          | 
 79 |          | noName   |  1.00000 | -0.08914 | i  |  9, 8, 1 | Act_Identity |          | 
 80 |          | noName   |  0.00000 |  0.48320 | i  | 10, 8, 1 | Act_Identity |          | 
 81 |          | noName   |  1.00000 |  0.52293 | i  |  1, 9, 1 | Act_Identity |          | 
 82 |          | noName   |  1.00000 |  0.25370 | i  |  2, 9, 1 | Act_Identity |          | 
 83 |          | noName   |  1.00000 | -0.84875 | i  |  3, 9, 1 | Act_Identity |          | 
 84 |          | noName   |  0.00000 |  0.27012 | i  |  4, 9, 1 | Act_Identity |          | 
 85 |          | noName   |  0.00000 |  0.23563 | i  |  5, 9, 1 | Act_Identity |          | 
 86 |          | noName   |  0.00000 | -0.89758 | i  |  6, 9, 1 | Act_Identity |          | 
 87 |          | noName   |  0.00000 | -0.97674 | i  |  7, 9, 1 | Act_Identity |          | 
 88 |          | noName   |  1.00000 |  0.26249 | i  |  8, 9, 1 | Act_Identity |          | 
 89 |          | noName   |  1.00000 |  0.84320 | i  |  9, 9, 1 | Act_Identity |          | 
 90 |          | noName   |  0.00000 | -0.70464 | i  | 10, 9, 1 | Act_Identity |          | 
 91 |          | noName   |  1.00000 | -0.91070 | i  |  1,10, 1 | Act_Identity |          | 
 92 |          | noName   |  1.00000 |  0.05557 | i  |  2,10, 1 | Act_Identity |          | 
 93 |          | noName   |  0.00000 | -0.28690 | i  |  3,10, 1 | Act_Identity |          | 
 94 |          | noName   |  0.00000 | -0.73034 | i  |  4,10, 1 | Act_Identity |          | 
 95 |          | noName   |  0.00000 | -0.58220 | i  |  5,10, 1 | Act_Identity |          | 
 96 |          | noName   |  0.00000 |  0.30424 | i  |  6,10, 1 | Act_Identity |          | 
 97 |          | noName   |  0.00000 | -0.70000 | i  |  7,10, 1 | Act_Identity |          | 
 98 |          | noName   |  1.00000 | -0.59502 | i  |  8,10, 1 | Act_Identity |          | 
 99 |          | noName   |  1.00000 |  0.64037 | i  |  9,10, 1 | Act_Identity |          | 
100 |          | noName   |  0.00000 |  0.80218 | i  | 10,10, 1 | Act_Identity |          | 
101 |          | noName   |  1.00000 |  0.15720 | i  |  1,11, 1 | Act_Identity |          | 
102 |          | noName   |  1.00000 | -0.76250 | i  |  2,11, 1 | Act_Identity |          | 
103 |          | noName   |  0.00000 | -0.44078 | i  |  3,11, 1 | Act_Identity |          | 
104 |          | noName   |  0.00000 | -0.09098 | i  |  4,11, 1 | Act_Identity |          | 
105 |          | noName   |  0.00000 | -0.09415 | i  |  5,11, 1 | Act_Identity |          | 
106 |          | noName   |  0.00000 |  0.80328 | i  |  6,11, 1 | Act_Identity |          | 
107 |          | noName   |  1.00000 |  0.36851 | i  |  7,11, 1 | Act_Identity |          | 
108 |          | noName   |  1.00000 | -0.86236 | i  |  8,11, 1 | Act_Identity |          | 
109 |          | noName   |  1.00000 |  0.72350 | i  |  9,11, 1 | Act_Identity |          | 
110 |          | noName   |  0.00000 |  0.42216 | i  | 10,11, 1 | Act_Identity |          | 
111 |          | noName   |  1.00000 |  0.55052 | i  |  1,12, 1 | Act_Identity |          | 
112 |          | noName   |  1.00000 | -0.28636 | i  |  2,12, 1 | Act_Identity |          | 
113 |          | noName   |  0.00000 |  0.91449 | i  |  3,12, 1 | Act_Identity |          | 
114 |          | noName   |  0.00000 |  0.23667 | i  |  4,12, 1 | Act_Identity |          | 
115 |          | noName   |  0.00000 | -0.48894 | i  |  5,12, 1 | Act_Identity |          | 
116 |          | noName   |  0.00000 |  0.92065 | i  |  6,12, 1 | Act_Identity |          | 
117 |          | noName   |  1.00000 | -0.87481 | i  |  7,12, 1 | Act_Identity |          | 
118 |          | noName   |  1.00000 | -0.18375 | i  |  8,12, 1 | Act_Identity |          | 
119 |          | noName   |  1.00000 | -0.98480 | i  |  9,12, 1 | Act_Identity |          | 
120 |          | noName   |  0.00000 | -0.95740 | i  | 10,12, 1 | Act_Identity |          | 
121 |          | noName   |  1.00000 |  0.76641 | i  |  1,13, 1 | Act_Identity |          | 
122 |          | noName   |  1.00000 | -0.85870 | i  |  2,13, 1 | Act_Identity |          | 
123 |          | noName   |  1.00000 | -0.51378 | i  |  3,13, 1 | Act_Identity |          | 
124 |          | noName   |  0.00000 |  0.71697 | i  |  4,13, 1 | Act_Identity |          | 
125 |          | noName   |  0.00000 | -0.79589 | i  |  5,13, 1 | Act_Identity |          | 
126 |          | noName   |  1.00000 | -0.72204 | i  |  6,13, 1 | Act_Identity |          | 
127 |          | noName   |  1.00000 | -0.76952 | i  |  7,13, 1 | Act_Identity |          | 
128 |          | noName   |  1.00000 | -0.49034 | i  |  8,13, 1 | Act_Identity |          | 
129 |          | noName   |  1.00000 | -0.71581 | i  |  9,13, 1 | Act_Identity |          | 
130 |          | noName   |  0.00000 |  0.05716 | i  | 10,13, 1 | Act_Identity |          | 
131 |          | noName   |  1.00000 |  0.65081 | i  |  1,14, 1 | Act_Identity |          | 
132 |          | noName   |  1.00000 | -0.47380 | i  |  2,14, 1 | Act_Identity |          | 
133 |          | noName   |  1.00000 | -0.24986 | i  |  3,14, 1 | Act_Identity |          | 
134 |          | noName   |  1.00000 | -0.93011 | i  |  4,14, 1 | Act_Identity |          | 
135 |          | noName   |  1.00000 |  0.50993 | i  |  5,14, 1 | Act_Identity |          | 
136 |          | noName   |  1.00000 |  0.86956 | i  |  6,14, 1 | Act_Identity |          | 
137 |          | noName   |  1.00000 |  0.11808 | i  |  7,14, 1 | Act_Identity |          | 
138 |          | noName   |  1.00000 | -0.70818 | i  |  8,14, 1 | Act_Identity |          | 
139 |          | noName   |  0.00000 |  0.30821 | i  |  9,14, 1 | Act_Identity |          | 
140 |          | noName   |  0.00000 |  0.75860 | i  | 10,14, 1 | Act_Identity |          | 
141 |          | noName   |  0.00000 |  0.57213 | i  |  1,15, 1 | Act_Identity |          | 
142 |          | noName   |  1.00000 | -0.35160 | i  |  2,15, 1 | Act_Identity |          | 
143 |          | noName   |  1.00000 | -0.16379 | i  |  3,15, 1 | Act_Identity |          | 
144 |          | noName   |  1.00000 | -0.88073 | i  |  4,15, 1 | Act_Identity |          | 
145 |          | noName   |  1.00000 |  0.44072 | i  |  5,15, 1 | Act_Identity |          | 
146 |          | noName   |  1.00000 | -0.16501 | i  |  6,15, 1 | Act_Identity |          | 
147 |          | noName   |  1.00000 | -0.03378 | i  |  7,15, 1 | Act_Identity |          | 
148 |          | noName   |  1.00000 |  0.46098 | i  |  8,15, 1 | Act_Identity |          | 
149 |          | noName   |  0.00000 | -0.18192 | i  |  9,15, 1 | Act_Identity |          | 
150 |          | noName   |  0.00000 | -0.29759 | i  | 10,15, 1 | Act_Identity |          | 
151 |          | noName   |  0.00000 | -0.25584 | i  |  1,16, 1 | Act_Identity |          | 
152 |          | noName   |  0.00000 |  0.85009 | i  |  2,16, 1 | Act_Identity |          | 
153 |          | noName   |  1.00000 | -0.10727 | i  |  3,16, 1 | Act_Identity |          | 
154 |          | noName   |  1.00000 |  0.52220 | i  |  4,16, 1 | Act_Identity |          | 
155 |          | noName   |  1.00000 | -0.15519 | i  |  5,16, 1 | Act_Identity |          | 
156 |          | noName   |  1.00000 | -0.20591 | i  |  6,16, 1 | Act_Identity |          | 
157 |          | noName   |  0.00000 |  0.54534 | i  |  7,16, 1 | Act_Identity |          | 
158 |          | noName   |  0.00000 |  0.44255 | i  |  8,16, 1 | Act_Identity |          | 
159 |          | noName   |  0.00000 | -0.54680 | i  |  9,16, 1 | Act_Identity |          | 
160 |          | noName   |  0.00000 | -0.15152 | i  | 10,16, 1 | Act_Identity |          | 
161 |          | noName   |  0.99883 | -0.50784 | o  | 25, 3, 1 |||
162 |          | noName   |  0.00010 | -0.85598 | o  | 25, 4, 1 |||
163 |          | noName   |  0.00054 | -1.00062 | o  | 25, 5, 1 |||
164 |          | noName   |  0.00008 | -0.38523 | o  | 25, 6, 1 |||
165 |          | noName   |  0.00036 | -0.83974 | o  | 25, 7, 1 |||
166 |          | noName   |  0.00072 | -1.32645 | o  | 25, 8, 1 |||
167 |          | noName   |  0.00054 | -0.92246 | o  | 25, 9, 1 |||
168 |          | noName   |  0.00057 | -0.78387 | o  | 25,10, 1 |||
169 |          | noName   |  0.00046 | -0.72680 | o  | 25,11, 1 |||
170 |          | noName   |  0.00073 | -0.62372 | o  | 25,12, 1 |||
171 |          | noName   |  0.95482 | -0.57016 | h  | 14, 3, 1 |||
172 |          | noName   |  0.99411 | -0.14157 | h  | 15, 3, 1 |||
173 |          | noName   |  0.68598 |  0.19667 | h  | 16, 3, 1 |||
174 |          | noName   |  0.99699 | -0.01028 | h  | 17, 3, 1 |||
175 |          | noName   |  0.78359 |  0.00923 | h  | 14, 4, 1 |||
176 |          | noName   |  0.12305 |  0.23403 | h  | 15, 4, 1 |||
177 |          | noName   |  0.04550 | -0.15613 | h  | 16, 4, 1 |||
178 |          | noName   |  0.06894 |  0.07708 | h  | 17, 4, 1 |||
179 |          | noName   |  0.11874 | -0.36099 | h  | 14, 5, 1 |||
180 |          | noName   |  0.82821 |  0.07620 | h  | 15, 5, 1 |||
181 |          | noName   |  0.05106 | -0.32130 | h  | 16, 5, 1 |||
182 |          | noName   |  0.05276 |  0.29188 | h  | 17, 5, 1 |||
183 |          | noName   |  0.81295 |  0.13815 | h  | 14, 6, 1 |||
184 |          | noName   |  0.02811 | -0.04407 | h  | 15, 6, 1 |||
185 |          | noName   |  0.74359 | -0.20986 | h  | 16, 6, 1 |||
186 |          | noName   |  0.00105 |  0.19899 | h  | 17, 6, 1 |||
187 |          | noName   |  0.01717 | -0.06590 | h  | 14, 7, 1 |||
188 |          | noName   |  0.00037 |  0.12620 | h  | 15, 7, 1 |||
189 |          | noName   |  0.89286 |  0.01336 | h  | 16, 7, 1 |||
190 |          | noName   |  0.98901 |  0.04086 | h  | 17, 7, 1 |||
191 |          | noName   |  0.98356 | -0.17382 | h  | 14, 8, 1 |||
192 |          | noName   |  0.98786 |  0.02934 | h  | 15, 8, 1 |||
193 |          | noName   |  0.95291 | -0.07100 | h  | 16, 8, 1 |||
194 |          | noName   |  0.98055 |  0.03958 | h  | 17, 8, 1 |||
195 |          | noName   |  0.97860 | -0.04019 | h  | 14, 9, 1 |||
196 |          | noName   |  0.00100 |  0.01417 | h  | 15, 9, 1 |||
197 |          | noName   |  0.92800 |  0.36085 | h  | 16, 9, 1 |||
198 |          | noName   |  0.06467 |  0.24341 | h  | 17, 9, 1 |||
199 |          | noName   |  0.99369 | -0.25681 | h  | 14,10, 1 |||
200 |          | noName   |  0.02068 |  0.11595 | h  | 15,10, 1 |||
201 |          | noName   |  0.98958 | -0.16312 | h  | 16,10, 1 |||
202 |          | noName   |  0.01855 |  0.30716 | h  | 17,10, 1 |||
203 |          | noName   |  0.98868 |  0.11198 | h  | 14,11, 1 |||
204 |          | noName   |  0.76895 |  0.05026 | h  | 15,11, 1 |||
205 |          | noName   |  0.98427 |  0.03031 | h  | 16,11, 1 |||
206 |          | noName   |  0.03943 |  0.20992 | h  | 17,11, 1 |||
207 |          | noName   |  0.98623 | -0.19906 | h  | 14,12, 1 |||
208 |          | noName   |  0.00398 |  0.31473 | h  | 15,12, 1 |||
209 |          | noName   |  0.14147 |  0.43621 | h  | 16,12, 1 |||
210 |          | noName   |  0.97980 |  0.13096 | h  | 17,12, 1 |||
211 |          | noName   |  0.96956 |  0.09791 | h  | 20, 3, 1 |||
212 |          | noName   |  0.95798 | -0.06392 | h  | 21, 3, 1 |||
213 |          | noName   |  0.12406 |  0.03435 | h  | 20, 4, 1 |||
214 |          | noName   |  0.92890 |  0.12617 | h  | 21, 4, 1 |||
215 |          | noName   |  0.97981 |  0.04355 | h  | 20, 5, 1 |||
216 |          | noName   |  0.03945 |  0.09920 | h  | 21, 5, 1 |||
217 |          | noName   |  0.94303 | -0.07124 | h  | 20, 6, 1 |||
218 |          | noName   |  0.93789 |  0.01378 | h  | 21, 6, 1 |||
219 |          | noName   |  0.98653 |  0.08387 | h  | 20, 7, 1 |||
220 |          | noName   |  0.04896 | -0.25671 | h  | 21, 7, 1 |||
221 |          | noName   |  0.93099 |  0.19911 | h  | 20, 8, 1 |||
222 |          | noName   |  0.13729 | -0.00292 | h  | 21, 8, 1 |||
223 |          | noName   |  0.93640 |  0.10394 | h  | 20, 9, 1 |||
224 |          | noName   |  0.90089 |  0.00295 | h  | 21, 9, 1 |||
225 |          | noName   |  0.03973 |  0.21424 | h  | 20,10, 1 |||
226 |          | noName   |  0.14572 | -0.13224 | h  | 21,10, 1 |||
227 |          | noName   |  0.94053 |  0.09846 | h  | 20,11, 1 |||
228 |          | noName   |  0.09807 |  0.11267 | h  | 21,11, 1 |||
229 |          | noName   |  0.09750 |  0.13083 | h  | 20,12, 1 |||
230 |          | noName   |  0.06347 |  0.17077 | h  | 21,12, 1 |||
----|----------|----------|----------|----------|----|----------|--------------|----------|-------


connection definition section :

target | site | source:weight
-------|------|----------------------------------------------------------------------------------------------------------------
   161 |      | 230:-2.56831, 229:-3.02899, 228:-2.48606, 227: 0.54740, 226:-1.06236, 225:-2.64991, 224: 1.33299, 223: 1.01992,
                222:-1.74909, 221: 1.16646, 220:-0.61059, 219:-0.38901, 218: 0.83617, 217: 0.34365, 216:-2.08677, 215: 0.12871,
                214: 2.11847, 213:-3.04499, 212: 1.20675, 211: 1.25598
   162 |      | 230: 0.26150, 229: 0.01711, 228:-0.06087, 227: 0.20731, 226:-1.37973, 225: 0.29825, 224: 1.12251, 223:-2.03874,
                222: 1.42967, 221: 0.19877, 220:-0.54240, 219:-4.43201, 218: 1.57007, 217:-2.70799, 216: 0.59473, 215:-3.82162,
                214: 1.88125, 213: 1.23497, 212:-1.35350, 211: 0.77692
   163 |      | 230: 1.29266, 229:-0.38283, 228:-3.75300, 227:-3.52917, 226: 1.90991, 225: 0.98023, 224:-2.42524, 223: 2.14095,
                222:-1.99180, 221: 0.36263, 220:-0.71123, 219:-0.83515, 218:-2.37931, 217:-3.36772, 216: 0.52901, 215:-0.26463,
                214: 1.44537, 213: 1.96255, 212: 1.65050, 211: 0.25993
   164 |      | 230:-2.74070, 229:-0.10556, 228: 1.07464, 227:-2.85941, 226:-1.68011, 225: 1.50444, 224:-1.76798, 223:-1.96111,
                222: 1.78140, 221: 1.13408, 220:-1.10707, 219:-0.02265, 218:-2.22869, 217: 1.30039, 216: 1.60755, 215: 0.08675,
                214: 1.97388, 213:-3.61102, 212:-1.77552, 211:-2.95531
   165 |      | 230: 1.47726, 229:-0.09089, 228: 1.26724, 227: 0.28732, 226:-1.57972, 225: 0.79140, 224:-3.12271, 223: 2.08262,
                222:-1.91781, 221:-2.78693, 220:-0.20082, 219:-0.18054, 218: 0.51558, 217: 0.85363, 216: 0.78885, 215:-3.96489,
                214:-2.08759, 213:-3.03293, 212: 0.85644, 211: 0.61049
   166 |      | 230: 1.15393, 229: 0.58581, 228: 0.08143, 227: 1.15116, 226:-1.95838, 225:-3.53272, 224:-3.11815, 223: 1.34637,
                222: 0.54582, 221:-0.31373, 220: 4.44191, 219:-0.86178, 218:-3.34941, 217: 0.01772, 216:-3.07420, 215:-0.60817,
                214: 0.93623, 213: 0.83491, 212:-2.32051, 211: 0.81480
   167 |      | 230: 1.82281, 229:-4.62230, 228: 1.03225, 227:-0.70456, 226:-0.38370, 225: 1.45652, 224: 1.04809, 223: 1.78672,
                222: 1.50950, 221: 0.47030, 220:-1.43029, 219:-0.19145, 218: 0.88490, 217:-0.23497, 216:-2.90561, 215: 0.02273,
                214:-3.40379, 213: 0.90771, 212:-2.71056, 211:-3.68959
   168 |      | 230: 0.52449, 229:-0.20327, 228: 1.17265, 227: 1.42287, 226: 2.52758, 225:-2.22398, 224: 2.27633, 223:-2.16623,
                222:-2.54845, 221: 0.40783, 220:-0.30759, 219: 0.43293, 218:-2.68861, 217:-2.43351, 216: 0.42777, 215: 0.93602,
                214:-3.12037, 213:-3.12846, 212:-2.51395, 211: 0.69794
   169 |      | 230:-2.59384, 229: 0.88857, 228:-3.90932, 227: 1.25059, 226:-1.56687, 225: 1.05806, 224: 1.94195, 223:-2.94577,
                222:-2.54429, 221:-2.94588, 220:-0.09603, 219:-0.50896, 218: 0.70958, 217:-0.01205, 216: 1.75538, 215: 0.46206,
                214:-2.06747, 213: 2.01961, 212: 1.12873, 211:-3.57051
   170 |      | 230:-2.13937, 229:-0.02700, 228: 1.17369, 227:-2.94208, 226: 2.72457, 225:-2.82562, 224:-1.62348, 223:-2.19519,
                222: 2.03344, 221:-2.60091, 220:-0.92921, 219:-0.53090, 218: 1.46992, 217: 0.26386, 216:-3.12270, 215: 0.00309,
                214:-2.12253, 213: 1.33613, 212: 1.18028, 211: 1.34036
   171 |      | 160: 0.05094, 159:-0.11412, 158:-0.04883, 157:-0.55178, 156: 0.07479, 155:-0.06619, 154:-0.04250, 153: 0.14143,
                152: 0.06509, 151: 0.08575, 150:-0.18257, 149: 0.06842, 148:-0.11597, 147:-0.08844, 146: 0.01159, 145: 0.04098,
                144: 0.01955, 143:-0.09361, 142:-0.12977, 141: 0.04393, 140: 0.16219, 139: 0.05022, 138:-0.11710, 137: 0.45168,
                136:-0.00602, 135: 0.05396, 134:-0.20234, 133:-0.19605, 132: 0.03640, 131:-0.20522, 130: 0.27948, 129: 0.23707,
                128: 0.04334, 127:-0.03301, 126:-0.14585, 125:-0.31963, 124:-0.33207, 123:-0.25097, 122: 0.28624, 121: 0.02258,
                120: 0.23750, 119: 0.08184, 118: 0.08593, 117: 0.38978, 116:-0.00182, 115: 0.18610, 114:-0.01403, 113: 0.13242,
                112: 0.44886, 111: 0.07408, 110: 0.09833, 109: 0.08718, 108: 0.10593, 107: 0.12737, 106: 0.19817, 105: 0.01880,
                104: 0.03363, 103: 0.16313, 102: 0.60532, 101: 0.27659, 100: 0.18523,  99:-0.21710,  98:-0.13536,  97:-0.02771,
                 96: 0.01587,  95: 0.06099,  94: 0.15568,  93: 0.14744,  92: 0.34913,  91: 0.26500,  90:-0.05031,  89: 0.16446,
                 88: 0.12959,  87:-0.02807,  86: 0.00318,  85:-0.06384,  84: 0.07104,  83: 0.15365,  82: 0.13561,  81: 0.16421,
                 80: 0.20956,  79: 0.03497,  78:-0.10482,  77: 0.08605,  76:-0.10839,  75:-0.10468,  74: 0.21906,  73: 0.13475,
                 72: 0.26259,  71: 0.23135,  70: 0.55945,  69: 0.00414,  68: 0.13633,  67: 0.08440,  66: 0.08693,  65:-0.10836,
                 64: 0.16814,  63: 0.32091,  62: 0.39378,  61: 0.16902,  60: 0.51169,  59: 0.33264,  58: 0.20820,  57:-0.25092,
                 56: 0.11140,  55: 0.13109,  54: 0.27321,  53: 0.27458,  52: 0.12384,  51: 0.32555,  50: 0.28045,  49: 0.00201,
                 48: 0.10868,  47:-0.05147,  46:-0.06187,  45: 0.12637,  44: 0.12605,  43: 0.13033,  42: 0.47975,  41: 0.07989,
                 40: 0.12623,  39: 0.12791,  38: 0.01332,  37:-0.16894,  36: 0.06430,  35:-0.12725,  34:-0.28212,  33:-0.13355,
                 32: 0.15397,  31: 0.07918,  30: 0.18947,  29:-0.08580,  28:-0.37496,  27:-0.07806,  26:-0.14581,  25:-0.25249,
                 24:-0.35066,  23:-0.07602,  22:-0.24665,  21:-0.10967,  20:-0.18717,  19:-0.18254,  18:-0.28535,  17:-0.40788,
                 16:-0.51163,  15:-0.39958,  14:-0.34476,  13:-0.46677,  12:-0.38603,  11:-0.20239,  10:-0.07062,   9: 0.08129,
                  8: 0.04790,   7: 0.08387,   6:-0.10994,   5: 0.03907,   4:-0.10492,   3:-0.08035,   2:-0.05144,   1: 0.02206
   172 |      | 160: 0.08481, 159: 0.09516, 158: 0.12849, 157:-0.05021, 156:-0.16855, 155: 0.01274, 154:-0.08325, 153:-0.15765,
                152:-0.08044, 151:-0.01199, 150: 0.13369, 149: 0.04565, 148:-0.06639, 147:-0.18356, 146: 0.23256, 145:-0.05052,
                144: 0.00268, 143:-0.27089, 142: 0.05241, 141: 0.11132, 140:-0.13986, 139: 0.02133, 138: 0.14291, 137: 0.22937,
                136: 0.10480, 135: 0.06573, 134:-0.14009, 133: 0.09228, 132:-0.10656, 131: 0.04921, 130:-0.11317, 129: 0.03431,
                128: 0.31983, 127:-0.03113, 126: 0.45202, 125: 0.04915, 124:-0.02612, 123:-0.11266, 122:-0.22768, 121:-0.11018,
                120:-0.14207, 119: 0.09716, 118: 0.12199, 117: 0.12469, 116: 0.10481, 115:-0.16019, 114:-0.35643, 113:-0.20716,
                112: 0.17971, 111: 0.12351, 110:-0.03052, 109: 0.14392, 108: 0.31120, 107: 0.26415, 106: 0.13865, 105:-0.07822,
                104:-0.12992, 103:-0.04907, 102: 0.30966, 101: 0.08436, 100: 0.02615,  99:-0.09831,  98: 0.26444,  97:-0.02121,
                 96: 0.15955,  95:-0.04329,  94:-0.19234,  93: 0.23306,  92: 0.20314,  91: 0.18043,  90: 0.22219,  89: 0.31379,
                 88: 0.11607,  87:-0.09127,  86:-0.18851,  85:-0.34260,  84: 0.07868,  83:-0.05566,  82:-0.04681,  81: 0.14239,
                 80: 0.32400,  79: 0.15436,  78:-0.02076,  77:-0.22171,  76:-0.10737,  75:-0.13040,  74: 0.06836,  73: 0.21414,
                 72: 0.25972,  71: 0.09699,  70: 0.32571,  69: 0.39650,  68: 0.10261,  67:-0.22895,  66:-0.15730,  65:-0.12535,
                 64: 0.34213,  63: 0.44746,  62: 0.38691,  61: 0.12240,  60: 0.24056,  59:-0.11269,  58:-0.30049,  57:-0.34669,
                 56: 0.01379,  55: 0.11132,  54: 0.10170,  53: 0.34428,  52: 0.35369,  51: 0.13216,  50:-0.21886,  49:-0.36148,
                 48:-0.24711,  47:-0.03298,  46:-0.14506,  45: 0.00980,  44: 0.19270,  43: 0.23387,  42: 0.11866,  41: 0.09669,
                 40:-0.25688,  39:-0.22240,  38:-0.06041,  37:-0.24009,  36:-0.22152,  35:-0.11305,  34: 0.06702,  33: 0.15660,
                 32: 0.11708,  31:-0.08192,  30: 0.10045,  29: 0.10068,  28: 0.21180,  27:-0.26727,  26:-0.37979,  25:-0.03202,
                 24:-0.07269,  23:-0.12456,  22:-0.09865,  21:-0.09381,  20: 0.27185,  19: 0.59007,  18: 0.14558,  17:-0.10764,
                 16:-0.31988,  15:-0.20761,  14:-0.32742,  13:-0.23084,  12:-0.13225,  11:-0.10845,  10: 0.02342,   9: 0.17809,
                  8: 0.40573,   7: 0.07607,   6: 0.00373,   5: 0.01052,   4:-0.12965,   3:-0.01303,   2: 0.33664,   1: 0.21506
   173 |      | 160: 0.10854, 159:-0.03759, 158: 0.23447, 157: 0.09153, 156:-0.03983, 155: 0.02014, 154:-0.02538, 153:-0.32517,
                152:-0.08370, 151:-0.13881, 150:-0.12616, 149:-0.13203, 148: 0.06434, 147:-0.11478, 146:-0.28151, 145:-0.21468,
                144:-0.40038, 143:-0.34450, 142:-0.06416, 141:-0.01107, 140:-0.47169, 139:-0.18285, 138:-0.40481, 137:-0.57611,
                136:-0.03961, 135:-0.16781, 134: 0.11237, 133: 0.18761, 132: 0.09992, 131:-0.12626, 130:-0.65236, 129:-0.40482,
                128:-0.24953, 127:-0.06024, 126: 0.02538, 125: 0.24523, 124: 0.24705, 123: 0.25499, 122: 0.25576, 121:-0.04790,
                120:-0.53871, 119:-0.18394, 118:-0.09367, 117:-0.17767, 116:-0.09162, 115:-0.10231, 114: 0.09329, 113: 0.01514,
                112: 0.42088, 111: 0.09139, 110: 0.08127, 109: 0.02011, 108: 0.17051, 107: 0.10712, 106:-0.04963, 105: 0.00260,
                104:-0.49608, 103: 0.11047, 102: 0.20974, 101: 0.11512, 100:-0.12420,  99: 0.18938,  98: 0.13919,  97: 0.04971,
                 96: 0.00285,  95:-0.45431,  94:-0.36943,  93: 0.08162,  92: 0.20619,  91: 0.08993,  90: 0.18163,  89: 0.07808,
                 88:-0.06247,  87:-0.12034,  86:-0.07515,  85:-0.52588,  84:-0.30207,  83:-0.05810,  82: 0.02363,  81: 0.18850,
                 80: 0.50800,  79: 0.40332,  78:-0.04941,  77:-0.06783,  76:-0.20164,  75:-0.41790,  74:-0.02121,  73: 0.05841,
                 72: 0.01172,  71: 0.04243,  70: 0.44764,  69: 0.31329,  68: 0.01995,  67:-0.21977,  66:-0.38783,  65:-0.00492,
                 64: 0.16467,  63: 0.28458,  62: 0.04709,  61:-0.00428,  60: 0.38662,  59: 0.16120,  58:-0.01054,  57: 0.00798,
                 56:-0.07075,  55: 0.11182,  54: 0.23838,  53: 0.05920,  52: 0.02459,  51:-0.12475,  50: 0.43866,  49: 0.27828,
                 48: 0.14825,  47:-0.05506,  46:-0.05303,  45: 0.27528,  44: 0.27218,  43: 0.12641,  42:-0.03881,  41:-0.11477,
                 40: 0.55290,  39: 0.10047,  38:-0.19173,  37:-0.28929,  36:-0.24454,  35:-0.04791,  34:-0.05413,  33: 0.21571,
                 32: 0.11231,  31: 0.13386,  30: 0.05572,  29: 0.24249,  28:-0.05967,  27:-0.23002,  26:-0.41982,  25: 0.04819,
                 24:-0.07640,  23:-0.09232,  22: 0.05651,  21: 0.05190,  20: 0.01120,  19: 0.07705,  18:-0.16047,  17:-0.25730,
                 16:-0.23327,  15:-0.22747,  14:-0.26638,  13:-0.01860,  12:-0.00948,  11: 0.18466,  10:-0.32975,   9: 0.11046,
                  8: 0.02980,   7: 0.01562,   6:-0.31604,   5:-0.14002,   4:-0.18245,   3: 0.06507,   2: 0.11740,   1: 0.10958
   174 |      | 160:-0.19331, 159: 0.01992, 158:-0.10077, 157:-0.04499, 156:-0.00192, 155: 0.15530, 154: 0.13891, 153: 0.09749,
                152: 0.23743, 151: 0.14095, 150:-0.03583, 149:-0.20472, 148: 0.05076, 147:-0.00877, 146: 0.00729, 145:-0.16337,
                144: 0.01125, 143: 0.07109, 142: 0.41698, 141: 0.29499, 140: 0.25275, 139:-0.32454, 138:-0.48613, 137:-0.28619,
                136: 0.03301, 135:-0.01710, 134:-0.15261, 133:-0.20607, 132: 0.27917, 131: 0.27372, 130:-0.10713, 129:-0.51140,
                128:-0.38992, 127: 0.03793, 126: 0.02922, 125:-0.30864, 124:-0.47619, 123:-0.11945, 122:-0.03838, 121:-0.00280,
                120:-0.40780, 119:-0.28238, 118: 0.15116, 117: 0.08953, 116:-0.01788, 115:-0.20090, 114:-0.15532, 113:-0.06840,
                112:-0.18923, 111:-0.22963, 110:-0.21030, 109: 0.19079, 108: 0.08662, 107: 0.06737, 106: 0.01763, 105:-0.10009,
                104:-0.09255, 103: 0.18814, 102:-0.34527, 101:-0.07234, 100:-0.37243,  99: 0.39190,  98: 0.16313,  97: 0.10340,
                 96:-0.03310,  95:-0.46073,  94:-0.49854,  93:-0.10027,  92:-0.26461,  91:-0.30683,  90: 0.02898,  89: 0.04429,
                 88: 0.31757,  87:-0.08362,  86:-0.24422,  85:-0.30809,  84:-0.11201,  83: 0.09009,  82:-0.04913,  81:-0.23715,
                 80: 0.39639,  79: 0.49695,  78:-0.06884,  77:-0.21884,  76:-0.06432,  75:-0.26368,  74:-0.33545,  73:-0.51000,
                 72:-0.13152,  71:-0.41548,  70: 0.57182,  69: 0.20692,  68: 0.16951,  67:-0.22624,  66:-0.02383,  65:-0.01500,
                 64:-0.16342,  63:-0.07693,  62:-0.10946,  61:-0.13112,  60: 0.29350,  59: 0.49021,  58: 0.30412,  57: 0.20665,
                 56: 0.05272,  55: 0.04121,  54:-0.00847,  53:-0.21357,  52: 0.28992,  51: 0.12674,  50: 0.38296,  49: 0.41954,
                 48: 0.32078,  47: 0.21062,  46: 0.03100,  45: 0.05527,  44:-0.09459,  43: 0.05805,  42: 0.02177,  41: 0.17814,
                 40: 0.44829,  39: 0.24574,  38: 0.10401,  37: 0.12599,  36:-0.01718,  35:-0.03879,  34: 0.18958,  33: 0.18418,
                 32: 0.13752,  31: 0.42379,  30: 0.04439,  29: 0.35383,  28: 0.04341,  27:-0.18627,  26: 0.28243,  25: 0.07891,
                 24: 0.31089,  23: 0.53124,  22: 0.28797,  21: 0.27584,  20: 0.20040,  19: 0.00265,  18: 0.27389,  17: 0.20852,
                 16: 0.45471,  15: 0.44943,  14: 0.52361,  13: 0.41213,  12: 0.60871,  11: 0.18185,  10:-0.35948,   9: 0.03384,
                  8: 0.06310,   7: 0.01458,   6: 0.14848,   5: 0.01348,   4: 0.21250,   3: 0.44828,   2: 0.05577,   1: 0.05506
   175 |      | 160: 0.03477, 159: 0.06076, 158: 0.07306, 157: 0.06433, 156: 0.20595, 155: 0.05020, 154: 0.06667, 153: 0.22024,
                152: 0.30909, 151: 0.19106, 150:-0.01804, 149: 0.09600, 148: 0.01900, 147: 0.13773, 146:-0.13004, 145: 0.02613,
                144:-0.20624, 143:-0.02938, 142:-0.19666, 141: 0.04241, 140: 0.05819, 139: 0.01936, 138:-0.03254, 137:-0.03397,
                136:-0.14683, 135:-0.14068, 134: 0.22641, 133: 0.27046, 132: 0.28413, 131: 0.25949, 130: 0.03750, 129: 0.25437,
                128:-0.03773, 127: 0.06590, 126:-0.17109, 125: 0.27041, 124: 0.21136, 123: 0.44906, 122: 0.55981, 121: 0.47594,
                120: 0.11631, 119:-0.01843, 118:-0.20143, 117:-0.15066, 116:-0.00188, 115:-0.18879, 114: 0.00553, 113: 0.36829,
                112: 0.81121, 111: 0.39723, 110: 0.21565, 109: 0.08492, 108:-0.26588, 107:-0.09775, 106:-0.07946, 105:-0.22396,
                104:-0.07682, 103: 0.17255, 102: 0.44678, 101: 0.39945, 100: 0.01756,  99:-0.05020,  98:-0.05245,  97: 0.04315,
                 96:-0.39235,  95:-0.17480,  94: 0.06302,  93:-0.03176,  92: 0.36297,  91: 0.29016,  90: 0.00654,  89:-0.19000,
                 88:-0.14273,  87:-0.12793,  86:-0.01833,  85:-0.08674,  84:-0.35349,  83:-0.18776,  82:-0.13829,  81: 0.11363,
                 80: 0.03814,  79:-0.05900,  78: 0.12734,  77: 0.25916,  76:-0.08673,  75:-0.16459,  74:-0.11556,  73:-0.43021,
                 72:-0.26602,  71:-0.14177,  70:-0.11829,  69:-0.19548,  68:-0.03582,  67: 0.21459,  66:-0.00700,  65:-0.40763,
                 64:-0.18616,  63:-0.04390,  62:-0.07566,  61:-0.23019,  60: 0.15742,  59: 0.01056,  58: 0.11012,  57: 0.10353,
                 56:-0.26671,  55:-0.44131,  54:-0.15979,  53:-0.08446,  52:-0.04855,  51:-0.07613,  50: 0.48205,  49: 0.24973,
                 48: 0.14981,  47:-0.29263,  46:-0.15875,  45:-0.22462,  44: 0.01579,  43:-0.06568,  42:-0.08976,  41: 0.12578,
                 40: 0.27413,  39: 0.16620,  38:-0.00550,  37:-0.33243,  36:-0.13017,  35:-0.08805,  34:-0.20825,  33: 0.00118,
                 32:-0.08492,  31: 0.13982,  30: 0.20192,  29: 0.30061,  28:-0.03577,  27:-0.11040,  26:-0.35952,  25:-0.07904,
                 24:-0.16533,  23:-0.26240,  22:-0.34200,  21:-0.26321,  20: 0.04640,  19: 0.15174,  18: 0.34953,  17: 0.24878,
                 16:-0.09076,  15:-0.42182,  14:-0.41964,  13:-0.42778,  12:-0.42656,  11:-0.26160,  10: 0.16435,   9: 0.14174,
                  8: 0.00891,   7: 0.11074,   6:-0.30034,   5:-0.20466,   4:-0.16327,   3:-0.30498,   2:-0.26056,   1:-0.09811
   176 |      | 160: 0.20180, 159: 0.19943, 158: 0.27421, 157: 0.21108, 156: 0.02828, 155: 0.12057, 154:-0.19060, 153:-0.04739,
                152:-0.14625, 151: 0.04537, 150: 0.11399, 149: 0.13647, 148: 0.16490, 147: 0.16131, 146: 0.10144, 145:-0.00750,
                144:-0.09241, 143:-0.03883, 142: 0.03597, 141: 0.00994, 140: 0.27338, 139:-0.06767, 138:-0.06243, 137:-0.07739,
                136: 0.16998, 135: 0.03605, 134:-0.25932, 133:-0.15957, 132:-0.25584, 131: 0.00933, 130: 0.13134, 129:-0.24442,
                128: 0.00307, 127:-0.05605, 126: 0.35384, 125: 0.16461, 124:-0.17675, 123:-0.15140, 122:-0.46196, 121:-0.08762,
                120:-0.15646, 119:-0.22915, 118: 0.01968, 117:-0.02441, 116: 0.38748, 115: 0.40443, 114: 0.15890, 113: 0.02052,
                112:-0.59767, 111:-0.27204, 110:-0.17262, 109:-0.03453, 108:-0.08477, 107: 0.21674, 106: 0.37093, 105: 0.07120,
                104: 0.14363, 103:-0.06966, 102:-0.55459, 101:-0.14008, 100:-0.32837,  99:-0.00964,  98:-0.06543,  97: 0.24078,
                 96: 0.40910,  95: 0.01069,  94: 0.01049,  93:-0.10766,  92:-0.34773,  91:-0.24082,  90:-0.03204,  89:-0.18083,
                 88: 0.08917,  87: 0.20694,  86: 0.25095,  85: 0.07006,  84: 0.07635,  83:-0.01385,  82:-0.18481,  81:-0.17052,
                 80:-0.07718,  79: 0.11134,  78:-0.00826,  77: 0.14981,  76: 0.37191,  75: 0.24477,  74: 0.07922,  73:-0.16924,
                 72:-0.24559,  71:-0.35088,  70: 0.05853,  69: 0.21390,  68: 0.18973,  67: 0.19719,  66: 0.21268,  65: 0.25591,
                 64:-0.03050,  63: 0.03002,  62:-0.30759,  61: 0.01393,  60: 0.08358,  59: 0.41528,  58: 0.19073,  57: 0.20462,
                 56: 0.21335,  55: 0.19288,  54: 0.03673,  53:-0.07989,  52: 0.00503,  51: 0.11213,  50: 0.16940,  49: 0.27683,
                 48:-0.01116,  47: 0.13285,  46: 0.03523,  45: 0.08006,  44:-0.16611,  43:-0.04450,  42:-0.02546,  41: 0.08954,
                 40:-0.01511,  39:-0.02078,  38:-0.01428,  37: 0.06947,  36: 0.07366,  35:-0.10649,  34: 0.15533,  33: 0.14956,
                 32:-0.08450,  31: 0.14743,  30:-0.10977,  29: 0.02543,  28:-0.04950,  27:-0.16110,  26: 0.02963,  25: 0.05995,
                 24: 0.17172,  23: 0.33848,  22: 0.18721,  21: 0.14262,  20: 0.04342,  19:-0.16499,  18:-0.16347,  17:-0.10304,
                 16: 0.17638,  15: 0.24194,  14: 0.31256,  13: 0.41336,  12: 0.36172,  11: 0.14886,  10:-0.01161,   9: 0.08248,
                  8: 0.07171,   7: 0.09325,   6: 0.12495,   5: 0.06773,   4: 0.17939,   3: 0.21522,   2: 0.10757,   1: 0.23461
   177 |      | 160:-0.17124, 159:-0.07572, 158: 0.08097, 157: 0.12832, 156:-0.34965, 155: 0.25469, 154:-0.11949, 153: 0.03546,
                152:-0.19316, 151:-0.22836, 150:-0.00740, 149: 0.16926, 148:-0.03327, 147:-0.22511, 146:-0.05009, 145: 0.03263,
                144: 0.30887, 143: 0.12999, 142:-0.20637, 141:-0.06344, 140:-0.37516, 139: 0.09479, 138: 0.48164, 137: 0.22095,
                136:-0.18225, 135: 0.20029, 134: 0.07409, 133: 0.22407, 132:-0.23474, 131: 0.12883, 130:-0.19987, 129: 0.21511,
                128: 0.38275, 127: 0.05788, 126: 0.42455, 125: 0.26071, 124: 0.39607, 123: 0.02323, 122:-0.30633, 121:-0.04553,
                120: 0.46950, 119: 0.41864, 118:-0.11177, 117:-0.13127, 116:-0.07188, 115:-0.05752, 114:-0.15899, 113:-0.32951,
                112:-0.13251, 111: 0.20220, 110: 0.23193, 109:-0.05403, 108:-0.08371, 107:-0.34032, 106:-0.16213, 105: 0.05333,
                104:-0.04663, 103:-0.46065, 102:-0.10893, 101:-0.02773, 100: 0.29204,  99:-0.39866,  98:-0.08770,  97:-0.20771,
                 96:-0.17527,  95: 0.30249,  94: 0.09629,  93: 0.20929,  92: 0.00675,  91: 0.07515,  90:-0.08007,  89:-0.20597,
                 88:-0.26356,  87:-0.08503,  86:-0.10210,  85: 0.10739,  84:-0.11284,  83:-0.07206,  82:-0.04168,  81: 0.17038,
                 80:-0.47828,  79:-0.24552,  78:-0.14158,  77:-0.14015,  76: 0.12619,  75: 0.14414,  74: 0.08169,  73: 0.40157,
                 72: 0.12846,  71: 0.31943,  70:-0.55932,  69:-0.00187,  68: 0.01082,  67:-0.19421,  66:-0.08305,  65: 0.17586,
                 64: 0.30865,  63: 0.31046,  62: 0.17220,  61: 0.04386,  60:-0.86531,  59:-0.61030,  58:-0.31725,  57:-0.18674,
                 56:-0.04478,  55: 0.07434,  54: 0.00787,  53: 0.29225,  52: 0.16387,  51:-0.13821,  50:-1.21049,  49:-0.92668,
                 48:-0.49528,  47:-0.13634,  46: 0.18784,  45:-0.01311,  44: 0.00333,  43: 0.08908,  42: 0.07522,  41:-0.02902,
                 40:-0.70495,  39:-0.51615,  38:-0.07926,  37: 0.18877,  36: 0.14078,  35: 0.16760,  34: 0.11977,  33: 0.03977,
                 32:-0.08848,  31:-0.42221,  30: 0.00925,  29: 0.18841,  28: 0.29306,  27: 0.27072,  26:-0.24345,  25: 0.05965,
                 24: 0.12817,  23:-0.31260,  22:-0.25995,  21:-0.33102,  20: 0.31652,  19: 0.68176,  18: 0.10684,  17: 0.17809,
                 16:-0.27222,  15:-0.09279,  14:-0.31231,  13:-0.27149,  12:-0.37451,  11:-0.04681,  10: 0.51762,   9: 0.01491,
                  8: 0.03457,   7: 0.00695,   6: 0.22788,   5: 0.10034,   4:-0.30835,   3:-0.43416,   2: 0.44895,   1:-0.13011
   178 |      | 160: 0.34387, 159: 0.23825, 158: 0.52493, 157: 0.11820, 156: 0.22548, 155: 0.13035, 154: 0.14641, 153: 0.36434,
                152: 0.02234, 151: 0.15513, 150: 0.03335, 149: 0.23577, 148: 0.19643, 147: 0.30285, 146: 0.18539, 145: 0.04281,
                144: 0.12611, 143: 0.02709, 142:-0.11749, 141: 0.20290, 140: 0.23800, 139: 0.08918, 138:-0.01131, 137:-0.01336,
                136: 0.15840, 135: 0.00268, 134:-0.05462, 133:-0.04453, 132:-0.07870, 131:-0.21626, 130: 0.28272, 129: 0.15497,
                128:-0.15267, 127:-0.05159, 126:-0.19957, 125:-0.27797, 124: 0.04032, 123:-0.16956, 122:-0.17850, 121: 0.10459,
                120: 0.15343, 119: 0.03536, 118:-0.10516, 117:-0.05848, 116:-0.05444, 115: 0.25751, 114: 0.34662, 113: 0.01866,
                112:-0.23951, 111:-0.19496, 110: 0.16514, 109:-0.22890, 108:-0.08295, 107: 0.22575, 106: 0.32148, 105: 0.14038,
                104: 0.15940, 103:-0.04442, 102:-0.26899, 101:-0.18703, 100:-0.37499,  99:-0.15714,  98:-0.09621,  97: 0.42916,
                 96: 0.23288,  95:-0.05989,  94: 0.24319,  93:-0.29051,  92:-0.10458,  91:-0.17950,  90:-0.15141,  89: 0.03780,
                 88:-0.32554,  87: 0.02584,  86: 0.39535,  85: 0.03088,  84: 0.25588,  83:-0.07134,  82:-0.07532,  81:-0.08438,
                 80: 0.00910,  79: 0.10656,  78: 0.02375,  77: 0.13913,  76: 0.27739,  75: 0.16628,  74: 0.10635,  73:-0.17850,
                 72:-0.18874,  71:-0.21692,  70: 0.39961,  69: 0.16755,  68:-0.02082,  67: 0.66544,  66: 0.21504,  65: 0.18711,
                 64:-0.06455,  63:-0.09017,  62:-0.14660,  61: 0.29058,  60: 0.40707,  59: 0.42130,  58: 0.30473,  57:-0.00936,
                 56: 0.15758,  55: 0.14385,  54: 0.18548,  53: 0.26392,  52: 0.09127,  51: 0.21558,  50: 0.77731,  49: 0.36410,
                 48: 0.16197,  47:-0.10020,  46:-0.04087,  45: 0.18473,  44: 0.05769,  43: 0.10534,  42: 0.30936,  41: 0.02443,
                 40: 0.15071,  39: 0.10536,  38:-0.17436,  37:-0.25843,  36:-0.04690,  35:-0.08215,  34: 0.20399,  33: 0.19757,
                 32: 0.02278,  31:-0.00145,  30:-0.21444,  29:-0.19244,  28:-0.35481,  27:-0.12626,  26:-0.27972,  25:-0.11511,
                 24:-0.26162,  23:-0.07330,  22:-0.05369,  21: 0.04794,  20:-0.55818,  19:-0.60528,  18:-0.56291,  17:-0.68374,
                 16:-0.40072,  15:-0.40880,  14:-0.21333,  13:-0.28948,  12:-0.17059,  11:-0.14611,  10:-0.35049,   9:-0.02532,
                  8: 0.06797,   7: 0.10737,   6:-0.30450,   5:-0.06625,   4: 0.00468,   3: 0.15317,   2: 0.02025,   1: 0.01984
   179 |      | 160: 0.08416, 159: 0.03974, 158: 0.02647, 157:-0.01548, 156: 0.06154, 155: 0.05384, 154: 0.55565, 153: 0.17435,
                152: 0.09149, 151: 0.09759, 150: 0.19998, 149:-0.13652, 148: 0.01843, 147: 0.07969, 146: 0.18045, 145: 0.03359,
                144: 0.00611, 143: 0.17211, 142: 0.02697, 141: 0.05145, 140: 0.04614, 139: 0.03614, 138: 0.11714, 137: 0.06451,
                136: 0.11830, 135: 0.07935, 134:-0.16494, 133:-0.30078, 132:-0.25861, 131:-0.24804, 130: 0.26934, 129:-0.01049,
                128: 0.01749, 127:-0.02794, 126:-0.10522, 125:-0.32390, 124:-0.40170, 123:-0.31282, 122:-0.36873, 121:-0.21710,
                120: 0.30694, 119: 0.26767, 118: 0.18607, 117: 0.22403, 116:-0.07679, 115:-0.05762, 114:-0.25835, 113:-0.36265,
                112:-0.95262, 111:-0.32185, 110: 0.08228, 109:-0.08616, 108: 0.06925, 107: 0.20232, 106:-0.02669, 105:-0.03372,
                104:-0.20180, 103:-0.29710, 102:-0.40074, 101:-0.45064, 100: 0.45559,  99: 0.17347,  98:-0.04206,  97: 0.01622,
                 96: 0.04877,  95: 0.08996,  94:-0.00114,  93:-0.22083,  92:-0.24621,  91:-0.31832,  90: 0.20290,  89: 0.52090,
                 88: 0.24102,  87: 0.11423,  86: 0.04721,  85: 0.18766,  84: 0.26246,  83:-0.04210,  82: 0.04931,  81: 0.01375,
                 80: 0.19189,  79: 0.31233,  78: 0.37905,  77:-0.02050,  76:-0.08141,  75: 0.00224,  74: 0.05968,  73: 0.19049,
                 72: 0.05017,  71: 0.22597,  70: 0.12629,  69: 0.11061,  68:-0.15416,  67: 0.23916,  66: 0.15186,  65: 0.07697,
                 64:-0.36739,  63:-0.35356,  62:-0.02543,  61: 0.11282,  60: 0.33667,  59: 0.27292,  58: 0.10437,  57: 0.12971,
                 56:-0.33786,  55:-0.33761,  54:-0.21275,  53:-0.16985,  52:-0.40308,  51:-0.10474,  50: 0.33381,  49: 0.29576,
                 48:-0.01510,  47: 0.04670,  46:-0.14378,  45:-0.14317,  44:-0.21719,  43:-0.04362,  42: 0.01290,  41:-0.12257,
                 40: 0.30408,  39: 0.25128,  38:-0.09469,  37: 0.03707,  36:-0.15146,  35: 0.04326,  34:-0.10452,  33:-0.07957,
                 32: 0.00979,  31:-0.15869,  30: 0.16465,  29:-0.34778,  28:-0.36421,  27:-0.05097,  26: 0.24955,  25:-0.53919,
                 24:-0.08229,  23: 0.22451,  22: 0.12279,  21:-0.01955,  20:-0.41006,  19:-0.42630,  18:-0.30302,  17:-0.44216,
                 16: 0.06031,  15:-0.21918,  14:-0.00471,  13: 0.02431,  12:-0.08797,  11:-0.03676,  10:-0.35901,   9:-0.25233,
                  8:-0.13406,   7:-0.03442,   6:-0.10118,   5: 0.07998,   4: 0.10687,   3:-0.03709,   2:-0.42030,   1:-0.07711
   180 |      | 160:-0.00531, 159: 0.00064, 158:-0.11169, 157:-0.22437, 156:-0.31377, 155:-0.19581, 154:-0.30472, 153:-0.25816,
                152:-0.12109, 151: 0.02973, 150:-0.01471, 149:-0.08720, 148:-0.00738, 147:-0.21241, 146:-0.15672, 145: 0.04381,
                144: 0.29584, 143:-0.04621, 142: 0.24554, 141: 0.12269, 140:-0.24839, 139:-0.03442, 138:-0.03801, 137: 0.00133,
                136:-0.06555, 135: 0.08448, 134: 0.28457, 133:-0.07517, 132: 0.29877, 131: 0.19137, 130:-0.33208, 129:-0.28509,
                128: 0.03031, 127:-0.09020, 126: 0.03174, 125: 0.00148, 124: 0.27721, 123:-0.01554, 122:-0.03800, 121:-0.31352,
                120:-0.50188, 119:-0.26524, 118:-0.06044, 117:-0.23596, 116:-0.10032, 115: 0.06908, 114: 0.16993, 113:-0.01356,
                112: 0.00243, 111:-0.20630, 110:-0.26180, 109:-0.12181, 108: 0.02163, 107:-0.26090, 106: 0.03149, 105: 0.27190,
                104: 0.38099, 103:-0.06916, 102:-0.44198, 101:-0.30570, 100:-0.29972,  99:-0.03701,  98:-0.03319,  97:-0.16522,
                 96: 0.01896,  95: 0.03962,  94: 0.04784,  93: 0.08483,  92:-0.49161,  91:-0.36857,  90: 0.07976,  89: 0.09736,
                 88: 0.00087,  87:-0.03196,  86:-0.26095,  85:-0.35236,  84:-0.02631,  83: 0.01986,  82:-0.11118,  81:-0.26876,
                 80: 0.33152,  79: 0.13856,  78:-0.13931,  77:-0.14779,  76:-0.04162,  75: 0.08358,  74:-0.41152,  73:-0.21146,
                 72:-0.03723,  71: 0.16044,  70: 0.40227,  69: 0.14890,  68: 0.20707,  67:-0.04532,  66:-0.26527,  65: 0.11326,
                 64: 0.20087,  63:-0.00270,  62: 0.28867,  61: 0.35652,  60: 0.25589,  59:-0.01170,  58:-0.13689,  57:-0.12146,
                 56: 0.06981,  55: 0.08958,  54: 0.01995,  53: 0.20519,  52: 0.56780,  51: 0.39001,  50: 0.05081,  49:-0.08674,
                 48:-0.00820,  47: 0.07611,  46: 0.00711,  45:-0.14274,  44: 0.21500,  43: 0.09536,  42:-0.02691,  41:-0.03228,
                 40: 0.03975,  39:-0.11695,  38: 0.13716,  37: 0.08750,  36: 0.06314,  35: 0.19586,  34: 0.24016,  33:-0.03857,
                 32:-0.05761,  31:-0.03057,  30: 0.05394,  29: 0.18569,  28: 0.44149,  27:-0.00883,  26: 0.20073,  25: 0.27961,
                 24: 0.05368,  23:-0.08546,  22: 0.05516,  21: 0.00084,  20: 0.14600,  19: 0.28697,  18: 0.27033,  17: 0.31329,
                 16: 0.09029,  15: 0.25084,  14: 0.07870,  13: 0.09206,  12: 0.27777,  11:-0.00575,  10: 0.13034,   9:-0.04690,
                  8: 0.25103,   7:-0.06430,   6: 0.24607,   5:-0.09741,   4:-0.15605,   3: 0.42000,   2: 0.54154,   1: 0.13875
   181 |      | 160: 0.01755, 159:-0.02706, 158:-0.30284, 157:-0.49977, 156:-0.36355, 155:-0.39834, 154:-0.38324, 153:-0.39949,
                152:-0.28208, 151:-0.07541, 150: 0.02491, 149:-0.20579, 148:-0.37764, 147:-0.35127, 146:-0.19083, 145:-0.41082,
                144:-0.32738, 143:-0.43664, 142: 0.03904, 141: 0.10188, 140:-0.12455, 139:-0.31130, 138:-0.07322, 137: 0.03166,
                136:-0.06065, 135:-0.12729, 134:-0.27383, 133:-0.12441, 132:-0.21872, 131:-0.39248, 130:-0.13183, 129:-0.28257,
                128: 0.09391, 127:-0.15514, 126:-0.10210, 125:-0.36739, 124:-0.29137, 123:-0.25750, 122:-0.42849, 121:-0.57509,
                120:-0.11916, 119:-0.01943, 118: 0.02573, 117: 0.16981, 116: 0.16326, 115: 0.16847, 114: 0.02452, 113:-0.27504,
                112:-0.64725, 111:-0.18209, 110:-0.02319, 109: 0.22869, 108: 0.39031, 107: 0.33180, 106: 0.27883, 105: 0.14711,
                104: 0.01517, 103: 0.09497, 102: 0.02975, 101:-0.11526, 100: 0.18462,  99: 0.12500,  98: 0.16634,  97: 0.20942,
                 96: 0.53084,  95: 0.32362,  94:-0.07650,  93: 0.20814,  92: 0.10854,  91:-0.00143,  90: 0.34946,  89: 0.37356,
                 88: 0.39145,  87: 0.41906,  86: 0.03048,  85:-0.02556,  84: 0.20352,  83: 0.18974,  82: 0.01774,  81:-0.05897,
                 80: 0.39931,  79: 0.16882,  78: 0.39019,  77: 0.21959,  76:-0.13918,  75: 0.08424,  74: 0.03614,  73: 0.32048,
                 72: 0.14858,  71: 0.23767,  70: 0.29571,  69: 0.37672,  68: 0.36776,  67: 0.12090,  66:-0.26948,  65: 0.03064,
                 64: 0.03567,  63: 0.09275,  62: 0.01353,  61: 0.12918,  60: 0.24590,  59: 0.26015,  58: 0.06953,  57:-0.15357,
                 56:-0.01759,  55:-0.04530,  54:-0.09147,  53:-0.16784,  52:-0.16017,  51: 0.08243,  50:-0.05108,  49: 0.30142,
                 48: 0.15507,  47: 0.16928,  46:-0.41173,  45:-0.09575,  44: 0.01301,  43:-0.12658,  42:-0.28137,  41:-0.18153,
                 40: 0.08659,  39: 0.17818,  38: 0.06679,  37:-0.10091,  36:-0.24288,  35:-0.23675,  34:-0.02902,  33:-0.18799,
                 32:-0.12519,  31:-0.03266,  30: 0.32393,  29: 0.08855,  28: 0.16371,  27:-0.10639,  26: 0.18584,  25:-0.04716,
                 24: 0.07009,  23: 0.19504,  22:-0.04292,  21:-0.05025,  20: 0.21655,  19: 0.16268,  18:-0.12510,  17:-0.32774,
                 16:-0.22999,  15: 0.02668,  14: 0.07794,  13: 0.05954,  12: 0.14209,  11: 0.07289,  10: 0.10244,   9:-0.02719,
                  8: 0.12167,   7:-0.14628,   6: 0.14865,   5: 0.02367,   4:-0.11259,   3: 0.17556,   2: 0.12211,   1: 0.11795
   182 |      | 160: 0.16396, 159: 0.20753, 158: 0.21990, 157: 0.36229, 156: 0.03397, 155: 0.01609, 154:-0.20579, 153: 0.12952,
                152: 0.11213, 151: 0.22278, 150: 0.21538, 149: 0.23793, 148: 0.10366, 147: 0.18267, 146: 0.11409, 145:-0.05405,
                144: 0.00510, 143: 0.07333, 142: 0.13808, 141: 0.15631, 140: 0.15098, 139: 0.02287, 138: 0.10880, 137:-0.03634,
                136:-0.12192, 135:-0.03335, 134:-0.14808, 133: 0.06530, 132:-0.14812, 131:-0.02830, 130: 0.20944, 129: 0.03364,
                128:-0.01885, 127:-0.15395, 126: 0.19966, 125: 0.26477, 124: 0.16600, 123: 0.11483, 122:-0.30902, 121:-0.01880,
                120: 0.20472, 119: 0.02804, 118:-0.04283, 117:-0.05337, 116: 0.41986, 115: 0.43558, 114: 0.27218, 113: 0.06053,
                112:-0.38858, 111:-0.08707, 110:-0.00591, 109: 0.03603, 108:-0.05070, 107: 0.22785, 106: 0.40850, 105: 0.36935,
                104: 0.25628, 103:-0.02295, 102:-0.21786, 101:-0.03711, 100:-0.12263,  99:-0.08369,  98: 0.07030,  97: 0.32579,
                 96: 0.39894,  95: 0.39134,  94: 0.21788,  93:-0.04086,  92:-0.13119,  91:-0.03220,  90:-0.10985,  89:-0.05488,
                 88: 0.25815,  87: 0.28712,  86: 0.38150,  85: 0.32345,  84: 0.08632,  83:-0.08365,  82:-0.07869,  81:-0.08578,
                 80:-0.13474,  79:-0.05286,  78: 0.19171,  77: 0.39442,  76: 0.43737,  75: 0.28592,  74: 0.15549,  73:-0.05908,
                 72:-0.12826,  71:-0.18677,  70:-0.25642,  69: 0.06380,  68: 0.17614,  67: 0.33997,  66: 0.30575,  65: 0.25812,
                 64:-0.05985,  63:-0.04631,  62:-0.17056,  61:-0.04678,  60:-0.32885,  59: 0.00144,  58: 0.03509,  57: 0.15911,
                 56: 0.19953,  55: 0.15633,  54:-0.04819,  53:-0.02692,  52:-0.11251,  51: 0.06061,  50:-0.29894,  49:-0.09220,
                 48:-0.09829,  47: 0.11016,  46:-0.03517,  45: 0.21351,  44:-0.10664,  43:-0.09486,  42:-0.06934,  41: 0.05838,
                 40:-0.25616,  39:-0.07290,  38:-0.08338,  37: 0.09483,  36: 0.04035,  35:-0.06586,  34: 0.13278,  33: 0.04695,
                 32:-0.06849,  31:-0.06577,  30:-0.05282,  29: 0.01436,  28:-0.03064,  27:-0.02150,  26:-0.12566,  25:-0.03686,
                 24:-0.01892,  23:-0.00698,  22:-0.00111,  21: 0.09950,  20: 0.21884,  19: 0.04540,  18:-0.11286,  17:-0.08867,
                 16:-0.07510,  15: 0.05112,  14: 0.06100,  13: 0.05497,  12: 0.10877,  11: 0.06775,  10: 0.27092,   9: 0.13182,
                  8:-0.07012,   7: 0.02063,   6:-0.03527,   5: 0.09535,   4: 0.15365,   3: 0.15215,   2: 0.09165,   1: 0.05720
   183 |      | 160:-0.10226, 159:-0.17798, 158:-0.05558, 157:-0.23087, 156: 0.00618, 155: 0.26968, 154: 0.24274, 153:-0.08380,
                152:-0.33340, 151:-0.37162, 150:-0.24667, 149:-0.22708, 148: 0.02637, 147:-0.06275, 146:-0.08634, 145: 0.22343,
                144: 0.01699, 143:-0.05555, 142:-0.20760, 141:-0.37809, 140:-0.16360, 139:-0.08877, 138:-0.02284, 137: 0.10829,
                136: 0.29606, 135: 0.16299, 134: 0.16865, 133: 0.00147, 132:-0.01577, 131:-0.13031, 130:-0.24115, 129:-0.15605,
                128: 0.17673, 127: 0.28435, 126:-0.00537, 125: 0.07541, 124: 0.26564, 123:-0.06867, 122: 0.10065, 121: 0.03389,
                120:-0.22796, 119:-0.09708, 118: 0.08179, 117: 0.15329, 116:-0.19168, 115:-0.07616, 114: 0.02460, 113:-0.19068,
                112: 0.18167, 111: 0.08854, 110:-0.00693, 109:-0.18004, 108:-0.01055, 107:-0.28464, 106:-0.27726, 105: 0.00963,
                104: 0.07968, 103:-0.12853, 102:-0.06011, 101:-0.10153, 100: 0.07742,  99: 0.09759,  98:-0.09553,  97:-0.28615,
                 96:-0.31380,  95:-0.00297,  94: 0.13231,  93:-0.14153,  92:-0.07455,  91:-0.08569,  90: 0.07875,  89: 0.01541,
                 88:-0.40621,  87:-0.29080,  86:-0.17720,  85:-0.01704,  84:-0.07350,  83: 0.02612,  82: 0.04720,  81: 0.00175,
                 80: 0.14597,  79:-0.00218,  78:-0.43203,  77:-0.30288,  76:-0.21878,  75: 0.14178,  74:-0.08942,  73: 0.08905,
                 72: 0.03228,  71: 0.05039,  70: 0.24349,  69:-0.17942,  68:-0.34002,  67:-0.04724,  66: 0.04434,  65: 0.03973,
                 64: 0.14597,  63: 0.10186,  62: 0.10263,  61: 0.07927,  60: 0.30741,  59:-0.13959,  58:-0.08047,  57: 0.14017,
                 56: 0.20315,  55:-0.07808,  54: 0.01001,  53: 0.13477,  52: 0.03324,  51:-0.10181,  50: 0.33406,  49: 0.01950,
                 48: 0.11595,  47: 0.19390,  46: 0.20129,  45:-0.05214,  44: 0.09965,  43: 0.08668,  42:-0.03425,  41:-0.07870,
                 40: 0.06616,  39: 0.03544,  38: 0.17602,  37: 0.11251,  36: 0.03912,  35: 0.16258,  34:-0.02925,  33:-0.04785,
                 32:-0.03013,  31:-0.05942,  30:-0.17997,  29:-0.15739,  28:-0.01399,  27:-0.02718,  26: 0.01695,  25: 0.10859,
                 24: 0.13814,  23:-0.12537,  22:-0.10981,  21:-0.13223,  20:-0.54735,  19:-0.37013,  18:-0.03644,  17: 0.10918,
                 16: 0.01639,  15: 0.01702,  14: 0.02978,  13:-0.07446,  12:-0.13639,  11:-0.09390,  10:-0.43937,   9:-0.41810,
                  8: 0.07002,   7: 0.16394,   6:-0.00508,   5: 0.02435,   4:-0.16383,   3:-0.18567,   2:-0.18963,   1:-0.03628
   184 |      | 160:-0.23804, 159: 0.06490, 158: 0.08350, 157: 0.19929, 156:-0.24810, 155: 0.27366, 154: 0.20464, 153: 0.21072,
                152: 0.24579, 151: 0.14085, 150: 0.21962, 149:-0.00027, 148: 0.02376, 147:-0.07981, 146: 0.23568, 145: 0.00496,
                144: 0.28249, 143: 0.42563, 142:-0.02349, 141: 0.10302, 140: 0.19660, 139: 0.08150, 138: 0.30119, 137:-0.17166,
                136: 0.05163, 135: 0.07112, 134:-0.14170, 133:-0.01929, 132:-0.25462, 131: 0.49153, 130: 0.22276, 129: 0.09818,
                128: 0.07167, 127:-0.06572, 126: 0.24533, 125: 0.02795, 124:-0.47051, 123:-0.11994, 122:-0.16691, 121: 0.24711,
                120: 0.26100, 119: 0.21545, 118: 0.01946, 117:-0.38792, 116:-0.37741, 115:-0.60412, 114:-0.76181, 113:-0.61989,
                112:-0.66333, 111:-0.08833, 110: 0.27320, 109:-0.03176, 108:-0.37923, 107:-0.22630, 106:-0.46424, 105:-0.28881,
                104:-0.50207, 103:-0.60514, 102:-0.69417, 101:-0.29227, 100: 0.24242,  99: 0.16626,  98:-0.15874,  97:-0.02959,
                 96:-0.12563,  95:-0.23026,  94:-0.31863,  93:-0.10939,  92:-0.34101,  91:-0.41625,  90:-0.19811,  89:-0.24526,
                 88:-0.36847,  87:-0.16426,  86: 0.03890,  85:-0.10911,  84:-0.00388,  83:-0.01740,  82:-0.00624,  81:-0.11726,
                 80:-0.60553,  79:-0.12166,  78: 0.07271,  77:-0.32521,  76: 0.14894,  75:-0.26266,  74:-0.01068,  73: 0.22057,
                 72:-0.10678,  71:-0.22720,  70:-0.63298,  69:-0.17001,  68:-0.28565,  67:-0.05400,  66: 0.11121,  65: 0.00169,
                 64:-0.28825,  63:-0.23839,  62:-0.20725,  61:-0.32225,  60:-0.58230,  59:-0.43793,  58: 0.05201,  57: 0.22939,
                 56:-0.37870,  55:-0.18915,  54:-0.24028,  53:-0.16770,  52:-0.14734,  51:-0.45221,  50:-0.37858,  49:-0.39053,
                 48:-0.37244,  47:-0.12903,  46: 0.05085,  45:-0.13261,  44:-0.29754,  43:-0.09449,  42:-0.09816,  41:-0.03403,
                 40:-0.05858,  39:-0.10955,  38:-0.20055,  37: 0.26243,  36:-0.02680,  35: 0.46173,  34: 0.16636,  33: 0.24508,
                 32:-0.08491,  31:-0.18776,  30:-0.03446,  29: 0.20822,  28: 0.07492,  27: 0.33867,  26: 0.14268,  25:-0.02833,
                 24: 0.42589,  23: 0.22502,  22: 0.08895,  21:-0.01954,  20: 0.12652,  19: 0.19432,  18: 0.28544,  17: 0.37666,
                 16: 0.44802,  15: 0.23253,  14:-0.01621,  13: 0.00390,  12: 0.11932,  11: 0.12474,  10: 0.08560,   9: 0.01092,
                  8:-0.15208,   7:-0.16150,   6:-0.08248,   5: 0.09217,   4: 0.16091,   3:-0.04519,   2: 0.31095,   1:-0.03664
   185 |      | 160:-0.21805, 159:-0.06060, 158: 0.02037, 157:-0.32441, 156:-0.05263, 155:-0.26914, 154:-0.49495, 153: 0.04809,
                152:-0.06057, 151:-0.09112, 150:-0.05908, 149: 0.17789, 148: 0.09265, 147: 0.03788, 146: 0.04908, 145: 0.12070,
                144:-0.11142, 143:-0.17397, 142:-0.63868, 141:-0.24679, 140: 0.24799, 139: 0.12740, 138:-0.13181, 137: 0.26498,
                136:-0.07864, 135:-0.17037, 134: 0.00174, 133:-0.18440, 132: 0.02969, 131: 0.17142, 130: 0.23571, 129: 0.50603,
                128:-0.15763, 127: 0.18513, 126: 0.12593, 125: 0.17817, 124: 0.03161, 123: 0.03694, 122: 0.59909, 121: 0.32026,
                120: 0.15929, 119: 0.11849, 118:-0.16443, 117: 0.22640, 116: 0.11479, 115:-0.03433, 114: 0.21694, 113: 0.49921,
                112: 0.86270, 111: 0.31920, 110: 0.08315, 109: 0.19696, 108:-0.23694, 107:-0.09715, 106: 0.04780, 105:-0.21277,
                104:-0.07009, 103: 0.17759, 102: 0.72891, 101: 0.59760, 100:-0.13676,  99:-0.26240,  98:-0.02359,  97:-0.12552,
                 96:-0.04987,  95:-0.07433,  94: 0.18957,  93: 0.29402,  92: 0.35558,  91: 0.32270,  90:-0.21911,  89:-0.01336,
                 88: 0.10041,  87:-0.05895,  86:-0.09463,  85: 0.07569,  84:-0.25090,  83: 0.32713,  82: 0.11620,  81: 0.01240,
                 80:-0.00400,  79:-0.12495,  78:-0.24122,  77: 0.36969,  76: 0.28339,  75:-0.26525,  74: 0.22314,  73:-0.00136,
                 72: 0.06735,  71:-0.14789,  70: 0.38411,  69:-0.01121,  68: 0.06368,  67: 0.16296,  66: 0.18715,  65:-0.17905,
                 64: 0.10877,  63: 0.30663,  62: 0.25475,  61:-0.04543,  60: 0.35506,  59: 0.18688,  58:-0.12984,  57: 0.00626,
                 56: 0.24746,  55: 0.39302,  54: 0.45608,  53: 0.19774,  52: 0.13211,  51: 0.22468,  50: 0.29657,  49: 0.06498,
                 48: 0.01921,  47:-0.01212,  46:-0.04517,  45: 0.40772,  44: 0.21872,  43: 0.14368,  42: 0.46430,  41: 0.14480,
                 40:-0.01793,  39: 0.09516,  38: 0.00814,  37:-0.03139,  36: 0.14943,  35:-0.12661,  34:-0.20218,  33:-0.03821,
                 32: 0.43731,  31: 0.35006,  30: 0.09035,  29: 0.08021,  28:-0.41172,  27:-0.29235,  26:-0.36057,  25:-0.24494,
                 24:-0.44179,  23:-0.12169,  22:-0.15700,  21:-0.13234,  20:-0.04754,  19:-0.27830,  18:-0.32981,  17:-0.03714,
                 16:-0.51300,  15:-0.65997,  14:-0.41420,  13:-0.31930,  12:-0.33003,  11:-0.16435,  10: 0.07808,   9: 0.15058,
                  8:-0.28443,   7:-0.04746,   6:-0.39126,   5:-0.22821,   4:-0.24522,   3:-0.31441,   2: 0.19128,   1: 0.07666
   186 |      | 160: 0.00023, 159:-0.14236, 158:-0.42833, 157: 0.20251, 156:-0.20264, 155:-0.53102, 154:-0.00411, 153:-0.32306,
                152: 0.08515, 151: 0.01335, 150: 0.07709, 149:-0.12794, 148:-0.04080, 147:-0.01699, 146:-0.14790, 145:-0.20656,
                144:-0.43143, 143: 0.22604, 142: 0.11395, 141:-0.22225, 140: 0.01760, 139: 0.08927, 138: 0.23867, 137:-0.37945,
                136:-0.09689, 135:-0.20321, 134:-0.16301, 133:-0.19109, 132:-0.16290, 131:-0.07351, 130: 0.21099, 129: 0.19266,
                128: 0.03930, 127:-0.00336, 126:-0.14241, 125: 0.06809, 124:-0.29314, 123: 0.02594, 122:-0.13516, 121:-0.20702,
                120: 0.13046, 119: 0.06983, 118:-0.06885, 117:-0.23027, 116: 0.02515, 115:-0.23464, 114:-0.28544, 113:-0.15280,
                112:-0.57285, 111:-0.18385, 110: 0.28527, 109:-0.02344, 108:-0.07682, 107: 0.28168, 106: 0.06598, 105:-0.28622,
                104:-0.47164, 103:-0.07206, 102:-0.31204, 101:-0.28740, 100: 0.26717,  99: 0.37674,  98: 0.25496,  97: 0.17068,
                 96: 0.14185,  95:-0.22248,  94:-0.20456,  93:-0.15321,  92:-0.13871,  91:-0.16436,  90: 0.06799,  89:-0.13833,
                 88:-0.02010,  87: 0.25641,  86: 0.33219,  85: 0.20621,  84: 0.05793,  83:-0.09535,  82:-0.22519,  81:-0.04627,
                 80:-0.19765,  79:-0.06711,  78: 0.57512,  77: 0.12636,  76: 0.00685,  75: 0.01023,  74: 0.06668,  73: 0.16839,
                 72:-0.12969,  71:-0.03416,  70:-0.63880,  69: 0.00492,  68: 0.03676,  67: 0.08963,  66:-0.08384,  65: 0.08129,
                 64:-0.43014,  63:-0.62329,  62:-0.60760,  61:-0.39474,  60:-0.32805,  59:-0.03685,  58: 0.36147,  57: 0.24535,
                 56:-0.28741,  55:-0.41172,  54:-0.45986,  53:-0.73948,  52:-0.81174,  51:-0.44368,  50: 0.10887,  49: 0.52348,
                 48: 0.13531,  47: 0.07389,  46: 0.01243,  45:-0.37875,  44:-0.41681,  43:-0.32528,  42:-0.46157,  41:-0.30118,
                 40: 0.10414,  39: 0.37720,  38: 0.01583,  37: 0.21543,  36:-0.27562,  35:-0.18823,  34:-0.10434,  33:-0.07488,
                 32:-0.16767,  31:-0.30737,  30:-0.05033,  29: 0.08023,  28:-0.04600,  27: 0.22794,  26: 0.46995,  25:-0.25957,
                 24: 0.23570,  23: 0.22973,  22: 0.09560,  21: 0.01440,  20:-0.08925,  19:-0.28255,  18: 0.03991,  17: 0.19798,
                 16: 0.47091,  15: 0.29613,  14: 0.33780,  13: 0.40066,  12: 0.34457,  11: 0.28800,  10: 0.15128,   9:-0.13606,
                  8:-0.33668,   7:-0.18249,   6:-0.11793,   5: 0.08129,   4: 0.30530,   3: 0.11872,   2:-0.14945,   1: 0.05365
   187 |      | 160:-0.05281, 159:-0.14902, 158: 0.02554, 157:-0.17904, 156:-0.37500, 155:-0.17636, 154:-0.38006, 153:-0.41548,
                152:-0.32383, 151:-0.18200, 150:-0.07957, 149:-0.08099, 148:-0.13780, 147:-0.08801, 146:-0.09747, 145:-0.30192,
                144:-0.25791, 143:-0.43306, 142:-0.37386, 141:-0.13185, 140:-0.10857, 139:-0.07905, 138:-0.13794, 137:-0.23193,
                136:-0.18086, 135:-0.28855, 134:-0.26941, 133:-0.18108, 132:-0.22296, 131:-0.20620, 130:-0.12318, 129:-0.10693,
                128:-0.09521, 127: 0.00272, 126: 0.02941, 125:-0.12287, 124: 0.01880, 123:-0.17332, 122:-0.16851, 121:-0.05194,
                120:-0.01449, 119: 0.03783, 118:-0.01380, 117: 0.01556, 116: 0.09381, 115: 0.22308, 114: 0.23536, 113:-0.01178,
                112: 0.05215, 111: 0.20387, 110:-0.03888, 109:-0.02230, 108:-0.07167, 107: 0.11227, 106: 0.18842, 105: 0.12661,
                104:-0.12832, 103: 0.10097, 102: 0.33187, 101: 0.30248, 100:-0.14338,  99:-0.07832,  98: 0.00616,  97: 0.12366,
                 96: 0.15881,  95:-0.12380,  94:-0.12500,  93: 0.23278,  92: 0.43628,  91: 0.11294,  90:-0.06354,  89: 0.12024,
                 88: 0.13011,  87: 0.10812,  86:-0.05739,  85:-0.20124,  84: 0.02905,  83: 0.22889,  82: 0.28885,  81: 0.15650,
                 80: 0.19385,  79: 0.37472,  78: 0.18519,  77: 0.08790,  76: 0.11317,  75:-0.23776,  74: 0.08421,  73: 0.34703,
                 72: 0.16370,  71: 0.04789,  70: 0.36414,  69: 0.31960,  68: 0.19503,  67: 0.04658,  66:-0.01622,  65:-0.00396,
                 64: 0.07886,  63: 0.18903,  62: 0.07123,  61: 0.05902,  60: 0.00753,  59: 0.13264,  58: 0.01289,  57: 0.00404,
                 56: 0.17363,  55: 0.06640,  54: 0.15276,  53: 0.06649,  52: 0.04057,  51: 0.09837,  50:-0.02324,  49:-0.00008,
                 48: 0.08249,  47:-0.03978,  46:-0.10130,  45: 0.20949,  44:-0.08309,  43:-0.03496,  42: 0.10786,  41: 0.11095,
                 40: 0.09043,  39: 0.05081,  38:-0.07636,  37:-0.07092,  36:-0.13133,  35:-0.11729,  34:-0.02459,  33: 0.10865,
                 32: 0.15412,  31: 0.09704,  30:-0.20609,  29: 0.12308,  28:-0.09077,  27:-0.12434,  26:-0.23480,  25:-0.25383,
                 24:-0.25807,  23:-0.05095,  22: 0.08380,  21: 0.20713,  20:-0.21066,  19:-0.21951,  18:-0.32927,  17:-0.33677,
                 16:-0.34162,  15:-0.34826,  14:-0.20161,  13:-0.15583,  12: 0.10476,  11: 0.16531,  10:-0.09793,   9:-0.12259,
                  8:-0.27161,   7:-0.15144,   6:-0.18542,   5:-0.03970,   4:-0.00878,   3: 0.09547,   2: 0.15049,   1: 0.04552
   188 |      | 160: 0.07579, 159: 0.04871, 158: 0.24225, 157: 0.34834, 156: 0.21811, 155: 0.33855, 154: 0.13585, 153:-0.14486,
                152:-0.25020, 151:-0.20892, 150: 0.13102, 149: 0.15941, 148: 0.20283, 147: 0.18075, 146: 0.04225, 145: 0.06837,
                144: 0.00738, 143:-0.07849, 142:-0.10795, 141:-0.01646, 140:-0.09637, 139: 0.10352, 138: 0.09421, 137:-0.09801,
                136: 0.08438, 135:-0.05624, 134:-0.09900, 133: 0.03738, 132: 0.26583, 131:-0.05255, 130:-0.23691, 129:-0.16033,
                128:-0.08737, 127:-0.08103, 126:-0.21912, 125:-0.01477, 124: 0.51410, 123: 0.15625, 122: 0.24370, 121: 0.07438,
                120:-0.21110, 119:-0.13023, 118:-0.21493, 117:-0.33110, 116:-0.19038, 115: 0.05946, 114: 0.44342, 113: 0.17653,
                112: 0.12129, 111:-0.11393, 110:-0.48626, 109:-0.47125, 108:-0.39864, 107:-0.61487, 106:-0.04666, 105: 0.25413,
                104: 0.45891, 103: 0.09668, 102:-0.21032, 101:-0.15183, 100:-0.34093,  99:-0.47014,  98:-0.40380,  97: 0.05890,
                 96: 0.02002,  95: 0.23519,  94: 0.27763,  93:-0.20391,  92:-0.26767,  91:-0.21005,  90:-0.16789,  89:-0.45169,
                 88:-0.15649,  87: 0.13965,  86: 0.12530,  85:-0.03957,  84:-0.13965,  83:-0.27989,  82:-0.19844,  81:-0.10753,
                 80:-0.25367,  79:-0.29974,  78:-0.20167,  77: 0.05954,  76:-0.22207,  75: 0.16943,  74:-0.23757,  73:-0.31257,
                 72:-0.31530,  71:-0.13901,  70:-0.27959,  69:-0.01556,  68: 0.04542,  67:-0.09058,  66:-0.12257,  65: 0.06925,
                 64: 0.05839,  63:-0.07752,  62:-0.20716,  61:-0.09956,  60:-0.16262,  59:-0.06806,  58:-0.06715,  57:-0.00105,
                 56: 0.11674,  55:-0.03152,  54: 0.02141,  53: 0.04611,  52: 0.11579,  51:-0.11620,  50:-0.08887,  49:-0.07375,
                 48: 0.04263,  47: 0.03426,  46: 0.25770,  45:-0.02240,  44: 0.09269,  43:-0.00259,  42:-0.10697,  41: 0.00079,
                 40:-0.13633,  39:-0.27571,  38: 0.05460,  37:-0.06400,  36: 0.15063,  35: 0.07754,  34: 0.27028,  33: 0.01009,
                 32:-0.09537,  31:-0.02782,  30:-0.47789,  29:-0.43321,  28:-0.18115,  27:-0.20681,  26:-0.14326,  25: 0.10728,
                 24: 0.09450,  23:-0.18281,  22: 0.06977,  21: 0.07209,  20:-0.49775,  19:-0.26243,  18:-0.26779,  17:-0.12879,
                 16: 0.01067,  15: 0.04397,  14: 0.19968,  13:-0.02495,  12: 0.03780,  11:-0.08169,  10:-0.46251,   9:-0.48555,
                  8: 0.03708,   7: 0.18320,   6: 0.05021,   5:-0.03286,   4:-0.03810,   3:-0.17571,   2:-0.34916,   1:-0.18794
   189 |      | 160:-0.13890, 159:-0.09637, 158:-0.09406, 157:-0.18818, 156: 0.05755, 155: 0.23951, 154: 0.07864, 153: 0.22825,
                152: 0.05548, 151:-0.04927, 150:-0.19854, 149:-0.21012, 148:-0.07626, 147:-0.01714, 146:-0.07865, 145:-0.01056,
                144: 0.11640, 143:-0.03258, 142:-0.14222, 141:-0.09895, 140: 0.09443, 139:-0.24266, 138:-0.23620, 137:-0.21857,
                136:-0.00130, 135:-0.17232, 134: 0.03943, 133:-0.17371, 132:-0.21341, 131:-0.07631, 130:-0.11993, 129:-0.25354,
                128:-0.03802, 127: 0.32458, 126: 0.05942, 125:-0.13925, 124:-0.06070, 123:-0.26644, 122:-0.18179, 121: 0.01104,
                120:-0.01682, 119:-0.04598, 118: 0.24848, 117: 0.27594, 116:-0.04276, 115:-0.08492, 114:-0.01904, 113:-0.23855,
                112:-0.14146, 111:-0.00197, 110: 0.05844, 109: 0.18724, 108: 0.17233, 107:-0.11502, 106:-0.05063, 105:-0.02786,
                104:-0.20541, 103:-0.20942, 102:-0.25509, 101: 0.02980, 100:-0.05665,  99: 0.37142,  98: 0.14162,  97:-0.01582,
                 96:-0.03687,  95: 0.01624,  94: 0.03756,  93:-0.09745,  92:-0.15944,  91:-0.21086,  90:-0.04474,  89: 0.24722,
                 88: 0.04235,  87:-0.20167,  86:-0.05758,  85: 0.14364,  84: 0.04667,  83: 0.13475,  82:-0.01362,  81:-0.12872,
                 80: 0.20489,  79: 0.43625,  78:-0.07738,  77: 0.00379,  76: 0.24527,  75: 0.35143,  74: 0.30758,  73:-0.06004,
                 72:-0.10671,  71:-0.23258,  70: 0.40632,  69: 0.12158,  68: 0.11830,  67: 0.02025,  66: 0.08391,  65: 0.05468,
                 64: 0.20354,  63: 0.02689,  62:-0.06396,  61: 0.07689,  60: 0.37615,  59: 0.45531,  58: 0.19200,  57: 0.22033,
                 56: 0.14998,  55: 0.04817,  54: 0.18182,  53: 0.15418,  52:-0.08360,  51: 0.02941,  50: 0.42814,  49: 0.33633,
                 48: 0.19226,  47: 0.08177,  46:-0.02576,  45: 0.08889,  44: 0.02944,  43: 0.12781,  42: 0.16151,  41: 0.02136,
                 40: 0.21928,  39: 0.20987,  38:-0.06835,  37: 0.11910,  36: 0.11567,  35:-0.07952,  34: 0.05166,  33: 0.04114,
                 32:-0.03700,  31: 0.09983,  30:-0.11091,  29:-0.22664,  28:-0.22645,  27:-0.02652,  26:-0.05260,  25: 0.05434,
                 24: 0.03747,  23:-0.03356,  22:-0.10551,  21: 0.02886,  20:-0.10471,  19:-0.20866,  18: 0.13364,  17: 0.20905,
                 16: 0.09891,  15:-0.12915,  14:-0.13656,  13:-0.12293,  12:-0.01676,  11: 0.01234,  10:-0.20053,   9: 0.01938,
                  8: 0.01306,   7: 0.09774,   6:-0.09863,   5: 0.04587,   4: 0.01328,   3:-0.06156,   2:-0.10910,   1:-0.09619
   190 |      | 160: 0.12843, 159: 0.10592, 158: 0.04546, 157: 0.01416, 156:-0.08756, 155: 0.02548, 154: 0.07631, 153: 0.04440,
                152:-0.02063, 151: 0.03793, 150: 0.22776, 149: 0.11423, 148:-0.00446, 147:-0.16779, 146: 0.35440, 145: 0.13398,
                144: 0.18348, 143:-0.06343, 142:-0.00030, 141: 0.05513, 140:-0.21624, 139: 0.12279, 138: 0.25251, 137: 0.12623,
                136: 0.33322, 135: 0.40492, 134:-0.03179, 133:-0.13348, 132:-0.12455, 131:-0.19358, 130: 0.06414, 129: 0.04052,
                128: 0.36032, 127: 0.30217, 126: 0.73426, 125: 0.22377, 124: 0.04298, 123:-0.24163, 122:-0.45014, 121:-0.45594,
                120: 0.02666, 119: 0.18914, 118: 0.28206, 117: 0.37226, 116: 0.28750, 115:-0.09889, 114:-0.28087, 113:-0.33412,
                112:-0.27450, 111:-0.06055, 110:-0.04681, 109: 0.06978, 108: 0.25826, 107: 0.20757, 106:-0.20027, 105:-0.01736,
                104:-0.02383, 103:-0.15938, 102: 0.07991, 101:-0.10864, 100: 0.30531,  99: 0.03549,  98: 0.43476,  97: 0.00453,
                 96:-0.17335,  95:-0.06399,  94:-0.28560,  93: 0.19105,  92: 0.00732,  91: 0.22910,  90: 0.28003,  89: 0.36523,
                 88: 0.17592,  87:-0.18486,  86:-0.34917,  85:-0.24178,  84:-0.07448,  83: 0.10551,  82: 0.31492,  81: 0.34608,
                 80: 0.33763,  79: 0.15134,  78:-0.07297,  77:-0.32205,  76:-0.48200,  75:-0.16564,  74:-0.07852,  73: 0.40939,
                 72: 0.42667,  71: 0.43960,  70: 0.07202,  69: 0.09106,  68: 0.05338,  67:-0.18986,  66:-0.25821,  65: 0.00405,
                 64: 0.06750,  63: 0.26172,  62: 0.46197,  61: 0.09511,  60: 0.14177,  59:-0.33062,  58:-0.14699,  57:-0.39903,
                 56:-0.20255,  55: 0.07698,  54: 0.06680,  53: 0.07795,  52: 0.18594,  51:-0.03263,  50:-0.47474,  49:-0.52952,
                 48:-0.31651,  47:-0.09398,  46:-0.01945,  45: 0.19949,  44: 0.31244,  43:-0.03929,  42: 0.05187,  41:-0.00269,
                 40:-0.15587,  39:-0.29334,  38:-0.22801,  37: 0.06499,  36: 0.02984,  35:-0.02118,  34:-0.01811,  33:-0.10306,
                 32: 0.05393,  31:-0.06305,  30: 0.21501,  29: 0.08058,  28: 0.19940,  27:-0.20292,  26: 0.06552,  25:-0.09685,
                 24:-0.13502,  23:-0.24807,  22:-0.04530,  21: 0.03689,  20: 0.19886,  19: 0.39059,  18: 0.05344,  17:-0.24430,
                 16:-0.20124,  15:-0.18849,  14:-0.24485,  13:-0.42741,  12: 0.02081,  11: 0.13748,  10: 0.12092,   9: 0.20985,
                  8: 0.18872,   7:-0.07320,   6:-0.09031,   5: 0.01811,   4:-0.08018,   3:-0.04352,   2: 0.03898,   1: 0.34105
   191 |      | 160:-0.12103, 159: 0.11941, 158: 0.39450, 157:-0.08894, 156: 0.12924, 155: 0.49799, 154: 0.24698, 153: 0.61448,
                152: 0.08686, 151: 0.07282, 150:-0.02302, 149: 0.07575, 148: 0.06021, 147:-0.17468, 146: 0.05959, 145: 0.07896,
                144: 0.28128, 143: 0.05664, 142:-0.26794, 141:-0.02430, 140: 0.19209, 139:-0.01502, 138:-0.04271, 137: 0.18448,
                136: 0.20473, 135: 0.23501, 134:-0.01913, 133:-0.17016, 132:-0.34622, 131: 0.06748, 130: 0.30668, 129: 0.21088,
                128: 0.06076, 127: 0.08599, 126: 0.46298, 125: 0.02127, 124:-0.08004, 123:-0.27400, 122:-0.16509, 121:-0.06435,
                120: 0.55040, 119: 0.33874, 118: 0.16021, 117: 0.34520, 116: 0.14045, 115:-0.05733, 114:-0.04092, 113:-0.17605,
                112:-0.24976, 111: 0.05871, 110: 0.41361, 109: 0.17452, 108:-0.12682, 107:-0.00308, 106:-0.14576, 105:-0.14594,
                104:-0.23981, 103:-0.45205, 102:-0.06372, 101: 0.10582, 100: 0.34141,  99: 0.00335,  98:-0.10631,  97:-0.21272,
                 96:-0.22171,  95:-0.09943,  94: 0.07445,  93: 0.12456,  92: 0.06520,  91:-0.05027,  90: 0.00999,  89: 0.30268,
                 88:-0.33142,  87:-0.25529,  86:-0.20527,  85: 0.02490,  84: 0.09304,  83: 0.36826,  82: 0.34188,  81: 0.00757,
                 80: 0.19580,  79: 0.32107,  78:-0.24264,  77:-0.05440,  76: 0.27046,  75:-0.04544,  74: 0.46945,  73: 0.46437,
                 72: 0.21216,  71: 0.06667,  70: 0.57587,  69:-0.08650,  68:-0.16071,  67: 0.23861,  66: 0.35448,  65: 0.30785,
                 64: 0.21291,  63: 0.26350,  62: 0.12701,  61: 0.15745,  60: 0.28408,  59:-0.07874,  58: 0.08260,  57: 0.11610,
                 56: 0.03985,  55: 0.24660,  54: 0.29491,  53: 0.26656,  52:-0.18080,  51:-0.08049,  50: 0.17870,  49:-0.15579,
                 48:-0.12423,  47:-0.06126,  46:-0.11849,  45: 0.24079,  44: 0.07057,  43: 0.14033,  42: 0.35719,  41: 0.00102,
                 40:-0.12960,  39: 0.01759,  38:-0.09124,  37: 0.23909,  36: 0.14722,  35: 0.21735,  34:-0.02395,  33: 0.03198,
                 32: 0.02841,  31: 0.00258,  30: 0.06213,  29:-0.26127,  28:-0.14203,  27: 0.21081,  26:-0.07087,  25:-0.09429,
                 24:-0.07075,  23: 0.05066,  22:-0.11763,  21:-0.13852,  20:-0.13588,  19:-0.16894,  18: 0.02749,  17: 0.09100,
                 16:-0.15298,  15:-0.50346,  14:-0.36819,  13:-0.40540,  12:-0.28959,  11:-0.15985,  10:-0.02478,   9: 0.30079,
                  8: 0.06032,   7: 0.05025,   6:-0.27805,   5: 0.04058,   4:-0.25209,   3:-0.34788,   2: 0.13197,   1:-0.05986
   192 |      | 160:-0.08751, 159:-0.14344, 158:-0.04477, 157:-0.27826, 156:-0.22661, 155: 0.10214, 154: 0.32047, 153: 0.32343,
                152: 0.17184, 151:-0.00000, 150:-0.01437, 149:-0.03334, 148:-0.01946, 147:-0.00445, 146: 0.06793, 145:-0.00958,
                144: 0.21107, 143: 0.13968, 142: 0.11873, 141: 0.25923, 140: 0.16167, 139: 0.09343, 138: 0.10280, 137: 0.12453,
                136:-0.08277, 135:-0.15875, 134:-0.34562, 133:-0.14938, 132: 0.11334, 131: 0.28413, 130: 0.25837, 129: 0.09258,
                128: 0.17645, 127:-0.05678, 126:-0.17138, 125:-0.43773, 124:-0.25259, 123:-0.10570, 122: 0.22631, 121: 0.27111,
                120: 0.22161, 119: 0.15662, 118: 0.02638, 117:-0.08616, 116:-0.37011, 115:-0.08496, 114: 0.04967, 113: 0.23636,
                112: 0.23777, 111: 0.21980, 110: 0.04028, 109: 0.01591, 108:-0.19610, 107:-0.26770, 106:-0.24655, 105:-0.02689,
                104: 0.29107, 103: 0.22341, 102: 0.33032, 101: 0.25342, 100: 0.09923,  99:-0.04165,  98:-0.22235,  97:-0.19881,
                 96:-0.03796,  95: 0.30639,  94: 0.26734,  93: 0.19420,  92: 0.36121,  91: 0.11345,  90:-0.10963,  89:-0.02753,
                 88:-0.26481,  87:-0.16976,  86: 0.00025,  85: 0.29075,  84: 0.34027,  83: 0.15306,  82: 0.28218,  81: 0.07175,
                 80:-0.09004,  79:-0.02340,  78:-0.14428,  77:-0.06855,  76: 0.09495,  75: 0.21639,  74: 0.22801,  73: 0.26320,
                 72: 0.19668,  71: 0.09391,  70: 0.01800,  69:-0.07931,  68: 0.00954,  67: 0.11740,  66: 0.30932,  65: 0.23346,
                 64: 0.20664,  63: 0.12118,  62: 0.20411,  61: 0.01299,  60:-0.13660,  59: 0.05176,  58: 0.08119,  57:-0.00990,
                 56: 0.23682,  55: 0.22437,  54: 0.17174,  53: 0.14370,  52: 0.09924,  51: 0.04005,  50:-0.10337,  49:-0.06318,
                 48:-0.03532,  47: 0.04757,  46: 0.15847,  45: 0.13632,  44: 0.08318,  43: 0.04863,  42: 0.20848,  41: 0.16660,
                 40:-0.00980,  39: 0.00439,  38:-0.03845,  37: 0.08419,  36: 0.16218,  35:-0.05950,  34: 0.04088,  33: 0.04644,
                 32: 0.16957,  31: 0.06854,  30:-0.03849,  29:-0.11195,  28:-0.09196,  27: 0.02977,  26: 0.04957,  25:-0.09365,
                 24: 0.10013,  23: 0.26138,  22: 0.22720,  21: 0.09533,  20:-0.16559,  19:-0.10558,  18:-0.08273,  17:-0.16125,
                 16:-0.01253,  15: 0.12491,  14: 0.19651,  13: 0.02616,  12: 0.05497,  11:-0.01755,  10:-0.08035,   9:-0.09546,
                  8: 0.07054,   7:-0.04504,   6: 0.00075,   5: 0.20978,   4: 0.26351,   3: 0.05410,   2:-0.03727,   1: 0.02297
   193 |      | 160: 0.11591, 159:-0.14006, 158:-0.10121, 157:-0.36357, 156: 0.18381, 155:-0.15251, 154:-0.14529, 153:-0.05164,
                152:-0.28883, 151:-0.03021, 150:-0.23701, 149: 0.01139, 148:-0.05768, 147:-0.06483, 146:-0.24662, 145:-0.07617,
                144:-0.36265, 143:-0.40261, 142:-0.24436, 141:-0.13828, 140:-0.20772, 139:-0.12662, 138:-0.30021, 137: 0.04366,
                136:-0.11801, 135:-0.10704, 134: 0.19811, 133:-0.00461, 132: 0.05368, 131:-0.50811, 130:-0.07715, 129:-0.01651,
                128: 0.00325, 127:-0.02346, 126:-0.18947, 125: 0.03838, 124: 0.48816, 123:-0.01160, 122: 0.02967, 121:-0.23317,
                120:-0.02063, 119:-0.08447, 118: 0.09304, 117: 0.47352, 116: 0.45512, 115: 0.62448, 114: 0.53727, 113: 0.24057,
                112: 0.42779, 111: 0.17367, 110:-0.09825, 109: 0.22755, 108: 0.31415, 107: 0.21125, 106: 0.43700, 105: 0.30718,
                104: 0.23507, 103: 0.35796, 102: 0.64191, 101: 0.35703, 100: 0.00615,  99: 0.04204,  98: 0.26499,  97: 0.14560,
                 96: 0.09097,  95: 0.20882,  94: 0.26296,  93: 0.21420,  92: 0.38268,  91: 0.34458,  90: 0.14817,  89: 0.42353,
                 88: 0.51411,  87: 0.06373,  86:-0.10501,  85: 0.14601,  84: 0.08536,  83: 0.29164,  82: 0.11669,  81: 0.04557,
                 80: 0.49052,  79: 0.21325,  78:-0.11765,  77: 0.31329,  76:-0.20550,  75: 0.33100,  74: 0.30769,  73:-0.01828,
                 72: 0.21856,  71: 0.31642,  70: 0.50418,  69: 0.09308,  68: 0.12878,  67: 0.09115,  66: 0.00199,  65: 0.02791,
                 64: 0.20907,  63: 0.22862,  62: 0.23388,  61: 0.31043,  60: 0.61711,  59: 0.36797,  58:-0.01187,  57:-0.05008,
                 56: 0.33208,  55: 0.07560,  54: 0.25249,  53: 0.10610,  52:-0.05235,  51: 0.30857,  50: 0.34998,  49: 0.36630,
                 48: 0.31486,  47: 0.22647,  46:-0.08653,  45: 0.14562,  44: 0.22500,  43: 0.11450,  42: 0.17662,  41:-0.08585,
                 40:-0.00514,  39: 0.21334,  38: 0.12122,  37:-0.12870,  36: 0.09401,  35:-0.28003,  34:-0.34355,  33:-0.31344,
                 32: 0.04610,  31: 0.16288,  30: 0.11167,  29:-0.25905,  28:-0.18604,  27:-0.31887,  26:-0.21136,  25: 0.00698,
                 24:-0.36415,  23:-0.25857,  22:-0.23774,  21:-0.01339,  20:-0.22426,  19:-0.25062,  18:-0.24058,  17:-0.29368,
                 16:-0.40761,  15:-0.33462,  14:-0.12294,  13:-0.27293,  12:-0.25428,  11:-0.02032,  10:-0.22906,   9: 0.02195,
                  8: 0.09060,   7: 0.17306,   6:-0.00238,   5:-0.01845,   4:-0.16357,   3:-0.07469,   2:-0.37836,   1: 0.11456
   194 |      | 160: 0.19557, 159: 0.16109, 158: 0.12213, 157: 0.47961, 156: 0.32163, 155: 0.16794, 154: 0.26087, 153:-0.13696,
                152: 0.46549, 151: 0.27613, 150: 0.19933, 149: 0.16370, 148: 0.24577, 147: 0.19565, 146: 0.31919, 145: 0.17760,
                144:-0.09021, 143: 0.07120, 142: 0.50457, 141: 0.27214, 140:-0.20645, 139: 0.23592, 138: 0.17043, 137: 0.07776,
                136: 0.23114, 135: 0.30557, 134: 0.13743, 133: 0.38839, 132: 0.39734, 131: 0.15042, 130:-0.37352, 129: 0.20625,
                128: 0.27627, 127: 0.15118, 126: 0.21237, 125: 0.13114, 124: 0.26159, 123: 0.47302, 122: 0.36626, 121: 0.02942,
                120:-0.32586, 119: 0.06245, 118: 0.05739, 117:-0.29447, 116:-0.07782, 115:-0.25905, 114:-0.16678, 113:-0.11783,
                112: 0.47123, 111: 0.13626, 110:-0.45662, 109:-0.32728, 108:-0.20256, 107:-0.12869, 106:-0.42565, 105: 0.04246,
                104:-0.04789, 103:-0.12930, 102: 0.11191, 101: 0.05484, 100:-0.21769,  99:-0.41045,  98:-0.23960,  97:-0.35700,
                 96:-0.34180,  95:-0.22785,  94:-0.57390,  93:-0.06639,  92: 0.11338,  91: 0.25329,  90:-0.03451,  89:-0.38305,
                 88:-0.19023,  87:-0.32841,  86:-0.17271,  85:-0.36117,  84:-0.25224,  83:-0.56906,  82:-0.09673,  81: 0.24175,
                 80:-0.05349,  79:-0.20587,  78:-0.06482,  77:-0.29174,  76:-0.40876,  75:-0.39592,  74:-0.39619,  73:-0.10974,
                 72: 0.07155,  71: 0.06039,  70:-0.16092,  69:-0.07128,  68:-0.23826,  67:-0.47235,  66:-0.23082,  65:-0.08177,
                 64: 0.00350,  63: 0.25852,  62: 0.25699,  61:-0.09022,  60:-0.13379,  59:-0.57678,  58:-0.33992,  57:-0.15024,
                 56:-0.22388,  55:-0.10269,  54: 0.01978,  53: 0.04947,  52: 0.39669,  51:-0.12528,  50:-0.50091,  49:-0.65819,
                 48:-0.21147,  47:-0.17050,  46: 0.07416,  45: 0.00223,  44: 0.24414,  43: 0.07353,  42:-0.24672,  41: 0.10458,
                 40:-0.35767,  39:-0.65510,  38: 0.05174,  37:-0.04715,  36: 0.00316,  35: 0.08697,  34: 0.09824,  33: 0.11699,
                 32: 0.21009,  31:-0.05612,  30:-0.07548,  29: 0.08672,  28: 0.19969,  27: 0.05697,  26:-0.15267,  25: 0.17839,
                 24:-0.09568,  23:-0.10674,  22: 0.00631,  21: 0.06694,  20: 0.29374,  19: 0.60226,  18: 0.29939,  17: 0.05219,
                 16: 0.13866,  15: 0.26724,  14:-0.08770,  13: 0.02533,  12: 0.20748,  11:-0.02059,  10:-0.11521,   9: 0.18651,
                  8: 0.13945,   7: 0.12497,   6:-0.03883,   5:-0.15693,   4:-0.01058,   3:-0.11709,   2:-0.04117,   1: 0.05175
   195 |      | 160: 0.04731, 159:-0.10611, 158:-0.07447, 157:-0.11516, 156: 0.11835, 155:-0.00231, 154: 0.27643, 153:-0.10064,
                152: 0.18289, 151: 0.12465, 150:-0.02855, 149:-0.18494, 148:-0.00079, 147: 0.18783, 146: 0.02428, 145:-0.01786,
                144:-0.20398, 143:-0.00788, 142: 0.31012, 141: 0.07889, 140:-0.05716, 139:-0.08414, 138:-0.14445, 137:-0.25814,
                136: 0.03563, 135:-0.13543, 134: 0.00819, 133: 0.02752, 132: 0.18536, 131:-0.11817, 130:-0.04255, 129:-0.20939,
                128:-0.22862, 127:-0.04220, 126:-0.24450, 125:-0.07802, 124:-0.04171, 123: 0.14804, 122: 0.07816, 121:-0.02178,
                120:-0.18848, 119:-0.08543, 118: 0.15928, 117: 0.01963, 116:-0.01270, 115:-0.02544, 114:-0.02104, 113: 0.04929,
                112:-0.04469, 111: 0.11241, 110:-0.19034, 109:-0.09766, 108: 0.02617, 107: 0.04209, 106:-0.11750, 105: 0.09822,
                104:-0.05211, 103: 0.19860, 102: 0.09978, 101: 0.16891, 100: 0.10051,  99: 0.31646,  98: 0.18051,  97: 0.02413,
                 96: 0.04582,  95:-0.02391,  94:-0.19517,  93:-0.19491,  92: 0.18029,  91: 0.09668,  90: 0.21946,  89: 0.23425,
                 88: 0.36829,  87: 0.04037,  86: 0.12730,  85: 0.06639,  84: 0.20658,  83:-0.00426,  82: 0.04781,  81: 0.07713,
                 80: 0.34521,  79: 0.41323,  78: 0.22143,  77:-0.01215,  76:-0.21091,  75:-0.00797,  74:-0.01605,  73: 0.03289,
                 72: 0.13339,  71:-0.01094,  70: 0.23061,  69:-0.05847,  68:-0.15541,  67:-0.11725,  66:-0.16885,  65:-0.14480,
                 64:-0.16010,  63:-0.08105,  62:-0.01082,  61:-0.02465,  60: 0.34372,  59: 0.12753,  58:-0.05137,  57: 0.00244,
                 56:-0.10545,  55:-0.32643,  54:-0.23722,  53:-0.24595,  52:-0.10866,  51: 0.02688,  50: 0.39956,  49: 0.39398,
                 48: 0.32108,  47: 0.00904,  46:-0.13176,  45:-0.15643,  44:-0.10407,  43:-0.09476,  42:-0.16621,  41: 0.02299,
                 40: 0.36229,  39: 0.28480,  38: 0.14603,  37:-0.19165,  36:-0.17525,  35:-0.12608,  34:-0.07010,  33:-0.09305,
                 32: 0.02711,  31: 0.12508,  30:-0.11013,  29:-0.10026,  28:-0.13814,  27:-0.03624,  26: 0.24817,  25:-0.11202,
                 24: 0.02027,  23: 0.17852,  22: 0.21792,  21: 0.21110,  20:-0.23992,  19:-0.25283,  18: 0.04927,  17:-0.13765,
                 16: 0.26675,  15: 0.07819,  14: 0.22606,  13: 0.26794,  12: 0.32741,  11: 0.07464,  10:-0.40996,   9:-0.15665,
                  8:-0.16390,   7:-0.03334,   6:-0.10050,   5: 0.17153,   4: 0.29544,   3: 0.10818,   2:-0.52964,   1:-0.06290
   196 |      | 160:-0.12328, 159:-0.19327, 158:-0.36701, 157:-0.16287, 156:-0.07684, 155:-0.14534, 154:-0.38375, 153:-0.35466,
                152:-0.48254, 151:-0.31796, 150:-0.24858, 149:-0.36944, 148:-0.29787, 147:-0.24766, 146:-0.36960, 145:-0.07038,
                144:-0.26158, 143:-0.26139, 142:-0.33969, 141:-0.48550, 140:-0.37236, 139:-0.41197, 138:-0.07424, 137:-0.06282,
                136:-0.02983, 135:-0.05199, 134: 0.16018, 133: 0.20055, 132:-0.23242, 131:-0.19066, 130:-0.27286, 129:-0.45946,
                128: 0.05400, 127: 0.11668, 126: 0.00595, 125: 0.18628, 124: 0.44814, 123: 0.19842, 122:-0.09196, 121:-0.37892,
                120:-0.32148, 119:-0.30077, 118: 0.11820, 117: 0.07809, 116: 0.21987, 115: 0.10162, 114: 0.21402, 113: 0.16683,
                112:-0.14946, 111:-0.23679, 110:-0.36467, 109: 0.13795, 108: 0.11524, 107:-0.17952, 106:-0.10801, 105: 0.11199,
                104: 0.28628, 103: 0.24331, 102:-0.28496, 101:-0.26464, 100: 0.06231,  99: 0.21689,  98: 0.23701,  97: 0.06745,
                 96:-0.08858,  95: 0.46125,  94: 0.31888,  93: 0.06748,  92:-0.24766,  91:-0.05399,  90: 0.00491,  89:-0.06004,
                 88: 0.33807,  87: 0.19437,  86:-0.05052,  85: 0.62326,  84:-0.03001,  83: 0.10369,  82:-0.23537,  81:-0.08175,
                 80:-0.16093,  79:-0.06838,  78: 0.00239,  77: 0.10285,  76:-0.08475,  75: 0.49773,  74: 0.04598,  73: 0.03568,
                 72:-0.27032,  71: 0.11117,  70:-0.45951,  69:-0.31210,  68:-0.17314,  67:-0.16182,  66:-0.11026,  65: 0.09521,
                 64:-0.00376,  63:-0.24057,  62:-0.36132,  61:-0.10080,  60:-0.09316,  59:-0.10289,  58:-0.15872,  57: 0.26964,
                 56:-0.09173,  55:-0.37211,  54:-0.36941,  53:-0.24762,  52:-0.50594,  51:-0.23917,  50:-0.06282,  49: 0.18766,
                 48: 0.07243,  47: 0.22693,  46:-0.00510,  45:-0.46563,  44:-0.09622,  43:-0.26175,  42:-0.42202,  41:-0.24925,
                 40: 0.00025,  39: 0.17123,  38: 0.15309,  37: 0.22499,  36:-0.10215,  35:-0.01508,  34:-0.18709,  33:-0.18928,
                 32:-0.39134,  31:-0.23195,  30:-0.06444,  29:-0.14900,  28: 0.09649,  27:-0.04998,  26: 0.28432,  25: 0.23707,
                 24: 0.23641,  23: 0.03065,  22:-0.11315,  21:-0.05828,  20:-0.07820,  19:-0.19376,  18: 0.02920,  17: 0.33474,
                 16: 0.21564,  15: 0.18100,  14: 0.26802,  13: 0.23548,  12: 0.11791,  11: 0.16850,  10:-0.00734,   9:-0.34274,
                  8:-0.06235,   7:-0.05640,   6: 0.18365,   5:-0.01357,   4:-0.17060,   3:-0.24127,   2:-0.51631,   1: 0.05312
   197 |      | 160:-0.02275, 159:-0.12758, 158: 0.06809, 157:-0.14897, 156:-0.22556, 155: 0.07472, 154:-0.02723, 153:-0.09705,
                152:-0.28077, 151:-0.29701, 150: 0.06013, 149: 0.07045, 148: 0.04512, 147:-0.16926, 146: 0.11955, 145: 0.25408,
                144: 0.06339, 143:-0.06997, 142:-0.24424, 141:-0.01188, 140:-0.15582, 139: 0.25805, 138: 0.44227, 137: 0.37427,
                136: 0.16405, 135: 0.23030, 134:-0.05082, 133: 0.03937, 132:-0.36055, 131: 0.06162, 130:-0.01932, 129: 0.28357,
                128: 0.58500, 127: 0.12700, 126: 0.60620, 125: 0.36359, 124: 0.26850, 123:-0.16088, 122:-0.16697, 121:-0.15158,
                120: 0.03379, 119: 0.22188, 118: 0.07847, 117:-0.01701, 116: 0.12392, 115: 0.27521, 114: 0.12452, 113:-0.16448,
                112: 0.10024, 111: 0.19451, 110: 0.10524, 109: 0.02930, 108:-0.00711, 107: 0.02783, 106:-0.02256, 105: 0.04366,
                104: 0.05659, 103:-0.15947, 102: 0.19663, 101: 0.09594, 100: 0.23985,  99:-0.14000,  98:-0.13033,  97:-0.23020,
                 96:-0.13748,  95: 0.00617,  94:-0.13603,  93: 0.20545,  92: 0.30051,  91: 0.20357,  90:-0.03292,  89: 0.05426,
                 88:-0.40046,  87:-0.27212,  86:-0.24777,  85:-0.30821,  84:-0.23143,  83: 0.02303,  82: 0.22202,  81: 0.25964,
                 80:-0.06839,  79:-0.20854,  78:-0.15590,  77:-0.20397,  76:-0.30999,  75:-0.09080,  74:-0.03123,  73: 0.44782,
                 72: 0.33348,  71: 0.33598,  70:-0.18518,  69:-0.05275,  68:-0.08524,  67:-0.19362,  66:-0.23135,  65:-0.00237,
                 64: 0.11901,  63: 0.33599,  62: 0.34381,  61: 0.04822,  60:-0.34270,  59:-0.54725,  58:-0.26028,  57:-0.24366,
                 56: 0.08055,  55: 0.09957,  54: 0.00632,  53: 0.18669,  52: 0.18346,  51:-0.15148,  50:-0.65441,  49:-0.60073,
                 48:-0.42317,  47:-0.10111,  46: 0.21224,  45: 0.06587,  44: 0.05367,  43: 0.15276,  42:-0.02888,  41:-0.06090,
                 40:-0.49957,  39:-0.35301,  38:-0.02960,  37: 0.19954,  36: 0.06568,  35: 0.28458,  34:-0.07217,  33: 0.00727,
                 32:-0.13284,  31:-0.29732,  30:-0.07623,  29: 0.26153,  28: 0.21765,  27: 0.10426,  26:-0.17196,  25:-0.00013,
                 24: 0.08453,  23:-0.26868,  22:-0.38942,  21:-0.32317,  20: 0.02470,  19: 0.32362,  18: 0.09504,  17:-0.03663,
                 16:-0.18965,  15:-0.02390,  14:-0.17166,  13:-0.32087,  12:-0.34077,  11:-0.06604,  10: 0.29822,   9: 0.06883,
                  8: 0.26051,   7: 0.27528,   6: 0.13154,   5: 0.01568,   4:-0.23027,   3:-0.34030,   2: 0.34447,   1: 0.34399
   198 |      | 160: 0.18907, 159:-0.14178, 158:-0.15482, 157:-0.01899, 156: 0.05688, 155:-0.39310, 154:-0.08172, 153:-0.01325,
                152: 0.29894, 151: 0.11122, 150: 0.03695, 149: 0.09071, 148:-0.04163, 147: 0.13808, 146: 0.09162, 145:-0.10130,
                144:-0.37481, 143:-0.12369, 142:-0.21804, 141: 0.02932, 140: 0.29676, 139: 0.11529, 138: 0.09483, 137:-0.16362,
                136:-0.03752, 135:-0.27399, 134:-0.08581, 133:-0.06231, 132:-0.07934, 131:-0.12424, 130: 0.30031, 129: 0.27569,
                128: 0.12184, 127: 0.16264, 126:-0.18585, 125: 0.03593, 124:-0.05833, 123: 0.17215, 122: 0.28074, 121: 0.14247,
                120: 0.37809, 119: 0.26890, 118: 0.05959, 117: 0.08453, 116: 0.21612, 115: 0.20001, 114: 0.17215, 113: 0.33333,
                112: 0.43366, 111: 0.24043, 110:-0.08849, 109: 0.01027, 108:-0.09523, 107: 0.08380, 106:-0.00671, 105:-0.02135,
                104:-0.14023, 103: 0.42001, 102: 0.57771, 101: 0.41781, 100: 0.15121,  99:-0.09370,  98:-0.09657,  97: 0.20112,
                 96: 0.15006,  95:-0.00104,  94:-0.08912,  93: 0.05344,  92: 0.63143,  91: 0.49038,  90:-0.05895,  89:-0.11949,
                 88: 0.34337,  87: 0.08298,  86: 0.31894,  85: 0.51172,  84: 0.10902,  83:-0.04482,  82:-0.00262,  81: 0.23545,
                 80:-0.07151,  79:-0.03546,  78: 0.38235,  77: 0.30275,  76:-0.07032,  75: 0.02747,  74: 0.16940,  73: 0.12016,
                 72: 0.03779,  71:-0.16401,  70:-0.28633,  69:-0.13563,  68: 0.13435,  67: 0.04610,  66: 0.25724,  65:-0.10837,
                 64:-0.22698,  63:-0.14049,  62:-0.33980,  61:-0.39940,  60:-0.25229,  59: 0.13917,  58: 0.28247,  57: 0.37171,
                 56:-0.08153,  55:-0.18287,  54:-0.02456,  53:-0.39317,  52:-0.55489,  51:-0.22305,  50:-0.26164,  49: 0.14765,
                 48: 0.30749,  47:-0.17578,  46:-0.05564,  45: 0.01582,  44:-0.26495,  43:-0.21277,  42:-0.22368,  41: 0.07944,
                 40:-0.12248,  39: 0.00203,  38:-0.10581,  37:-0.14792,  36:-0.04775,  35:-0.24967,  34:-0.24065,  33: 0.00836,
                 32: 0.02833,  31: 0.08969,  30:-0.12668,  29:-0.05607,  28:-0.34013,  27:-0.14623,  26: 0.06069,  25:-0.21212,
                 24:-0.12378,  23: 0.04795,  22: 0.08992,  21: 0.28294,  20: 0.12886,  19:-0.09092,  18:-0.26888,  17:-0.31664,
                 16: 0.03612,  15:-0.12858,  14: 0.05536,  13: 0.09223,  12: 0.18156,  11: 0.29170,  10: 0.08039,   9:-0.05880,
                  8:-0.46057,   7:-0.07854,   6:-0.09130,   5: 0.03343,   4: 0.13982,   3:-0.26701,   2:-0.40284,   1: 0.08697
   199 |      | 160:-0.08885, 159: 0.15362, 158: 0.17459, 157: 0.25019, 156: 0.28729, 155: 0.16620, 154: 0.50947, 153: 0.43501,
                152: 0.39952, 151: 0.28232, 150: 0.07588, 149: 0.25166, 148: 0.28642, 147: 0.19209, 146: 0.32298, 145: 0.15842,
                144: 0.30010, 143: 0.43365, 142: 0.35689, 141: 0.38564, 140: 0.17609, 139: 0.28413, 138: 0.12774, 137: 0.22538,
                136: 0.13295, 135: 0.13471, 134: 0.03044, 133: 0.02529, 132: 0.30229, 131: 0.26874, 130: 0.15542, 129: 0.37358,
                128:-0.08741, 127:-0.06166, 126:-0.13545, 125:-0.22141, 124:-0.35208, 123:-0.10523, 122: 0.13709, 121: 0.31145,
                120: 0.23701, 119: 0.16984, 118:-0.17281, 117:-0.06230, 116:-0.34619, 115:-0.38663, 114:-0.33327, 113:-0.10731,
                112: 0.03859, 111:-0.02786, 110: 0.37191, 109:-0.03854, 108: 0.04564, 107: 0.10784, 106: 0.06122, 105:-0.26521,
                104:-0.27073, 103:-0.26872, 102:-0.05735, 101:-0.12665, 100:-0.04072,  99:-0.11713,  98:-0.09294,  97:-0.05332,
                 96:-0.06965,  95:-0.39336,  94:-0.19217,  93:-0.19894,  92:-0.15280,  91:-0.10299,  90:-0.00907,  89:-0.08754,
                 88:-0.45847,  87:-0.11485,  86: 0.05288,  85:-0.44071,  84:-0.06630,  83:-0.19911,  82:-0.00224,  81:-0.06322,
                 80:-0.11272,  79:-0.23387,  78:-0.10886,  77:-0.08019,  76: 0.03043,  75:-0.29619,  74:-0.11359,  73:-0.24526,
                 72: 0.05422,  71:-0.11709,  70: 0.04127,  69: 0.05617,  68:-0.05801,  67: 0.08084,  66:-0.01130,  65:-0.07143,
                 64:-0.13223,  63:-0.01145,  62: 0.15382,  61: 0.11087,  60:-0.11375,  59:-0.07259,  58: 0.03803,  57:-0.21647,
                 56:-0.09349,  55: 0.23218,  54: 0.20874,  53: 0.06000,  52: 0.31742,  51: 0.08973,  50: 0.08829,  49:-0.17928,
                 48:-0.13413,  47:-0.08051,  46: 0.10079,  45: 0.17490,  44: 0.10624,  43: 0.10959,  42: 0.26864,  41: 0.09199,
                 40:-0.07914,  39:-0.04557,  38:-0.00089,  37:-0.03508,  36: 0.17101,  35: 0.16824,  34: 0.18168,  33:-0.00299,
                 32: 0.15166,  31: 0.09641,  30: 0.14277,  29: 0.06530,  28: 0.11105,  27: 0.29995,  26:-0.07960,  25:-0.07502,
                 24:-0.10423,  23:-0.07123,  22:-0.07341,  21:-0.11330,  20: 0.09420,  19: 0.27887,  18: 0.15883,  17:-0.00622,
                 16:-0.05992,  15: 0.01823,  14:-0.09144,  13:-0.18274,  12:-0.25479,  11:-0.29962,  10: 0.01098,   9: 0.27962,
                  8: 0.19195,   7:-0.02523,   6:-0.09565,   5: 0.06955,   4: 0.17655,   3: 0.06825,   2: 0.29358,   1:-0.22517
   200 |      | 160: 0.11828, 159: 0.13601, 158: 0.25910, 157: 0.32735, 156: 0.19009, 155: 0.12307, 154: 0.10412, 153:-0.01560,
                152:-0.12241, 151:-0.05958, 150:-0.02209, 149: 0.07692, 148: 0.27998, 147: 0.29046, 146: 0.16793, 145: 0.13838,
                144: 0.02518, 143: 0.15058, 142: 0.13873, 141:-0.19695, 140:-0.19117, 139:-0.04367, 138:-0.03558, 137:-0.18063,
                136: 0.35219, 135: 0.13124, 134: 0.32466, 133: 0.25695, 132: 0.12072, 131:-0.38397, 130:-0.18591, 129:-0.28138,
                128:-0.29809, 127: 0.20936, 126: 0.08663, 125: 0.24158, 124: 0.53291, 123: 0.17547, 122:-0.10876, 121:-0.17874,
                120:-0.11531, 119:-0.20052, 118:-0.06183, 117: 0.09659, 116: 0.23875, 115: 0.04067, 114: 0.28247, 113:-0.09425,
                112:-0.25913, 111:-0.31121, 110:-0.29362, 109:-0.50087, 108:-0.11355, 107: 0.00912, 106:-0.11326, 105: 0.03408,
                104: 0.10492, 103:-0.08502, 102:-0.40562, 101:-0.32812, 100:-0.18146,  99:-0.23607,  98: 0.00460,  97: 0.16904,
                 96:-0.17328,  95:-0.27590,  94: 0.17630,  93:-0.48174,  92:-0.39515,  91:-0.16098,  90: 0.09812,  89: 0.13352,
                 88: 0.06973,  87:-0.11134,  86:-0.18219,  85:-0.05902,  84: 0.04732,  83:-0.16910,  82:-0.13701,  81:-0.03826,
                 80: 0.13836,  79: 0.25519,  78:-0.16143,  77:-0.30979,  76:-0.12600,  75: 0.21177,  74: 0.09135,  73: 0.01687,
                 72:-0.11964,  71:-0.09362,  70: 0.04868,  69:-0.16259,  68:-0.39019,  67:-0.17340,  66: 0.14581,  65: 0.22255,
                 64: 0.07839,  63: 0.02000,  62:-0.14637,  61:-0.00439,  60:-0.00182,  59:-0.24155,  58:-0.28700,  57: 0.12006,
