SNNS network definition file V1.4-3D
generated at Wed Jan 14 13:09:41 2015

network name : default
source files :
no. of units : 218
no. of connections : 5240
no. of unit types : 0
no. of site types : 0


learning function : Rprop
update function   : Topological_Order


unit default section :

act      | bias     | st | subnet | layer | act func     | out func
---------|----------|----|--------|-------|--------------|-------------
 0.00000 |  0.00000 | h  |      0 |     1 | Act_Logistic | Out_Identity 
---------|----------|----|--------|-------|--------------|-------------


unit definition section :

no. | typeName | unitName | act      | bias     | st | position | act func     | out func | sites
----|----------|----------|----------|----------|----|----------|--------------|----------|-------
  1 |          | noName   |  0.00000 |  0.93213 | i  |  1, 1, 1 | Act_Identity |          | 
  2 |          | noName   |  0.00000 | -0.88971 | i  |  2, 1, 1 | Act_Identity |          | 
  3 |          | noName   |  0.00000 | -0.11808 | i  |  3, 1, 1 | Act_Identity |          | 
  4 |          | noName   |  0.00000 | -0.48173 | i  |  4, 1, 1 | Act_Identity |          | 
  5 |          | noName   |  1.00000 |  0.14505 | i  |  5, 1, 1 | Act_Identity |          | 
  6 |          | noName   |  1.00000 |  0.48820 | i  |  6, 1, 1 | Act_Identity |          | 
  7 |          | noName   |  1.00000 | -0.70482 | i  |  7, 1, 1 | Act_Identity |          | 
  8 |          | noName   |  1.00000 |  0.84448 | i  |  8, 1, 1 | Act_Identity |          | 
  9 |          | noName   |  0.00000 |  0.84759 | i  |  9, 1, 1 | Act_Identity |          | 
 10 |          | noName   |  0.00000 |  0.20115 | i  | 10, 1, 1 | Act_Identity |          | 
 11 |          | noName   |  0.00000 | -0.89471 | i  |  1, 2, 1 | Act_Identity |          | 
 12 |          | noName   |  0.00000 | -0.66314 | i  |  2, 2, 1 | Act_Identity |          | 
 13 |          | noName   |  1.00000 | -0.70647 | i  |  3, 2, 1 | Act_Identity |          | 
 14 |          | noName   |  1.00000 |  0.01938 | i  |  4, 2, 1 | Act_Identity |          | 
 15 |          | noName   |  1.00000 | -0.59526 | i  |  5, 2, 1 | Act_Identity |          | 
 16 |          | noName   |  1.00000 | -0.49193 | i  |  6, 2, 1 | Act_Identity |          | 
 17 |          | noName   |  1.00000 |  0.57518 | i  |  7, 2, 1 | Act_Identity |          | 
 18 |          | noName   |  1.00000 | -0.22330 | i  |  8, 2, 1 | Act_Identity |          | 
 19 |          | noName   |  1.00000 |  0.36119 | i  |  9, 2, 1 | Act_Identity |          | 
 20 |          | noName   |  0.00000 |  0.84838 | i  | 10, 2, 1 | Act_Identity |          | 
 21 |          | noName   |  0.00000 | -0.75774 | i  |  1, 3, 1 | Act_Identity |          | 
 22 |          | noName   |  0.00000 | -0.23777 | i  |  2, 3, 1 | Act_Identity |          | 
 23 |          | noName   |  1.00000 |  0.29179 | i  |  3, 3, 1 | Act_Identity |          | 
 24 |          | noName   |  1.00000 | -0.14774 | i  |  4, 3, 1 | Act_Identity |          | 
 25 |          | noName   |  0.00000 |  0.47246 | i  |  5, 3, 1 | Act_Identity |          | 
 26 |          | noName   |  0.00000 | -0.54015 | i  |  6, 3, 1 | Act_Identity |          | 
 27 |          | noName   |  0.00000 |  0.69500 | i  |  7, 3, 1 | Act_Identity |          | 
 28 |          | noName   |  0.00000 | -0.82598 | i  |  8, 3, 1 | Act_Identity |          | 
 29 |          | noName   |  1.00000 | -0.14566 | i  |  9, 3, 1 | Act_Identity |          | 
 30 |          | noName   |  1.00000 |  0.44804 | i  | 10, 3, 1 | Act_Identity |          | 
 31 |          | noName   |  0.00000 |  0.80126 | i  |  1, 4, 1 | Act_Identity |          | 
 32 |          | noName   |  0.00000 |  0.22483 | i  |  2, 4, 1 | Act_Identity |          | 
 33 |          | noName   |  0.00000 |  0.84729 | i  |  3, 4, 1 | Act_Identity |          | 
 34 |          | noName   |  0.00000 |  0.27201 | i  |  4, 4, 1 | Act_Identity |          | 
 35 |          | noName   |  0.00000 | -0.79376 | i  |  5, 4, 1 | Act_Identity |          | 
 36 |          | noName   |  0.00000 |  0.52318 | i  |  6, 4, 1 | Act_Identity |          | 
 37 |          | noName   |  0.00000 | -0.02170 | i  |  7, 4, 1 | Act_Identity |          | 
 38 |          | noName   |  0.00000 | -0.89862 | i  |  8, 4, 1 | Act_Identity |          | 
 39 |          | noName   |  1.00000 | -0.85156 | i  |  9, 4, 1 | Act_Identity |          | 
 40 |          | noName   |  1.00000 |  0.11252 | i  | 10, 4, 1 | Act_Identity |          | 
 41 |          | noName   |  0.00000 |  0.84088 | i  |  1, 5, 1 | Act_Identity |          | 
 42 |          | noName   |  0.00000 | -0.01492 | i  |  2, 5, 1 | Act_Identity |          | 
 43 |          | noName   |  0.00000 |  0.99384 | i  |  3, 5, 1 | Act_Identity |          | 
 44 |          | noName   |  0.00000 |  0.35728 | i  |  4, 5, 1 | Act_Identity |          | 
 45 |          | noName   |  0.00000 |  0.95611 | i  |  5, 5, 1 | Act_Identity |          | 
 46 |          | noName   |  0.00000 |  0.51665 | i  |  6, 5, 1 | Act_Identity |          | 
 47 |          | noName   |  0.00000 |  0.48955 | i  |  7, 5, 1 | Act_Identity |          | 
 48 |          | noName   |  1.00000 | -0.56981 | i  |  8, 5, 1 | Act_Identity |          | 
 49 |          | noName   |  1.00000 |  0.56041 | i  |  9, 5, 1 | Act_Identity |          | 
 50 |          | noName   |  0.00000 |  0.72253 | i  | 10, 5, 1 | Act_Identity |          | 
 51 |          | noName   |  0.00000 |  0.35093 | i  |  1, 6, 1 | Act_Identity |          | 
 52 |          | noName   |  0.00000 | -0.19584 | i  |  2, 6, 1 | Act_Identity |          | 
 53 |          | noName   |  0.00000 | -0.61907 | i  |  3, 6, 1 | Act_Identity |          | 
 54 |          | noName   |  0.00000 |  0.98456 | i  |  4, 6, 1 | Act_Identity |          | 
 55 |          | noName   |  0.00000 | -0.25858 | i  |  5, 6, 1 | Act_Identity |          | 
 56 |          | noName   |  0.00000 |  0.05972 | i  |  6, 6, 1 | Act_Identity |          | 
 57 |          | noName   |  1.00000 |  0.46208 | i  |  7, 6, 1 | Act_Identity |          | 
 58 |          | noName   |  1.00000 |  0.81133 | i  |  8, 6, 1 | Act_Identity |          | 
 59 |          | noName   |  1.00000 | -0.78918 | i  |  9, 6, 1 | Act_Identity |          | 
 60 |          | noName   |  0.00000 |  0.32194 | i  | 10, 6, 1 | Act_Identity |          | 
 61 |          | noName   |  0.00000 | -0.89496 | i  |  1, 7, 1 | Act_Identity |          | 
 62 |          | noName   |  0.00000 |  0.26859 | i  |  2, 7, 1 | Act_Identity |          | 
 63 |          | noName   |  0.00000 | -0.34764 | i  |  3, 7, 1 | Act_Identity |          | 
 64 |          | noName   |  0.00000 | -0.36119 | i  |  4, 7, 1 | Act_Identity |          | 
 65 |          | noName   |  1.00000 | -0.01633 | i  |  5, 7, 1 | Act_Identity |          | 
 66 |          | noName   |  1.00000 |  0.88336 | i  |  6, 7, 1 | Act_Identity |          | 
 67 |          | noName   |  1.00000 |  0.84210 | i  |  7, 7, 1 | Act_Identity |          | 
 68 |          | noName   |  1.00000 |  0.61315 | i  |  8, 7, 1 | Act_Identity |          | 
 69 |          | noName   |  0.00000 |  0.49767 | i  |  9, 7, 1 | Act_Identity |          | 
 70 |          | noName   |  0.00000 | -0.16813 | i  | 10, 7, 1 | Act_Identity |          | 
 71 |          | noName   |  0.00000 |  0.12241 | i  |  1, 8, 1 | Act_Identity |          | 
 72 |          | noName   |  0.00000 | -0.39921 | i  |  2, 8, 1 | Act_Identity |          | 
 73 |          | noName   |  1.00000 | -0.57250 | i  |  3, 8, 1 | Act_Identity |          | 
 74 |          | noName   |  1.00000 |  0.22691 | i  |  4, 8, 1 | Act_Identity |          | 
 75 |          | noName   |  1.00000 |  0.79351 | i  |  5, 8, 1 | Act_Identity |          | 
 76 |          | noName   |  1.00000 | -0.21140 | i  |  6, 8, 1 | Act_Identity |          | 
 77 |          | noName   |  1.00000 |  0.95239 | i  |  7, 8, 1 | Act_Identity |          | 
 78 |          | noName   |  1.00000 | -0.68651 | i  |  8, 8, 1 | Act_Identity |          | 
 79 |          | noName   |  1.00000 |  0.77325 | i  |  9, 8, 1 | Act_Identity |          | 
 80 |          | noName   |  1.00000 | -0.53722 | i  | 10, 8, 1 | Act_Identity |          | 
 81 |          | noName   |  0.00000 | -0.90674 | i  |  1, 9, 1 | Act_Identity |          | 
 82 |          | noName   |  0.00000 | -0.61144 | i  |  2, 9, 1 | Act_Identity |          | 
 83 |          | noName   |  1.00000 | -0.91015 | i  |  3, 9, 1 | Act_Identity |          | 
 84 |          | noName   |  1.00000 |  0.78185 | i  |  4, 9, 1 | Act_Identity |          | 
 85 |          | noName   |  1.00000 |  0.64544 | i  |  5, 9, 1 | Act_Identity |          | 
 86 |          | noName   |  0.00000 | -0.74493 | i  |  6, 9, 1 | Act_Identity |          | 
 87 |          | noName   |  0.00000 |  0.76904 | i  |  7, 9, 1 | Act_Identity |          | 
 88 |          | noName   |  0.00000 | -0.63457 | i  |  8, 9, 1 | Act_Identity |          | 
 89 |          | noName   |  1.00000 | -0.33940 | i  |  9, 9, 1 | Act_Identity |          | 
 90 |          | noName   |  1.00000 | -0.97577 | i  | 10, 9, 1 | Act_Identity |          | 
 91 |          | noName   |  0.00000 | -0.32273 | i  |  1,10, 1 | Act_Identity |          | 
 92 |          | noName   |  0.00000 |  0.01285 | i  |  2,10, 1 | Act_Identity |          | 
 93 |          | noName   |  0.00000 | -0.45671 | i  |  3,10, 1 | Act_Identity |          | 
 94 |          | noName   |  0.00000 |  0.07749 | i  |  4,10, 1 | Act_Identity |          | 
 95 |          | noName   |  0.00000 | -0.11374 | i  |  5,10, 1 | Act_Identity |          | 
 96 |          | noName   |  0.00000 |  0.86181 | i  |  6,10, 1 | Act_Identity |          | 
 97 |          | noName   |  0.00000 | -0.17771 | i  |  7,10, 1 | Act_Identity |          | 
 98 |          | noName   |  0.00000 | -0.99878 | i  |  8,10, 1 | Act_Identity |          | 
 99 |          | noName   |  0.00000 | -0.88208 | i  |  9,10, 1 | Act_Identity |          | 
100 |          | noName   |  1.00000 | -0.69768 | i  | 10,10, 1 | Act_Identity |          | 
101 |          | noName   |  0.00000 | -0.33934 | i  |  1,11, 1 | Act_Identity |          | 
102 |          | noName   |  0.00000 | -0.69280 | i  |  2,11, 1 | Act_Identity |          | 
103 |          | noName   |  0.00000 |  0.83459 | i  |  3,11, 1 | Act_Identity |          | 
104 |          | noName   |  0.00000 | -0.04386 | i  |  4,11, 1 | Act_Identity |          | 
105 |          | noName   |  0.00000 | -0.83325 | i  |  5,11, 1 | Act_Identity |          | 
106 |          | noName   |  0.00000 | -0.25047 | i  |  6,11, 1 | Act_Identity |          | 
107 |          | noName   |  0.00000 |  0.53612 | i  |  7,11, 1 | Act_Identity |          | 
108 |          | noName   |  0.00000 |  0.03555 | i  |  8,11, 1 | Act_Identity |          | 
109 |          | noName   |  0.00000 |  0.56804 | i  |  9,11, 1 | Act_Identity |          | 
110 |          | noName   |  1.00000 | -0.94702 | i  | 10,11, 1 | Act_Identity |          | 
111 |          | noName   |  0.00000 |  0.82659 | i  |  1,12, 1 | Act_Identity |          | 
112 |          | noName   |  0.00000 |  0.39335 | i  |  2,12, 1 | Act_Identity |          | 
113 |          | noName   |  0.00000 |  0.31101 | i  |  3,12, 1 | Act_Identity |          | 
114 |          | noName   |  0.00000 | -0.13669 | i  |  4,12, 1 | Act_Identity |          | 
115 |          | noName   |  0.00000 |  0.81298 | i  |  5,12, 1 | Act_Identity |          | 
116 |          | noName   |  0.00000 | -0.42326 | i  |  6,12, 1 | Act_Identity |          | 
117 |          | noName   |  0.00000 |  0.14951 | i  |  7,12, 1 | Act_Identity |          | 
118 |          | noName   |  0.00000 | -0.26737 | i  |  8,12, 1 | Act_Identity |          | 
119 |          | noName   |  0.00000 |  0.39836 | i  |  9,12, 1 | Act_Identity |          | 
120 |          | noName   |  1.00000 | -0.80224 | i  | 10,12, 1 | Act_Identity |          | 
121 |          | noName   |  0.00000 |  0.28343 | i  |  1,13, 1 | Act_Identity |          | 
122 |          | noName   |  0.00000 | -0.04721 | i  |  2,13, 1 | Act_Identity |          | 
123 |          | noName   |  0.00000 | -0.96783 | i  |  3,13, 1 | Act_Identity |          | 
124 |          | noName   |  0.00000 | -0.06723 | i  |  4,13, 1 | Act_Identity |          | 
125 |          | noName   |  0.00000 |  0.61095 | i  |  5,13, 1 | Act_Identity |          | 
126 |          | noName   |  0.00000 |  0.04904 | i  |  6,13, 1 | Act_Identity |          | 
127 |          | noName   |  0.00000 | -0.52007 | i  |  7,13, 1 | Act_Identity |          | 
128 |          | noName   |  0.00000 |  0.46251 | i  |  8,13, 1 | Act_Identity |          | 
129 |          | noName   |  1.00000 | -0.84344 | i  |  9,13, 1 | Act_Identity |          | 
130 |          | noName   |  1.00000 |  0.74560 | i  | 10,13, 1 | Act_Identity |          | 
131 |          | noName   |  1.00000 |  0.17502 | i  |  1,14, 1 | Act_Identity |          | 
132 |          | noName   |  1.00000 |  0.66741 | i  |  2,14, 1 | Act_Identity |          | 
133 |          | noName   |  0.00000 | -0.26261 | i  |  3,14, 1 | Act_Identity |          | 
134 |          | noName   |  0.00000 | -0.78283 | i  |  4,14, 1 | Act_Identity |          | 
135 |          | noName   |  0.00000 |  0.71532 | i  |  5,14, 1 | Act_Identity |          | 
136 |          | noName   |  0.00000 | -0.61193 | i  |  6,14, 1 | Act_Identity |          | 
137 |          | noName   |  0.00000 | -0.06992 | i  |  7,14, 1 | Act_Identity |          | 
138 |          | noName   |  1.00000 | -0.56188 | i  |  8,14, 1 | Act_Identity |          | 
139 |          | noName   |  1.00000 |  0.06595 | i  |  9,14, 1 | Act_Identity |          | 
140 |          | noName   |  1.00000 |  0.06552 | i  | 10,14, 1 | Act_Identity |          | 
141 |          | noName   |  1.00000 | -0.59886 | i  |  1,15, 1 | Act_Identity |          | 
142 |          | noName   |  1.00000 | -0.55925 | i  |  2,15, 1 | Act_Identity |          | 
143 |          | noName   |  1.00000 |  0.03287 | i  |  3,15, 1 | Act_Identity |          | 
144 |          | noName   |  1.00000 |  0.57207 | i  |  4,15, 1 | Act_Identity |          | 
145 |          | noName   |  1.00000 | -0.33671 | i  |  5,15, 1 | Act_Identity |          | 
146 |          | noName   |  1.00000 |  0.29765 | i  |  6,15, 1 | Act_Identity |          | 
147 |          | noName   |  1.00000 | -0.43248 | i  |  7,15, 1 | Act_Identity |          | 
148 |          | noName   |  1.00000 |  0.54686 | i  |  8,15, 1 | Act_Identity |          | 
149 |          | noName   |  1.00000 | -0.68053 | i  |  9,15, 1 | Act_Identity |          | 
150 |          | noName   |  0.00000 |  0.63829 | i  | 10,15, 1 | Act_Identity |          | 
151 |          | noName   |  0.00000 |  0.46605 | i  |  1,16, 1 | Act_Identity |          | 
152 |          | noName   |  1.00000 |  0.54741 | i  |  2,16, 1 | Act_Identity |          | 
153 |          | noName   |  1.00000 | -0.14170 | i  |  3,16, 1 | Act_Identity |          | 
154 |          | noName   |  1.00000 | -0.48662 | i  |  4,16, 1 | Act_Identity |          | 
155 |          | noName   |  1.00000 |  0.02609 | i  |  5,16, 1 | Act_Identity |          | 
156 |          | noName   |  1.00000 |  0.33018 | i  |  6,16, 1 | Act_Identity |          | 
157 |          | noName   |  1.00000 |  0.06235 | i  |  7,16, 1 | Act_Identity |          | 
158 |          | noName   |  0.00000 | -0.58000 | i  |  8,16, 1 | Act_Identity |          | 
159 |          | noName   |  0.00000 | -0.77715 | i  |  9,16, 1 | Act_Identity |          | 
160 |          | noName   |  0.00000 |  0.57231 | i  | 10,16, 1 | Act_Identity |          | 
161 |          | noName   |  0.00416 | -0.29876 | h  | 12, 1, 1 |||
162 |          | noName   |  0.99630 | -0.13429 | h  | 13, 1, 1 |||
163 |          | noName   |  0.91174 |  0.01592 | h  | 12, 2, 1 |||
164 |          | noName   |  0.98676 | -0.12345 | h  | 13, 2, 1 |||
165 |          | noName   |  0.72702 | -0.24035 | h  | 12, 3, 1 |||
166 |          | noName   |  0.01030 |  0.91794 | h  | 13, 3, 1 |||
167 |          | noName   |  0.93243 |  0.19041 | h  | 12, 4, 1 |||
168 |          | noName   |  0.92930 | -0.48072 | h  | 13, 4, 1 |||
169 |          | noName   |  0.00063 | -0.06888 | h  | 12, 5, 1 |||
170 |          | noName   |  0.98814 | -0.39129 | h  | 13, 5, 1 |||
171 |          | noName   |  0.03069 |  0.10100 | h  | 12, 6, 1 |||
172 |          | noName   |  0.00903 |  0.06456 | h  | 13, 6, 1 |||
173 |          | noName   |  0.99663 | -0.25110 | h  | 12, 7, 1 |||
174 |          | noName   |  0.98251 |  0.26980 | h  | 13, 7, 1 |||
175 |          | noName   |  0.87155 |  0.01372 | h  | 12, 8, 1 |||
176 |          | noName   |  0.06668 |  0.04220 | h  | 13, 8, 1 |||
177 |          | noName   |  0.02904 |  0.72257 | h  | 12, 9, 1 |||
178 |          | noName   |  0.99888 | -0.33618 | h  | 13, 9, 1 |||
179 |          | noName   |  0.00920 |  0.38128 | h  | 12,10, 1 |||
180 |          | noName   |  0.98962 | -0.03747 | h  | 13,10, 1 |||
181 |          | noName   |  0.98186 | -0.38942 | h  | 12,11, 1 |||
182 |          | noName   |  0.32156 | -0.02136 | h  | 13,11, 1 |||
183 |          | noName   |  0.00523 | -0.32572 | h  | 12,12, 1 |||
184 |          | noName   |  0.95453 | -0.13457 | h  | 13,12, 1 |||
185 |          | noName   |  0.82163 | -0.55560 | h  | 12,13, 1 |||
186 |          | noName   |  0.06019 | -0.32849 | h  | 13,13, 1 |||
187 |          | noName   |  0.96231 |  0.28580 | h  | 12,14, 1 |||
188 |          | noName   |  0.53652 | -0.12851 | h  | 13,14, 1 |||
189 |          | noName   |  0.03958 |  0.21497 | h  | 15, 1, 1 |||
190 |          | noName   |  0.96926 | -0.27027 | h  | 16, 1, 1 |||
191 |          | noName   |  0.10093 | -0.35916 | h  | 15, 2, 1 |||
192 |          | noName   |  0.02062 |  0.12971 | h  | 16, 2, 1 |||
193 |          | noName   |  0.98788 | -0.06188 | h  | 15, 3, 1 |||
194 |          | noName   |  0.89973 |  0.28445 | h  | 16, 3, 1 |||
195 |          | noName   |  0.95441 |  0.27445 | h  | 15, 4, 1 |||
196 |          | noName   |  0.00825 |  0.27769 | h  | 16, 4, 1 |||
197 |          | noName   |  0.22374 |  0.18905 | h  | 15, 5, 1 |||
198 |          | noName   |  0.06112 | -0.00928 | h  | 16, 5, 1 |||
199 |          | noName   |  0.97336 | -0.00497 | h  | 15, 6, 1 |||
200 |          | noName   |  0.02097 |  0.08469 | h  | 16, 6, 1 |||
201 |          | noName   |  0.97782 | -0.09158 | h  | 15, 7, 1 |||
202 |          | noName   |  0.91841 | -0.15137 | h  | 16, 7, 1 |||
203 |          | noName   |  0.95865 |  0.19327 | h  | 15, 8, 1 |||
204 |          | noName   |  0.93881 |  0.57083 | h  | 16, 8, 1 |||
205 |          | noName   |  0.95305 | -0.07763 | h  | 15, 9, 1 |||
206 |          | noName   |  0.97648 |  0.15944 | h  | 16, 9, 1 |||
207 |          | noName   |  0.06738 | -0.03851 | h  | 15,10, 1 |||
208 |          | noName   |  0.09567 | -0.34383 | h  | 16,10, 1 |||
209 |          | noName   |  0.00071 | -0.92812 | o  | 18, 1, 1 |||
210 |          | noName   |  0.00020 | -0.91777 | o  | 18, 2, 1 |||
211 |          | noName   |  0.00022 | -0.62195 | o  | 18, 3, 1 |||
212 |          | noName   |  0.99976 | -0.95516 | o  | 18, 4, 1 |||
213 |          | noName   |  0.00001 | -0.95482 | o  | 18, 5, 1 |||
214 |          | noName   |  0.00055 | -0.94628 | o  | 18, 6, 1 |||
215 |          | noName   |  0.00023 | -0.80595 | o  | 18, 7, 1 |||
216 |          | noName   |  0.00041 | -0.53755 | o  | 18, 8, 1 |||
217 |          | noName   |  0.00029 | -1.08854 | o  | 18, 9, 1 |||
218 |          | noName   |  0.00062 | -0.87528 | o  | 18,10, 1 |||
----|----------|----------|----------|----------|----|----------|--------------|----------|-------


connection definition section :

target | site | source:weight
-------|------|----------------------------------------------------------------------------------------------------------------
   161 |      | 160: 0.20340, 159: 0.37825, 158: 0.39042, 157: 0.81514, 156: 0.44754, 155: 0.19525, 154: 0.02318, 153:-0.14749,
                152: 0.37848, 151: 0.24313, 150: 0.32225, 149: 0.29258, 148: 0.37246, 147: 0.44234, 146: 0.16372, 145: 0.05030,
                144: 0.03918, 143: 0.18102, 142: 0.59261, 141: 0.27079, 140:-0.30679, 139: 0.19645, 138:-0.04669, 137:-0.42915,
                136: 0.21884, 135: 0.06896, 134: 0.32347, 133: 0.17865, 132: 0.47917, 131:-0.18033, 130:-0.39392, 129:-0.14463,
                128:-0.40329, 127: 0.20475, 126:-0.24910, 125: 0.31033, 124: 0.45220, 123: 0.41009, 122: 0.26068, 121: 0.05101,
                120:-0.51604, 119:-0.23255, 118:-0.27321, 117:-0.30897, 116: 0.11592, 115:-0.28354, 114:-0.00677, 113: 0.07090,
                112: 0.22521, 111:-0.19118, 110:-0.99660, 109:-0.70769, 108:-0.15023, 107:-0.12521, 106:-0.25443, 105: 0.10520,
                104: 0.17563, 103: 0.08132, 102:-0.31802, 101:-0.27937, 100:-0.79337,  99:-0.65043,  98:-0.06558,  97: 0.09889,
                 96: 0.03937,  95:-0.12569,  94:-0.15075,  93:-0.37666,  92:-0.44963,  91:-0.34250,  90: 0.00282,  89:-0.10220,
                 88: 0.18261,  87:-0.13441,  86:-0.11622,  85:-0.47833,  84:-0.31125,  83:-0.56264,  82:-0.59587,  81:-0.25160,
                 80: 0.09757,  79: 0.01410,  78:-0.29162,  77:-0.26172,  76:-0.27577,  75:-0.20901,  74:-0.54106,  73:-0.63001,
                 72:-0.49159,  71:-0.15395,  70:-0.06520,  69: 0.15312,  68:-0.13691,  67:-0.64440,  66:-0.30392,  65:-0.13765,
                 64:-0.02534,  63:-0.13291,  62:-0.20200,  61:-0.23192,  60: 0.14562,  59:-0.16837,  58:-0.32251,  57:-0.28824,
                 56:-0.15385,  55: 0.03531,  54: 0.02820,  53:-0.11644,  52: 0.33942,  51: 0.33959,  50: 0.04239,  49:-0.09087,
                 48: 0.27224,  47:-0.16715,  46:-0.00166,  45:-0.02798,  44: 0.24834,  43: 0.21303,  42:-0.03470,  41: 0.20789,
                 40: 0.25294,  39:-0.24244,  38: 0.14098,  37:-0.54741,  36:-0.10433,  35:-0.04902,  34: 0.43559,  33: 0.17528,
                 32: 0.12951,  31: 0.16211,  30:-0.17896,  29:-0.15510,  28:-0.31555,  27:-0.35029,  26:-0.07029,  25: 0.24146,
                 24:-0.37146,  23:-0.08611,  22: 0.30802,  21: 0.15282,  20:-0.15626,  19: 0.14870,  18:-0.21527,  17:-0.32590,
                 16: 0.13837,  15:-0.03538,  14: 0.14672,  13: 0.12512,  12: 0.29177,  11:-0.07013,  10:-0.77864,   9:-0.27472,
                  8:-0.26652,   7: 0.07822,   6:-0.15229,   5:-0.08429,   4: 0.23826,   3: 0.18732,   2:-0.45602,   1:-0.33629
   162 |      | 160:-0.27510, 159: 0.09226, 158: 0.11077, 157: 0.00777, 156: 0.24601, 155: 0.32186, 154: 0.31759, 153: 0.29377,
                152: 0.24046, 151: 0.16719, 150:-0.00395, 149:-0.11501, 148: 0.09396, 147: 0.05778, 146:-0.10465, 145: 0.07890,
                144: 0.17552, 143: 0.46323, 142: 0.29545, 141: 0.22632, 140: 0.19104, 139:-0.39725, 138:-0.38687, 137:-0.19782,
                136: 0.25404, 135: 0.12403, 134: 0.05801, 133: 0.00384, 132: 0.39303, 131: 0.16676, 130:-0.09249, 129:-0.49151,
                128:-0.37689, 127: 0.00362, 126:-0.00619, 125:-0.27229, 124:-0.59979, 123:-0.05369, 122: 0.07947, 121: 0.02116,
                120:-0.39708, 119:-0.35886, 118: 0.08084, 117: 0.02532, 116:-0.31167, 115:-0.56646, 114:-0.31527, 113: 0.00882,
                112:-0.26320, 111:-0.32708, 110:-0.00285, 109: 0.13913, 108: 0.05929, 107:-0.04052, 106:-0.17743, 105:-0.21610,
                104:-0.07072, 103:-0.16075, 102:-0.49720, 101:-0.25113, 100:-0.22345,  99: 0.41454,  98: 0.12486,  97: 0.00381,
                 96:-0.20053,  95:-0.37671,  94:-0.33662,  93:-0.43386,  92:-0.60120,  91:-0.42589,  90: 0.15822,  89: 0.02901,
                 88: 0.06267,  87:-0.28555,  86:-0.16253,  85:-0.34059,  84:-0.28481,  83:-0.09993,  82:-0.29779,  81:-0.39810,
                 80: 0.14409,  79: 0.15568,  78:-0.20305,  77:-0.27550,  76:-0.12916,  75:-0.20704,  74:-0.45705,  73:-0.75542,
                 72:-0.29796,  71:-0.39644,  70: 0.34588,  69: 0.05494,  68:-0.07245,  67:-0.28067,  66:-0.09967,  65:-0.03141,
                 64:-0.15294,  63:-0.32232,  62:-0.18645,  61:-0.09853,  60: 0.34478,  59: 0.43501,  58: 0.37134,  57: 0.21703,
                 56: 0.00275,  55:-0.08476,  54:-0.13767,  53:-0.14071,  52: 0.38772,  51:-0.03059,  50: 0.52417,  49: 0.42852,
                 48: 0.30376,  47: 0.31100,  46: 0.07091,  45:-0.01584,  44:-0.12214,  43: 0.09557,  42:-0.02415,  41: 0.08160,
                 40: 0.40802,  39: 0.24095,  38: 0.12455,  37: 0.16239,  36:-0.04274,  35: 0.07866,  34: 0.17721,  33: 0.07415,
                 32:-0.19924,  31: 0.32844,  30: 0.11486,  29: 0.30718,  28: 0.12933,  27: 0.05943,  26: 0.39097,  25: 0.10310,
                 24: 0.45163,  23: 0.44785,  22: 0.01368,  21:-0.14841,  20: 0.28283,  19: 0.04753,  18: 0.35849,  17: 0.52670,
                 16: 0.44012,  15: 0.59265,  14: 0.51370,  13: 0.34887,  12: 0.20931,  11:-0.14972,  10:-0.24881,   9: 0.08006,
                  8: 0.22946,   7: 0.01110,   6: 0.28979,   5: 0.03748,   4: 0.14960,   3: 0.46382,   2:-0.00826,   1:-0.07314
   163 |      | 160: 0.04471, 159:-0.14961, 158:-0.02626, 157:-0.15232, 156: 0.16564, 155:-0.10962, 154: 0.65659, 153: 0.29839,
                152: 0.28573, 151:-0.01976, 150:-0.01294, 149:-0.14247, 148: 0.19422, 147: 0.08285, 146: 0.15361, 145: 0.21367,
                144:-0.16079, 143: 0.21145, 142: 0.01325, 141:-0.16529, 140: 0.45215, 139: 0.24605, 138:-0.33506, 137:-0.23346,
                136: 0.33938, 135:-0.08614, 134: 0.02611, 133:-0.27127, 132: 0.07289, 131: 0.00771, 130: 0.25530, 129: 0.25180,
                128:-0.32131, 127: 0.28212, 126:-0.21819, 125:-0.04808, 124:-0.25014, 123: 0.09496, 122: 0.37661, 121: 0.29504,
                120:-0.04093, 119: 0.10707, 118: 0.14631, 117: 0.09547, 116:-0.32545, 115:-0.61433, 114:-0.06937, 113: 0.14343,
                112: 0.46599, 111: 0.12725, 110: 0.22713, 109: 0.00600, 108: 0.09356, 107: 0.00025, 106:-0.34476, 105:-0.36329,
                104:-0.23483, 103: 0.20834, 102: 0.27510, 101: 0.13098, 100:-0.07552,  99: 0.37642,  98:-0.01093,  97:-0.24946,
                 96:-0.15160,  95:-0.45954,  94:-0.16562,  93:-0.20757,  92: 0.18977,  91:-0.02441,  90:-0.08022,  89: 0.02269,
                 88:-0.27148,  87:-0.50053,  86:-0.08595,  85: 0.05420,  84:-0.09685,  83:-0.13409,  82:-0.15340,  81: 0.06433,
                 80:-0.04331,  79:-0.03289,  78:-0.35666,  77:-0.31220,  76: 0.05512,  75: 0.00197,  74:-0.08170,  73:-0.08719,
                 72:-0.24116,  71:-0.34708,  70:-0.04171,  69:-0.46232,  68:-0.29026,  67: 0.00500,  66: 0.09280,  65:-0.17704,
                 64:-0.25589,  63:-0.28959,  62:-0.29685,  61:-0.38474,  60: 0.30400,  59: 0.11603,  58: 0.13479,  57: 0.23770,
                 56: 0.04497,  55:-0.16161,  54:-0.04397,  53:-0.22553,  52:-0.13680,  51:-0.18188,  50: 0.64813,  49: 0.53533,
                 48: 0.38771,  47:-0.06467,  46: 0.09254,  45:-0.17657,  44:-0.18578,  43: 0.03797,  42: 0.11007,  41: 0.02183,
                 40: 0.52107,  39: 0.37837,  38: 0.00419,  37:-0.00295,  36:-0.04769,  35:-0.03931,  34:-0.08776,  33: 0.14233,
                 32: 0.23839,  31: 0.25867,  30:-0.13598,  29:-0.07073,  28:-0.35196,  27:-0.02676,  26: 0.21432,  25:-0.21965,
                 24:-0.06223,  23: 0.12819,  22: 0.24960,  21: 0.15125,  20:-0.35452,  19:-0.36546,  18:-0.05954,  17:-0.19783,
                 16: 0.23348,  15:-0.10004,  14: 0.10547,  13: 0.02853,  12: 0.01389,  11: 0.13796,  10:-0.51950,   9:-0.08915,
                  8:-0.29843,   7:-0.15265,   6:-0.33919,   5: 0.14877,   4: 0.29012,   3:-0.06782,   2:-0.48207,   1:-0.00738
   164 |      | 160:-0.08037, 159:-0.27523, 158:-0.51863, 157:-0.03062, 156:-0.29583, 155:-0.31440, 154: 0.05459, 153:-0.32050,
                152: 0.08567, 151:-0.01102, 150:-0.06391, 149:-0.44649, 148:-0.08661, 147:-0.04516, 146:-0.28445, 145:-0.16777,
                144:-0.47066, 143: 0.24651, 142: 0.20080, 141:-0.37488, 140:-0.25039, 139: 0.06270, 138: 0.12442, 137:-0.40130,
                136:-0.22978, 135:-0.29351, 134:-0.08640, 133:-0.33580, 132:-0.24769, 131: 0.01660, 130: 0.05854, 129: 0.13402,
                128:-0.04034, 127: 0.02040, 126:-0.33697, 125:-0.04994, 124:-0.32209, 123: 0.04373, 122:-0.02498, 121:-0.08810,
                120: 0.03892, 119: 0.07067, 118:-0.11380, 117:-0.17996, 116:-0.11485, 115:-0.43190, 114:-0.34960, 113:-0.08550,
                112:-0.58558, 111:-0.13669, 110: 0.52509, 109: 0.03582, 108:-0.09195, 107: 0.38225, 106:-0.11767, 105:-0.38012,
                104:-0.42096, 103: 0.00812, 102:-0.24757, 101:-0.25559, 100: 0.37705,  99: 0.53860,  98: 0.42536,  97: 0.16479,
                 96: 0.10377,  95:-0.07815,  94:-0.26729,  93:-0.14919,  92:-0.20141,  91:-0.29756,  90: 0.12643,  89:-0.12722,
                 88: 0.17763,  87: 0.20906,  86: 0.22517,  85: 0.26317,  84: 0.05410,  83: 0.02271,  82:-0.16480,  81:-0.16308,
                 80:-0.09767,  79: 0.02492,  78: 0.71601,  77: 0.04696,  76: 0.13970,  75: 0.21100,  74: 0.01218,  73: 0.28480,
                 72:-0.01493,  71:-0.02982,  70:-0.88351,  69:-0.08994,  68:-0.10112,  67:-0.08722,  66:-0.11273,  65:-0.03274,
                 64:-0.42831,  63:-0.74008,  62:-0.65543,  61:-0.44628,  60:-0.54630,  59:-0.05505,  58: 0.21112,  57: 0.36843,
                 56:-0.28367,  55:-0.42634,  54:-0.64806,  53:-0.88477,  52:-0.94538,  51:-0.38865,  50: 0.06273,  49: 0.52167,
                 48: 0.19167,  47: 0.11063,  46: 0.06959,  45:-0.54692,  44:-0.45466,  43:-0.40564,  42:-0.46019,  41:-0.36181,
                 40: 0.11368,  39: 0.57444,  38:-0.03129,  37: 0.13466,  36:-0.22963,  35:-0.22463,  34:-0.14962,  33:-0.09904,
                 32:-0.20218,  31:-0.35446,  30:-0.04054,  29: 0.23572,  28: 0.02701,  27: 0.38762,  26: 0.66013,  25:-0.37068,
                 24: 0.23374,  23: 0.39229,  22: 0.11464,  21:-0.03605,  20:-0.05116,  19:-0.13139,  18: 0.18563,  17: 0.31997,
                 16: 0.53772,  15: 0.26964,  14: 0.41388,  13: 0.58852,  12: 0.52472,  11: 0.32079,  10: 0.08759,   9:-0.18545,
                  8:-0.24785,   7:-0.18453,   6:-0.21267,   5: 0.21605,   4: 0.29763,   3: 0.09827,   2:-0.25892,   1: 0.02123
   165 |      | 160:-0.14012, 159:-0.10772, 158: 0.02830, 157:-0.54083, 156:-0.07660, 155: 0.34144, 154: 0.19311, 153: 0.32847,
                152:-0.24179, 151:-0.27203, 150:-0.22657, 149:-0.13069, 148:-0.10368, 147:-0.16828, 146:-0.11955, 145:-0.00928,
                144: 0.09285, 143:-0.18181, 142:-0.41100, 141:-0.08211, 140: 0.13595, 139:-0.27223, 138:-0.24076, 137: 0.01114,
                136:-0.06140, 135:-0.06495, 134:-0.20521, 133:-0.17336, 132:-0.08354, 131:-0.10896, 130: 0.16328, 129:-0.10630,
                128:-0.18998, 127: 0.02036, 126:-0.17727, 125:-0.41236, 124: 0.05484, 123:-0.20058, 122:-0.02193, 121: 0.07453,
                120: 0.26267, 119: 0.22573, 118: 0.11561, 117: 0.30472, 116:-0.21540, 115: 0.25513, 114: 0.29242, 113:-0.06271,
                112:-0.04914, 111: 0.04024, 110: 0.38013, 109: 0.09606, 108: 0.03337, 107:-0.07311, 106: 0.15627, 105:-0.01044,
                104:-0.00202, 103:-0.04633, 102: 0.11054, 101: 0.06451, 100: 0.07702,  99: 0.04106,  98:-0.01014,  97: 0.06425,
                 96:-0.21341,  95: 0.22657,  94: 0.39949,  93:-0.02955,  92: 0.12028,  91:-0.12178,  90:-0.05097,  89: 0.32354,
                 88:-0.16144,  87: 0.01390,  86: 0.00251,  85: 0.12100,  84: 0.20184,  83: 0.29343,  82: 0.24059,  81:-0.06447,
                 80: 0.20069,  79: 0.12123,  78:-0.16281,  77: 0.07438,  76: 0.07564,  75: 0.29997,  74: 0.30743,  73: 0.18586,
                 72: 0.19305,  71: 0.04626,  70: 0.76328,  69:-0.11620,  68:-0.02544,  67: 0.43500,  66: 0.31363,  65: 0.04417,
                 64: 0.07394,  63: 0.14953,  62: 0.25241,  61: 0.27387,  60: 0.70630,  59: 0.30519,  58: 0.14391,  57: 0.10957,
                 56: 0.28268,  55: 0.01960,  54: 0.13280,  53: 0.23404,  52:-0.16231,  51:-0.00817,  50: 0.71193,  49: 0.32535,
                 48: 0.25337,  47: 0.14414,  46:-0.04414,  45: 0.17098,  44: 0.11163,  43: 0.14642,  42: 0.23513,  41:-0.03380,
                 40: 0.29690,  39: 0.30913,  38: 0.06364,  37: 0.09027,  36: 0.15917,  35: 0.16969,  34:-0.12926,  33:-0.16439,
                 32:-0.02765,  31: 0.15006,  30:-0.00964,  29:-0.29544,  28:-0.42467,  27:-0.03185,  26:-0.06674,  25:-0.22704,
                 24:-0.08525,  23:-0.01180,  22:-0.15841,  21:-0.13131,  20:-0.71810,  19:-0.62919,  18:-0.21835,  17:-0.12161,
                 16:-0.22192,  15:-0.28754,  14:-0.21652,  13:-0.42716,  12:-0.30995,  11:-0.14716,  10:-0.40753,   9:-0.10152,
                  8: 0.14985,   7: 0.03059,   6:-0.10724,   5: 0.07165,   4:-0.09539,   3: 0.00630,   2:-0.10228,   1:-0.15781
   166 |      | 160: 0.46010, 159: 0.15127, 158: 0.32382, 157: 0.23959, 156: 0.02624, 155:-0.27458, 154:-0.56625, 153:-0.34784,
                152:-0.20056, 151:-0.10338, 150: 0.02887, 149: 0.07667, 148: 0.10816, 147: 0.24988, 146:-0.27283, 145: 0.01438,
                144:-0.35130, 143:-0.20494, 142:-0.04554, 141:-0.20437, 140:-0.24649, 139: 0.10300, 138:-0.03501, 137:-0.41376,
                136: 0.17633, 135:-0.01576, 134: 0.20647, 133: 0.10181, 132: 0.12238, 131:-0.31115, 130:-0.26647, 129:-0.20666,
                128: 0.00897, 127: 0.31377, 126: 0.09648, 125: 0.47081, 124: 0.68037, 123: 0.22794, 122:-0.05917, 121:-0.30291,
                120:-0.53360, 119:-0.35467, 118:-0.05912, 117:-0.23305, 116: 0.29786, 115: 0.28835, 114: 0.61872, 113: 0.29570,
                112: 0.28180, 111:-0.06643, 110:-0.29794, 109:-0.18915, 108: 0.18807, 107: 0.25847, 106: 0.03883, 105: 0.18515,
                104: 0.37564, 103: 0.35313, 102:-0.29306, 101:-0.05472, 100:-0.54856,  99: 0.03915,  98: 0.02462,  97: 0.19007,
                 96: 0.17705,  95: 0.07361,  94: 0.24653,  93:-0.21899,  92:-0.20847,  91: 0.01302,  90:-0.00840,  89:-0.13523,
                 88:-0.00179,  87: 0.00974,  86: 0.21112,  85: 0.17086,  84:-0.10818,  83:-0.34132,  82:-0.38908,  81: 0.10506,
                 80: 0.37816,  79: 0.07573,  78: 0.14013,  77: 0.11977,  76: 0.04933,  75: 0.26488,  74:-0.30151,  73:-0.25984,
                 72:-0.36263,  71:-0.19412,  70: 0.24982,  69: 0.41001,  68: 0.14555,  67: 0.08384,  66:-0.09227,  65: 0.08397,
                 64: 0.05270,  63: 0.00847,  62:-0.35273,  61:-0.14044,  60: 0.01527,  59: 0.22396,  58:-0.00495,  57: 0.01957,
                 56: 0.17071,  55:-0.04187,  54:-0.04542,  53:-0.07182,  52: 0.08401,  51: 0.10889,  50: 0.26687,  49: 0.19402,
                 48: 0.05653,  47:-0.18896,  46:-0.03310,  45:-0.11287,  44:-0.00424,  43:-0.09827,  42:-0.21215,  41: 0.07612,
                 40: 0.01386,  39:-0.03597,  38:-0.00811,  37:-0.38699,  36:-0.22189,  35:-0.26018,  34: 0.08730,  33: 0.18109,
                 32: 0.08775,  31: 0.05048,  30:-0.32710,  29: 0.06444,  28:-0.14927,  27:-0.42022,  26:-0.21023,  25: 0.11462,
                 24:-0.23825,  23:-0.22098,  22: 0.12123,  21: 0.28371,  20:-0.25645,  19:-0.36269,  18:-0.24603,  17:-0.32135,
                 16:-0.10526,  15:-0.09509,  14: 0.03001,  13: 0.10704,  12: 0.29958,  11: 0.22455,  10: 0.02312,   9:-0.10878,
                  8:-0.04959,   7:-0.01548,   6:-0.16832,   5:-0.29337,   4:-0.13340,   3: 0.34313,   2: 0.11388,   1: 0.30614
   167 |      | 160: 0.09172, 159: 0.23843, 158: 0.19647, 157: 0.42420, 156:-0.07013, 155: 0.37179, 154: 0.35074, 153: 0.01132,
                152: 0.23839, 151: 0.09916, 150: 0.36501, 149: 0.14650, 148: 0.09243, 147: 0.19278, 146: 0.30036, 145:-0.08798,
                144: 0.40853, 143: 0.32034, 142: 0.52718, 141: 0.40634, 140: 0.00272, 139:-0.04666, 138: 0.13202, 137:-0.12711,
                136: 0.08709, 135: 0.06980, 134:-0.03487, 133: 0.10667, 132: 0.41739, 131: 0.27584, 130:-0.10882, 129:-0.21647,
                128:-0.06881, 127:-0.04152, 126:-0.02684, 125:-0.21831, 124:-0.29444, 123: 0.09951, 122:-0.24621, 121:-0.00654,
                120:-0.13371, 119: 0.01746, 118:-0.12578, 117:-0.56634, 116:-0.66546, 115:-0.63385, 114:-0.64101, 113:-0.67142,
                112:-0.64012, 111:-0.47062, 110: 0.15626, 109:-0.30507, 108: 0.02244, 107:-0.07698, 106:-0.11775, 105:-0.13982,
                104:-0.25667, 103:-0.35076, 102:-0.89074, 101:-0.58683, 100:-0.11052,  99:-0.03538,  98:-0.13182,  97:-0.05809,
                 96: 0.07530,  95:-0.31688,  94:-0.45729,  93:-0.51919,  92:-0.52213,  91:-0.49268,  90: 0.00380,  89:-0.15526,
                 88:-0.50579,  87:-0.14696,  86: 0.22036,  85:-0.26733,  84: 0.00879,  83:-0.49109,  82:-0.32898,  81: 0.03710,
                 80:-0.11224,  79: 0.05820,  78: 0.25613,  77:-0.51704,  76:-0.03089,  75:-0.31374,  74:-0.44076,  73:-0.03873,
                 72:-0.19033,  71:-0.25199,  70:-0.19909,  69: 0.27253,  68: 0.11843,  67:-0.13855,  66:-0.18644,  65: 0.09040,
                 64:-0.10726,  63:-0.21620,  62:-0.06166,  61:-0.29326,  60:-0.41648,  59:-0.12254,  58: 0.15474,  57:-0.23456,
                 56:-0.14738,  55: 0.07398,  54:-0.12398,  53: 0.08440,  52: 0.33797,  51:-0.02825,  50:-0.20622,  49:-0.38164,
                 48:-0.13305,  47: 0.00719,  46: 0.21974,  45: 0.04103,  44: 0.10834,  43: 0.00589,  42:-0.24144,  41: 0.32696,
                 40: 0.05366,  39:-0.37671,  38:-0.07021,  37:-0.09323,  36:-0.17492,  35: 0.07877,  34: 0.53330,  33: 0.35366,
                 32: 0.04525,  31:-0.07447,  30: 0.17768,  29: 0.06181,  28: 0.37941,  27: 0.32739,  26: 0.04898,  25: 0.00012,
                 24: 0.25206,  23: 0.14313,  22: 0.23382,  21: 0.09234,  20: 0.26030,  19: 0.37275,  18: 0.07278,  17:-0.00512,
                 16: 0.09394,  15: 0.35747,  14: 0.04773,  13: 0.09369,  12: 0.18847,  11:-0.13668,  10:-0.07654,   9: 0.10813,
                  8: 0.09713,   7:-0.25733,   6:-0.04324,   5: 0.16532,   4: 0.14069,   3: 0.44329,   2: 0.41843,   1:-0.30092
   168 |      | 160: 0.28776, 159: 0.05143, 158:-0.04124, 157:-0.04253, 156: 0.09989, 155: 0.20055, 154: 0.40684, 153: 0.02846,
                152: 0.10073, 151: 0.00204, 150: 0.11658, 149:-0.07314, 148:-0.08122, 147:-0.06164, 146:-0.01358, 145:-0.13469,
                144:-0.24122, 143: 0.22218, 142: 0.31917, 141: 0.04060, 140:-0.29810, 139:-0.16915, 138: 0.00474, 137:-0.15398,
                136: 0.28419, 135:-0.01115, 134:-0.04028, 133: 0.16939, 132: 0.03769, 131:-0.42776, 130:-0.13569, 129:-0.34078,
                128:-0.16205, 127:-0.22823, 126:-0.05433, 125:-0.39820, 124: 0.16907, 123: 0.08722, 122:-0.36532, 121:-0.36006,
                120:-0.12802, 119:-0.25309, 118:-0.02852, 117:-0.13790, 116: 0.06068, 115:-0.08445, 114: 0.08094, 113:-0.24884,
                112:-0.71963, 111:-0.12615, 110:-0.13503, 109:-0.29594, 108: 0.18480, 107: 0.16705, 106: 0.06203, 105: 0.14764,
                104: 0.12360, 103:-0.22950, 102:-0.37277, 101:-0.57835, 100: 0.33229,  99:-0.05394,  98: 0.22385,  97:-0.00569,
                 96: 0.24864,  95:-0.02580,  94: 0.07071,  93:-0.42269,  92:-0.40446,  91:-0.31293,  90: 0.21118,  89: 0.20345,
                 88: 0.21808,  87: 0.46576,  86: 0.15032,  85:-0.20786,  84: 0.13112,  83:-0.32640,  82:-0.18852,  81: 0.02141,
                 80: 0.20480,  79:-0.02413,  78: 0.42118,  77:-0.07312,  76:-0.25974,  75:-0.07631,  74:-0.20148,  73: 0.00279,
                 72:-0.19544,  71: 0.20249,  70:-0.03932,  69: 0.12310,  68:-0.03386,  67: 0.12283,  66:-0.18241,  65:-0.04922,
                 64:-0.24260,  63:-0.53545,  62:-0.25081,  61:-0.09658,  60: 0.11137,  59: 0.05018,  58: 0.14915,  57: 0.10276,
                 56:-0.34812,  55:-0.56558,  54:-0.46849,  53:-0.36256,  52:-0.51025,  51:-0.08967,  50: 0.52383,  49: 0.74991,
                 48: 0.05112,  47: 0.15534,  46:-0.21703,  45:-0.34233,  44:-0.05566,  43:-0.26873,  42:-0.20649,  41:-0.13445,
                 40: 0.24851,  39: 0.37109,  38: 0.35578,  37: 0.03844,  36:-0.20281,  35:-0.22415,  34:-0.05301,  33: 0.03336,
                 32:-0.24953,  31:-0.24875,  30: 0.06669,  29:-0.01426,  28: 0.13513,  27: 0.31561,  26: 0.49706,  25:-0.13077,
                 24: 0.17316,  23: 0.08910,  22:-0.08033,  21:-0.20489,  20:-0.35853,  19:-0.16053,  18:-0.14800,  17:-0.01984,
                 16: 0.65676,  15: 0.40759,  14: 0.36833,  13:-0.00227,  12: 0.08437,  11:-0.05587,  10:-0.27727,   9:-0.04907,
                  8: 0.25590,   7: 0.23794,   6:-0.14330,   5: 0.19333,   4: 0.18676,   3: 0.26880,   2:-0.34055,   1:-0.31980
   169 |      | 160:-0.10528, 159:-0.20392, 158: 0.01989, 157:-0.20260, 156:-0.45766, 155:-0.23561, 154:-0.48435, 153:-0.51298,
                152:-0.41129, 151:-0.22745, 150:-0.07635, 149:-0.11430, 148:-0.20506, 147:-0.13459, 146:-0.13370, 145:-0.38130,
                144:-0.34664, 143:-0.49520, 142:-0.42539, 141:-0.14540, 140:-0.14363, 139:-0.11117, 138:-0.27788, 137:-0.33748,
                136:-0.25678, 135:-0.41140, 134:-0.36988, 133:-0.19834, 132:-0.24545, 131:-0.21359, 130:-0.19961, 129:-0.18060,
                128:-0.14575, 127:-0.05565, 126:-0.04221, 125:-0.15807, 124:-0.06214, 123:-0.22385, 122:-0.19344, 121:-0.02052,
                120:-0.05762, 119:-0.00455, 118:-0.03573, 117:-0.04988, 116: 0.07052, 115: 0.24340, 114: 0.30803, 113: 0.02406,
                112: 0.05723, 111: 0.24579, 110: 0.10681, 109: 0.05037, 108:-0.02661, 107: 0.18848, 106: 0.31357, 105: 0.13181,
                104:-0.27018, 103: 0.15950, 102: 0.39131, 101: 0.33233, 100:-0.19948,  99:-0.01741,  98: 0.03771,  97: 0.14862,
                 96: 0.27244,  95:-0.26942,  94:-0.21306,  93: 0.28287,  92: 0.52463,  91: 0.12828,  90:-0.10909,  89: 0.10209,
                 88: 0.07558,  87: 0.15500,  86: 0.02806,  85:-0.36139,  84: 0.01774,  83: 0.27426,  82: 0.36954,  81: 0.18419,
                 80: 0.24086,  79: 0.41495,  78: 0.19053,  77: 0.07310,  76: 0.18993,  75:-0.36602,  74: 0.10751,  73: 0.43343,
                 72: 0.21567,  71: 0.02989,  70: 0.46333,  69: 0.48345,  68: 0.26302,  67: 0.15598,  66:-0.06631,  65:-0.01566,
                 64: 0.11036,  63: 0.28209,  62: 0.13472,  61: 0.09705,  60:-0.01059,  59: 0.25699,  58: 0.06725,  57: 0.05027,
                 56: 0.19648,  55: 0.10100,  54: 0.24046,  53: 0.08993,  52: 0.08136,  51: 0.11061,  50: 0.09498,  49: 0.06188,
                 48: 0.09737,  47: 0.00424,  46:-0.17001,  45: 0.27772,  44:-0.10043,  43:-0.01834,  42: 0.15074,  41: 0.09321,
                 40: 0.16327,  39: 0.13377,  38:-0.14406,  37:-0.14326,  36:-0.23123,  35:-0.12776,  34:-0.02200,  33: 0.14940,
                 32: 0.21733,  31: 0.07828,  30:-0.21737,  29: 0.22698,  28:-0.08212,  27:-0.08133,  26:-0.35499,  25:-0.28698,
                 24:-0.33428,  23:-0.06873,  22: 0.08419,  21: 0.19782,  20:-0.31188,  19:-0.27592,  18:-0.37092,  17:-0.44258,
                 16:-0.42341,  15:-0.38953,  14:-0.22340,  13:-0.21176,  12: 0.02918,  11: 0.15572,  10:-0.15169,   9:-0.10660,
                  8:-0.28531,   7:-0.21009,   6:-0.20201,   5:-0.04086,   4: 0.05102,   3: 0.17822,   2: 0.28429,   1: 0.01793
   170 |      | 160: 0.03133, 159:-0.02740, 158:-0.10281, 157:-0.17807, 156:-0.09452, 155:-0.29302, 154: 0.48650, 153: 0.12616,
                152:-0.14096, 151: 0.03382, 150: 0.18429, 149:-0.15377, 148:-0.19823, 147: 0.07802, 146: 0.15286, 145:-0.11039,
                144:-0.18005, 143:-0.12868, 142: 0.12115, 141: 0.11729, 140: 0.05044, 139:-0.03796, 138: 0.19003, 137: 0.09174,
                136: 0.07792, 135: 0.03479, 134:-0.34078, 133:-0.49197, 132:-0.21783, 131:-0.30282, 130: 0.26466, 129:-0.00394,
                128: 0.12152, 127:-0.14884, 126: 0.05992, 125:-0.53176, 124:-0.50944, 123:-0.43600, 122:-0.53541, 121:-0.35840,
                120: 0.32607, 119: 0.31470, 118: 0.31292, 117: 0.34614, 116: 0.13468, 115: 0.22647, 114:-0.12206, 113:-0.22496,
                112:-1.17674, 111:-0.25030, 110:-0.18379, 109:-0.16504, 108: 0.06052, 107: 0.06870, 106:-0.17100, 105: 0.16300,
                104:-0.04505, 103:-0.22082, 102:-0.31162, 101:-0.38458, 100: 0.57231,  99: 0.15805,  98: 0.01608,  97:-0.01723,
                 96: 0.08982,  95: 0.23865,  94:-0.00782,  93: 0.06593,  92:-0.08070,  91:-0.32586,  90: 0.33057,  89: 0.64885,
                 88: 0.60829,  87: 0.35690,  86: 0.01919,  85: 0.33528,  84: 0.38881,  83: 0.25219,  82: 0.03848,  81:-0.03912,
                 80: 0.33961,  79: 0.38807,  78: 0.44811,  77:-0.02642,  76:-0.20425,  75: 0.15772,  74: 0.00950,  73: 0.24103,
                 72:-0.05814,  71: 0.28988,  70: 0.19816,  69: 0.22324,  68: 0.20480,  67: 0.18897,  66: 0.02155,  65: 0.11449,
                 64:-0.28100,  63:-0.42631,  62:-0.05911,  61: 0.09623,  60: 0.28293,  59: 0.39107,  58: 0.13130,  57: 0.14067,
                 56:-0.26618,  55:-0.36999,  54:-0.27851,  53:-0.25969,  52:-0.44355,  51:-0.12046,  50: 0.20270,  49: 0.48135,
                 48: 0.19756,  47: 0.02987,  46:-0.31600,  45:-0.12108,  44:-0.28633,  43:-0.11609,  42:-0.05843,  41:-0.19431,
                 40: 0.29195,  39: 0.27655,  38: 0.03405,  37: 0.06879,  36:-0.10554,  35: 0.06155,  34:-0.13862,  33:-0.10204,
                 32:-0.16348,  31:-0.17840,  30: 0.23140,  29:-0.35742,  28:-0.53101,  27:-0.24140,  26: 0.41046,  25:-0.44694,
                 24:-0.06086,  23: 0.33275,  22: 0.10561,  21:-0.11848,  20:-0.31535,  19:-0.23645,  18:-0.18793,  17:-0.72023,
                 16: 0.03113,  15:-0.23950,  14: 0.06769,  13: 0.22566,  12: 0.11663,  11: 0.04076,  10:-0.32350,   9:-0.38038,
                  8:-0.23416,   7:-0.13068,   6:-0.02047,   5: 0.10197,   4: 0.21493,   3:-0.00902,   2:-0.46758,   1: 0.02686
   171 |      | 160: 0.02812, 159:-0.03438, 158:-0.00095, 157:-0.01494, 156: 0.05366, 155: 0.07914, 154: 0.11212, 153:-0.05582,
                152:-0.40289, 151:-0.36202, 150:-0.04006, 149: 0.02573, 148: 0.10946, 147: 0.08248, 146:-0.09496, 145:-0.01169,
                144: 0.01386, 143: 0.04916, 142:-0.21833, 141:-0.30166, 140: 0.11307, 139: 0.06055, 138: 0.16395, 137:-0.03442,
                136: 0.20556, 135: 0.01935, 134: 0.17152, 133: 0.01659, 132:-0.07209, 131:-0.16128, 130:-0.00076, 129:-0.00637,
                128:-0.06122, 127: 0.05348, 126:-0.05963, 125:-0.05676, 124: 0.25783, 123: 0.10523, 122: 0.01884, 121: 0.00591,
                120:-0.03488, 119: 0.02975, 118:-0.08745, 117:-0.06419, 116:-0.01949, 115: 0.03819, 114: 0.31672, 113:-0.07831,
                112:-0.07924, 111:-0.28270, 110:-0.31800, 109:-0.39724, 108:-0.07587, 107:-0.29511, 106:-0.15643, 105:-0.08247,
                104: 0.17913, 103:-0.06524, 102:-0.33973, 101:-0.36237, 100:-0.12788,  99:-0.25103,  98:-0.19214,  97: 0.05755,
                 96: 0.02951,  95: 0.02443,  94: 0.28459,  93:-0.34047,  92:-0.32602,  91:-0.20283,  90:-0.10310,  89:-0.28895,
                 88:-0.31849,  87:-0.13753,  86: 0.20386,  85: 0.27315,  84: 0.06904,  83:-0.03161,  82:-0.03152,  81:-0.10162,
                 80:-0.09107,  79:-0.29891,  78:-0.21144,  77:-0.16064,  76:-0.04298,  75: 0.39800,  74: 0.23628,  73: 0.10792,
                 72:-0.11975,  71:-0.03425,  70:-0.21276,  69:-0.35243,  68:-0.13610,  67: 0.12064,  66: 0.18213,  65: 0.31550,
                 64: 0.28185,  63: 0.00215,  62:-0.07657,  61:-0.04918,  60:-0.26871,  59:-0.23931,  58: 0.04469,  57: 0.17013,
                 56: 0.34001,  55: 0.19385,  54: 0.04853,  53:-0.08009,  52:-0.04526,  51:-0.05645,  50:-0.33735,  49:-0.21337,
                 48: 0.25552,  47: 0.26557,  46: 0.33469,  45: 0.00207,  44:-0.11887,  43:-0.06628,  42:-0.04686,  41:-0.01462,
                 40:-0.48797,  39:-0.11456,  38: 0.20119,  37: 0.04376,  36: 0.11871,  35: 0.03633,  34:-0.04066,  33:-0.00374,
                 32:-0.08268,  31:-0.07484,  30:-0.78119,  29:-0.51849,  28:-0.07871,  27:-0.10972,  26:-0.14926,  25:-0.05138,
                 24:-0.06684,  23:-0.05850,  22:-0.03147,  21: 0.12248,  20:-0.75063,  19:-0.72921,  18:-0.26195,  17:-0.17626,
                 16:-0.13070,  15: 0.02567,  14: 0.15399,  13: 0.03380,  12: 0.15534,  11: 0.06653,  10:-0.44021,   9:-0.69015,
                  8:-0.17567,   7: 0.06493,   6: 0.02329,   5: 0.24874,   4: 0.11957,   3:-0.20315,   2:-0.39453,   1:-0.15642
   172 |      | 160:-0.02297, 159:-0.04758, 158: 0.03977, 157:-0.10177, 156:-0.06381, 155:-0.22485, 154:-0.28230, 153:-0.02931,
                152: 0.02798, 151:-0.02899, 150:-0.05730, 149: 0.19304, 148:-0.03798, 147:-0.01343, 146:-0.05635, 145: 0.02979,
                144:-0.27090, 143:-0.23528, 142:-0.29865, 141:-0.19426, 140: 0.11340, 139: 0.03880, 138:-0.08718, 137: 0.18693,
                136:-0.07306, 135:-0.17389, 134: 0.08045, 133: 0.01918, 132: 0.28533, 131: 0.15124, 130: 0.00974, 129: 0.20064,
                128: 0.02985, 127: 0.20045, 126:-0.13068, 125: 0.23506, 124: 0.02088, 123: 0.17002, 122: 0.73428, 121: 0.32386,
                120: 0.09192, 119:-0.00052, 118:-0.25534, 117: 0.12227, 116:-0.00526, 115: 0.04300, 114: 0.13713, 113: 0.29533,
                112: 0.95759, 111: 0.25058, 110: 0.13048, 109:-0.00045, 108:-0.00850, 107: 0.03335, 106: 0.25182, 105:-0.09681,
                104:-0.24344, 103: 0.15056, 102: 0.75201, 101: 0.39738, 100:-0.08378,  99:-0.33214,  98:-0.28831,  97: 0.04510,
                 96: 0.07615,  95:-0.15549,  94:-0.06584,  93: 0.21063,  92: 0.58366,  91: 0.32001,  90:-0.23976,  89:-0.10334,
                 88: 0.05337,  87: 0.12572,  86: 0.21854,  85:-0.10580,  84:-0.08639,  83:-0.00172,  82: 0.12643,  81: 0.27312,
                 80:-0.00878,  79:-0.04284,  78: 0.01976,  77: 0.36733,  76: 0.06721,  75:-0.37772,  74: 0.16969,  73:-0.00737,
                 72: 0.06658,  71:-0.09370,  70: 0.30012,  69: 0.04676,  68: 0.22086,  67: 0.15593,  66: 0.05488,  65:-0.25168,
                 64: 0.16065,  63: 0.40306,  62: 0.28139,  61:-0.10636,  60: 0.25011,  59: 0.07223,  58: 0.03652,  57:-0.13527,
                 56:-0.08041,  55: 0.13897,  54: 0.22351,  53: 0.26691,  52: 0.26102,  51: 0.15669,  50: 0.38830,  49:-0.21094,
                 48: 0.09450,  47:-0.26947,  46:-0.11738,  45: 0.02187,  44: 0.04502,  43: 0.13287,  42: 0.25235,  41: 0.23090,
                 40: 0.16996,  39: 0.12459,  38:-0.10178,  37:-0.36083,  36:-0.03882,  35:-0.11288,  34:-0.23761,  33: 0.00012,
                 32: 0.15585,  31: 0.24336,  30: 0.02178,  29: 0.16853,  28:-0.21247,  27:-0.25573,  26:-0.44390,  25:-0.29148,
                 24:-0.37005,  23:-0.21736,  22:-0.23735,  21:-0.01374,  20:-0.02411,  19:-0.18178,  18:-0.17139,  17:-0.14199,
                 16:-0.50716,  15:-0.63485,  14:-0.50753,  13:-0.48755,  12:-0.42629,  11:-0.12785,  10: 0.17235,   9: 0.15122,
                  8:-0.24928,   7:-0.13686,   6:-0.39501,   5:-0.22669,   4:-0.09831,   3:-0.30500,   2: 0.10440,   1: 0.02575
   173 |      | 160:-0.19459, 159:-0.05752, 158: 0.05860, 157: 0.08968, 156: 0.05596, 155: 0.25980, 154: 0.15197, 153: 0.18700,
                152:-0.12492, 151:-0.01881, 150:-0.09318, 149:-0.16670, 148:-0.10419, 147:-0.11032, 146:-0.00867, 145:-0.05106,
                144: 0.21199, 143: 0.27860, 142: 0.02357, 141: 0.01823, 140: 0.10355, 139:-0.25301, 138:-0.22600, 137:-0.13772,
                136:-0.13193, 135:-0.15008, 134: 0.02526, 133: 0.12764, 132:-0.03012, 131: 0.13212, 130: 0.07958, 129:-0.37727,
                128:-0.46264, 127:-0.34114, 126:-0.19167, 125:-0.32464, 124:-0.25485, 123:-0.22889, 122:-0.39294, 121:-0.00307,
                120: 0.16020, 119:-0.10365, 118:-0.19394, 117:-0.24493, 116:-0.03817, 115: 0.02923, 114: 0.02618, 113:-0.02108,
                112:-0.89962, 111:-0.39445, 110:-0.09578, 109:-0.08922, 108:-0.01920, 107:-0.14810, 106: 0.16637, 105: 0.06608,
                104: 0.09519, 103:-0.26913, 102:-0.63408, 101:-0.36923, 100:-0.39681,  99:-0.08736,  98:-0.01982,  97:-0.00094,
                 96: 0.21819,  95: 0.13566,  94: 0.16763,  93:-0.17085,  92:-0.63180,  91:-0.48441,  90:-0.15508,  89:-0.39375,
                 88:-0.00078,  87: 0.16568,  86: 0.09369,  85: 0.04765,  84: 0.19010,  83:-0.02819,  82:-0.23592,  81:-0.43491,
                 80:-0.41693,  79:-0.09276,  78:-0.01330,  77:-0.12332,  76: 0.45153,  75: 0.18550,  74:-0.02524,  73:-0.23803,
                 72:-0.32217,  71:-0.42862,  70:-0.00413,  69: 0.17651,  68: 0.15019,  67: 0.11425,  66: 0.26391,  65: 0.16945,
                 64:-0.05061,  63:-0.11322,  62:-0.34951,  61: 0.19407,  60: 0.03959,  59: 0.50108,  58: 0.24203,  57: 0.44598,
                 56: 0.24772,  55: 0.01870,  54:-0.06896,  53:-0.12133,  52: 0.18527,  51: 0.01422,  50: 0.17535,  49: 0.46326,
                 48: 0.17591,  47: 0.21482,  46: 0.09515,  45:-0.01786,  44:-0.21758,  43: 0.07597,  42:-0.01761,  41: 0.10256,
                 40: 0.07623,  39: 0.08841,  38: 0.02470,  37: 0.14787,  36: 0.18951,  35: 0.23882,  34: 0.30925,  33: 0.25560,
                 32:-0.26175,  31: 0.25467,  30: 0.02827,  29:-0.06584,  28: 0.20749,  27: 0.12630,  26: 0.36845,  25: 0.23513,
                 24: 0.38833,  23: 0.45846,  22: 0.15696,  21: 0.04040,  20: 0.22749,  19: 0.01847,  18: 0.04219,  17: 0.41194,
                 16: 0.46230,  15: 0.59248,  14: 0.56810,  13: 0.61533,  12: 0.38685,  11: 0.02055,  10:-0.10291,   9:-0.17981,
                  8: 0.06780,   7:-0.03083,   6: 0.41096,   5: 0.08566,   4: 0.20036,   3: 0.35015,   2: 0.20590,   1:-0.30639
   174 |      | 160: 0.10941, 159: 0.23089, 158: 0.43606, 157: 0.27586, 156: 0.22783, 155: 0.35327, 154: 0.35086, 153: 0.37745,
                152: 0.16043, 151: 0.05732, 150: 0.20218, 149: 0.28658, 148: 0.27635, 147: 0.27122, 146: 0.19855, 145: 0.11731,
                144: 0.24827, 143: 0.24117, 142: 0.02130, 141: 0.15222, 140: 0.27638, 139: 0.23278, 138: 0.26976, 137: 0.20105,
                136: 0.14244, 135: 0.07951, 134:-0.02663, 133:-0.04382, 132: 0.05683, 131: 0.04091, 130: 0.28123, 129: 0.45583,
                128: 0.13874, 127: 0.09777, 126: 0.20728, 125: 0.06830, 124: 0.06088, 123:-0.06755, 122: 0.09465, 121: 0.25708,
                120: 0.47894, 119: 0.40040, 118:-0.02714, 117: 0.08528, 116:-0.01814, 115: 0.14846, 114: 0.14890, 113:-0.10985,
                112: 0.11986, 111: 0.10449, 110: 0.13996, 109:-0.18975, 108:-0.25527, 107:-0.15157, 106:-0.02965, 105: 0.14114,
                104:-0.05266, 103:-0.28684, 102: 0.10548, 101: 0.12313, 100: 0.03677,  99:-0.35359,  98:-0.39498,  97:-0.00831,
                 96:-0.00728,  95:-0.04991,  94:-0.01140,  93:-0.11483,  92: 0.09772,  91:-0.00805,  90: 0.03938,  89: 0.11264,
                 88:-0.30576,  87:-0.21358,  86:-0.03522,  85:-0.18765,  84: 0.11159,  83: 0.02416,  82: 0.36782,  81: 0.07673,
                 80: 0.12703,  79: 0.09478,  78:-0.22079,  77:-0.12161,  76: 0.02523,  75:-0.15326,  74:-0.03265,  73: 0.10038,
                 72: 0.19451,  71:-0.07943,  70: 0.34553,  69: 0.08809,  68:-0.03856,  67: 0.18736,  66: 0.31752,  65: 0.03135,
                 64: 0.08888,  63: 0.19667,  62: 0.30197,  61: 0.09612,  60: 0.02780,  59:-0.05148,  58:-0.02445,  57:-0.03249,
                 56: 0.24347,  55: 0.29974,  54: 0.36139,  53: 0.32235,  52: 0.43132,  51: 0.04497,  50:-0.01734,  49:-0.23770,
                 48:-0.02425,  47:-0.06223,  46: 0.16098,  45: 0.40631,  44: 0.17223,  43: 0.28391,  42: 0.41653,  41: 0.12512,
                 40:-0.16128,  39:-0.10236,  38:-0.17897,  37:-0.08912,  36: 0.18357,  35: 0.23437,  34: 0.20365,  33: 0.16833,
                 32: 0.23226,  31: 0.04408,  30:-0.04770,  29:-0.08369,  28:-0.33611,  27:-0.16193,  26:-0.29956,  25:-0.13518,
                 24:-0.07321,  23:-0.02893,  22: 0.02362,  21: 0.03293,  20:-0.11523,  19:-0.11091,  18:-0.28475,  17:-0.28722,
                 16:-0.16091,  15:-0.26855,  14:-0.14570,  13:-0.31396,  12:-0.10677,  11:-0.16099,  10:-0.09277,   9:-0.03509,
                  8:-0.07723,   7: 0.10906,   6:-0.11963,   5: 0.04123,   4:-0.06915,   3:-0.16511,   2: 0.10816,   1:-0.08141
   175 |      | 160: 0.20765, 159: 0.34183, 158: 0.56301, 157: 0.50320, 156: 0.14795, 155: 0.19369, 154:-0.03178, 153: 0.54195,
                152: 0.05653, 151: 0.38990, 150: 0.29489, 149: 0.51036, 148: 0.21523, 147: 0.25587, 146: 0.21732, 145: 0.02749,
                144: 0.29564, 143: 0.22078, 142: 0.06785, 141: 0.28882, 140: 0.24765, 139: 0.16061, 138: 0.37720, 137: 0.23040,
                136: 0.12072, 135: 0.10294, 134:-0.03178, 133: 0.12515, 132: 0.00755, 131: 0.05074, 130: 0.35470, 129: 0.45182,
                128:-0.06142, 127:-0.13636, 126: 0.14189, 125:-0.05519, 124:-0.02355, 123:-0.18397, 122:-0.31274, 121: 0.16596,
                120: 0.46942, 119: 0.32409, 118:-0.25567, 117:-0.01892, 116:-0.07359, 115:-0.10470, 114: 0.06143, 113:-0.05380,
                112:-0.42265, 111:-0.24094, 110: 0.37604, 109: 0.03820, 108:-0.00143, 107: 0.23536, 106: 0.33320, 105:-0.00578,
                104: 0.04687, 103:-0.23906, 102:-0.48269, 101:-0.26145, 100:-0.31989,  99:-0.40495,  98: 0.00728,  97: 0.40701,
                 96: 0.17038,  95:-0.02470,  94: 0.28694,  93:-0.07241,  92:-0.24409,  91:-0.14317,  90:-0.23078,  89:-0.15257,
                 88:-0.23646,  87: 0.20348,  86: 0.35872,  85:-0.18115,  84: 0.14743,  83:-0.19548,  82: 0.03353,  81:-0.08636,
                 80:-0.35092,  79:-0.18700,  78:-0.00142,  77: 0.09280,  76: 0.47337,  75: 0.06243,  74: 0.28089,  73:-0.14961,
                 72:-0.14862,  71:-0.23666,  70:-0.11269,  69: 0.18924,  68:-0.04642,  67: 0.50226,  66: 0.40955,  65: 0.35346,
                 64:-0.01801,  63: 0.03202,  62: 0.00963,  61: 0.28030,  60:-0.18965,  59:-0.00001,  58:-0.03416,  57:-0.21510,
                 56: 0.16555,  55: 0.49061,  54: 0.33007,  53: 0.36129,  52: 0.34860,  51: 0.06590,  50: 0.01315,  49:-0.29992,
                 48:-0.36854,  47:-0.08562,  46: 0.12200,  45: 0.29964,  44: 0.12544,  43: 0.22624,  42: 0.43661,  41: 0.00178,
                 40:-0.46074,  39:-0.20179,  38:-0.34001,  37:-0.29978,  36: 0.11807,  35: 0.06739,  34: 0.38669,  33: 0.38793,
                 32: 0.18127,  31:-0.14751,  30:-0.23896,  29:-0.09907,  28:-0.08070,  27: 0.05804,  26:-0.45156,  25:-0.17648,
                 24:-0.14089,  23:-0.03001,  22:-0.04308,  21:-0.09519,  20:-0.22614,  19: 0.05942,  18:-0.31440,  17:-0.44983,
                 16:-0.51023,  15:-0.32239,  14:-0.31116,  13:-0.41601,  12:-0.21596,  11:-0.30503,  10: 0.19060,   9: 0.13806,
                  8: 0.13898,   7:-0.09475,   6:-0.10668,   5:-0.19638,   4: 0.01510,   3: 0.17753,   2: 0.57204,   1:-0.20209
   176 |      | 160:-0.00599, 159:-0.05389, 158: 0.09289, 157: 0.00316, 156:-0.00758, 155: 0.16985, 154:-0.18719, 153:-0.06350,
                152:-0.23715, 151:-0.05987, 150:-0.09528, 149: 0.01641, 148:-0.12689, 147:-0.13546, 146:-0.14813, 145: 0.03034,
                144:-0.00846, 143:-0.26849, 142:-0.03465, 141: 0.16293, 140:-0.25971, 139:-0.15647, 138:-0.12864, 137: 0.20691,
                136:-0.04293, 135: 0.07164, 134: 0.05351, 133: 0.21123, 132: 0.31398, 131: 0.08263, 130:-0.27197, 129:-0.38060,
                128: 0.06508, 127: 0.02075, 126: 0.24299, 125: 0.26040, 124: 0.39535, 123: 0.15141, 122:-0.02850, 121:-0.19607,
                120:-0.23521, 119:-0.14889, 118:-0.01353, 117: 0.22188, 116: 0.33132, 115: 0.49063, 114: 0.44042, 113: 0.36994,
                112: 0.48436, 111: 0.22051, 110:-0.42777, 109:-0.06531, 108: 0.13662, 107:-0.18850, 106: 0.14943, 105: 0.45657,
                104: 0.54169, 103: 0.33008, 102: 0.44000, 101: 0.21201, 100:-0.09609,  99:-0.27103,  98: 0.07487,  97:-0.01191,
                 96:-0.11526,  95: 0.22493,  94: 0.29509,  93: 0.36945,  92: 0.21531,  91: 0.21539,  90: 0.11816,  89: 0.12794,
                 88: 0.40232,  87: 0.16811,  86:-0.35577,  85: 0.02988,  84:-0.02893,  83: 0.10838,  82: 0.06403,  81: 0.06446,
                 80: 0.34685,  79: 0.11616,  78:-0.22439,  77: 0.02421,  76:-0.28288,  75: 0.09777,  74:-0.07832,  73:-0.06392,
                 72: 0.12621,  71: 0.27840,  70: 0.45980,  69: 0.13014,  68: 0.02041,  67:-0.36603,  66:-0.10054,  65:-0.06849,
                 64: 0.43358,  63: 0.55568,  62: 0.50010,  61: 0.36984,  60: 0.24442,  59:-0.04579,  58:-0.24150,  57:-0.22411,
                 56: 0.07661,  55: 0.18432,  54: 0.17695,  53: 0.42489,  52: 0.45501,  51: 0.37499,  50:-0.24012,  49:-0.19851,
                 48:-0.09602,  47: 0.10990,  46:-0.13759,  45: 0.12217,  44: 0.27623,  43: 0.05033,  42: 0.04667,  41: 0.13407,
                 40:-0.24843,  39:-0.36080,  38: 0.17051,  37:-0.00914,  36: 0.05436,  35: 0.08037,  34:-0.02949,  33:-0.09111,
                 32:-0.14832,  31: 0.09379,  30: 0.11472,  29:-0.02787,  28: 0.12828,  27:-0.18325,  26:-0.10039,  25: 0.36846,
                 24:-0.00546,  23:-0.13323,  22:-0.18788,  21:-0.03815,  20: 0.30662,  19: 0.35323,  18: 0.20859,  17: 0.25051,
                 16:-0.10091,  15: 0.10737,  14:-0.04879,  13:-0.06709,  12:-0.20588,  11:-0.09474,  10: 0.05347,   9:-0.02360,
                  8: 0.30957,   7: 0.19736,   6: 0.32863,   5:-0.13411,   4:-0.36157,   3:-0.11743,   2: 0.12385,   1: 0.16998
   177 |      | 160: 0.08631, 159: 0.01526, 158: 0.13207, 157: 0.02446, 156:-0.07078, 155: 0.14540, 154: 0.14814, 153: 0.01877,
                152:-0.25774, 151:-0.40817, 150: 0.25577, 149: 0.28076, 148: 0.19158, 147:-0.21613, 146: 0.11709, 145: 0.44103,
                144: 0.06287, 143:-0.02215, 142:-0.10732, 141:-0.20407, 140:-0.17536, 139: 0.15583, 138: 0.61161, 137: 0.45093,
                136: 0.31212, 135: 0.25506, 134: 0.03456, 133: 0.21533, 132:-0.10336, 131: 0.09996, 130:-0.32337, 129: 0.30241,
                128: 0.72456, 127: 0.36996, 126: 0.77137, 125: 0.55398, 124: 0.54551, 123: 0.04097, 122:-0.04587, 121:-0.14425,
                120:-0.15977, 119: 0.05621, 118: 0.00763, 117:-0.05163, 116:-0.01568, 115: 0.03644, 114: 0.00941, 113:-0.30885,
                112: 0.14824, 111: 0.30383, 110: 0.09493, 109:-0.06767, 108: 0.00722, 107:-0.13164, 106:-0.32893, 105:-0.01135,
                104: 0.13416, 103:-0.25544, 102: 0.04682, 101: 0.06162, 100: 0.28593,  99:-0.28123,  98:-0.14736,  97:-0.41304,
                 96:-0.42798,  95:-0.11184,  94:-0.04753,  93:-0.02334,  92: 0.07664,  91: 0.09423,  90:-0.00064,  89: 0.05629,
                 88:-0.47307,  87:-0.35644,  86:-0.29456,  85:-0.27654,  84:-0.32460,  83:-0.18987,  82: 0.03816,  81: 0.20240,
                 80:-0.02347,  79:-0.30265,  78:-0.40532,  77:-0.21840,  76:-0.41963,  75:-0.02437,  74:-0.18489,  73: 0.30198,
                 72: 0.24839,  71: 0.29989,  70:-0.36764,  69:-0.26820,  68:-0.23240,  67:-0.20549,  66:-0.37811,  65:-0.00126,
                 64: 0.20776,  63: 0.35521,  62: 0.40909,  61:-0.06464,  60:-0.36798,  59:-0.75051,  58:-0.34223,  57:-0.22638,
                 56:-0.00531,  55:-0.04331,  54: 0.03405,  53: 0.27653,  52: 0.27069,  51:-0.15452,  50:-0.55320,  49:-0.65129,
                 48:-0.44663,  47:-0.04726,  46: 0.27057,  45: 0.04945,  44: 0.02861,  43: 0.06250,  42:-0.05317,  41:-0.08900,
                 40:-0.58681,  39:-0.37379,  38:-0.05810,  37: 0.24316,  36: 0.14349,  35: 0.18665,  34: 0.02867,  33:-0.13518,
                 32: 0.10644,  31:-0.34776,  30:-0.08482,  29: 0.20814,  28: 0.09591,  27: 0.16725,  26:-0.11219,  25: 0.08543,
                 24: 0.15831,  23:-0.52076,  22:-0.30425,  21:-0.43816,  20:-0.21515,  19: 0.45567,  18: 0.33901,  17: 0.19191,
                 16:-0.14063,  15:-0.12114,  14:-0.41758,  13:-0.29641,  12:-0.44393,  11:-0.14682,  10: 0.21719,   9: 0.03250,
                  8: 0.27978,   7: 0.44169,   6: 0.15929,   5:-0.01824,   4:-0.34571,   3:-0.45268,   2: 0.35416,   1: 0.34361
   178 |      | 160:-0.08858, 159: 0.09616, 158:-0.10193, 157: 0.15249, 156: 0.47030, 155: 0.02129, 154: 0.47697, 153: 0.28761,
                152: 0.60284, 151: 0.36318, 150: 0.02082, 149: 0.16041, 148: 0.11646, 147: 0.09685, 146: 0.14657, 145: 0.15600,
                144: 0.11853, 143: 0.41597, 142: 0.61810, 141: 0.41349, 140: 0.14607, 139: 0.17455, 138: 0.06773, 137: 0.25589,
                136: 0.06687, 135: 0.11724, 134: 0.19935, 133:-0.01903, 132: 0.48197, 131: 0.39426, 130: 0.21206, 129: 0.27970,
                128:-0.11094, 127:-0.16522, 126:-0.18183, 125:-0.00383, 124:-0.44600, 123: 0.09404, 122: 0.28354, 121: 0.21211,
                120: 0.08958, 119:-0.00037, 118:-0.12320, 117:-0.14502, 116:-0.21245, 115:-0.36954, 114:-0.53373, 113: 0.09567,
                112: 0.12425, 111:-0.06680, 110: 0.15268, 109: 0.07292, 108: 0.11403, 107: 0.11210, 106:-0.15737, 105:-0.50746,
                104:-0.26526, 103:-0.02188, 102:-0.03886, 101:-0.18117, 100: 0.13169,  99: 0.14912,  98: 0.08729,  97:-0.06827,
                 96:-0.14621,  95:-0.33990,  94:-0.29636,  93:-0.19404,  92:-0.31939,  91:-0.02829,  90: 0.18585,  89:-0.05971,
                 88: 0.09683,  87: 0.07063,  86: 0.15862,  85:-0.21776,  84:-0.14706,  83:-0.21391,  82:-0.30538,  81:-0.13250,
                 80:-0.14249,  79:-0.33500,  78: 0.17591,  77: 0.09505,  76:-0.11795,  75:-0.18793,  74:-0.23250,  73:-0.42255,
                 72:-0.04504,  71:-0.02848,  70:-0.30263,  69:-0.18236,  68:-0.00080,  67:-0.05583,  66:-0.24225,  65:-0.31000,
                 64:-0.23265,  63:-0.29840,  62:-0.00970,  61:-0.12003,  60:-0.05465,  59:-0.07903,  58: 0.02605,  57:-0.18429,
                 56:-0.39757,  55:-0.14924,  54:-0.08808,  53:-0.28198,  52: 0.04237,  51:-0.00111,  50: 0.02737,  49:-0.06143,
                 48:-0.15748,  47:-0.11171,  46:-0.03589,  45:-0.15004,  44: 0.03696,  43:-0.11792,  42:-0.14691,  41: 0.02183,
                 40: 0.03609,  39:-0.03106,  38:-0.02891,  37:-0.00731,  36: 0.05216,  35: 0.05476,  34: 0.03086,  33:-0.33415,
                 32:-0.05981,  31: 0.04290,  30: 0.33817,  29: 0.07814,  28: 0.15324,  27: 0.30173,  26: 0.26002,  25: 0.14682,
                 24: 0.08137,  23: 0.00351,  22: 0.02276,  21:-0.04484,  20: 0.47508,  19: 0.50022,  18: 0.53366,  17: 0.35122,
                 16: 0.26495,  15: 0.42710,  14: 0.22652,  13: 0.24778,  12:-0.00698,  11:-0.13038,  10: 0.27570,   9: 0.41231,
                  8: 0.17316,   7:-0.06359,   6: 0.09119,   5: 0.16828,   4: 0.36312,   3: 0.09282,   2: 0.03868,   1:-0.04978
   179 |      | 160:-0.03927, 159:-0.36763, 158:-0.32638, 157:-0.40468, 156:-0.44413, 155:-0.46361, 154:-0.69190, 153:-0.69792,
                152:-0.42695, 151:-0.24829, 150:-0.15839, 149:-0.37288, 148:-0.40299, 147:-0.34730, 146:-0.42035, 145:-0.41798,
                144:-0.62931, 143:-0.49583, 142:-0.29722, 141:-0.31130, 140:-0.21201, 139:-0.27703, 138:-0.26381, 137:-0.20285,
                136:-0.37412, 135:-0.38383, 134:-0.14453, 133:-0.13912, 132:-0.22560, 131:-0.28455, 130:-0.31307, 129:-0.32633,
                128: 0.02393, 127: 0.06206, 126:-0.06598, 125: 0.03316, 124: 0.00617, 123: 0.02669, 122:-0.10813, 121:-0.25841,
                120:-0.19395, 119:-0.02918, 118:-0.02154, 117: 0.01177, 116: 0.19374, 115: 0.24360, 114: 0.30959, 113: 0.27326,
                112: 0.07307, 111: 0.16978, 110: 0.16519, 109: 0.22995, 108: 0.24213, 107: 0.35021, 106: 0.18164, 105: 0.13302,
                104:-0.11919, 103: 0.33698, 102: 0.33820, 101: 0.27292, 100: 0.17461,  99: 0.28582,  98: 0.33948,  97: 0.29127,
                 96: 0.33734,  95:-0.07764,  94:-0.10304,  93: 0.23683,  92: 0.39524,  91: 0.25142,  90: 0.19010,  89: 0.29299,
                 88: 0.60889,  87: 0.36146,  86: 0.05182,  85: 0.10748,  84:-0.07312,  83: 0.13064,  82: 0.02007,  81: 0.07124,
                 80: 0.29129,  79: 0.24580,  78: 0.31293,  77: 0.29400,  76: 0.08573,  75:-0.06821,  74:-0.02685,  73: 0.29794,
                 72: 0.01822,  71: 0.09181,  70: 0.00966,  69: 0.03784,  68: 0.40585,  67: 0.14721,  66:-0.25555,  65:-0.04418,
                 64: 0.01449,  63:-0.04582,  62:-0.20069,  61:-0.21428,  60:-0.06801,  59: 0.17129,  58: 0.16951,  57: 0.29482,
                 56:-0.01009,  55:-0.27502,  54:-0.11630,  53:-0.33940,  52:-0.43104,  51: 0.01975,  50:-0.12082,  49: 0.38297,
                 48: 0.24463,  47:-0.03628,  46:-0.24180,  45:-0.16910,  44:-0.32825,  43:-0.23952,  42:-0.33152,  41:-0.07468,
                 40: 0.16649,  39: 0.26943,  38:-0.02648,  37:-0.15533,  36:-0.33063,  35:-0.42335,  34:-0.36344,  33:-0.06733,
                 32:-0.11521,  31:-0.04216,  30: 0.01996,  29: 0.29768,  28:-0.04677,  27:-0.25709,  26: 0.05966,  25:-0.06673,
                 24:-0.05107,  23: 0.01564,  22: 0.11636,  21: 0.17613,  20: 0.07376,  19:-0.13993,  18:-0.24485,  17:-0.12646,
                 16:-0.09696,  15: 0.03889,  14: 0.05320,  13: 0.26224,  12: 0.19663,  11: 0.42215,  10: 0.13908,   9:-0.13257,
                  8:-0.20141,   7:-0.06361,   6:-0.13817,   5:-0.13807,   4: 0.04243,   3: 0.16767,   2: 0.31714,   1: 0.42490
   180 |      | 160: 0.14381, 159: 0.21255, 158: 0.15028, 157: 0.20534, 156: 0.10934, 155: 0.07408, 154: 0.24814, 153:-0.20642,
                152: 0.31103, 151:-0.00671, 150: 0.29524, 149: 0.34734, 148: 0.12150, 147: 0.00919, 146: 0.11713, 145:-0.05275,
                144:-0.15790, 143:-0.14397, 142: 0.41999, 141: 0.12588, 140: 0.15688, 139: 0.29292, 138: 0.01211, 137:-0.46434,
                136: 0.03333, 135:-0.08232, 134:-0.08294, 133: 0.19660, 132: 0.11826, 131:-0.05440, 130: 0.25877, 129: 0.16292,
                128:-0.23591, 127:-0.33433, 126:-0.10612, 125:-0.04629, 124:-0.08296, 123: 0.07076, 122: 0.06672, 121: 0.08080,
                120: 0.15785, 119: 0.11368, 118: 0.07270, 117:-0.42161, 116:-0.10460, 115:-0.22900, 114:-0.36796, 113:-0.08975,
                112: 0.17081, 111: 0.26809, 110: 0.17342, 109: 0.38440, 108: 0.19480, 107: 0.04533, 106:-0.06890, 105:-0.05581,
                104:-0.21651, 103: 0.19362, 102: 0.36308, 101: 0.24841, 100: 0.08081,  99: 0.55851,  98: 0.44919,  97: 0.06128,
                 96: 0.15839,  95:-0.19899,  94:-0.36390,  93: 0.09533,  92: 0.39483,  91: 0.12074,  90: 0.21193,  89: 0.28386,
                 88: 0.41849,  87: 0.13005,  86:-0.06310,  85:-0.26239,  84: 0.02744,  83: 0.01787,  82: 0.00708,  81: 0.05870,
                 80: 0.27412,  79: 0.21520,  78: 0.25735,  77:-0.00881,  76:-0.30751,  75:-0.21658,  74:-0.00273,  73: 0.20144,
                 72: 0.36683,  71:-0.08667,  70:-0.06880,  69: 0.28492,  68: 0.08842,  67:-0.28515,  66:-0.25846,  65:-0.18891,
                 64: 0.13329,  63: 0.04805,  62: 0.00882,  61:-0.04059,  60: 0.09566,  59: 0.00665,  58:-0.05536,  57:-0.20192,
                 56: 0.11789,  55:-0.23199,  54:-0.08123,  53: 0.00344,  52: 0.07301,  51:-0.05456,  50:-0.00887,  49: 0.09850,
                 48: 0.26702,  47:-0.14177,  46:-0.01505,  45:-0.01686,  44:-0.15267,  43: 0.29215,  42:-0.01461,  41: 0.11528,
                 40: 0.01956,  39:-0.06157,  38:-0.01555,  37:-0.23637,  36:-0.12562,  35:-0.36247,  34:-0.07979,  33: 0.12488,
                 32: 0.28551,  31: 0.14323,  30:-0.18582,  29:-0.02533,  28: 0.14986,  27: 0.01042,  26:-0.01306,  25:-0.00505,
                 24:-0.10644,  23: 0.21321,  22: 0.48859,  21: 0.33880,  20: 0.20037,  19: 0.24188,  18: 0.16680,  17:-0.10747,
                 16: 0.27201,  15: 0.16906,  14: 0.30149,  13: 0.61992,  12: 0.39343,  11: 0.18394,  10:-0.33624,   9:-0.02160,
                  8:-0.03780,   7: 0.07512,   6:-0.04073,   5: 0.03184,   4: 0.30926,   3: 0.19226,   2:-0.14868,   1: 0.05364
   181 |      | 160: 0.07026, 159: 0.04165, 158:-0.02541, 157:-0.08317, 156:-0.21302, 155: 0.01743, 154: 0.35067, 153: 0.37763,
                152: 0.14949, 151: 0.27459, 150: 0.26377, 149: 0.05515, 148:-0.07007, 147:-0.15806, 146: 0.21072, 145:-0.02691,
                144: 0.21866, 143: 0.28591, 142: 0.11847, 141: 0.37986, 140: 0.17259, 139: 0.01190, 138: 0.12045, 137: 0.15667,
                136:-0.04481, 135: 0.01405, 134:-0.26777, 133:-0.12979, 132:-0.29835, 131: 0.21852, 130: 0.24896, 129: 0.09708,
                128: 0.39148, 127:-0.13854, 126:-0.01093, 125:-0.43018, 124:-0.78736, 123:-0.32756, 122:-0.40797, 121:-0.09720,
                120: 0.20423, 119: 0.16591, 118: 0.19749, 117:-0.04036, 116:-0.30765, 115:-0.22406, 114:-0.67860, 113:-0.76079,
                112:-0.81164, 111:-0.34360, 110:-0.06992, 109:-0.19341, 108:-0.27478, 107:-0.20253, 106:-0.22117, 105: 0.04816,
                104:-0.26238, 103:-0.35689, 102:-0.64745, 101:-0.42954, 100: 0.25777,  99:-0.13021,  98:-0.32001,  97:-0.11835,
                 96: 0.02840,  95: 0.09477,  94:-0.22895,  93:-0.04098,  92:-0.35244,  91:-0.31718,  90:-0.14231,  89: 0.10556,
                 88:-0.01447,  87:-0.11224,  86: 0.20111,  85: 0.07182,  84: 0.23076,  83:-0.04503,  82:-0.19193,  81:-0.06863,
                 80:-0.14889,  79:-0.00569,  78: 0.33614,  77:-0.07350,  76:-0.07540,  75:-0.10382,  74: 0.34369,  73: 0.19265,
                 72: 0.06259,  71: 0.07295,  70: 0.01120,  69:-0.07380,  68: 0.12610,  67: 0.12589,  66: 0.02180,  65: 0.12600,
                 64:-0.11800,  63:-0.02161,  62: 0.04145,  61: 0.06961,  60: 0.14286,  59:-0.06051,  58: 0.25766,  57:-0.04021,
                 56:-0.31729,  55:-0.04748,  54: 0.01874,  53: 0.13633,  52:-0.19069,  51:-0.14622,  50:-0.22864,  49:-0.02525,
                 48: 0.02113,  47: 0.12661,  46:-0.17669,  45: 0.00860,  44:-0.12264,  43:-0.05645,  42: 0.00804,  41: 0.06991,
                 40:-0.14840,  39:-0.09589,  38:-0.07240,  37: 0.25004,  36:-0.01380,  35:-0.02191,  34:-0.06596,  33:-0.00469,
                 32: 0.03265,  31:-0.09636,  30: 0.25536,  29:-0.08961,  28:-0.09983,  27: 0.09491,  26: 0.08352,  25:-0.25006,
                 24: 0.23107,  23: 0.13495,  22:-0.04156,  21: 0.08695,  20: 0.11172,  19: 0.18887,  18:-0.03588,  17:-0.27332,
                 16: 0.08634,  15: 0.05258,  14:-0.14018,  13:-0.15951,  12:-0.08447,  11: 0.10914,  10:-0.02575,   9: 0.12934,
                  8: 0.05948,   7: 0.08001,   6: 0.06056,   5: 0.35945,   4: 0.15368,   3:-0.19512,   2:-0.03442,   1: 0.25536
   182 |      | 160:-0.09709, 159:-0.20232, 158:-0.29954, 157: 0.09045, 156:-0.32551, 155: 0.03230, 154:-0.07520, 153:-0.21119,
                152:-0.01291, 151:-0.09875, 150:-0.04154, 149:-0.16815, 148:-0.33364, 147:-0.14868, 146:-0.12654, 145:-0.02191,
                144: 0.19425, 143: 0.15570, 142: 0.09435, 141:-0.07110, 140:-0.49153, 139: 0.10189, 138: 0.28675, 137: 0.01820,
                136:-0.24580, 135:-0.02814, 134: 0.05613, 133: 0.29313, 132:-0.32668, 131: 0.22600, 130:-0.26071, 129: 0.13669,
                128: 0.22738, 127:-0.04577, 126: 0.20841, 125: 0.26742, 124: 0.43680, 123: 0.31542, 122:-0.10084, 121:-0.15732,
                120: 0.37953, 119: 0.28602, 118: 0.10368, 117:-0.23959, 116: 0.00085, 115:-0.04919, 114:-0.20082, 113:-0.25424,
                112:-0.16674, 111: 0.14909, 110: 0.23910, 109:-0.11596, 108:-0.02040, 107:-0.09720, 106:-0.18892, 105: 0.06429,
                104: 0.06233, 103:-0.11981, 102: 0.02295, 101:-0.10684, 100: 0.61700,  99: 0.08178,  98: 0.02026,  97:-0.10247,
                 96:-0.17221,  95: 0.41180,  94: 0.05806,  93: 0.05357,  92: 0.04876,  91: 0.11867,  90: 0.16052,  89:-0.24638,
                 88:-0.19023,  87:-0.02882,  86: 0.14216,  85: 0.35008,  84: 0.02806,  83:-0.18501,  82:-0.09264,  81: 0.09669,
                 80:-0.34898,  79:-0.15383,  78: 0.08653,  77:-0.09522,  76: 0.13900,  75: 0.04771,  74: 0.19610,  73: 0.56813,
                 72: 0.25906,  71: 0.31805,  70:-0.65625,  69: 0.01134,  68:-0.20835,  67:-0.07574,  66:-0.00831,  65: 0.17072,
                 64: 0.11541,  63: 0.12165,  62: 0.09314,  61:-0.11128,  60:-0.94887,  59:-0.61531,  58:-0.16633,  57: 0.15096,
                 56:-0.22147,  55:-0.30391,  54:-0.26407,  53:-0.14168,  52:-0.16535,  51:-0.24802,  50:-1.12466,  49:-0.84758,
                 48:-0.31105,  47:-0.09319,  46: 0.10678,  45:-0.16641,  44:-0.13057,  43:-0.17076,  42:-0.26555,  41:-0.09878,
                 40:-0.39968,  39:-0.34532,  38:-0.02929,  37: 0.10267,  36: 0.07883,  35: 0.30613,  34:-0.01378,  33:-0.11315,
                 32:-0.10940,  31:-0.38488,  30:-0.05224,  29: 0.00721,  28: 0.18851,  27: 0.36622,  26:-0.07586,  25: 0.20402,
                 24: 0.19301,  23:-0.15835,  22: 0.03243,  21: 0.09804,  20: 0.36387,  19: 0.49016,  18: 0.17515,  17: 0.22324,
                 16: 0.15199,  15: 0.23296,  14: 0.03042,  13: 0.16251,  12: 0.26327,  11: 0.23127,  10: 0.49374,   9:-0.09874,
                  8:-0.26634,   7:-0.17501,   6: 0.22890,   5: 0.16017,   4:-0.00200,   3:-0.35045,   2: 0.07277,   1:-0.12890
   183 |      | 160:-0.15571, 159:-0.20475, 158:-0.22583, 157:-0.47469, 156:-0.05091, 155: 0.04546, 154: 0.32682, 153:-0.11463,
                152:-0.09155, 151:-0.27649, 150:-0.20712, 149:-0.25534, 148:-0.14082, 147:-0.25607, 146:-0.15804, 145: 0.02168,
                144: 0.06366, 143:-0.03726, 142:-0.15714, 141:-0.19251, 140:-0.13476, 139:-0.06915, 138:-0.18153, 137:-0.02107,
                136: 0.03873, 135: 0.01904, 134: 0.20221, 133: 0.03040, 132: 0.23516, 131: 0.03290, 130:-0.25417, 129:-0.07732,
                128: 0.01517, 127: 0.20114, 126:-0.25098, 125:-0.34124, 124:-0.01511, 123:-0.10467, 122: 0.32395, 121: 0.00525,
                120:-0.26944, 119:-0.03335, 118: 0.07534, 117: 0.09252, 116:-0.56740, 115:-0.58699, 114:-0.27979, 113:-0.06409,
                112: 0.41363, 111: 0.08374, 110:-0.02458, 109:-0.14072, 108: 0.06826, 107:-0.23066, 106:-0.44111, 105:-0.44555,
                104:-0.22010, 103: 0.03400, 102: 0.26699, 101: 0.03788, 100: 0.06527,  99: 0.04461,  98:-0.10120,  97:-0.36576,
                 96:-0.48811,  95:-0.49466,  94:-0.24066,  93: 0.00756,  92: 0.18203,  91: 0.01649,  90: 0.13023,  89: 0.04704,
                 88:-0.34285,  87:-0.35268,  86:-0.49014,  85:-0.45351,  84:-0.09725,  83: 0.11370,  82: 0.15309,  81: 0.16650,
                 80: 0.14309,  79: 0.03857,  78:-0.18356,  77:-0.44900,  76:-0.54468,  75:-0.38838,  74:-0.15313,  73: 0.08440,
                 72: 0.18037,  71: 0.27476,  70: 0.28345,  69:-0.06172,  68:-0.14376,  67:-0.41118,  66:-0.39589,  65:-0.29903,
                 64: 0.16118,  63: 0.01964,  62: 0.23093,  61: 0.09538,  60: 0.38064,  59: 0.01325,  58:-0.01928,  57:-0.21839,
                 56:-0.22951,  55:-0.17259,  54: 0.08621,  53: 0.08699,  52: 0.15331,  51:-0.03547,  50: 0.35885,  49: 0.12812,
                 48: 0.09528,  47:-0.10269,  46: 0.03821,  45:-0.24156,  44: 0.12555,  43: 0.12866,  42: 0.10275,  41:-0.02894,
                 40: 0.31487,  39: 0.07385,  38: 0.10056,  37:-0.06638,  36: 0.02320,  35: 0.08005,  34:-0.15115,  33:-0.03171,
                 32: 0.09192,  31: 0.03611,  30: 0.02785,  29: 0.01483,  28: 0.03335,  27: 0.00650,  26: 0.16007,  25: 0.04961,
                 24: 0.04862,  23:-0.00319,  22:-0.02921,  21:-0.12190,  20:-0.22756,  19:-0.03483,  18: 0.11394,  17: 0.05573,
                 16: 0.05750,  15:-0.07651,  14:-0.11670,  13:-0.14250,  12:-0.15967,  11:-0.07181,  10:-0.31362,   9:-0.10513,
                  8: 0.06458,   7:-0.06317,   6: 0.02067,   5:-0.16469,   4:-0.27650,   3:-0.20906,   2:-0.13933,   1:-0.09053
   184 |      | 160:-0.44706, 159: 0.13426, 158: 0.22852, 157: 0.41538, 156:-0.35397, 155: 0.34446, 154: 0.10847, 153: 0.21348,
                152: 0.37389, 151: 0.11383, 150: 0.30586, 149: 0.08213, 148: 0.16643, 147: 0.06547, 146: 0.39520, 145:-0.04484,
                144: 0.39100, 143: 0.55186, 142: 0.04550, 141: 0.08494, 140: 0.24202, 139: 0.05476, 138: 0.33728, 137:-0.02334,
                136: 0.17837, 135: 0.18963, 134:-0.24761, 133: 0.04528, 132:-0.33015, 131: 0.67295, 130: 0.19102, 129: 0.09953,
                128: 0.10173, 127: 0.01682, 126: 0.63013, 125: 0.02640, 124:-0.69460, 123:-0.32608, 122:-0.36395, 121: 0.20566,
                120: 0.12382, 119: 0.21780, 118: 0.06790, 117:-0.53729, 116:-0.41670, 115:-0.60983, 114:-0.75684, 113:-0.49751,
                112:-1.00491, 111:-0.26906, 110: 0.32032, 109: 0.09417, 108:-0.51123, 107:-0.35748, 106:-0.78493, 105:-0.42554,
                104:-0.41489, 103:-0.66638, 102:-0.74110, 101:-0.45565, 100: 0.23168,  99: 0.06019,  98:-0.18341,  97:-0.06393,
                 96:-0.22351,  95:-0.36251,  94:-0.36851,  93: 0.01683,  92:-0.49867,  91:-0.36969,  90:-0.26594,  89:-0.26839,
                 88:-0.35416,  87:-0.13958,  86:-0.15712,  85:-0.32323,  84:-0.05345,  83: 0.02359,  82:-0.04980,  81:-0.05834,
                 80:-0.74072,  79:-0.19941,  78:-0.02704,  77:-0.50003,  76: 0.15422,  75:-0.48943,  74:-0.11797,  73: 0.06057,
                 72:-0.16639,  71:-0.31995,  70:-0.88277,  69:-0.34070,  68:-0.28102,  67:-0.11287,  66:-0.01039,  65:-0.04482,
                 64:-0.38680,  63:-0.37321,  62:-0.18604,  61:-0.32005,  60:-0.76972,  59:-0.48119,  58:-0.09967,  57: 0.21610,
                 56:-0.36783,  55:-0.11317,  54:-0.33464,  53:-0.15624,  52: 0.03761,  51:-0.47692,  50:-0.64576,  49:-0.51437,
                 48:-0.46101,  47:-0.00515,  46:-0.02447,  45:-0.13489,  44:-0.31889,  43:-0.07689,  42:-0.18465,  41:-0.11299,
                 40:-0.19338,  39:-0.25720,  38:-0.19825,  37: 0.26150,  36:-0.01920,  35: 0.46657,  34: 0.30856,  33: 0.27218,
                 32:-0.13307,  31:-0.24795,  30:-0.10137,  29: 0.24122,  28: 0.18344,  27: 0.33261,  26: 0.26069,  25: 0.19362,
                 24: 0.58754,  23: 0.36463,  22: 0.11745,  21:-0.13416,  20: 0.15114,  19: 0.37810,  18: 0.36596,  17: 0.43635,
                 16: 0.45306,  15: 0.32389,  14:-0.01906,  13: 0.20640,  12: 0.13648,  11: 0.11216,  10: 0.19721,   9: 0.03142,
                  8: 0.04195,   7:-0.00914,   6: 0.05162,   5: 0.06198,   4: 0.12847,   3:-0.11668,   2: 0.55618,   1: 0.23527
   185 |      | 160: 0.08436, 159: 0.22268, 158:-0.04719, 157: 0.06641, 156: 0.36260, 155:-0.04442, 154:-0.00953, 153: 0.33927,
                152: 0.32892, 151: 0.31320, 150:-0.01505, 149: 0.27084, 148:-0.13634, 147: 0.19309, 146: 0.10927, 145: 0.03212,
                144:-0.07816, 143: 0.06373, 142:-0.15449, 141: 0.05295, 140: 0.34382, 139: 0.26600, 138: 0.13998, 137: 0.40788,
                136:-0.07028, 135:-0.31311, 134: 0.24254, 133: 0.16337, 132:-0.00772, 131: 0.05990, 130: 0.59178, 129: 0.65482,
                128: 0.09121, 127:-0.02130, 126:-0.31387, 125:-0.11933, 124:-0.21295, 123: 0.22353, 122: 0.40225, 121: 0.29601,
                120: 0.68812, 119: 0.26149, 118:-0.34646, 117: 0.00777, 116: 0.05397, 115:-0.31513, 114:-0.09680, 113: 0.60192,
                112: 0.33520, 111: 0.20063, 110: 0.37202, 109: 0.23725, 108:-0.18906, 107: 0.16243, 106:-0.05336, 105:-0.27177,
                104:-0.24169, 103: 0.14770, 102: 0.62309, 101: 0.18939, 100: 0.11422,  99:-0.40537,  98:-0.03267,  97:-0.08854,
                 96:-0.09462,  95: 0.16768,  94: 0.43998,  93: 0.16545,  92: 0.43559,  91: 0.43362,  90:-0.16270,  89:-0.36989,
                 88: 0.08044,  87:-0.14393,  86: 0.28965,  85: 0.25779,  84:-0.00726,  83: 0.00625,  82:-0.10349,  81: 0.06188,
                 80:-0.60149,  79:-0.41904,  78: 0.09925,  77: 0.57271,  76: 0.24379,  75:-0.01821,  74: 0.22465,  73:-0.11464,
                 72:-0.28635,  71:-0.24383,  70:-0.48474,  69:-0.40507,  68: 0.02948,  67: 0.19877,  66: 0.35973,  65:-0.32600,
                 64:-0.40152,  63:-0.03559,  62:-0.24873,  61:-0.28339,  60:-0.42533,  59: 0.17076,  58: 0.20606,  57: 0.22447,
                 56:-0.06115,  55:-0.00218,  54:-0.17883,  53:-0.15044,  52:-0.21782,  51: 0.07614,  50:-0.05745,  49: 0.14991,
                 48:-0.12483,  47:-0.14698,  46:-0.19465,  45: 0.00227,  44:-0.11816,  43:-0.03774,  42: 0.13777,  41: 0.16453,
                 40:-0.17589,  39: 0.22709,  38:-0.09832,  37:-0.25803,  36:-0.13296,  35:-0.06911,  34:-0.29683,  33:-0.26318,
                 32: 0.04109,  31: 0.24799,  30:-0.01376,  29:-0.31009,  28:-0.25906,  27: 0.07806,  26:-0.36981,  25:-0.14226,
                 24:-0.48876,  23:-0.21615,  22:-0.24508,  21:-0.24707,  20:-0.18094,  19:-0.01715,  18:-0.15777,  17:-0.11381,
                 16:-0.31388,  15:-0.52037,  14:-0.42008,  13:-0.37362,  12:-0.63596,  11:-0.48189,  10: 0.13853,   9: 0.18997,
                  8:-0.12714,   7:-0.05293,   6:-0.10251,   5: 0.04112,   4: 0.03611,   3:-0.44182,   2:-0.37777,   1:-0.24582
   186 |      | 160: 0.16961, 159:-0.05790, 158:-0.18953, 157:-0.24091, 156: 0.00479, 155:-0.40214, 154:-0.44224, 153:-0.19436,
                152: 0.16400, 151: 0.32270, 150: 0.10162, 149: 0.13531, 148:-0.13662, 147:-0.10911, 146: 0.28359, 145: 0.05440,
                144:-0.09906, 143:-0.23506, 142: 0.27803, 141: 0.29570, 140: 0.04407, 139: 0.09479, 138:-0.16947, 137: 0.26630,
                136: 0.00112, 135:-0.00405, 134: 0.00546, 133: 0.11365, 132: 0.33979, 131: 0.03044, 130:-0.14273, 129: 0.06568,
                128: 0.09066, 127:-0.11876, 126:-0.00252, 125:-0.16024, 124: 0.02108, 123: 0.00640, 122: 0.25404, 121:-0.25057,
                120:-0.25698, 119:-0.18477, 118: 0.01393, 117: 0.23255, 116: 0.16060, 115: 0.12176, 114: 0.10082, 113: 0.39394,
                112: 0.68193, 111: 0.07845, 110:-0.28822, 109: 0.00628, 108: 0.30352, 107: 0.18205, 106: 0.37080, 105: 0.29572,
                104: 0.18818, 103: 0.42290, 102: 0.66199, 101: 0.19838, 100:-0.37823,  99:-0.32168,  98: 0.07748,  97:-0.09805,
                 96:-0.00715,  95: 0.02022,  94:-0.33459,  93: 0.34294,  92: 0.35807,  91: 0.35823,  90: 0.19988,  89: 0.17564,
                 88: 0.26051,  87:-0.08702,  86:-0.25479,  85:-0.33996,  84:-0.28685,  83:-0.07036,  82:-0.08535,  81: 0.21162,
                 80: 0.32806,  79:-0.03438,  78:-0.10092,  77:-0.04891,  76:-0.16367,  75:-0.33272,  74:-0.27766,  73:-0.25131,
                 72: 0.22574,  71: 0.12810,  70: 0.64428,  69: 0.25460,  68: 0.27642,  67:-0.23586,  66:-0.11445,  65:-0.08946,
                 64: 0.25860,  63: 0.32104,  62: 0.57219,  61: 0.27672,  60: 0.22939,  59:-0.01371,  58:-0.08291,  57:-0.32624,
                 56: 0.11526,  55: 0.21725,  54: 0.22270,  53: 0.30682,  52: 0.72943,  51: 0.57685,  50:-0.14500,  49:-0.20793,
                 48: 0.15307,  47:-0.02798,  46:-0.01644,  45: 0.00665,  44: 0.33499,  43: 0.18622,  42: 0.14348,  41: 0.23150,
                 40:-0.25434,  39:-0.16221,  38: 0.09893,  37:-0.13018,  36:-0.02647,  35:-0.30099,  34: 0.05334,  33: 0.10211,
                 32: 0.23688,  31: 0.20989,  30: 0.36182,  29: 0.39068,  28: 0.33694,  27:-0.18608,  26:-0.10311,  25: 0.19796,
                 24:-0.23539,  23:-0.05794,  22: 0.14689,  21: 0.16390,  20: 0.46360,  19: 0.51460,  18: 0.14450,  17:-0.21393,
                 16:-0.09629,  15: 0.16693,  14: 0.01317,  13: 0.13440,  12:-0.02650,  11: 0.03581,  10: 0.27852,   9: 0.31203,
                  8: 0.34134,   7:-0.12541,   6: 0.21217,   5:-0.40494,   4:-0.17192,   3: 0.21094,   2: 0.60833,   1: 0.22282
   187 |      | 160:-0.14022, 159: 0.05372, 158: 0.15380, 157: 0.38756, 156: 0.33580, 155:-0.02835, 154:-0.38577, 153: 0.09784,
                152:-0.00626, 151:-0.02160, 150:-0.07009, 149: 0.05204, 148: 0.27049, 147: 0.06502, 146:-0.31755, 145:-0.13276,
                144:-0.34662, 143: 0.27110, 142:-0.25561, 141: 0.00772, 140: 0.26369, 139:-0.04289, 138:-0.16852, 137:-0.32441,
                136:-0.28750, 135:-0.14416, 134: 0.26774, 133: 0.04779, 132:-0.07767, 131: 0.55351, 130:-0.18107, 129:-0.19078,
                128:-0.32823, 127:-0.21415, 126:-0.24603, 125: 0.26062, 124: 0.00128, 123: 0.46019, 122: 0.28654, 121: 0.55423,
                120:-0.08438, 119:-0.34275, 118:-0.08392, 117:-0.26141, 116: 0.10241, 115: 0.00266, 114: 0.06860, 113: 0.42304,
                112: 0.24333, 111: 0.04609, 110:-0.39966, 109:-0.21514, 108:-0.20977, 107:-0.43280, 106:-0.35390, 105: 0.12444,
                104:-0.05147, 103:-0.00054, 102:-0.20914, 101: 0.00921, 100:-0.30894,  99:-0.13195,  98:-0.09064,  97:-0.05697,
                 96: 0.03634,  95: 0.27093,  94: 0.09120,  93:-0.09493,  92:-0.18424,  91:-0.25716,  90:-0.01065,  89:-0.30589,
                 88:-0.01762,  87: 0.02251,  86: 0.41354,  85: 0.32921,  84:-0.21815,  83:-0.05861,  82:-0.39379,  81:-0.58117,
                 80:-0.47835,  79:-0.21478,  78:-0.15655,  77:-0.05035,  76: 0.52638,  75: 0.04698,  74:-0.00129,  73:-0.59434,
                 72:-0.59960,  71:-0.79801,  70:-0.31270,  69:-0.25131,  68:-0.00604,  67:-0.08409,  66: 0.20143,  65:-0.12570,
                 64:-0.03098,  63:-0.34145,  62:-0.80658,  61:-0.17285,  60:-0.12616,  59: 0.20011,  58:-0.07944,  57: 0.51698,
                 56:-0.17717,  55:-0.18699,  54:-0.07883,  53:-0.11393,  52:-0.46387,  51:-0.11991,  50: 0.26902,  49: 0.41667,
                 48: 0.14829,  47:-0.07693,  46:-0.08823,  45:-0.24015,  44:-0.57382,  43:-0.05348,  42:-0.08247,  41:-0.12227,
                 40: 0.05236,  39: 0.02638,  38: 0.22381,  37: 0.24418,  36: 0.22793,  35: 0.04351,  34: 0.01767,  33: 0.14557,
                 32:-0.12952,  31:-0.00107,  30:-0.01355,  29: 0.04216,  28: 0.03550,  27: 0.25204,  26: 0.17439,  25: 0.26085,
                 24: 0.38745,  23: 0.22193,  22: 0.15081,  21: 0.17451,  20: 0.06636,  19:-0.14742,  18: 0.08561,  17: 0.59396,
                 16: 0.72359,  15: 0.50290,  14: 0.38871,  13: 0.62986,  12: 0.10986,  11: 0.09904,  10: 0.00683,   9:-0.28427,
                  8:-0.18798,   7: 0.20011,   6: 0.05169,   5: 0.01669,   4: 0.09880,   3:-0.34505,   2:-0.26763,   1:-0.23931
   188 |      | 160: 0.01373, 159:-0.25988, 158:-0.36994, 157:-0.72785, 156:-0.46876, 155:-0.37342, 154:-0.24171, 153:-0.04121,
                152:-0.25333, 151:-0.40171, 150:-0.24684, 149:-0.26851, 148:-0.32399, 147:-0.20610, 146: 0.02860, 145: 0.06130,
                144:-0.01658, 143:-0.03753, 142:-0.44665, 141:-0.22332, 140: 0.31391, 139: 0.15550, 138: 0.10208, 137: 0.58274,
                136: 0.12227, 135: 0.09136, 134:-0.19483, 133:-0.34395, 132:-0.41262, 131:-0.12819, 130: 0.57021, 129: 0.32195,
                128: 0.59923, 127: 0.21944, 126: 0.32342, 125:-0.21265, 124: 0.01517, 123:-0.48846, 122:-0.23412, 121:-0.22187,
                120: 0.39999, 119: 0.35989, 118: 0.40294, 117: 0.58508, 116: 0.07264, 115: 0.36793, 114: 0.10343, 113: 0.05001,
                112: 0.19949, 111: 0.11089, 110:-0.30435, 109:-0.01069, 108: 0.15947, 107:-0.04141, 106:-0.00644, 105: 0.31194,
                104: 0.43240, 103:-0.07657, 102: 0.31529, 101: 0.34042, 100: 0.30767,  99:-0.22762,  98:-0.09964,  97:-0.08820,
                 96: 0.21663,  95: 0.58059,  94: 0.27778,  93: 0.36735,  92: 0.27378,  91: 0.25607,  90: 0.14655,  89: 0.15389,
                 88: 0.07341,  87: 0.21869,  86: 0.00225,  85: 0.60480,  84: 0.11174,  83: 0.53980,  82: 0.29889,  81: 0.09767,
                 80:-0.00895,  79:-0.22255,  78:-0.17204,  77: 0.24531,  76:-0.19632,  75: 0.23327,  74: 0.30033,  73: 0.51273,
                 72: 0.35927,  71: 0.28481,  70: 0.12965,  69:-0.28684,  68:-0.06599,  67: 0.01695,  66: 0.29750,  65: 0.10139,
                 64: 0.44014,  63: 0.40050,  62: 0.28650,  61: 0.24179,  60: 0.33093,  59: 0.01234,  58:-0.04552,  57: 0.10745,
                 56: 0.68637,  55: 0.44075,  54: 0.23545,  53: 0.21337,  52: 0.23709,  51: 0.33656,  50:-0.42941,  49:-0.33962,
                 48:-0.25420,  47: 0.19862,  46: 0.40546,  45: 0.04624,  44:-0.02171,  43: 0.01263,  42: 0.04763,  41:-0.01053,
                 40:-0.39075,  39:-0.15401,  38: 0.13891,  37: 0.35004,  36: 0.41246,  35:-0.34416,  34:-0.24728,  33:-0.19800,
                 32:-0.09505,  31: 0.07096,  30: 0.20507,  29:-0.07641,  28:-0.12725,  27:-0.07630,  26: 0.24383,  25:-0.10956,
                 24:-0.03112,  23:-0.10963,  22:-0.21215,  21: 0.17967,  20: 0.20994,  19:-0.03016,  18:-0.05282,  17:-0.03433,
                 16: 0.19285,  15: 0.12802,  14: 0.07495,  13: 0.11165,  12: 0.11733,  11: 0.09633,  10: 0.41332,   9:-0.06074,
                  8:-0.13588,   7: 0.14315,   6: 0.36939,   5: 0.19893,   4:-0.05791,   3:-0.10182,   2:-0.17697,   1: 0.30684
   189 |      | 188: 0.21850, 187:-0.06807, 186: 0.52009, 185:-1.27581, 184:-1.86218, 183: 0.65718, 182:-1.51444, 181:-1.00143,
                180:-0.06196, 179: 0.69747, 178:-0.50068, 177:-1.02566, 176: 1.24279, 175:-0.60712, 174:-0.31402, 173: 0.68757,
                172:-0.43460, 171: 0.71985, 170:-0.03463, 169: 0.23888, 168: 0.32161, 167:-0.44944, 166: 1.23103, 165: 1.20183,
                164:-0.53302, 163: 0.16154, 162: 1.08947, 161: 0.69175
   190 |      | 188:-1.09340, 187: 0.17432, 186:-0.19677, 185: 0.59881, 184:-0.81088, 183:-0.75059, 182:-1.48834, 181:-0.41792,
                180:-0.09473, 179:-1.45449, 178: 0.83536, 177:-1.97628, 176:-0.93665, 175: 1.20766, 174: 0.31999, 173: 0.71498,
                172:-0.16392, 171: 0.44745, 170: 0.06443, 169:-0.24122, 168: 0.53295, 167: 0.53149, 166:-0.48314, 165: 0.60449,
                164:-0.08466, 163: 0.51792, 162: 0.74964, 161: 0.74005
   191 |      | 188: 0.95087, 187: 0.32772, 186: 0.86930, 185: 1.32872, 184: 1.70571, 183:-1.58553, 182: 0.17517, 181: 0.29056,
                180:-0.78442, 179: 0.51877, 178:-0.20217, 177:-0.20054, 176:-0.12137, 175: 0.90138, 174: 0.59654, 173:-0.12520,
                172: 1.20772, 171:-2.02792, 170:-0.81015, 169: 1.04920, 168:-1.71923, 167:-0.62095, 166:-0.33893, 165:-0.73227,
                164:-1.41052, 163:-0.43076, 162:-0.66801, 161:-1.06538
   192 |      | 188:-0.93831, 187:-0.33680, 186: 0.10427, 185:-0.26700, 184: 0.17799, 183: 1.02930, 182: 1.14314, 181:-0.30287,
                180:-0.13452, 179:-0.97711, 178: 0.09695, 177: 2.19907, 176: 0.68909, 175:-0.16500, 174: 0.24409, 173:-0.42814,
                172:-0.07037, 171: 0.59494, 170:-1.42391, 169:-0.64643, 168:-0.18887, 167: 0.79334, 166: 0.46973, 165:-0.92371,
                164:-0.95311, 163:-0.32929, 162:-0.20307, 161: 1.50333
   193 |      | 188:-0.40997, 187:-0.00754, 186: 0.75126, 185: 0.79347, 184: 0.11810, 183: 0.09960, 182: 0.05250, 181: 0.10442,
                180: 0.71113, 179:-0.65904, 178: 2.17253, 177:-0.09876, 176:-0.00873, 175:-0.11819, 174:-0.46795, 173:-0.15475,
                172:-0.04453, 171:-0.98302, 170:-0.15271, 169:-1.31209, 168: 0.41651, 167: 0.49516, 166:-0.92103, 165:-0.79359,
                164: 0.56164, 163: 0.06834, 162: 0.91853, 161: 0.25120
   194 |      | 188:-2.13412, 187:-0.17347, 186:-0.99460, 185: 1.28689, 184:-0.89359, 183:-0.26887, 182: 1.20725, 181:-0.31861,
                180: 0.60860, 179:-1.01355, 178: 0.19389, 177: 0.86338, 176:-1.12871, 175: 1.31219, 174: 0.39406, 173:-0.95534,
                172: 0.28808, 171: 1.86253, 170: 0.00152, 169:-0.17423, 168: 1.26344, 167: 0.77750, 166: 0.67115, 165:-0.08972,
                164: 1.26305, 163: 0.11221, 162:-1.57548, 161: 1.72413
   195 |      | 188:-0.52794, 187: 2.12681, 186:-0.76744, 185:-0.20154, 184: 2.17832, 183:-0.74110, 182: 0.01362, 181:-0.64758,
                180:-0.10696, 179: 1.60151, 178:-1.16903, 177:-0.56377, 176:-0.12187, 175: 0.30215, 174: 0.24743, 173: 1.57986,
                172:-0.06270, 171: 0.24742, 170:-1.31666, 169: 1.28984, 168:-1.52755, 167: 0.12268, 166: 1.54767, 165:-0.48193,
                164: 0.56521, 163: 0.65870, 162: 0.74891, 161: 0.51423
   196 |      | 188: 0.52385, 187:-0.88783, 186:-0.22728, 185:-0.06768, 184:-0.78710, 183: 1.05477, 182: 0.56133, 181: 0.03186,
                180:-0.18806, 179: 0.28995, 178:-1.22450, 177: 1.38658, 176: 0.18060, 175:-0.30579, 174: 0.59791, 173:-1.32041,
                172: 0.79781, 171: 0.79331, 170: 0.18345, 169: 0.68837, 168:-0.05181, 167:-0.76426, 166: 0.47072, 165: 0.79063,
                164:-0.31926, 163: 0.09904, 162:-1.35194, 161:-0.35331
   197 |      | 188:-0.72112, 187: 0.73562, 186: 0.11430, 185: 1.43042, 184:-1.11697, 183:-1.01551, 182: 0.58097, 181:-0.74507,
                180: 0.39502, 179: 1.17890, 178:-0.36372, 177:-0.29957, 176: 0.23123, 175: 0.59955, 174:-0.24827, 173:-0.40943,
                172: 0.49917, 171: 0.44798, 170:-0.31923, 169: 0.35417, 168: 0.24577, 167:-0.64335, 166: 1.70328, 165:-0.27207,
                164: 0.69018, 163: 0.04529, 162:-1.11839, 161: 1.16843
   198 |      | 188: 1.06290, 187:-0.98312, 186: 0.13301, 185:-1.74116, 184: 0.76488, 183:-0.61531, 182: 0.17904, 181: 0.88092,
                180:-0.57276, 179: 0.36123, 178:-1.86100, 177: 0.63495, 176: 0.93510, 175: 0.10983, 174: 0.20870, 173: 0.85756,
                172:-1.33915, 171:-0.17931, 170: 0.97267, 169: 1.08430, 168:-0.06452, 167: 0.56245, 166:-0.12211, 165: 0.42044,
                164:-1.61874, 163:-1.33445, 162:-0.28391, 161:-0.88538
   199 |      | 188: 0.35625, 187: 0.48618, 186:-1.37845, 185:-0.08337, 184:-0.38332, 183: 1.26257, 182:-1.50139, 181: 0.24036,
                180:-1.06424, 179:-1.75737, 178:-0.61733, 177:-0.51502, 176:-0.34916, 175: 0.19522, 174: 1.09596, 173: 0.23649,
                172: 0.01408, 171: 0.99006, 170: 0.70970, 169:-0.76070, 168: 0.43076, 167:-0.66004, 166:-0.88853, 165: 2.08287,
                164: 0.10436, 163: 1.11548, 162: 0.81205, 161:-1.61488
   200 |      | 188: 0.06177, 187:-1.22955, 186: 1.44092, 185:-0.14011, 184:-0.62180, 183: 0.04792, 182:-0.34630, 181:-0.29133,
                180:-0.30037, 179:-0.50734, 178: 0.22033, 177: 1.05843, 176: 0.62926, 175: 1.25189, 174: 0.76862, 173:-0.17266,
                172: 0.87836, 171:-0.12948, 170:-0.93724, 169: 0.87543, 168:-0.28449, 167: 0.49151, 166: 0.37212, 165: 0.23364,
                164:-1.93048, 163:-0.92016, 162:-0.12982, 161: 0.80748
   201 |      | 188: 0.67175, 187: 0.21727, 186:-0.62754, 185: 1.24756, 184: 0.71570, 183:-1.15081, 182: 0.47805, 181: 0.85839,
                180:-1.26753, 179:-1.64855, 178: 0.31460, 177: 0.42903, 176:-0.38010, 175: 1.50426, 174: 0.71771, 173: 0.49133,
                172:-0.05596, 171:-0.35733, 170: 0.54013, 169:-0.93785, 168: 0.27077, 167:-0.44629, 166:-1.40430, 165: 0.56068,
                164:-0.31345, 163:-0.78922, 162:-0.60718, 161:-1.69511
   202 |      | 188:-0.44914, 187: 0.07066, 186: 0.24545, 185:-0.81175, 184: 1.46219, 183: 0.51827, 182:-1.46672, 181: 0.12354,
                180: 0.15285, 179:-0.03541, 178:-0.38135, 177:-0.97551, 176:-0.47546, 175: 0.11338, 174: 1.01000, 173: 0.44060,
                172: 0.50168, 171:-0.53082, 170:-0.59475, 169: 1.44924, 168:-1.00229, 167: 1.18621, 166:-0.17015, 165: 0.18188,
                164:-0.89213, 163: 1.00066, 162: 1.37404, 161: 0.38068
   203 |      | 188:-0.13570, 187:-0.45713, 186:-0.88191, 185: 0.69217, 184: 0.86851, 183: 0.96328, 182: 0.10156, 181: 0.69193,
                180: 0.85058, 179: 0.14494, 178:-0.84211, 177: 0.08551, 176:-1.13859, 175:-0.39229, 174: 1.28456, 173:-1.74336,
                172: 1.34002, 171: 0.01873, 170: 0.93893, 169: 0.81394, 168: 0.02916, 167:-0.22479, 166:-0.50364, 165: 0.45663,
                164: 1.02647, 163: 1.47588, 162:-1.15634, 161:-0.43257
   204 |      | 188:-0.77433, 187:-1.62072, 186: 0.79504, 185:-0.51858, 184: 0.11192, 183: 0.24904, 182: 1.03839, 181: 0.84133,
                180: 1.84713, 179: 1.03405, 178: 0.65989, 177: 0.53420, 176:-0.15644, 175:-0.76656, 174:-0.37063, 173:-1.19186,
                172:-0.08567, 171:-0.45345, 170: 1.20287, 169: 0.57498, 168: 1.32848, 167: 1.35205, 166: 0.11263, 165:-0.97827,
                164: 0.82344, 163:-0.35227, 162:-0.49436, 161: 1.22124
   205 |      | 188: 0.32093, 187: 0.93777, 186:-0.87357, 185:-0.56876, 184: 2.05046, 183: 1.35150, 182: 0.46861, 181: 0.31233,
                180: 0.13285, 179: 0.52767, 178: 0.51972, 177: 0.63740, 176:-0.03015, 175:-2.04386, 174:-0.46394, 173:-0.05662,
                172:-0.33691, 171:-0.82304, 170:-0.31281, 169:-0.96491, 168:-0.66887, 167:-0.24950, 166:-0.69466, 165:-0.58516,
                164: 1.41843, 163: 0.82980, 162: 1.21143, 161:-1.15950
   206 |      | 188: 0.78751, 187:-0.00538, 186:-0.98161, 185:-0.93185, 184: 0.78302, 183:-0.30801, 182: 1.28902, 181: 1.08973,
                180:-0.31965, 179:-0.07835, 178:-0.34605, 177: 0.66896, 176: 0.34756, 175:-0.60221, 174:-0.50792, 173: 0.80026,
                172:-1.79206, 171: 0.25503, 170: 1.46392, 169:-1.09116, 168: 1.11170, 167: 0.06489, 166:-0.86557, 165: 0.15122,
                164: 0.91605, 163:-0.86093, 162:-0.15596, 161:-1.29808
   207 |      | 188: 0.96861, 187: 1.42100, 186:-0.37858, 185: 0.95348, 184:-1.11977, 183: 1.02442, 182: 0.02428, 181:-1.00815,
