SNNS network definition file V1.4-3D
generated at Wed Jan 14 14:43:55 2015

network name : default
source files :
no. of units : 180
no. of connections : 1700
no. of unit types : 0
no. of site types : 0


learning function : Rprop
update function   : Topological_Order


unit default section :

act      | bias     | st | subnet | layer | act func     | out func
---------|----------|----|--------|-------|--------------|-------------
 0.00000 |  0.00000 | h  |      0 |     1 | Act_Logistic | Out_Identity 
---------|----------|----|--------|-------|--------------|-------------


unit definition section :

no. | typeName | unitName | act      | bias     | st | position | act func     | out func | sites
----|----------|----------|----------|----------|----|----------|--------------|----------|-------
  1 |          | noName   |  0.00000 |  0.41209 | i  |  1, 1, 1 | Act_Identity |          | 
  2 |          | noName   |  0.00000 |  0.31248 | i  |  2, 1, 1 | Act_Identity |          | 
  3 |          | noName   |  0.00000 |  0.44267 | i  |  3, 1, 1 | Act_Identity |          | 
  4 |          | noName   |  0.00000 |  0.05319 | i  |  4, 1, 1 | Act_Identity |          | 
  5 |          | noName   |  0.00000 | -0.26725 | i  |  5, 1, 1 | Act_Identity |          | 
  6 |          | noName   |  1.00000 |  0.61699 | i  |  6, 1, 1 | Act_Identity |          | 
  7 |          | noName   |  1.00000 |  0.82769 | i  |  7, 1, 1 | Act_Identity |          | 
  8 |          | noName   |  1.00000 |  0.70983 | i  |  8, 1, 1 | Act_Identity |          | 
  9 |          | noName   |  0.00000 | -0.79302 | i  |  9, 1, 1 | Act_Identity |          | 
 10 |          | noName   |  0.00000 | -0.77502 | i  | 10, 1, 1 | Act_Identity |          | 
 11 |          | noName   |  0.00000 | -0.17881 | i  |  1, 2, 1 | Act_Identity |          | 
 12 |          | noName   |  0.00000 | -0.45396 | i  |  2, 2, 1 | Act_Identity |          | 
 13 |          | noName   |  0.00000 |  0.43937 | i  |  3, 2, 1 | Act_Identity |          | 
 14 |          | noName   |  1.00000 |  0.73046 | i  |  4, 2, 1 | Act_Identity |          | 
 15 |          | noName   |  1.00000 |  0.41990 | i  |  5, 2, 1 | Act_Identity |          | 
 16 |          | noName   |  1.00000 |  0.23698 | i  |  6, 2, 1 | Act_Identity |          | 
 17 |          | noName   |  1.00000 | -0.59038 | i  |  7, 2, 1 | Act_Identity |          | 
 18 |          | noName   |  1.00000 | -0.82073 | i  |  8, 2, 1 | Act_Identity |          | 
 19 |          | noName   |  1.00000 | -0.47044 | i  |  9, 2, 1 | Act_Identity |          | 
 20 |          | noName   |  0.00000 | -0.06674 | i  | 10, 2, 1 | Act_Identity |          | 
 21 |          | noName   |  0.00000 |  0.06095 | i  |  1, 3, 1 | Act_Identity |          | 
 22 |          | noName   |  0.00000 | -0.44456 | i  |  2, 3, 1 | Act_Identity |          | 
 23 |          | noName   |  1.00000 |  0.75848 | i  |  3, 3, 1 | Act_Identity |          | 
 24 |          | noName   |  1.00000 | -0.86822 | i  |  4, 3, 1 | Act_Identity |          | 
 25 |          | noName   |  1.00000 | -0.06107 | i  |  5, 3, 1 | Act_Identity |          | 
 26 |          | noName   |  1.00000 | -0.88629 | i  |  6, 3, 1 | Act_Identity |          | 
 27 |          | noName   |  1.00000 | -0.33287 | i  |  7, 3, 1 | Act_Identity |          | 
 28 |          | noName   |  1.00000 |  0.17484 | i  |  8, 3, 1 | Act_Identity |          | 
 29 |          | noName   |  1.00000 | -0.05625 | i  |  9, 3, 1 | Act_Identity |          | 
 30 |          | noName   |  0.00000 |  0.37327 | i  | 10, 3, 1 | Act_Identity |          | 
 31 |          | noName   |  0.00000 |  0.03885 | i  |  1, 4, 1 | Act_Identity |          | 
 32 |          | noName   |  1.00000 |  0.69054 | i  |  2, 4, 1 | Act_Identity |          | 
 33 |          | noName   |  1.00000 | -0.74187 | i  |  3, 4, 1 | Act_Identity |          | 
 34 |          | noName   |  1.00000 |  0.58391 | i  |  4, 4, 1 | Act_Identity |          | 
 35 |          | noName   |  1.00000 |  0.73083 | i  |  5, 4, 1 | Act_Identity |          | 
 36 |          | noName   |  0.00000 | -0.71227 | i  |  6, 4, 1 | Act_Identity |          | 
 37 |          | noName   |  1.00000 | -0.48643 | i  |  7, 4, 1 | Act_Identity |          | 
 38 |          | noName   |  1.00000 | -0.52300 | i  |  8, 4, 1 | Act_Identity |          | 
 39 |          | noName   |  1.00000 | -0.32920 | i  |  9, 4, 1 | Act_Identity |          | 
 40 |          | noName   |  0.00000 | -0.18308 | i  | 10, 4, 1 | Act_Identity |          | 
 41 |          | noName   |  0.00000 | -0.74255 | i  |  1, 5, 1 | Act_Identity |          | 
 42 |          | noName   |  1.00000 |  0.11460 | i  |  2, 5, 1 | Act_Identity |          | 
 43 |          | noName   |  1.00000 |  0.56053 | i  |  3, 5, 1 | Act_Identity |          | 
 44 |          | noName   |  1.00000 | -0.49010 | i  |  4, 5, 1 | Act_Identity |          | 
 45 |          | noName   |  1.00000 |  0.78338 | i  |  5, 5, 1 | Act_Identity |          | 
 46 |          | noName   |  0.00000 |  0.64824 | i  |  6, 5, 1 | Act_Identity |          | 
 47 |          | noName   |  1.00000 |  0.84845 | i  |  7, 5, 1 | Act_Identity |          | 
 48 |          | noName   |  1.00000 | -0.68859 | i  |  8, 5, 1 | Act_Identity |          | 
 49 |          | noName   |  1.00000 |  0.38701 | i  |  9, 5, 1 | Act_Identity |          | 
 50 |          | noName   |  0.00000 | -0.19907 | i  | 10, 5, 1 | Act_Identity |          | 
 51 |          | noName   |  1.00000 |  0.53465 | i  |  1, 6, 1 | Act_Identity |          | 
 52 |          | noName   |  1.00000 | -0.28581 | i  |  2, 6, 1 | Act_Identity |          | 
 53 |          | noName   |  1.00000 |  0.11087 | i  |  3, 6, 1 | Act_Identity |          | 
 54 |          | noName   |  1.00000 | -0.11625 | i  |  4, 6, 1 | Act_Identity |          | 
 55 |          | noName   |  1.00000 |  0.37059 | i  |  5, 6, 1 | Act_Identity |          | 
 56 |          | noName   |  0.00000 |  0.41044 | i  |  6, 6, 1 | Act_Identity |          | 
 57 |          | noName   |  1.00000 |  0.03922 | i  |  7, 6, 1 | Act_Identity |          | 
 58 |          | noName   |  1.00000 |  0.16044 | i  |  8, 6, 1 | Act_Identity |          | 
 59 |          | noName   |  1.00000 | -0.98492 | i  |  9, 6, 1 | Act_Identity |          | 
 60 |          | noName   |  0.00000 | -0.92743 | i  | 10, 6, 1 | Act_Identity |          | 
 61 |          | noName   |  1.00000 | -0.79327 | i  |  1, 7, 1 | Act_Identity |          | 
 62 |          | noName   |  1.00000 |  0.37199 | i  |  2, 7, 1 | Act_Identity |          | 
 63 |          | noName   |  1.00000 | -0.28898 | i  |  3, 7, 1 | Act_Identity |          | 
 64 |          | noName   |  1.00000 | -0.42497 | i  |  4, 7, 1 | Act_Identity |          | 
 65 |          | noName   |  1.00000 |  0.18241 | i  |  5, 7, 1 | Act_Identity |          | 
 66 |          | noName   |  1.00000 | -0.76592 | i  |  6, 7, 1 | Act_Identity |          | 
 67 |          | noName   |  1.00000 |  0.04282 | i  |  7, 7, 1 | Act_Identity |          | 
 68 |          | noName   |  1.00000 |  0.97021 | i  |  8, 7, 1 | Act_Identity |          | 
 69 |          | noName   |  0.00000 | -0.60778 | i  |  9, 7, 1 | Act_Identity |          | 
 70 |          | noName   |  0.00000 | -0.28050 | i  | 10, 7, 1 | Act_Identity |          | 
 71 |          | noName   |  1.00000 | -0.66088 | i  |  1, 8, 1 | Act_Identity |          | 
 72 |          | noName   |  1.00000 | -0.46965 | i  |  2, 8, 1 | Act_Identity |          | 
 73 |          | noName   |  1.00000 |  0.24271 | i  |  3, 8, 1 | Act_Identity |          | 
 74 |          | noName   |  1.00000 | -0.06180 | i  |  4, 8, 1 | Act_Identity |          | 
 75 |          | noName   |  1.00000 | -0.71715 | i  |  5, 8, 1 | Act_Identity |          | 
 76 |          | noName   |  1.00000 | -0.83074 | i  |  6, 8, 1 | Act_Identity |          | 
 77 |          | noName   |  1.00000 | -0.89300 | i  |  7, 8, 1 | Act_Identity |          | 
 78 |          | noName   |  0.00000 | -0.57231 | i  |  8, 8, 1 | Act_Identity |          | 
 79 |          | noName   |  0.00000 |  0.28983 | i  |  9, 8, 1 | Act_Identity |          | 
 80 |          | noName   |  0.00000 |  0.55449 | i  | 10, 8, 1 | Act_Identity |          | 
 81 |          | noName   |  0.00000 | -0.76232 | i  |  1, 9, 1 | Act_Identity |          | 
 82 |          | noName   |  1.00000 | -0.33415 | i  |  2, 9, 1 | Act_Identity |          | 
 83 |          | noName   |  0.00000 | -0.77990 | i  |  3, 9, 1 | Act_Identity |          | 
 84 |          | noName   |  0.00000 |  0.22355 | i  |  4, 9, 1 | Act_Identity |          | 
 85 |          | noName   |  1.00000 |  0.66698 | i  |  5, 9, 1 | Act_Identity |          | 
 86 |          | noName   |  1.00000 |  0.61925 | i  |  6, 9, 1 | Act_Identity |          | 
 87 |          | noName   |  1.00000 |  0.98395 | i  |  7, 9, 1 | Act_Identity |          | 
 88 |          | noName   |  0.00000 |  0.01737 | i  |  8, 9, 1 | Act_Identity |          | 
 89 |          | noName   |  0.00000 | -0.84149 | i  |  9, 9, 1 | Act_Identity |          | 
 90 |          | noName   |  0.00000 |  0.13858 | i  | 10, 9, 1 | Act_Identity |          | 
 91 |          | noName   |  0.00000 | -0.39586 | i  |  1,10, 1 | Act_Identity |          | 
 92 |          | noName   |  0.00000 |  0.14170 | i  |  2,10, 1 | Act_Identity |          | 
 93 |          | noName   |  0.00000 |  0.27195 | i  |  3,10, 1 | Act_Identity |          | 
 94 |          | noName   |  1.00000 |  0.01480 | i  |  4,10, 1 | Act_Identity |          | 
 95 |          | noName   |  1.00000 | -0.70135 | i  |  5,10, 1 | Act_Identity |          | 
 96 |          | noName   |  1.00000 |  0.17032 | i  |  6,10, 1 | Act_Identity |          | 
 97 |          | noName   |  0.00000 | -0.39677 | i  |  7,10, 1 | Act_Identity |          | 
 98 |          | noName   |  0.00000 | -0.49236 | i  |  8,10, 1 | Act_Identity |          | 
 99 |          | noName   |  0.00000 | -0.85522 | i  |  9,10, 1 | Act_Identity |          | 
100 |          | noName   |  0.00000 | -0.69787 | i  | 10,10, 1 | Act_Identity |          | 
101 |          | noName   |  0.00000 | -0.73632 | i  |  1,11, 1 | Act_Identity |          | 
102 |          | noName   |  0.00000 |  0.15946 | i  |  2,11, 1 | Act_Identity |          | 
103 |          | noName   |  1.00000 | -0.11209 | i  |  3,11, 1 | Act_Identity |          | 
104 |          | noName   |  1.00000 |  0.18473 | i  |  4,11, 1 | Act_Identity |          | 
105 |          | noName   |  1.00000 | -0.34074 | i  |  5,11, 1 | Act_Identity |          | 
106 |          | noName   |  0.00000 |  0.70617 | i  |  6,11, 1 | Act_Identity |          | 
107 |          | noName   |  0.00000 |  0.45750 | i  |  7,11, 1 | Act_Identity |          | 
108 |          | noName   |  0.00000 | -0.38347 | i  |  8,11, 1 | Act_Identity |          | 
109 |          | noName   |  0.00000 |  0.63359 | i  |  9,11, 1 | Act_Identity |          | 
110 |          | noName   |  0.00000 | -0.10074 | i  | 10,11, 1 | Act_Identity |          | 
111 |          | noName   |  0.00000 |  0.75237 | i  |  1,12, 1 | Act_Identity |          | 
112 |          | noName   |  0.00000 |  0.44108 | i  |  2,12, 1 | Act_Identity |          | 
113 |          | noName   |  1.00000 | -0.96362 | i  |  3,12, 1 | Act_Identity |          | 
114 |          | noName   |  1.00000 |  0.04990 | i  |  4,12, 1 | Act_Identity |          | 
115 |          | noName   |  1.00000 |  0.25834 | i  |  5,12, 1 | Act_Identity |          | 
116 |          | noName   |  0.00000 | -0.05582 | i  |  6,12, 1 | Act_Identity |          | 
117 |          | noName   |  0.00000 |  0.78063 | i  |  7,12, 1 | Act_Identity |          | 
118 |          | noName   |  0.00000 | -0.89203 | i  |  8,12, 1 | Act_Identity |          | 
119 |          | noName   |  0.00000 | -0.94006 | i  |  9,12, 1 | Act_Identity |          | 
120 |          | noName   |  0.00000 | -0.93170 | i  | 10,12, 1 | Act_Identity |          | 
121 |          | noName   |  0.00000 |  0.44963 | i  |  1,13, 1 | Act_Identity |          | 
122 |          | noName   |  1.00000 |  0.08957 | i  |  2,13, 1 | Act_Identity |          | 
123 |          | noName   |  1.00000 |  0.80975 | i  |  3,13, 1 | Act_Identity |          | 
124 |          | noName   |  1.00000 | -0.24424 | i  |  4,13, 1 | Act_Identity |          | 
125 |          | noName   |  1.00000 |  0.51878 | i  |  5,13, 1 | Act_Identity |          | 
126 |          | noName   |  0.00000 | -0.33653 | i  |  6,13, 1 | Act_Identity |          | 
127 |          | noName   |  0.00000 |  0.21628 | i  |  7,13, 1 | Act_Identity |          | 
128 |          | noName   |  0.00000 |  0.73272 | i  |  8,13, 1 | Act_Identity |          | 
129 |          | noName   |  1.00000 | -0.74834 | i  |  9,13, 1 | Act_Identity |          | 
130 |          | noName   |  1.00000 |  0.71178 | i  | 10,13, 1 | Act_Identity |          | 
131 |          | noName   |  1.00000 |  0.61541 | i  |  1,14, 1 | Act_Identity |          | 
132 |          | noName   |  1.00000 | -0.95221 | i  |  2,14, 1 | Act_Identity |          | 
133 |          | noName   |  1.00000 | -0.66460 | i  |  3,14, 1 | Act_Identity |          | 
134 |          | noName   |  1.00000 |  0.67425 | i  |  4,14, 1 | Act_Identity |          | 
135 |          | noName   |  1.00000 |  0.18473 | i  |  5,14, 1 | Act_Identity |          | 
136 |          | noName   |  0.00000 | -0.32316 | i  |  6,14, 1 | Act_Identity |          | 
137 |          | noName   |  0.00000 |  0.31626 | i  |  7,14, 1 | Act_Identity |          | 
138 |          | noName   |  1.00000 |  0.49120 | i  |  8,14, 1 | Act_Identity |          | 
139 |          | noName   |  1.00000 |  0.36601 | i  |  9,14, 1 | Act_Identity |          | 
140 |          | noName   |  1.00000 |  0.50645 | i  | 10,14, 1 | Act_Identity |          | 
141 |          | noName   |  1.00000 |  0.89874 | i  |  1,15, 1 | Act_Identity |          | 
142 |          | noName   |  1.00000 | -0.04386 | i  |  2,15, 1 | Act_Identity |          | 
143 |          | noName   |  0.00000 | -0.94324 | i  |  3,15, 1 | Act_Identity |          | 
144 |          | noName   |  1.00000 | -0.99109 | i  |  4,15, 1 | Act_Identity |          | 
145 |          | noName   |  1.00000 |  0.17045 | i  |  5,15, 1 | Act_Identity |          | 
146 |          | noName   |  1.00000 |  0.29148 | i  |  6,15, 1 | Act_Identity |          | 
147 |          | noName   |  1.00000 |  0.13413 | i  |  7,15, 1 | Act_Identity |          | 
148 |          | noName   |  1.00000 | -0.07846 | i  |  8,15, 1 | Act_Identity |          | 
149 |          | noName   |  1.00000 | -0.18455 | i  |  9,15, 1 | Act_Identity |          | 
150 |          | noName   |  0.00000 | -0.24119 | i  | 10,15, 1 | Act_Identity |          | 
151 |          | noName   |  0.00000 | -0.12741 | i  |  1,16, 1 | Act_Identity |          | 
152 |          | noName   |  0.00000 |  0.24155 | i  |  2,16, 1 | Act_Identity |          | 
153 |          | noName   |  0.00000 |  0.37785 | i  |  3,16, 1 | Act_Identity |          | 
154 |          | noName   |  0.00000 | -0.88263 | i  |  4,16, 1 | Act_Identity |          | 
155 |          | noName   |  1.00000 | -0.18021 | i  |  5,16, 1 | Act_Identity |          | 
156 |          | noName   |  1.00000 |  0.85083 | i  |  6,16, 1 | Act_Identity |          | 
157 |          | noName   |  1.00000 | -0.36088 | i  |  7,16, 1 | Act_Identity |          | 
158 |          | noName   |  1.00000 |  0.74242 | i  |  8,16, 1 | Act_Identity |          | 
159 |          | noName   |  1.00000 |  0.69097 | i  |  9,16, 1 | Act_Identity |          | 
160 |          | noName   |  1.00000 | -0.91894 | i  | 10,16, 1 | Act_Identity |          | 
161 |          | noName   |  0.00000 | -3.26400 | o  | 19, 1, 1 |||
162 |          | noName   |  0.04434 | -3.01702 | o  | 19, 2, 1 |||
163 |          | noName   |  0.99039 | -3.09093 | o  | 19, 3, 1 |||
164 |          | noName   |  0.00000 | -1.90445 | o  | 19, 4, 1 |||
165 |          | noName   |  0.00000 | -1.67292 | o  | 19, 5, 1 |||
166 |          | noName   |  0.00184 | -4.09611 | o  | 19, 6, 1 |||
167 |          | noName   |  0.00023 | -1.48191 | o  | 19, 7, 1 |||
168 |          | noName   |  0.00000 | -3.99007 | o  | 19, 8, 1 |||
169 |          | noName   |  0.04543 | -4.92884 | o  | 19, 9, 1 |||
170 |          | noName   |  0.00000 | -3.01251 | o  | 19,10, 1 |||
171 |          | noName   |  0.99636 |  0.91833 | h  | 15, 1, 1 |||
172 |          | noName   |  0.98911 |  0.14175 | h  | 15, 2, 1 |||
173 |          | noName   |  0.01507 |  0.81732 | h  | 15, 3, 1 |||
174 |          | noName   |  0.03663 | -1.35141 | h  | 15, 4, 1 |||
175 |          | noName   |  0.35252 | -2.16191 | h  | 15, 5, 1 |||
176 |          | noName   |  0.02811 |  0.37020 | h  | 15, 6, 1 |||
177 |          | noName   |  0.99960 | -2.32352 | h  | 15, 7, 1 |||
178 |          | noName   |  0.98339 | -0.96473 | h  | 15, 8, 1 |||
179 |          | noName   |  0.02247 |  1.87054 | h  | 15, 9, 1 |||
180 |          | noName   |  0.91417 | -0.13492 | h  | 15,10, 1 |||
----|----------|----------|----------|----------|----|----------|--------------|----------|-------


connection definition section :

target | site | source:weight
-------|------|----------------------------------------------------------------------------------------------------------------
   161 |      | 180:-5.49847, 179: 3.46059, 178:-1.56114, 177:-3.36886, 176:-0.92920, 175: 4.91017, 174:-0.64515, 173:-3.73843,
                172: 3.08384, 171:-5.07262
   162 |      | 180: 1.47981, 179: 1.93787, 178: 1.90657, 177: 2.06201, 176: 4.10587, 175:-3.94524, 174:-4.49364, 173:-4.00610,
                172:-3.74822, 171:-0.17888
   163 |      | 180:-5.37441, 179:-2.52327, 178: 4.07203, 177:-0.78201, 176:-4.03963, 175:-2.59679, 174:-6.27372, 173:-0.36721,
                172: 6.28687, 171: 4.53611
   164 |      | 180: 2.31616, 179: 0.60533, 178: 2.66352, 177:-5.22784, 176:-2.13997, 175: 0.89842, 174:-7.17822, 173: 3.59465,
                172:-5.90440, 171:-5.12319
   165 |      | 180:-3.93836, 179: 4.02461, 178:-3.38220, 177:-1.64997, 176:-4.32599, 175:-4.88463, 174: 0.87839, 173: 0.68911,
                172:-4.78002, 171: 3.74858
   166 |      | 180: 1.79998, 179:-2.54462, 178:-7.42960, 177: 3.57172, 176: 3.26278, 175: 3.03628, 174:-6.81137, 173: 0.00181,
                172: 2.24252, 171:-3.19246
   167 |      | 180: 4.51613, 179:-4.57890, 178:-4.21381, 177:-3.75474, 176:-0.20959, 175:-7.31180, 174: 3.10523, 173:-1.35652,
                172: 2.33434, 171:-2.87101
   168 |      | 180:-5.25710, 179:-4.32878, 178: 0.44406, 177:-4.58404, 176: 8.80427, 175: 0.12187, 174: 0.58734, 173: 0.74516,
                172:-3.38459, 171: 0.53653
   169 |      | 180: 1.34064, 179:-5.57425, 178: 2.83703, 177:-0.82785, 176:-3.22077, 175: 4.46627, 174: 2.03812, 173:-10.18717,
                172:-5.28255, 171: 2.65075
   170 |      | 180:-5.66175, 179:-3.69024, 178: 0.18525, 177: 5.68401, 176:-3.01948, 175: 0.55108, 174: 3.44223, 173: 1.13799,
                172:-5.15241, 171:-6.44213
   171 |      | 160: 0.30996, 159: 0.46767, 158: 1.06799, 157: 0.78578, 156: 0.26138, 155:-0.64294, 154:-1.48403, 153:-0.44953,
                152:-0.42900, 151:-0.08226, 150:-0.44138, 149: 0.31459, 148:-0.32642, 147: 0.72717, 146:-0.52245, 145:-0.53071,
                144:-0.91871, 143:-0.29825, 142:-0.06243, 141:-0.71842, 140:-0.20027, 139:-0.15167, 138:-0.22667, 137:-0.74246,
                136: 0.27068, 135:-0.57779, 134: 0.67706, 133: 0.36469, 132: 0.35870, 131: 0.02029, 130:-0.24203, 129:-0.37391,
                128:-0.05200, 127: 0.15854, 126: 0.15335, 125: 1.36376, 124: 0.51038, 123: 0.33756, 122: 0.40713, 121: 0.10905,
                120:-0.83194, 119:-0.59576, 118:-0.10786, 117:-0.80407, 116: 0.92209, 115: 0.84001, 114: 0.78290, 113: 1.08132,
                112: 0.97692, 111: 0.68641, 110:-1.20986, 109:-0.28398, 108:-0.73027, 107: 0.14166, 106:-0.55890, 105: 0.54610,
                104: 0.70309, 103: 0.98806, 102:-0.13955, 101: 0.85322, 100:-1.15241,  99:-0.60264,  98: 0.03615,  97: 0.52837,
                 96: 0.71511,  95: 0.00280,  94: 0.52194,  93: 0.52991,  92: 0.39328,  91: 0.43336,  90: 0.37792,  89:-0.43797,
                 88: 0.60900,  87:-0.32050,  86: 0.67240,  85: 0.14400,  84:-0.18434,  83:-0.08239,  82:-0.85126,  81:-0.00612,
                 80: 0.14469,  79: 0.14538,  78:-0.04506,  77: 0.57602,  76: 0.31647,  75: 0.66160,  74:-0.50989,  73:-1.01650,
                 72:-1.10276,  71:-1.10206,  70: 0.66061,  69: 0.32531,  68: 0.08390,  67: 0.29821,  66: 0.08574,  65: 0.46556,
                 64: 0.11145,  63: 0.20946,  62:-1.10804,  61: 0.09462,  60: 0.42314,  59: 0.64752,  58: 0.01889,  57: 0.43980,
                 56: 0.64399,  55: 0.40217,  54: 0.07580,  53:-0.05419,  52: 0.76252,  51: 0.28944,  50: 1.27931,  49: 0.62244,
                 48: 0.10782,  47:-0.60721,  46:-0.87660,  45: 0.12933,  44:-0.43666,  43:-0.06850,  42: 0.02028,  41:-0.27401,
                 40:-0.12944,  39: 0.19791,  38: 0.17412,  37:-0.67526,  36:-0.36798,  35:-0.62124,  34: 0.22872,  33:-0.10152,
                 32: 0.08623,  31: 0.34810,  30:-0.57937,  29: 0.73773,  28:-0.46784,  27:-0.76057,  26:-0.32956,  25: 0.73882,
                 24:-0.66352,  23:-0.20657,  22: 0.20568,  21: 0.89343,  20: 0.00580,  19:-0.48516,  18:-0.37270,  17:-0.83339,
                 16: 0.20397,  15:-0.28374,  14:-0.22938,  13: 0.72123,  12: 0.62885,  11: 0.52990,  10: 0.11453,   9:-0.16574,
                  8:-0.17147,   7:-0.06443,   6:-0.12714,   5:-0.40637,   4:-0.28902,   3:-0.16402,   2: 0.28491,   1: 0.57618
   172 |      | 160: 0.92272, 159: 0.62541, 158: 0.38725, 157: 0.78657, 156: 1.23589, 155:-0.38202, 154: 0.94214, 153:-0.31665,
                152: 0.74031, 151: 0.69546, 150: 0.16839, 149: 0.44943, 148: 0.64013, 147: 0.16701, 146: 1.01835, 145: 0.45271,
                144:-0.08132, 143: 0.19983, 142: 1.02822, 141: 0.40725, 140:-0.68722, 139: 0.61880, 138: 0.48248, 137: 0.28759,
                136: 0.37526, 135: 1.15606, 134: 0.62399, 133: 0.63170, 132: 0.46460, 131:-0.13974, 130:-1.11373, 129: 0.63327,
                128: 0.68513, 127:-0.07599, 126: 0.74072, 125: 0.15037, 124: 0.84430, 123: 0.75861, 122: 1.24758, 121:-0.28348,
                120:-0.72758, 119:-0.11119, 118:-0.02718, 117:-0.78399, 116:-0.28269, 115:-0.71700, 114:-0.54493, 113:-0.31233,
                112: 1.46959, 111:-0.04773, 110:-0.90389, 109:-0.40248, 108:-0.38882, 107:-0.38726, 106:-0.98984, 105: 0.16899,
                104:-0.15669, 103:-0.25286, 102: 0.40112, 101:-0.44116, 100:-0.43199,  99:-1.46021,  98: 0.05140,  97:-0.61313,
                 96:-0.26290,  95:-0.42912,  94:-1.16818,  93: 0.04669,  92: 0.07490,  91: 0.33790,  90:-0.19996,  89:-1.01696,
                 88:-0.14955,  87:-0.77673,  86:-0.40881,  85:-1.33297,  84:-0.64521,  83:-1.63229,  82:-0.05795,  81: 0.53782,
                 80: 0.13568,  79:-0.78103,  78:-0.25744,  77:-0.27293,  76:-0.67051,  75:-1.06510,  74:-0.96619,  73:-0.04438,
                 72:-0.12382,  71:-0.02476,  70:-0.70678,  69: 0.31984,  68:-0.70155,  67:-1.00187,  66:-0.64151,  65:-0.58829,
                 64: 0.06796,  63: 0.56676,  62: 0.49027,  61: 0.34239,  60:-0.23976,  59:-1.41309,  58:-0.30669,  57:-0.25650,
                 56:-0.52737,  55: 0.22812,  54: 0.15678,  53: 0.28674,  52: 1.21195,  51:-0.23180,  50:-1.12910,  49:-1.71509,
                 48:-0.51243,  47:-0.82006,  46: 0.15123,  45: 0.19135,  44: 1.00260,  43: 0.56099,  42:-0.57302,  41: 0.58231,
                 40:-0.77108,  39:-1.29703,  38:-0.24042,  37: 0.23694,  36:-0.31743,  35: 0.12993,  34: 0.06357,  33: 0.40373,
                 32: 0.96112,  31:-0.29349,  30:-0.53627,  29: 0.70568,  28: 0.38917,  27:-0.05122,  26:-0.46992,  25: 0.29729,
                 24:-0.53646,  23:-0.56147,  22:-0.09495,  21: 0.61509,  20: 0.70308,  19: 1.79334,  18: 0.88051,  17:-0.24111,
                 16:-0.04816,  15: 0.75677,  14: 0.01029,  13: 0.16741,  12: 0.67427,  11:-0.22229,  10: 0.22064,   9: 0.62191,
                  8: 0.68962,   7: 0.46458,   6:-0.22298,   5:-0.49673,   4:-0.43721,   3:-0.32156,   2: 0.01424,   1: 0.29042
   173 |      | 160: 0.93226, 159: 0.15584, 158:-0.60642, 157: 0.41899, 156:-0.41432, 155: 0.26198, 154: 0.49202, 153:-0.60570,
                152: 0.15364, 151: 0.14594, 150: 0.75640, 149: 0.06393, 148:-0.08367, 147:-0.01901, 146: 0.02072, 145:-1.03402,
                144:-0.20714, 143: 0.31131, 142: 1.46217, 141: 0.69495, 140:-0.25993, 139:-0.14072, 138:-0.02059, 137:-0.41111,
                136: 0.05764, 135:-0.04048, 134:-0.48833, 133:-0.11859, 132:-0.47113, 131:-0.05534, 130:-0.84190, 129:-0.22431,
                128: 0.12802, 127:-0.48885, 126:-0.20156, 125:-0.73038, 124:-0.32754, 123: 0.04751, 122:-1.30827, 121:-0.40105,
                120:-0.02558, 119: 0.10602, 118: 0.28473, 117:-0.07522, 116:-0.02258, 115:-0.08480, 114:-0.80548, 113:-0.71698,
                112:-1.25848, 111:-0.66045, 110: 0.01353, 109:-0.16634, 108: 0.41293, 107: 0.43445, 106:-0.12194, 105: 0.49761,
                104:-0.08839, 103: 0.11133, 102:-1.12123, 101:-0.98040, 100: 0.49125,  99: 0.69953,  98:-0.16601,  97: 0.09090,
                 96: 0.13575,  95: 0.04348,  94:-0.56243,  93:-0.35541,  92:-0.44035,  91:-0.43671,  90: 0.58146,  89: 0.38533,
                 88: 0.47402,  87: 0.52205,  86: 0.23489,  85: 0.03121,  84: 0.25493,  83:-0.89652,  82:-0.23592,  81: 0.46528,
                 80: 0.19280,  79: 1.11823,  78: 0.96861,  77:-0.45466,  76:-0.25079,  75:-0.38170,  74:-0.59176,  73: 0.87574,
                 72: 0.07575,  71: 0.39545,  70:-0.41487,  69: 0.74716,  68: 0.09774,  67: 0.05244,  66: 0.17843,  65: 0.37385,
                 64:-0.27611,  63:-0.96981,  62:-0.55684,  61:-0.47955,  60:-0.94655,  59:-0.50346,  58: 0.46183,  57:-0.01637,
                 56:-1.23163,  55:-0.60523,  54:-0.53078,  53:-0.26737,  52:-0.23237,  51:-0.17241,  50:-1.20506,  49: 0.04998,
                 48:-0.14924,  47: 0.10021,  46:-0.21937,  45:-0.52107,  44: 0.03727,  43:-0.31985,  42:-0.92844,  41: 0.12807,
                 40:-0.20599,  39:-0.35577,  38: 0.23753,  37:-0.48928,  36:-0.43709,  35:-0.22712,  34: 0.67994,  33: 0.48032,
                 32:-0.38973,  31:-0.37621,  30: 0.25356,  29: 0.03154,  28: 0.56819,  27: 0.20796,  26: 1.18330,  25:-0.20504,
                 24: 0.51557,  23: 0.58432,  22: 0.34827,  21: 0.67370,  20: 0.94999,  19: 1.13973,  18:-0.02363,  17:-0.41324,
                 16: 0.73760,  15: 0.91465,  14: 0.22295,  13: 0.72558,  12: 0.97067,  11: 0.73524,  10: 0.45066,   9:-0.04507,
                  8:-0.46326,   7:-0.28835,   6: 0.11496,   5: 0.00850,   4: 0.35565,   3: 0.73980,   2:-0.00499,   1: 0.38572
   174 |      | 160: 0.33234, 159: 0.01998, 158:-1.11114, 157:-1.35827, 156:-0.16489, 155:-1.04840, 154:-1.12189, 153:-0.34115,
                152:-0.18873, 151:-0.11927, 150:-0.44398, 149: 0.29537, 148:-0.65024, 147:-0.80578, 146:-0.76113, 145:-0.13848,
                144:-0.44556, 143:-0.25135, 142:-0.31850, 141:-0.45539, 140:-0.15013, 139:-0.03593, 138:-0.06108, 137: 0.90685,
                136:-0.25048, 135:-0.23547, 134:-0.36134, 133:-0.33297, 132: 0.11811, 131:-0.94211, 130: 0.61805, 129: 0.46879,
                128:-0.05421, 127:-0.34484, 126:-0.67471, 125:-0.77715, 124:-0.67849, 123:-0.28020, 122: 0.17321, 121:-0.58217,
                120: 0.09602, 119:-0.43074, 118: 0.20480, 117: 1.59242, 116: 0.42397, 115: 0.70946, 114: 0.22273, 113: 1.10708,
                112: 1.27448, 111: 0.42774, 110: 0.50580, 109: 1.18551, 108: 0.76880, 107: 0.94867, 106: 0.81161, 105:-0.09504,
                104: 0.01183, 103: 0.86279, 102: 1.92811, 101: 0.96389, 100: 0.18268,  99:-0.06265,  98: 0.80875,  97:-0.26907,
                 96: 0.61052,  95: 0.43642,  94: 0.04549,  93: 0.77109,  92: 1.04056,  91: 0.96578,  90: 0.31321,  89: 0.74270,
                 88: 0.86284,  87: 0.20716,  86:-0.23264,  85: 0.27721,  84: 0.46111,  83: 0.57452,  82:-0.05928,  81: 0.39835,
                 80: 1.02334,  79:-0.17581,  78:-0.01276,  77: 0.75000,  76:-0.26880,  75:-0.12613,  74: 0.60342,  73: 0.19799,
                 72: 0.64756,  71: 0.28149,  70: 0.75259,  69:-0.12633,  68: 0.48787,  67: 0.09776,  66: 0.30535,  65:-0.46588,
                 64: 0.07470,  63: 0.46807,  62: 0.71108,  61:-0.14497,  60: 1.01412,  59: 0.66673,  58: 0.06395,  57:-0.23573,
                 56: 0.21422,  55:-0.12939,  54: 0.30014,  53:-0.01836,  52:-0.18643,  51: 0.68973,  50: 0.17871,  49: 0.90188,
                 48: 0.86268,  47: 0.83831,  46:-0.37711,  45: 0.54614,  44: 0.73872,  43:-0.04367,  42: 0.36230,  41:-0.28041,
                 40:-0.20978,  39: 0.52078,  38:-0.02756,  37:-0.28192,  36: 0.00607,  35:-0.91922,  34:-0.77042,  33:-0.63208,
                 32: 0.11682,  31: 0.43678,  30: 0.78284,  29:-0.14734,  28: 0.19399,  27:-0.27948,  26: 0.01023,  25:-0.43500,
                 24:-0.43927,  23:-0.15928,  22:-0.38558,  21:-0.48825,  20: 0.41399,  19: 0.12713,  18:-0.65382,  17:-0.30047,
                 16:-1.15582,  15:-0.67752,  14:-0.38253,  13:-0.11775,  12:-0.33202,  11:-0.15328,  10: 0.34953,   9: 0.57880,
                  8: 0.10532,   7: 0.18556,   6: 0.09032,   5:-0.29110,   4:-0.37264,   3: 0.47165,   2:-0.32746,   1: 0.58668
   175 |      | 160:-1.47860, 159: 0.00440, 158:-0.81892, 157:-0.57021, 156: 0.60373, 155: 0.36343, 154: 0.82171, 153:-0.11919,
                152: 0.27664, 151:-0.19782, 150:-0.14837, 149:-0.62521, 148:-0.17697, 147:-0.64305, 146:-0.17936, 145:-0.22966,
                144:-0.31762, 143: 0.46733, 142:-0.39386, 141:-0.12727, 140: 0.72958, 139:-0.72229, 138:-0.90515, 137: 0.46745,
                136: 0.18195, 135: 0.20134, 134: 0.02528, 133:-0.12457, 132: 0.35492, 131: 0.73110, 130: 0.08767, 129:-0.66879,
                128:-0.99502, 127:-0.36781, 126:-0.45879, 125:-0.39422, 124:-1.74478, 123:-0.43946, 122: 0.56083, 121: 0.09361,
                120:-0.10477, 119: 0.00276, 118:-0.07994, 117: 0.10493, 116:-0.79485, 115:-0.81846, 114:-0.89726, 113: 0.27677,
                112:-0.28560, 111:-0.22713, 110: 0.52358, 109: 0.44658, 108: 0.23225, 107:-0.20264, 106:-0.10847, 105:-0.59096,
                104:-0.17467, 103:-0.52706, 102:-0.47393, 101:-0.49759, 100:-0.37956,  99: 0.73930,  98:-0.60478,  97:-0.74623,
                 96: 0.32885,  95:-0.62281,  94:-0.54665,  93: 0.01248,  92:-1.11998,  91:-0.42591,  90:-0.60957,  89:-0.11836,
                 88:-0.29918,  87: 0.19718,  86:-0.69110,  85:-0.36070,  84:-0.29298,  83: 0.46788,  82:-0.07974,  81:-0.78256,
                 80:-0.36717,  79:-0.23188,  78:-0.62759,  77:-0.45912,  76:-0.11203,  75:-0.08543,  74:-0.21752,  73:-0.76803,
                 72:-0.24756,  71:-0.25923,  70: 0.59360,  69:-0.62515,  68:-0.00119,  67:-0.56903,  66: 0.04519,  65:-0.31322,
                 64: 0.06826,  63:-0.18930,  62: 0.05748,  61: 0.14174,  60: 0.96808,  59: 0.92169,  58: 0.19824,  57: 0.63472,
                 56: 0.03926,  55: 0.57825,  54: 0.02691,  53:-0.09140,  52: 0.39333,  51:-0.44905,  50: 0.78759,  49: 0.96485,
                 48: 0.18306,  47: 0.94702,  46: 0.15250,  45:-0.43742,  44:-0.52500,  43:-0.07829,  42: 0.29436,  41: 0.06507,
                 40: 0.16802,  39: 0.58379,  38: 0.25311,  37: 0.38589,  36:-0.09672,  35: 0.50380,  34: 0.06606,  33:-0.46880,
                 32:-0.27423,  31: 0.37989,  30: 0.76654,  29: 0.56087,  28: 0.55202,  27: 0.75856,  26: 1.02952,  25: 0.03316,
                 24: 1.04687,  23: 1.56780,  22:-0.24000,  21:-0.73007,  20: 0.49286,  19: 0.43479,  18: 0.63435,  17: 1.32135,
                 16: 1.08129,  15: 1.16728,  14: 0.44169,  13: 1.04311,  12: 0.44086,  11:-0.18385,  10:-0.19398,   9: 0.65329,
                  8: 0.16203,   7:-0.25171,   6: 0.71648,   5:-0.01493,   4: 0.29627,   3: 0.07137,   2: 0.54417,   1: 0.31222
   176 |      | 160:-0.39297, 159:-0.54668, 158:-0.50070, 157: 0.26698, 156:-0.37318, 155:-0.40440, 154:-0.83313, 153:-0.33432,
                152:-0.94742, 151:-0.81871, 150:-0.43304, 149:-0.71156, 148:-0.38696, 147:-0.60452, 146:-0.99092, 145: 0.20428,
                144:-0.15158, 143:-0.57599, 142:-0.48283, 141:-0.41169, 140:-1.08749, 139:-0.43831, 138: 0.35113, 137:-0.15266,
                136:-0.32474, 135: 0.10742, 134: 0.07605, 133: 0.48643, 132: 0.08039, 131: 0.42274, 130:-0.53159, 129:-0.78498,
                128: 0.58858, 127: 0.31332, 126: 0.74605, 125: 0.30250, 124: 0.79747, 123:-0.02654, 122:-0.27704, 121:-0.89115,
                120:-0.60652, 119: 0.02961, 118:-0.10536, 117:-0.10501, 116: 0.40058, 115: 0.28315, 114: 0.00054, 113:-0.27502,
                112:-0.57327, 111:-0.38573, 110:-0.38737, 109: 0.60058, 108: 0.39734, 107:-0.47123, 106:-0.36810, 105: 0.14642,
                104: 0.14745, 103:-0.15289, 102:-0.66502, 101:-0.54378, 100: 0.22824,  99: 0.36183,  98: 0.20952,  97:-0.19348,
                 96:-0.23867,  95: 0.84283,  94:-0.00617,  93: 0.41832,  92:-0.54371,  91: 0.03217,  90: 0.06207,  89:-0.13240,
                 88: 0.17967,  87:-0.10956,  86:-0.40694,  85: 0.46314,  84:-0.17939,  83: 0.39619,  82:-0.25038,  81: 0.05503,
                 80:-0.34633,  79:-0.34727,  78:-0.32541,  77:-0.08081,  76:-0.52081,  75: 0.87595,  74:-0.38352,  73: 0.33237,
                 72: 0.01084,  71: 0.45218,  70:-1.31423,  69:-0.25048,  68: 0.04030,  67:-0.95500,  66:-0.13133,  65:-0.07865,
                 64: 0.25750,  63:-0.09508,  62:-0.47857,  61:-0.07811,  60:-1.09052,  59:-0.46871,  58:-0.27817,  57: 0.82643,
                 56:-0.10148,  55:-0.47388,  54:-0.80694,  53:-0.45798,  52:-0.74087,  51:-0.31948,  50:-0.76635,  49:-0.64941,
                 48:-0.53820,  47: 0.09165,  46: 0.15720,  45:-0.59687,  44:-0.09334,  43:-0.26088,  42:-0.52067,  41:-0.22690,
                 40:-0.66916,  39:-0.39239,  38: 0.36343,  37: 0.67913,  36:-0.21533,  35: 0.24122,  34:-0.16725,  33:-0.45243,
                 32:-0.67982,  31:-0.48870,  30: 0.24781,  29: 0.37932,  28: 0.58381,  27: 0.06558,  26: 0.67148,  25: 0.85530,
                 24: 0.62965,  23: 0.16081,  22:-0.29858,  21:-0.36069,  20: 1.03622,  19: 0.57623,  18: 0.73579,  17: 1.19516,
                 16: 0.48854,  15: 0.74451,  14: 0.42914,  13: 0.67578,  12: 0.00819,  11: 0.29431,  10: 0.71471,   9:-0.58858,
                  8:-0.22310,   7: 0.01725,   6: 0.87002,   5: 0.08587,   4: 0.24509,   3:-0.40238,   2:-0.60624,   1: 0.35649
   177 |      | 160:-0.35624, 159: 0.83594, 158: 0.73552, 157: 0.41802, 156:-0.11686, 155: 1.35491, 154:-0.27053, 153:-0.15232,
                152:-0.43923, 151:-0.17856, 150:-0.13937, 149: 0.09730, 148:-0.03372, 147: 0.29046, 146:-0.11188, 145:-0.10142,
                144: 1.11657, 143: 0.42740, 142: 0.61639, 141: 0.37138, 140:-0.94513, 139:-0.52790, 138: 0.44698, 137: 0.37043,
                136: 0.25180, 135: 0.51911, 134:-0.12791, 133: 0.63031, 132:-0.35620, 131: 0.08419, 130:-0.88876, 129:-0.38177,
                128: 0.06986, 127:-0.12383, 126: 0.86241, 125:-0.06488, 124: 0.44755, 123:-0.69100, 122:-1.19920, 121:-0.53060,
                120:-0.10788, 119: 0.09213, 118:-0.14339, 117:-0.31048, 116:-0.18463, 115:-0.26370, 114:-0.01698, 113:-0.67749,
                112:-1.75624, 111:-0.97066, 110:-0.26926, 109:-0.11271, 108:-0.05901, 107:-0.31381, 106:-0.12722, 105: 0.77988,
                104: 0.58449, 103:-0.82694, 102:-1.71442, 101:-0.63204, 100:-0.27782,  99:-1.02101,  98: 0.56312,  97: 0.04671,
                 96:-0.24241,  95: 0.46394,  94: 0.60250,  93: 0.11923,  92:-1.68782,  91:-1.21721,  90: 0.26612,  89: 0.54204,
                 88:-0.45970,  87: 0.30781,  86:-0.52624,  85:-0.64521,  84:-0.26789,  83: 0.02873,  82:-0.11873,  81:-0.96692,
                 80:-0.12197,  79: 0.09728,  78:-0.65936,  77:-0.67560,  76: 0.47214,  75: 0.26074,  74:-0.13650,  73:-0.29954,
                 72:-0.33152,  71: 0.86079,  70: 0.26268,  69: 0.69340,  68:-0.28865,  67:-0.07901,  66:-0.53998,  65: 0.43229,
                 64: 0.54523,  63: 0.31899,  62: 0.99615,  61: 1.38040,  60: 0.27594,  59:-0.66843,  58:-0.45289,  57:-0.77176,
                 56: 0.80336,  55: 0.48178,  54: 0.50513,  53: 1.33435,  52: 0.70855,  51: 1.00307,  50:-0.65817,  49:-0.59258,
                 48:-1.20832,  47:-0.06691,  46:-0.40952,  45: 0.32616,  44: 0.45087,  43: 0.05283,  42: 0.81520,  41:-0.03144,
                 40:-0.24412,  39:-0.66721,  38: 0.16231,  37: 0.34059,  36: 0.27212,  35: 0.07284,  34: 0.53454,  33: 0.19644,
                 32:-0.06254,  31:-0.34001,  30: 0.17711,  29:-0.22779,  28: 0.82517,  27: 0.17453,  26:-0.07269,  25: 0.42735,
                 24:-0.09388,  23:-0.01915,  22:-0.07259,  21:-0.22669,  20:-0.26160,  19: 0.52833,  18: 0.24860,  17: 0.31203,
                 16:-0.47137,  15: 0.31636,  14:-0.08105,  13:-0.40906,  12:-0.79209,  11:-0.92372,  10: 0.22423,   9: 0.12116,
                  8: 0.66224,   7: 0.20650,   6: 0.52185,   5:-0.12505,   4:-0.20775,   3: 0.35277,   2: 1.07881,   1:-0.15280
   178 |      | 160: 0.39793, 159: 0.23216, 158: 0.27120, 157: 0.13280, 156: 0.91138, 155: 0.77700, 154: 0.27134, 153: 0.25560,
                152: 0.70368, 151:-0.03945, 150:-0.43313, 149:-0.13853, 148: 0.38555, 147: 0.93939, 146:-0.20755, 145: 0.14383,
                144:-0.13541, 143: 0.44410, 142:-0.18806, 141:-0.40832, 140: 0.31376, 139:-0.50687, 138:-0.38187, 137:-0.81060,
                136: 0.16239, 135:-0.21521, 134: 0.24038, 133: 0.28295, 132: 0.53859, 131:-0.60149, 130:-0.38818, 129:-0.60858,
                128:-1.13567, 127: 0.08176, 126:-1.05928, 125:-0.17021, 124: 0.42621, 123: 0.67430, 122: 0.72711, 121: 0.52635,
                120:-0.19306, 119:-0.39540, 118:-0.04931, 117: 0.02788, 116: 0.05690, 115:-0.54459, 114: 0.46287, 113:-0.05380,
                112:-0.45301, 111:-0.21226, 110:-0.52435, 109:-0.65458, 108:-0.09029, 107:-0.02739, 106:-0.24874, 105:-0.16935,
                104: 0.56980, 103:-0.29691, 102:-0.67966, 101:-0.10494, 100: 0.06080,  99:-0.08548,  98: 0.56230,  97:-0.00281,
                 96:-0.17263,  95: 0.53450,  94: 0.89290,  93:-0.59186,  92:-0.33708,  91:-0.63258,  90: 0.35779,  89:-0.13436,
                 88: 0.20777,  87: 0.42239,  86: 0.23645,  85: 0.33289,  84:-0.21164,  83:-0.39838,  82:-0.12823,  81:-0.64289,
                 80: 0.02283,  79:-0.28526,  78: 0.20280,  77: 0.09148,  76: 0.67282,  75: 0.28074,  74: 0.05165,  73:-1.32998,
                 72:-0.81699,  71:-0.70397,  70:-0.22996,  69:-0.70095,  68:-0.20620,  67: 0.01129,  66: 0.34189,  65:-0.13162,
                 64: 0.00765,  63:-0.69566,  62:-0.89251,  61:-0.38223,  60: 0.92565,  59: 0.32925,  58: 0.27858,  57: 0.69331,
                 56:-0.08559,  55: 0.08447,  54:-0.28191,  53: 0.34765,  52:-0.09198,  51: 0.48337,  50: 1.45905,  49: 1.39057,
                 48: 0.36733,  47: 0.35734,  46:-0.18117,  45:-0.28119,  44:-0.34571,  43:-0.36070,  42: 0.00264,  41:-0.14761,
                 40: 0.50583,  39: 0.82232,  38: 0.52025,  37:-0.01192,  36: 0.46152,  35:-0.44945,  34: 0.29238,  33:-0.08505,
                 32: 0.12898,  31: 0.09779,  30:-0.07396,  29:-0.75623,  28:-0.76940,  27: 0.18125,  26: 0.17648,  25:-0.19778,
                 24: 0.04670,  23:-0.54710,  22: 0.01080,  21: 0.10745,  20:-0.87893,  19:-0.37434,  18:-0.20861,  17: 0.20270,
                 16: 0.78523,  15: 0.47468,  14: 0.59741,  13: 0.42991,  12:-0.29370,  11:-0.55644,  10:-0.73787,   9:-0.47230,
                  8:-0.28433,   7:-0.18673,   6:-0.11335,   5: 0.12245,   4: 0.67270,   3: 0.17170,   2:-2.02898,   1:-1.75605
   179 |      | 160: 0.13156, 159:-0.45240, 158: 0.12188, 157:-0.72617, 156:-0.53835, 155: 0.13376, 154: 0.19980, 153:-0.48568,
                152:-0.33066, 151:-1.43853, 150:-0.29708, 149:-0.05377, 148: 0.19365, 147: 0.18490, 146:-0.01629, 145:-0.04337,
                144:-0.40187, 143:-0.78228, 142:-0.97883, 141:-1.02762, 140:-0.21803, 139:-0.26555, 138:-0.35673, 137:-0.92654,
                136: 0.54508, 135: 0.04132, 134:-0.29222, 133:-0.08051, 132:-0.60807, 131:-0.77227, 130:-0.57415, 129:-0.66015,
                128: 0.61227, 127: 0.94067, 126: 0.18801, 125:-0.06610, 124: 1.10722, 123:-0.35347, 122:-0.08793, 121:-0.06990,
                120:-0.70825, 119:-0.24933, 118: 0.68741, 117: 0.23864, 116:-0.15617, 115: 0.20724, 114: 0.57646, 113:-0.20026,
                112: 0.21921, 111: 0.30981, 110:-0.14278, 109:-0.58480, 108: 0.20368, 107:-0.46185, 106:-0.25590, 105: 0.54148,
                104: 0.10495, 103: 0.00647, 102: 0.58751, 101: 0.38300, 100: 0.05564,  99:-0.03374,  98:-0.24569,  97:-0.28735,
                 96:-0.13308,  95:-0.51555,  94:-0.16170,  93:-0.16526,  92: 0.65705,  91:-0.13403,  90:-0.20505,  89: 0.51656,
                 88:-1.03455,  87: 0.01294,  86:-0.41923,  85:-0.01230,  84: 0.03167,  83: 0.10557,  82: 0.38735,  81: 0.11993,
                 80: 1.08921,  79: 0.64033,  78:-0.60109,  77:-0.48859,  76:-0.70702,  75: 0.01565,  74:-0.15798,  73: 0.46251,
                 72: 0.40882,  71: 0.37238,  70: 0.77670,  69: 0.63518,  68:-0.33772,  67:-0.09350,  66: 0.00973,  65: 0.56699,
                 64: 0.78952,  63: 0.56440,  62: 0.82421,  61:-0.10587,  60: 0.20486,  59:-0.41110,  58:-0.05893,  57: 0.11825,
                 56: 0.89930,  55: 0.22208,  54: 0.31404,  53: 0.31153,  52: 0.01495,  51:-0.08675,  50: 0.76788,  49:-0.07017,
                 48: 0.87341,  47: 0.70968,  46: 0.87556,  45: 0.12645,  44:-0.04016,  43: 0.43142,  42: 0.23798,  41:-0.05033,
                 40: 0.54857,  39: 0.32542,  38:-0.19718,  37: 0.02144,  36: 0.15069,  35: 0.01289,  34: 0.02746,  33:-0.31951,
                 32: 0.30481,  31: 0.09946,  30:-0.57953,  29: 0.33892,  28:-0.47501,  27:-0.37371,  26:-0.61916,  25:-0.12804,
                 24:-0.08913,  23:-0.21688,  22:-0.01396,  21: 0.05033,  20:-0.63403,  19:-1.19922,  18:-0.38472,  17:-0.23730,
                 16:-0.51786,  15:-0.63131,  14: 0.06335,  13:-0.03860,  12: 0.18926,  11: 0.35387,  10:-0.95367,   9:-0.30495,
                  8:-0.02409,   7: 0.50558,   6:-0.38138,   5: 0.08831,   4:-0.54808,   3:-0.02986,   2:-0.55010,   1: 0.06965
   180 |      | 160:-0.84702, 159: 0.16953, 158: 0.70689, 157: 0.74449, 156: 0.30587, 155: 0.07487, 154: 0.57128, 153: 1.42087,
                152:-0.18635, 151: 0.40304, 150:-0.18599, 149:-0.51829, 148: 0.10350, 147:-0.26928, 146: 0.24155, 145: 0.09007,
                144: 0.58549, 143: 0.41074, 142:-1.29907, 141:-0.27418, 140: 0.90804, 139:-0.04620, 138: 0.81548, 137: 0.51317,
                136:-0.02935, 135:-0.41075, 134:-0.11446, 133:-0.22451, 132:-0.20258, 131: 0.47864, 130: 1.81168, 129: 1.48001,
                128: 0.58051, 127: 0.10357, 126: 0.49718, 125: 0.45697, 124:-0.12475, 123:-0.03772, 122: 0.24588, 121: 0.34974,
                120: 1.59110, 119: 0.73733, 118:-0.45214, 117:-0.26225, 116:-0.52036, 115:-0.00649, 114: 0.04827, 113: 0.78824,
                112:-0.18980, 111: 1.00084, 110: 1.31528, 109:-0.38661, 108:-0.58569, 107: 0.30843, 106: 0.45893, 105:-0.42500,
                104:-0.31192, 103:-0.60780, 102:-0.00451, 101: 0.25539, 100:-0.21646,  99:-0.27143,  98: 0.00011,  97: 0.08322,
                 96:-0.35111,  95:-0.48329,  94: 0.95050,  93: 0.17069,  92:-0.29059,  91:-0.09845,  90:-0.71395,  89:-0.41549,
                 88:-0.86569,  87:-0.39265,  86: 0.40149,  85: 0.95618,  84:-0.62873,  83: 0.11972,  82:-0.08365,  81:-0.25812,
                 80:-1.87471,  79:-0.56197,  78:-0.09314,  77:-0.14345,  76: 0.51604,  75:-0.05167,  74: 0.38119,  73: 0.04782,
                 72:-0.18275,  71:-0.60866,  70:-0.99601,  69:-0.21156,  68:-0.05915,  67: 0.14184,  66: 1.05599,  65:-0.04094,
                 64: 0.16108,  63:-0.36073,  62:-0.66713,  61:-0.09332,  60:-1.85697,  59:-0.13778,  58:-0.13885,  57: 0.18902,
                 56:-0.33887,  55: 0.72585,  54:-0.26778,  53: 0.43630,  52: 0.33901,  51:-0.04064,  50:-0.48613,  49:-0.73886,
                 48:-1.19967,  47:-0.67760,  46: 0.66899,  45: 0.20227,  44:-0.32085,  43: 0.21628,  42: 0.46378,  41: 0.31419,
                 40:-0.73396,  39:-0.14775,  38:-0.24784,  37: 0.04025,  36: 0.22881,  35: 0.33511,  34:-0.11578,  33: 0.22975,
                 32:-0.56919,  31:-0.61098,  30:-0.07998,  29: 0.12370,  28: 0.06586,  27: 0.57853,  26:-0.86903,  25:-0.43295,
                 24: 0.00187,  23:-0.87723,  22:-0.19841,  21: 0.23015,  20:-0.23537,  19: 0.26846,  18:-0.29859,  17: 0.79239,
                 16:-0.16731,  15:-0.23693,  14:-0.49225,  13:-0.34357,  12:-0.83738,  11:-0.42162,  10: 0.79289,   9: 0.16188,
                  8: 0.17863,   7:-0.40973,   6: 0.27098,   5: 0.13030,   4:-0.12172,   3:-0.72492,   2: 0.82338,   1:-0.21696
-------|------|----------------------------------------------------------------------------------------------------------------


layer definition section :

layer | unitNo.
------|-----------------------------------------------------------------------------------------------------------------------------
    3 | 161, 162, 163, 164, 165, 166, 167, 168, 169, 170
    2 | 171, 172, 173, 174, 175, 176, 177, 178, 179, 180
------|-----------------------------------------------------------------------------------------------------------------------------
