SNNS network definition file V1.4-3D
generated at Wed Jan 14 14:04:28 2015

network name : default
source files :
no. of units : 218
no. of connections : 5240
no. of unit types : 0
no. of site types : 0


learning function : Std_Backpropagation
update function   : Topological_Order


unit default section :

act      | bias     | st | subnet | layer | act func     | out func
---------|----------|----|--------|-------|--------------|-------------
 0.00000 |  0.00000 | h  |      0 |     1 | Act_Logistic | Out_Identity 
---------|----------|----|--------|-------|--------------|-------------


unit definition section :

no. | typeName | unitName | act      | bias     | st | position | act func     | out func | sites
----|----------|----------|----------|----------|----|----------|--------------|----------|-------
  1 |          | noName   |  0.00000 |  0.80847 | i  |  1, 1, 1 | Act_Identity |          | 
  2 |          | noName   |  0.00000 |  0.34275 | i  |  2, 1, 1 | Act_Identity |          | 
  3 |          | noName   |  0.00000 | -0.80432 | i  |  3, 1, 1 | Act_Identity |          | 
  4 |          | noName   |  0.00000 | -0.24363 | i  |  4, 1, 1 | Act_Identity |          | 
  5 |          | noName   |  0.00000 | -0.74609 | i  |  5, 1, 1 | Act_Identity |          | 
  6 |          | noName   |  0.00000 |  0.60820 | i  |  6, 1, 1 | Act_Identity |          | 
  7 |          | noName   |  1.00000 | -0.15268 | i  |  7, 1, 1 | Act_Identity |          | 
  8 |          | noName   |  1.00000 |  0.69616 | i  |  8, 1, 1 | Act_Identity |          | 
  9 |          | noName   |  0.00000 |  0.03641 | i  |  9, 1, 1 | Act_Identity |          | 
 10 |          | noName   |  0.00000 |  0.60051 | i  | 10, 1, 1 | Act_Identity |          | 
 11 |          | noName   |  0.00000 | -0.58190 | i  |  1, 2, 1 | Act_Identity |          | 
 12 |          | noName   |  0.00000 | -0.35832 | i  |  2, 2, 1 | Act_Identity |          | 
 13 |          | noName   |  0.00000 | -0.67656 | i  |  3, 2, 1 | Act_Identity |          | 
 14 |          | noName   |  0.00000 | -0.92468 | i  |  4, 2, 1 | Act_Identity |          | 
 15 |          | noName   |  0.00000 |  0.86438 | i  |  5, 2, 1 | Act_Identity |          | 
 16 |          | noName   |  1.00000 | -0.94641 | i  |  6, 2, 1 | Act_Identity |          | 
 17 |          | noName   |  1.00000 |  0.74609 | i  |  7, 2, 1 | Act_Identity |          | 
 18 |          | noName   |  1.00000 | -0.89819 | i  |  8, 2, 1 | Act_Identity |          | 
 19 |          | noName   |  0.00000 |  0.09336 | i  |  9, 2, 1 | Act_Identity |          | 
 20 |          | noName   |  0.00000 |  0.86688 | i  | 10, 2, 1 | Act_Identity |          | 
 21 |          | noName   |  0.00000 |  0.52776 | i  |  1, 3, 1 | Act_Identity |          | 
 22 |          | noName   |  0.00000 |  0.92456 | i  |  2, 3, 1 | Act_Identity |          | 
 23 |          | noName   |  0.00000 |  0.62633 | i  |  3, 3, 1 | Act_Identity |          | 
 24 |          | noName   |  0.00000 |  0.75372 | i  |  4, 3, 1 | Act_Identity |          | 
 25 |          | noName   |  0.00000 | -0.05441 | i  |  5, 3, 1 | Act_Identity |          | 
 26 |          | noName   |  1.00000 |  0.83013 | i  |  6, 3, 1 | Act_Identity |          | 
 27 |          | noName   |  1.00000 |  0.24833 | i  |  7, 3, 1 | Act_Identity |          | 
 28 |          | noName   |  1.00000 |  0.42186 | i  |  8, 3, 1 | Act_Identity |          | 
 29 |          | noName   |  0.00000 | -0.31388 | i  |  9, 3, 1 | Act_Identity |          | 
 30 |          | noName   |  0.00000 |  0.33042 | i  | 10, 3, 1 | Act_Identity |          | 
 31 |          | noName   |  0.00000 |  0.71038 | i  |  1, 4, 1 | Act_Identity |          | 
 32 |          | noName   |  0.00000 |  0.76019 | i  |  2, 4, 1 | Act_Identity |          | 
 33 |          | noName   |  0.00000 | -0.34196 | i  |  3, 4, 1 | Act_Identity |          | 
 34 |          | noName   |  0.00000 |  0.97394 | i  |  4, 4, 1 | Act_Identity |          | 
 35 |          | noName   |  0.00000 |  0.54375 | i  |  5, 4, 1 | Act_Identity |          | 
 36 |          | noName   |  1.00000 | -0.35551 | i  |  6, 4, 1 | Act_Identity |          | 
 37 |          | noName   |  1.00000 |  0.82440 | i  |  7, 4, 1 | Act_Identity |          | 
 38 |          | noName   |  1.00000 | -0.90106 | i  |  8, 4, 1 | Act_Identity |          | 
 39 |          | noName   |  0.00000 |  0.05051 | i  |  9, 4, 1 | Act_Identity |          | 
 40 |          | noName   |  0.00000 | -0.78350 | i  | 10, 4, 1 | Act_Identity |          | 
 41 |          | noName   |  0.00000 |  0.61681 | i  |  1, 5, 1 | Act_Identity |          | 
 42 |          | noName   |  0.00000 | -0.15891 | i  |  2, 5, 1 | Act_Identity |          | 
 43 |          | noName   |  0.00000 |  0.53233 | i  |  3, 5, 1 | Act_Identity |          | 
 44 |          | noName   |  0.00000 |  0.44707 | i  |  4, 5, 1 | Act_Identity |          | 
 45 |          | noName   |  0.00000 |  0.49461 | i  |  5, 5, 1 | Act_Identity |          | 
 46 |          | noName   |  1.00000 |  0.70623 | i  |  6, 5, 1 | Act_Identity |          | 
 47 |          | noName   |  1.00000 |  0.82006 | i  |  7, 5, 1 | Act_Identity |          | 
 48 |          | noName   |  1.00000 | -0.20219 | i  |  8, 5, 1 | Act_Identity |          | 
 49 |          | noName   |  0.00000 | -0.78948 | i  |  9, 5, 1 | Act_Identity |          | 
 50 |          | noName   |  0.00000 |  0.02316 | i  | 10, 5, 1 | Act_Identity |          | 
 51 |          | noName   |  0.00000 | -0.83361 | i  |  1, 6, 1 | Act_Identity |          | 
 52 |          | noName   |  0.00000 | -0.20725 | i  |  2, 6, 1 | Act_Identity |          | 
 53 |          | noName   |  0.00000 |  0.34605 | i  |  3, 6, 1 | Act_Identity |          | 
 54 |          | noName   |  0.00000 |  0.58751 | i  |  4, 6, 1 | Act_Identity |          | 
 55 |          | noName   |  1.00000 | -0.43522 | i  |  5, 6, 1 | Act_Identity |          | 
 56 |          | noName   |  1.00000 |  0.31230 | i  |  6, 6, 1 | Act_Identity |          | 
 57 |          | noName   |  1.00000 | -0.32109 | i  |  7, 6, 1 | Act_Identity |          | 
 58 |          | noName   |  1.00000 | -0.19095 | i  |  8, 6, 1 | Act_Identity |          | 
 59 |          | noName   |  0.00000 |  0.55589 | i  |  9, 6, 1 | Act_Identity |          | 
 60 |          | noName   |  0.00000 |  0.42259 | i  | 10, 6, 1 | Act_Identity |          | 
 61 |          | noName   |  0.00000 |  0.94519 | i  |  1, 7, 1 | Act_Identity |          | 
 62 |          | noName   |  0.00000 |  0.67632 | i  |  2, 7, 1 | Act_Identity |          | 
 63 |          | noName   |  0.00000 | -0.41447 | i  |  3, 7, 1 | Act_Identity |          | 
 64 |          | noName   |  0.00000 | -0.44737 | i  |  4, 7, 1 | Act_Identity |          | 
 65 |          | noName   |  1.00000 | -0.44224 | i  |  5, 7, 1 | Act_Identity |          | 
 66 |          | noName   |  1.00000 |  0.84918 | i  |  6, 7, 1 | Act_Identity |          | 
 67 |          | noName   |  1.00000 |  0.97571 | i  |  7, 7, 1 | Act_Identity |          | 
 68 |          | noName   |  0.00000 | -0.16849 | i  |  8, 7, 1 | Act_Identity |          | 
 69 |          | noName   |  0.00000 |  0.84582 | i  |  9, 7, 1 | Act_Identity |          | 
 70 |          | noName   |  0.00000 |  0.19358 | i  | 10, 7, 1 | Act_Identity |          | 
 71 |          | noName   |  0.00000 |  0.57109 | i  |  1, 8, 1 | Act_Identity |          | 
 72 |          | noName   |  0.00000 |  0.39787 | i  |  2, 8, 1 | Act_Identity |          | 
 73 |          | noName   |  0.00000 |  0.37437 | i  |  3, 8, 1 | Act_Identity |          | 
 74 |          | noName   |  0.00000 |  0.06967 | i  |  4, 8, 1 | Act_Identity |          | 
 75 |          | noName   |  1.00000 | -0.87585 | i  |  5, 8, 1 | Act_Identity |          | 
 76 |          | noName   |  1.00000 | -0.50475 | i  |  6, 8, 1 | Act_Identity |          | 
 77 |          | noName   |  1.00000 |  0.90991 | i  |  7, 8, 1 | Act_Identity |          | 
 78 |          | noName   |  0.00000 |  0.68670 | i  |  8, 8, 1 | Act_Identity |          | 
 79 |          | noName   |  0.00000 | -0.51903 | i  |  9, 8, 1 | Act_Identity |          | 
 80 |          | noName   |  0.00000 | -0.83544 | i  | 10, 8, 1 | Act_Identity |          | 
 81 |          | noName   |  0.00000 | -0.40745 | i  |  1, 9, 1 | Act_Identity |          | 
 82 |          | noName   |  0.00000 | -0.16361 | i  |  2, 9, 1 | Act_Identity |          | 
 83 |          | noName   |  0.00000 | -0.36967 | i  |  3, 9, 1 | Act_Identity |          | 
 84 |          | noName   |  0.00000 |  0.34690 | i  |  4, 9, 1 | Act_Identity |          | 
 85 |          | noName   |  1.00000 | -0.12259 | i  |  5, 9, 1 | Act_Identity |          | 
 86 |          | noName   |  1.00000 | -0.68163 | i  |  6, 9, 1 | Act_Identity |          | 
 87 |          | noName   |  1.00000 |  0.67840 | i  |  7, 9, 1 | Act_Identity |          | 
 88 |          | noName   |  0.00000 | -0.79119 | i  |  8, 9, 1 | Act_Identity |          | 
 89 |          | noName   |  0.00000 | -0.19150 | i  |  9, 9, 1 | Act_Identity |          | 
 90 |          | noName   |  0.00000 |  0.36888 | i  | 10, 9, 1 | Act_Identity |          | 
 91 |          | noName   |  0.00000 | -0.18802 | i  |  1,10, 1 | Act_Identity |          | 
 92 |          | noName   |  0.00000 |  0.50328 | i  |  2,10, 1 | Act_Identity |          | 
 93 |          | noName   |  0.00000 | -0.81323 | i  |  3,10, 1 | Act_Identity |          | 
 94 |          | noName   |  1.00000 |  0.40611 | i  |  4,10, 1 | Act_Identity |          | 
 95 |          | noName   |  1.00000 | -0.68737 | i  |  5,10, 1 | Act_Identity |          | 
 96 |          | noName   |  1.00000 |  0.77752 | i  |  6,10, 1 | Act_Identity |          | 
 97 |          | noName   |  0.00000 | -0.80438 | i  |  7,10, 1 | Act_Identity |          | 
 98 |          | noName   |  0.00000 |  0.40458 | i  |  8,10, 1 | Act_Identity |          | 
 99 |          | noName   |  0.00000 | -0.31645 | i  |  9,10, 1 | Act_Identity |          | 
100 |          | noName   |  0.00000 | -0.75835 | i  | 10,10, 1 | Act_Identity |          | 
101 |          | noName   |  0.00000 | -0.95465 | i  |  1,11, 1 | Act_Identity |          | 
102 |          | noName   |  0.00000 | -0.78924 | i  |  2,11, 1 | Act_Identity |          | 
103 |          | noName   |  0.00000 | -0.04740 | i  |  3,11, 1 | Act_Identity |          | 
104 |          | noName   |  1.00000 | -0.89019 | i  |  4,11, 1 | Act_Identity |          | 
105 |          | noName   |  1.00000 | -0.79980 | i  |  5,11, 1 | Act_Identity |          | 
106 |          | noName   |  1.00000 |  0.11277 | i  |  6,11, 1 | Act_Identity |          | 
107 |          | noName   |  0.00000 | -0.78637 | i  |  7,11, 1 | Act_Identity |          | 
108 |          | noName   |  0.00000 | -0.77374 | i  |  8,11, 1 | Act_Identity |          | 
109 |          | noName   |  0.00000 | -0.25047 | i  |  9,11, 1 | Act_Identity |          | 
110 |          | noName   |  0.00000 | -0.02390 | i  | 10,11, 1 | Act_Identity |          | 
111 |          | noName   |  0.00000 |  0.46879 | i  |  1,12, 1 | Act_Identity |          | 
112 |          | noName   |  0.00000 |  0.78918 | i  |  2,12, 1 | Act_Identity |          | 
113 |          | noName   |  0.00000 | -0.51366 | i  |  3,12, 1 | Act_Identity |          | 
114 |          | noName   |  1.00000 |  0.25871 | i  |  4,12, 1 | Act_Identity |          | 
115 |          | noName   |  1.00000 |  0.83325 | i  |  5,12, 1 | Act_Identity |          | 
116 |          | noName   |  1.00000 |  0.98486 | i  |  6,12, 1 | Act_Identity |          | 
117 |          | noName   |  0.00000 |  0.25510 | i  |  7,12, 1 | Act_Identity |          | 
118 |          | noName   |  0.00000 |  0.21732 | i  |  8,12, 1 | Act_Identity |          | 
119 |          | noName   |  0.00000 | -0.83325 | i  |  9,12, 1 | Act_Identity |          | 
120 |          | noName   |  0.00000 |  0.34428 | i  | 10,12, 1 | Act_Identity |          | 
121 |          | noName   |  0.00000 |  0.13163 | i  |  1,13, 1 | Act_Identity |          | 
122 |          | noName   |  0.00000 | -0.38243 | i  |  2,13, 1 | Act_Identity |          | 
123 |          | noName   |  1.00000 | -0.80700 | i  |  3,13, 1 | Act_Identity |          | 
124 |          | noName   |  1.00000 | -0.36485 | i  |  4,13, 1 | Act_Identity |          | 
125 |          | noName   |  1.00000 | -0.00241 | i  |  5,13, 1 | Act_Identity |          | 
126 |          | noName   |  1.00000 | -0.73937 | i  |  6,13, 1 | Act_Identity |          | 
127 |          | noName   |  0.00000 | -0.83038 | i  |  7,13, 1 | Act_Identity |          | 
128 |          | noName   |  0.00000 | -0.89880 | i  |  8,13, 1 | Act_Identity |          | 
129 |          | noName   |  0.00000 | -0.92792 | i  |  9,13, 1 | Act_Identity |          | 
130 |          | noName   |  0.00000 |  0.63878 | i  | 10,13, 1 | Act_Identity |          | 
131 |          | noName   |  0.00000 |  0.17167 | i  |  1,14, 1 | Act_Identity |          | 
132 |          | noName   |  0.00000 | -0.13816 | i  |  2,14, 1 | Act_Identity |          | 
133 |          | noName   |  1.00000 | -0.03739 | i  |  3,14, 1 | Act_Identity |          | 
134 |          | noName   |  1.00000 | -0.96796 | i  |  4,14, 1 | Act_Identity |          | 
135 |          | noName   |  1.00000 |  0.05094 | i  |  5,14, 1 | Act_Identity |          | 
136 |          | noName   |  0.00000 |  0.28459 | i  |  6,14, 1 | Act_Identity |          | 
137 |          | noName   |  0.00000 |  0.79803 | i  |  7,14, 1 | Act_Identity |          | 
138 |          | noName   |  0.00000 | -0.64037 | i  |  8,14, 1 | Act_Identity |          | 
139 |          | noName   |  0.00000 | -0.86663 | i  |  9,14, 1 | Act_Identity |          | 
140 |          | noName   |  0.00000 | -0.85754 | i  | 10,14, 1 | Act_Identity |          | 
141 |          | noName   |  0.00000 | -0.99384 | i  |  1,15, 1 | Act_Identity |          | 
142 |          | noName   |  0.00000 | -0.90350 | i  |  2,15, 1 | Act_Identity |          | 
143 |          | noName   |  1.00000 |  0.71752 | i  |  3,15, 1 | Act_Identity |          | 
144 |          | noName   |  1.00000 |  0.36924 | i  |  4,15, 1 | Act_Identity |          | 
145 |          | noName   |  1.00000 |  0.29875 | i  |  5,15, 1 | Act_Identity |          | 
146 |          | noName   |  0.00000 | -0.43010 | i  |  6,15, 1 | Act_Identity |          | 
147 |          | noName   |  0.00000 |  0.43577 | i  |  7,15, 1 | Act_Identity |          | 
148 |          | noName   |  0.00000 | -0.77544 | i  |  8,15, 1 | Act_Identity |          | 
149 |          | noName   |  0.00000 | -0.57512 | i  |  9,15, 1 | Act_Identity |          | 
150 |          | noName   |  0.00000 | -0.05313 | i  | 10,15, 1 | Act_Identity |          | 
151 |          | noName   |  0.00000 | -0.45787 | i  |  1,16, 1 | Act_Identity |          | 
152 |          | noName   |  0.00000 |  0.68200 | i  |  2,16, 1 | Act_Identity |          | 
153 |          | noName   |  1.00000 |  0.25816 | i  |  3,16, 1 | Act_Identity |          | 
154 |          | noName   |  1.00000 | -0.77447 | i  |  4,16, 1 | Act_Identity |          | 
155 |          | noName   |  1.00000 |  0.18766 | i  |  5,16, 1 | Act_Identity |          | 
156 |          | noName   |  0.00000 | -0.14805 | i  |  6,16, 1 | Act_Identity |          | 
157 |          | noName   |  0.00000 | -0.22361 | i  |  7,16, 1 | Act_Identity |          | 
158 |          | noName   |  0.00000 |  0.54314 | i  |  8,16, 1 | Act_Identity |          | 
159 |          | noName   |  0.00000 | -0.25327 | i  |  9,16, 1 | Act_Identity |          | 
160 |          | noName   |  0.00000 | -0.74725 | i  | 10,16, 1 | Act_Identity |          | 
161 |          | noName   |  0.99937 | -0.43012 | h  | 12, 1, 1 |||
162 |          | noName   |  0.99853 | -0.80401 | h  | 13, 1, 1 |||
163 |          | noName   |  0.98539 |  0.04345 | h  | 12, 2, 1 |||
164 |          | noName   |  0.05596 | -0.31151 | h  | 13, 2, 1 |||
165 |          | noName   |  0.88917 |  0.18263 | h  | 12, 3, 1 |||
166 |          | noName   |  0.91667 |  1.02231 | h  | 13, 3, 1 |||
167 |          | noName   |  0.03691 | -0.87425 | h  | 12, 4, 1 |||
168 |          | noName   |  0.42926 |  0.93325 | h  | 13, 4, 1 |||
169 |          | noName   |  0.97569 |  0.33162 | h  | 12, 5, 1 |||
170 |          | noName   |  0.00178 | -0.91699 | h  | 13, 5, 1 |||
171 |          | noName   |  0.00244 | -0.33125 | h  | 12, 6, 1 |||
172 |          | noName   |  0.38837 |  0.94684 | h  | 13, 6, 1 |||
173 |          | noName   |  0.00107 |  0.35690 | h  | 12, 7, 1 |||
174 |          | noName   |  0.98662 | -0.79323 | h  | 13, 7, 1 |||
175 |          | noName   |  0.00961 | -0.05491 | h  | 12, 8, 1 |||
176 |          | noName   |  0.00517 | -1.04369 | h  | 13, 8, 1 |||
177 |          | noName   |  0.16898 | -0.35054 | h  | 12, 9, 1 |||
178 |          | noName   |  0.35039 |  0.90086 | h  | 13, 9, 1 |||
179 |          | noName   |  0.97699 | -0.46576 | h  | 12,10, 1 |||
180 |          | noName   |  0.52606 | -0.12888 | h  | 13,10, 1 |||
181 |          | noName   |  0.00914 | -0.13826 | h  | 12,11, 1 |||
182 |          | noName   |  0.96447 |  0.55669 | h  | 13,11, 1 |||
183 |          | noName   |  0.95056 |  0.67983 | h  | 12,12, 1 |||
184 |          | noName   |  0.99832 |  0.55392 | h  | 13,12, 1 |||
185 |          | noName   |  0.99993 |  0.40757 | h  | 12,13, 1 |||
186 |          | noName   |  0.02421 |  0.66955 | h  | 13,13, 1 |||
187 |          | noName   |  0.89976 |  1.00368 | h  | 12,14, 1 |||
188 |          | noName   |  0.96344 |  0.81213 | h  | 13,14, 1 |||
189 |          | noName   |  0.92464 | -0.01739 | h  | 15, 1, 1 |||
190 |          | noName   |  0.03720 |  0.04586 | h  | 16, 1, 1 |||
191 |          | noName   |  0.65074 |  1.30332 | h  | 15, 2, 1 |||
192 |          | noName   |  0.71500 |  0.46761 | h  | 16, 2, 1 |||
193 |          | noName   |  0.36062 |  0.42596 | h  | 15, 3, 1 |||
194 |          | noName   |  0.75483 |  0.79247 | h  | 16, 3, 1 |||
195 |          | noName   |  0.16433 | -0.15868 | h  | 15, 4, 1 |||
196 |          | noName   |  0.91666 |  0.42137 | h  | 16, 4, 1 |||
197 |          | noName   |  0.79542 | -0.09475 | h  | 15, 5, 1 |||
198 |          | noName   |  0.82497 | -0.39360 | h  | 16, 5, 1 |||
199 |          | noName   |  0.20559 | -0.14467 | h  | 15, 6, 1 |||
200 |          | noName   |  0.36388 | -0.32871 | h  | 16, 6, 1 |||
201 |          | noName   |  0.10036 |  0.81312 | h  | 15, 7, 1 |||
202 |          | noName   |  0.98371 | -0.26362 | h  | 16, 7, 1 |||
203 |          | noName   |  0.01114 |  0.45864 | h  | 15, 8, 1 |||
204 |          | noName   |  0.92132 |  0.59043 | h  | 16, 8, 1 |||
205 |          | noName   |  0.63217 | -0.60659 | h  | 15, 9, 1 |||
206 |          | noName   |  0.03943 | -0.73507 | h  | 16, 9, 1 |||
207 |          | noName   |  0.06305 |  0.20793 | h  | 15,10, 1 |||
208 |          | noName   |  0.23550 |  0.46142 | h  | 16,10, 1 |||
209 |          | noName   |  0.00015 | -0.20365 | o  | 18, 1, 1 |||
210 |          | noName   |  0.97020 | -0.69528 | o  | 18, 2, 1 |||
211 |          | noName   |  0.00257 | -1.03473 | o  | 18, 3, 1 |||
212 |          | noName   |  0.00030 | -1.30504 | o  | 18, 4, 1 |||
213 |          | noName   |  0.00787 | -0.41565 | o  | 18, 5, 1 |||
214 |          | noName   |  0.01261 | -1.14025 | o  | 18, 6, 1 |||
215 |          | noName   |  0.01592 | -0.59922 | o  | 18, 7, 1 |||
216 |          | noName   |  0.02999 | -0.08583 | o  | 18, 8, 1 |||
217 |          | noName   |  0.02183 | -0.09679 | o  | 18, 9, 1 |||
218 |          | noName   |  0.00238 | -0.98502 | o  | 18,10, 1 |||
----|----------|----------|----------|----------|----|----------|--------------|----------|-------


connection definition section :

target | site | source:weight
-------|------|----------------------------------------------------------------------------------------------------------------
   161 |      | 160:-1.03435, 159: 0.13006, 158: 0.55449, 157: 0.52418, 156:-0.08579, 155:-0.18948, 154: 0.71211, 153: 0.51470,
                152:-0.53480, 151:-0.58236, 150:-0.29847, 149:-0.65747, 148:-0.09141, 147: 0.24030, 146:-0.45518, 145:-0.76785,
                144: 0.60262, 143: 0.27719, 142:-0.65486, 141:-0.18093, 140: 0.71961, 139:-0.37441, 138:-0.80733, 137:-0.20215,
                136:-0.25019, 135: 0.71698, 134: 0.19864, 133:-0.57353, 132:-1.18819, 131: 0.76650, 130: 0.14700, 129: 0.50671,
                128:-0.04131, 127: 0.18428, 126: 0.32347, 125: 0.34422, 124: 0.26721, 123:-0.05577, 122:-0.16701, 121:-0.12086,
                120:-0.11233, 119:-0.69405, 118: 0.95863, 117: 1.03480, 116: 1.01679, 115:-0.59955, 114: 0.27544, 113:-0.75932,
                112: 0.68152, 111:-0.97007, 110:-0.06398, 109: 0.04592, 108: 0.46087, 107: 0.63678, 106:-0.63705, 105:-0.54471,
                104:-0.90223, 103: 0.64643, 102: 1.03345, 101:-0.03964, 100:-0.43608,  99: 0.22398,  98: 0.42772,  97: 0.30882,
                 96:-0.11213,  95: 0.20598,  94: 0.97413,  93: 0.68689,  92:-0.29593,  91: 0.96703,  90: 0.86815,  89: 0.51877,
                 88: 0.65291,  87:-0.19731,  86: 0.80812,  85:-0.40461,  84: 0.31722,  83: 0.33004,  82: 0.92999,  81:-0.41584,
                 80: 0.13156,  79: 0.95208,  78: 0.57204,  77:-0.78592,  76:-0.00629,  75: 0.89533,  74: 0.08273,  73: 1.09674,
                 72:-0.41123,  71: 0.64686,  70:-0.50751,  69:-0.84285,  68:-0.79072,  67:-0.92913,  66: 0.81617,  65: 0.54153,
                 64: 0.29945,  63: 1.02969,  62:-0.44886,  61: 0.23354,  60: 0.85200,  59: 0.46587,  58: 0.17429,  57: 0.33671,
                 56:-0.03274,  55: 0.84770,  54: 0.12457,  53: 0.50580,  52:-0.80645,  51: 1.09075,  50: 0.26343,  49: 0.08647,
                 48: 0.72338,  47: 1.14361,  46:-0.19941,  45:-0.61773,  44:-0.89790,  43: 0.01531,  42:-0.40452,  41: 0.52205,
                 40: 0.15206,  39:-0.97509,  38:-0.49152,  37: 1.08268,  36: 0.72150,  35:-1.03194,  34: 0.73814,  33: 0.16213,
                 32: 0.40635,  31: 0.02981,  30:-0.97279,  29:-0.90315,  28: 0.58381,  27: 0.14770,  26: 0.06137,  25: 0.73601,
                 24:-0.33505,  23:-0.38346,  22: 0.58277,  21: 0.38640,  20:-0.14642,  19:-0.61525,  18:-0.57060,  17: 0.27612,
                 16: 0.60695,  15: 0.50022,  14: 0.01702,  13: 0.23557,  12:-0.19734,  11:-0.36842,  10: 0.49481,   9:-0.70938,
                  8: 0.33796,   7:-0.74178,   6: 0.94408,   5:-0.00871,   4: 0.33039,   3:-0.05465,   2:-0.59379,   1:-0.08277
   162 |      | 160: 0.02720, 159:-0.05114, 158:-1.23811, 157:-1.12043, 156:-1.11087, 155:-0.89039, 154: 0.04647, 153: 0.41465,
                152:-1.22877, 151: 0.28520, 150:-0.92931, 149: 0.08075, 148: 0.12640, 147:-0.33790, 146:-0.68237, 145: 0.45380,
                144: 0.58594, 143:-0.93791, 142: 0.16274, 141:-0.40193, 140:-0.51963, 139:-0.38834, 138:-0.58296, 137: 1.03237,
                136: 0.50792, 135:-0.50844, 134:-0.54499, 133:-1.19490, 132: 0.63623, 131:-0.71712, 130:-0.48395, 129:-0.98878,
                128:-0.41562, 127: 0.24709, 126: 0.16433, 125: 0.26239, 124: 0.37340, 123: 0.70106, 122:-0.76120, 121: 0.43609,
                120:-0.72746, 119:-1.03282, 118:-0.47129, 117: 0.42323, 116:-0.16529, 115:-0.26500, 114: 0.65352, 113:-0.60443,
                112:-0.13353, 111: 0.28384, 110:-0.19085, 109:-0.86684, 108:-0.13200, 107: 0.60948, 106:-0.58077, 105: 0.95573,
                104:-0.48637, 103:-0.04361, 102:-0.60316, 101:-1.08855, 100:-0.75829,  99: 0.05032,  98: 0.98756,  97: 0.17572,
                 96:-0.21308,  95:-0.12752,  94: 0.65562,  93: 0.35963,  92: 0.37410,  91: 0.66976,  90:-0.15857,  89: 0.93024,
                 88:-0.54587,  87: 0.23260,  86:-0.42255,  85: 0.84176,  84:-0.27432,  83:-0.06568,  82: 0.59347,  81:-0.74974,
                 80:-0.22741,  79:-0.68209,  78: 0.87166,  77: 1.14891,  76:-0.43912,  75: 1.54704,  74:-0.36901,  73:-1.00090,
                 72:-0.25077,  71:-0.54446,  70: 0.52400,  69:-0.04498,  68: 0.07694,  67: 0.54485,  66: 0.55343,  65: 0.51018,
                 64:-0.39675,  63:-0.53358,  62:-0.36332,  61: 0.49110,  60:-0.90390,  59: 0.43844,  58: 0.43171,  57: 0.70248,
                 56: 0.38260,  55: 0.56545,  54:-0.10163,  53:-0.98010,  52:-0.77105,  51:-0.30260,  50: 0.18122,  49: 0.05188,
                 48:-0.33012,  47: 0.19255,  46: 0.84459,  45:-0.44522,  44:-0.04232,  43:-0.48513,  42:-0.85415,  41:-0.16919,
                 40: 0.10376,  39: 0.22128,  38:-0.40345,  37: 0.12103,  36: 0.63033,  35: 0.23960,  34:-0.93012,  33: 0.05800,
                 32:-0.97675,  31:-0.56190,  30: 0.41678,  29: 0.53583,  28:-0.37316,  27:-0.43063,  26: 0.43536,  25: 0.12878,
                 24:-0.19400,  23: 0.71821,  22:-0.27817,  21:-0.95033,  20: 0.68190,  19:-0.10818,  18: 0.66209,  17:-0.07988,
                 16:-0.60029,  15:-0.31316,  14:-0.17508,  13: 0.03761,  12: 0.26364,  11: 0.87446,  10: 0.72004,   9: 0.72179,
                  8:-0.05503,   7: 0.76029,   6:-0.46687,   5: 0.65699,   4:-0.51108,   3: 0.49385,   2: 1.07150,   1: 0.64982
   163 |      | 160: 0.25307, 159:-0.98717, 158: 0.33425, 157:-1.04467, 156: 0.62683, 155: 0.82981, 154: 0.94240, 153: 0.86769,
                152:-0.39719, 151:-0.28207, 150:-0.47822, 149:-0.29954, 148: 0.73275, 147: 0.45694, 146:-0.14423, 145: 0.19818,
                144:-0.49088, 143: 0.10017, 142:-0.84453, 141: 0.23560, 140:-0.07491, 139:-0.64146, 138:-0.69403, 137: 0.13486,
                136:-0.72086, 135: 0.77768, 134:-0.12599, 133: 0.09725, 132: 0.51398, 131: 0.15687, 130:-0.19355, 129:-1.00308,
                128:-1.15994, 127: 0.37528, 126:-0.50721, 125: 0.17034, 124:-0.99882, 123: 0.31291, 122:-0.13637, 121: 0.42570,
                120:-0.22951, 119:-0.97919, 118: 0.01303, 117:-0.20996, 116:-0.68323, 115:-0.39991, 114: 0.31980, 113:-0.02393,
                112: 0.09231, 111: 0.44113, 110:-0.48761, 109:-0.63014, 108: 0.67583, 107: 0.71700, 106: 0.70276, 105: 0.58942,
                104:-0.28877, 103: 0.85025, 102: 0.60178, 101:-0.59649, 100: 0.23081,  99:-0.33394,  98:-0.13620,  97:-0.25471,
                 96: 0.07304,  95:-0.44587,  94: 0.85034,  93:-0.27375,  92:-0.40711,  91:-0.25880,  90: 0.91251,  89: 0.73617,
                 88: 0.36399,  87: 0.70658,  86:-0.09066,  85: 0.51743,  84:-0.50551,  83:-0.32292,  82: 0.78788,  81: 0.08343,
                 80: 0.81757,  79: 0.90244,  78:-0.74069,  77: 0.10220,  76: 0.94928,  75:-0.75998,  74: 0.57454,  73: 0.28126,
                 72: 0.79946,  71:-0.53165,  70: 1.41813,  69: 0.20032,  68:-0.71031,  67: 0.64011,  66:-0.58639,  65: 0.14213,
                 64: 0.74697,  63: 0.04154,  62: 0.01849,  61: 0.12698,  60: 0.64268,  59: 0.39839,  58: 0.09970,  57: 0.10883,
                 56:-0.10602,  55: 0.13234,  54:-0.21527,  53:-0.35307,  52:-0.19605,  51:-0.00783,  50: 1.34346,  49: 0.96216,
                 48:-0.16652,  47: 0.46335,  46:-0.51915,  45:-0.50513,  44: 0.00027,  43: 0.85880,  42: 0.10467,  41:-0.77007,
                 40: 0.95089,  39:-0.11740,  38:-0.09264,  37:-0.38908,  36: 0.14556,  35: 0.09001,  34:-0.28677,  33: 0.50248,
                 32: 0.81934,  31: 1.11766,  30:-0.50699,  29:-0.19831,  28: 0.33084,  27: 0.00383,  26: 0.41824,  25:-0.44563,
                 24:-0.97201,  23:-0.66856,  22:-0.05012,  21:-0.85686,  20: 0.02757,  19:-1.00317,  18:-0.88275,  17:-0.18850,
                 16: 0.46633,  15:-1.13022,  14:-0.59672,  13: 0.22567,  12: 0.26774,  11:-0.66863,  10:-0.87818,   9:-0.88053,
                  8:-0.45485,   7: 0.28685,   6: 0.38013,   5: 0.64566,   4: 0.25968,   3:-0.39617,   2:-0.30770,   1: 0.78335
   164 |      | 160:-0.55061, 159: 0.59749, 158: 0.38365, 157: 0.63782, 156: 0.33306, 155: 0.70649, 154:-0.41148, 153:-0.39100,
                152:-0.73245, 151: 0.07525, 150:-0.50519, 149:-0.96844, 148:-0.53167, 147:-0.19640, 146: 0.53102, 145:-0.01009,
                144: 1.34882, 143:-0.13419, 142:-0.60094, 141:-0.17409, 140:-0.13281, 139:-0.77680, 138:-0.05877, 137: 0.68735,
                136: 0.56192, 135: 0.95480, 134: 0.19478, 133:-0.43962, 132: 0.00363, 131:-0.47665, 130: 0.30411, 129: 0.51691,
                128: 0.93404, 127:-0.46922, 126: 0.87042, 125:-0.71396, 124: 0.46890, 123: 0.12995, 122: 0.06269, 121:-0.32275,
                120:-0.52616, 119: 0.37622, 118: 0.16989, 117: 0.46645, 116:-0.72954, 115: 0.24021, 114: 0.05946, 113:-0.89648,
                112: 0.45906, 111: 0.68205, 110: 0.06572, 109: 0.72939, 108:-0.12937, 107:-0.56087, 106: 0.43767, 105: 0.10183,
                104:-0.49533, 103: 0.74393, 102: 0.65983, 101: 0.55477, 100: 0.06933,  99:-0.43435,  98: 0.39334,  97:-0.55782,
                 96:-1.20150,  95:-0.45129,  94:-0.30601,  93:-0.55019,  92:-0.40576,  91:-0.08062,  90: 0.06683,  89:-0.87024,
                 88:-1.13653,  87: 0.14857,  86: 0.26383,  85: 0.26495,  84:-0.48266,  83: 0.51469,  82:-0.56186,  81:-0.60605,
                 80: 1.27560,  79:-0.05105,  78:-0.59589,  77:-0.29388,  76:-0.87163,  75:-0.12911,  74:-0.23385,  73: 0.83909,
                 72: 1.19317,  71: 0.51690,  70:-0.30562,  69:-0.49197,  68:-0.45110,  67:-0.10470,  66:-0.04531,  65: 0.19542,
                 64: 1.03708,  63: 0.52870,  62:-0.02818,  61:-0.35152,  60:-0.35649,  59:-0.64041,  58:-0.94588,  57:-1.05319,
                 56:-0.04790,  55: 0.48818,  54: 0.39722,  53:-0.63389,  52: 0.00598,  51: 0.21787,  50:-1.30662,  49:-1.60542,
                 48:-0.78206,  47:-0.41937,  46:-0.51190,  45: 0.16073,  44: 0.91753,  43: 0.43035,  42:-0.17917,  41:-0.90452,
                 40:-0.99124,  39:-1.19183,  38:-0.31538,  37: 0.52658,  36:-0.78670,  35: 0.73012,  34:-0.36062,  33: 0.41080,
                 32: 0.59022,  31:-0.72893,  30: 0.83390,  29:-0.12548,  28: 0.42781,  27:-0.35877,  26:-0.95754,  25: 0.77882,
                 24:-0.76907,  23:-0.59534,  22:-0.98974,  21: 0.32242,  20:-0.30915,  19: 0.73532,  18: 1.33765,  17: 0.64864,
                 16: 0.15356,  15:-0.46560,  14: 0.13403,  13: 0.61151,  12: 0.13611,  11: 0.14445,  10: 0.74281,   9: 0.61826,
                  8:-0.30214,   7: 0.72690,   6:-0.17378,   5: 0.17717,   4:-0.50525,   3:-0.24078,   2: 0.72070,   1:-0.79376
   165 |      | 160: 0.99977, 159:-0.86412, 158: 0.40906, 157:-1.06757, 156: 0.29438, 155:-0.84850, 154:-1.29581, 153: 0.01197,
                152:-1.18063, 151:-0.16975, 150: 0.05868, 149: 0.39811, 148:-0.98781, 147:-0.26217, 146: 0.65594, 145: 0.09737,
                144: 0.22851, 143:-1.15304, 142:-0.37201, 141: 0.00028, 140:-0.88568, 139:-1.01919, 138: 0.83833, 137: 0.74659,
                136:-0.55769, 135: 0.22167, 134:-0.05803, 133:-0.26427, 132:-0.04991, 131:-1.22352, 130:-0.53887, 129:-0.20207,
                128: 0.28832, 127:-0.90658, 126: 0.52401, 125:-0.45721, 124: 0.98774, 123: 0.29499, 122:-0.70448, 121:-1.01932,
                120:-1.08741, 119: 0.81467, 118: 0.81941, 117:-0.13587, 116:-0.62898, 115:-0.46840, 114: 1.13888, 113:-0.30727,
                112: 0.40992, 111:-1.01963, 110: 0.81847, 109:-0.32068, 108:-0.03656, 107: 0.81754, 106: 0.26991, 105: 0.08764,
                104: 0.66993, 103: 0.61295, 102:-0.87077, 101: 0.18413, 100:-0.22844,  99: 0.59989,  98: 0.19918,  97: 1.02990,
                 96:-0.23183,  95: 1.16577,  94:-0.19944,  93:-0.17270,  92: 0.78988,  91:-0.50462,  90: 0.75247,  89:-0.65634,
                 88:-0.01062,  87: 0.82496,  86:-0.32570,  85: 1.23873,  84: 0.29835,  83: 0.86011,  82: 1.00307,  81:-0.45312,
                 80: 0.52462,  79: 1.05602,  78: 0.69791,  77: 0.41630,  76: 0.08950,  75: 0.43281,  74: 0.41008,  73: 0.81830,
                 72: 1.42516,  71:-0.17952,  70: 0.20464,  69: 0.60142,  68: 0.59243,  67:-0.03150,  66:-0.02666,  65:-0.16307,
                 64:-0.36751,  63:-0.47025,  62: 0.10865,  61:-0.31259,  60: 0.16675,  59:-0.57682,  58: 0.07672,  57: 0.34872,
                 56: 0.04968,  55:-0.14092,  54:-0.04023,  53: 0.38478,  52:-0.92085,  51: 1.02583,  50:-0.92451,  49:-0.16658,
                 48:-0.69104,  47: 0.49830,  46:-1.15056,  45:-0.89019,  44: 0.53017,  43:-0.60872,  42: 0.84878,  41:-0.63679,
                 40:-0.18647,  39: 0.90595,  38:-0.51757,  37:-0.13864,  36: 0.61083,  35:-0.60922,  34: 0.41990,  33: 0.08893,
                 32:-0.31010,  31:-0.69195,  30: 0.04068,  29:-0.52642,  28: 0.09864,  27: 0.55346,  26: 0.64388,  25: 0.12091,
                 24:-0.82903,  23: 0.14077,  22:-1.17157,  21: 0.61536,  20: 0.67680,  19: 0.12051,  18: 0.42137,  17:-0.94044,
                 16:-0.72501,  15:-0.39183,  14:-0.54751,  13:-0.65176,  12:-0.74650,  11: 0.58614,  10:-0.47891,   9:-0.15986,
                  8:-0.01574,   7: 0.36970,   6:-0.79193,   5:-0.09286,   4: 0.26731,   3: 0.32606,   2: 0.86990,   1: 1.09816
   166 |      | 160:-0.42265, 159:-0.58400, 158:-0.75369, 157:-0.50842, 156: 1.16012, 155:-0.26239, 154: 0.04435, 153: 0.55548,
                152:-0.46949, 151: 0.32928, 150: 1.08246, 149: 0.64264, 148: 1.31212, 147: 0.71247, 146: 0.15400, 145: 0.31022,
                144: 1.04251, 143: 0.27262, 142:-0.34867, 141: 0.01199, 140: 0.29761, 139: 0.68209, 138: 0.94526, 137: 0.56136,
                136: 0.34156, 135:-0.70744, 134: 0.35663, 133:-0.31851, 132:-0.11498, 131: 0.39482, 130: 0.68260, 129: 1.56644,
                128: 0.92681, 127:-0.29581, 126:-0.12070, 125:-0.56115, 124:-0.18231, 123: 0.70571, 122: 0.66813, 121:-0.08178,
                120: 1.02181, 119: 0.99132, 118:-0.89883, 117: 0.07259, 116: 0.28090, 115:-0.05796, 114: 1.01913, 113: 0.09579,
                112:-0.02278, 111:-0.20305, 110:-0.07135, 109:-0.50959, 108:-1.08640, 107: 0.24586, 106:-0.50874, 105:-1.09617,
                104:-0.36815, 103: 0.51705, 102: 0.77082, 101:-0.11651, 100:-0.56928,  99: 0.15430,  98: 0.53724,  97: 0.50520,
                 96: 0.38193,  95:-0.05018,  94: 0.12006,  93:-0.17999,  92: 0.45887,  91:-0.63327,  90:-0.98577,  89:-1.18469,
                 88:-0.65733,  87:-0.16286,  86:-0.10644,  85: 0.37482,  84: 0.43461,  83:-0.86630,  82:-1.17450,  81:-0.53696,
                 80:-1.07211,  79:-0.37541,  78: 0.02875,  77:-0.37903,  76: 0.77628,  75: 0.83508,  74:-0.51607,  73:-0.70663,
                 72: 0.66026,  71:-0.44382,  70:-0.26926,  69:-0.15537,  68: 0.45773,  67: 0.94155,  66: 0.15298,  65: 0.68122,
                 64: 0.80523,  63:-0.73731,  62:-0.07185,  61: 0.69330,  60:-1.75712,  59:-0.23490,  58:-0.34386,  57: 0.09975,
                 56: 0.52707,  55:-0.11874,  54: 0.33927,  53:-0.17625,  52: 0.74703,  51: 0.08796,  50:-0.88825,  49:-0.87237,
                 48:-0.88516,  47:-0.72053,  46: 0.12736,  45: 0.38173,  44: 0.42816,  43:-0.77721,  42:-0.77963,  41:-0.63888,
                 40: 0.02757,  39:-0.91183,  38: 0.13928,  37:-0.35755,  36:-0.05823,  35:-0.52107,  34: 1.06215,  33: 0.53160,
                 32:-0.51569,  31:-0.42772,  30:-1.19608,  29:-0.00743,  28: 0.41338,  27: 0.48579,  26:-0.49453,  25: 0.65630,
                 24:-1.04191,  23:-0.42224,  22: 0.66000,  21:-0.49453,  20: 0.50747,  19: 0.53014,  18:-0.46183,  17: 0.18733,
                 16: 0.16175,  15:-0.25826,  14:-0.80100,  13:-0.74719,  12:-0.01241,  11:-0.79340,  10:-0.26525,   9:-0.50313,
                  8:-0.37641,   7:-0.91864,   6: 0.97130,   5:-0.69885,   4: 0.76508,   3:-0.37702,   2: 0.69754,   1:-0.56214
   167 |      | 160: 0.39432, 159: 0.68350, 158: 0.85889, 157:-0.81823, 156: 0.36930, 155:-0.70883, 154: 0.29576, 153: 0.63282,
                152: 0.94584, 151: 0.87175, 150: 0.18548, 149:-0.59831, 148: 0.23912, 147:-0.61809, 146:-0.72942, 145: 0.24732,
                144: 0.10591, 143: 0.52861, 142:-0.23123, 141: 0.76210, 140: 1.08303, 139: 0.12632, 138:-0.53112, 137: 0.26425,
                136: 0.35272, 135: 0.45892, 134: 0.06726, 133: 0.40696, 132: 0.18230, 131:-0.44801, 130: 0.42090, 129: 0.37130,
                128: 0.56790, 127: 0.40217, 126:-0.10984, 125:-0.88405, 124:-0.99415, 123: 0.00418, 122:-0.23865, 121: 0.51902,
                120:-0.57724, 119:-0.19599, 118:-0.31592, 117: 0.58781, 116:-0.82775, 115:-0.79474, 114:-0.96137, 113:-0.50842,
                112:-0.31730, 111: 0.51232, 110: 0.79777, 109:-0.46095, 108:-0.11612, 107:-0.32231, 106: 0.47305, 105:-0.46864,
                104:-0.17559, 103:-0.03851, 102: 0.79500, 101:-0.84619, 100:-0.45576,  99: 0.69072,  98:-0.11310,  97:-0.44209,
                 96: 0.94292,  95: 0.04927,  94:-0.30870,  93:-0.30487,  92: 0.52778,  91: 0.87421,  90: 0.66485,  89: 0.77618,
                 88: 1.10166,  87: 0.88604,  86: 0.59142,  85: 0.04835,  84:-0.00205,  83: 0.20790,  82: 0.81351,  81:-0.22635,
                 80:-0.83926,  79: 0.04576,  78: 0.85905,  77: 0.05081,  76: 0.60263,  75: 0.60761,  74:-0.40682,  73:-0.53790,
                 72: 0.69555,  71: 0.96667,  70: 0.29893,  69: 0.44942,  68:-0.44454,  67:-0.05942,  66:-0.63308,  65:-0.66276,
                 64: 0.67203,  63: 0.78923,  62: 0.97478,  61: 0.69302,  60: 0.76675,  59:-0.85296,  58: 0.74675,  57: 0.72375,
                 56:-0.74397,  55:-0.91137,  54:-0.97249,  53: 0.74047,  52: 0.26373,  51:-0.86626,  50:-0.71590,  49: 0.31180,
                 48:-0.23894,  47: 0.55804,  46: 0.48103,  45: 0.95092,  44: 0.08591,  43: 0.18705,  42:-0.84626,  41: 0.90479,
                 40: 1.00494,  39:-0.46084,  38:-0.05598,  37:-0.72890,  36:-0.29766,  35:-0.82221,  34:-0.67773,  33: 0.16339,
                 32:-0.86862,  31:-0.14212,  30: 0.35116,  29: 0.34514,  28:-0.58182,  27:-0.23907,  26:-0.40210,  25: 0.00055,
                 24: 0.80630,  23:-0.28764,  22: 0.48718,  21: 0.68831,  20: 0.89768,  19: 1.17377,  18: 0.15975,  17:-0.37269,
                 16: 0.83305,  15:-0.57092,  14:-0.07062,  13: 0.70083,  12:-0.81122,  11: 0.28862,  10: 1.14772,   9: 0.80788,
                  8:-0.21139,   7:-0.51678,   6: 0.73451,   5:-0.12749,   4: 0.51951,   3:-0.28531,   2: 0.44296,   1: 0.30422
   168 |      | 160: 0.12772, 159:-0.87698, 158:-0.23056, 157:-0.34435, 156:-0.85489, 155:-0.58554, 154:-0.33739, 153: 0.31516,
                152: 0.41075, 151:-0.67075, 150: 1.02689, 149: 0.82925, 148: 0.53508, 147: 0.14183, 146:-0.77626, 145:-0.86516,
                144: 0.37934, 143:-0.26586, 142:-0.70244, 141: 0.23411, 140: 0.87131, 139: 0.61597, 138: 0.28347, 137: 0.51040,
                136: 0.67275, 135: 0.76801, 134:-0.36526, 133: 0.59364, 132:-0.16546, 131:-0.81426, 130: 0.60044, 129:-0.65787,
                128:-0.01923, 127: 0.19435, 126:-0.85172, 125: 0.87512, 124: 0.15206, 123: 0.79105, 122: 0.35968, 121:-0.88500,
                120: 0.50384, 119: 0.50772, 118: 0.50292, 117:-0.05544, 116: 0.69857, 115: 0.12875, 114: 0.37608, 113: 0.56238,
                112:-0.34846, 111: 0.04140, 110: 0.41181, 109: 0.09835, 108: 0.39721, 107: 0.19992, 106:-0.08444, 105:-0.06491,
                104:-0.24072, 103: 0.23236, 102: 0.22582, 101:-0.81571, 100:-0.91414,  99: 0.05201,  98: 1.03428,  97: 0.78513,
                 96:-0.98372,  95:-0.37621,  94: 0.17257,  93: 0.64861,  92:-0.70721,  91:-0.12351,  90:-0.01481,  89: 0.83079,
                 88: 0.42696,  87: 0.92009,  86:-0.55727,  85:-1.02014,  84:-0.68467,  83: 0.17291,  82:-0.49100,  81:-0.10522,
                 80: 0.74622,  79: 0.71649,  78:-0.24394,  77: 0.28999,  76:-0.09456,  75: 0.45843,  74: 0.61099,  73:-0.75734,
                 72: 0.52701,  71: 0.23549,  70: 0.96686,  69: 1.12748,  68: 0.34046,  67: 1.01034,  66:-0.33726,  65:-0.81654,
                 64: 0.86048,  63:-0.25353,  62: 0.30513,  61: 0.08203,  60: 0.66737,  59: 0.00881,  58:-0.45713,  57: 1.01296,
                 56:-0.39941,  55:-0.77846,  54:-0.84697,  53: 0.02105,  52: 0.30985,  51:-0.73861,  50: 0.80950,  49: 1.21283,
                 48: 0.23744,  47:-0.47567,  46: 0.00774,  45:-0.86327,  44:-0.14177,  43:-0.72723,  42:-0.86086,  41:-0.27615,
                 40: 0.43610,  39: 0.17548,  38:-0.22952,  37: 0.62286,  36:-0.18905,  35:-0.90768,  34:-0.27756,  33: 0.74114,
                 32:-0.11844,  31: 0.01929,  30:-0.22672,  29: 0.85992,  28:-0.19937,  27:-0.39609,  26:-0.28728,  25: 0.56867,
                 24: 0.09704,  23: 1.17084,  22: 0.22206,  21: 0.92503,  20: 0.05428,  19: 0.76247,  18:-0.44980,  17: 0.66570,
                 16:-0.02458,  15: 0.52181,  14:-0.05234,  13: 0.08383,  12:-0.88392,  11:-0.05748,  10:-0.22839,   9: 0.13448,
                  8: 0.54519,   7:-0.50613,   6: 0.73571,   5:-0.08593,   4:-0.04520,   3:-0.14418,   2: 0.91303,   1: 0.76879
   169 |      | 160: 0.52457, 159:-0.62581, 158: 0.16125, 157: 0.79235, 156: 0.05519, 155:-0.78520, 154:-0.74181, 153:-0.43938,
                152:-0.54027, 151: 0.43044, 150:-0.02348, 149:-0.02267, 148: 0.03270, 147:-0.04691, 146:-0.97685, 145: 0.06236,
                144: 0.70611, 143:-0.77379, 142:-0.16097, 141:-1.06227, 140:-0.31330, 139:-0.18716, 138: 0.04502, 137:-1.14526,
                136:-0.34891, 135:-0.70692, 134:-0.73723, 133: 0.43487, 132: 0.32836, 131:-0.55844, 130: 0.87510, 129:-1.05791,
                128: 0.14875, 127:-0.60595, 126: 0.68419, 125: 0.30289, 124:-0.13087, 123: 0.55541, 122:-0.57194, 121:-0.45894,
                120: 0.51233, 119:-1.06060, 118: 0.14666, 117: 0.53577, 116: 1.08046, 115: 1.07144, 114: 0.24449, 113: 0.47235,
                112:-0.59729, 111:-0.80495, 110: 0.10684, 109: 0.46188, 108:-0.50454, 107: 0.81131, 106:-0.66814, 105: 0.30639,
                104:-0.27842, 103: 0.04039, 102: 0.06959, 101: 0.35359, 100: 0.91371,  99: 1.06527,  98: 0.61244,  97: 0.74250,
                 96:-0.46600,  95: 0.56549,  94: 0.44747,  93:-0.51899,  92: 0.61017,  91:-0.66781,  90: 0.26313,  89: 0.84733,
                 88: 0.84945,  87:-0.55951,  86: 0.40624,  85: 0.08489,  84: 0.92936,  83:-0.47256,  82:-0.15587,  81: 0.51901,
                 80: 0.44799,  79: 0.47271,  78:-0.17059,  77: 0.82692,  76: 0.14196,  75: 1.33002,  74: 0.65364,  73:-0.07144,
                 72: 0.43281,  71:-0.31305,  70:-0.91351,  69: 0.63557,  68:-0.61292,  67:-0.20155,  66:-0.10537,  65: 0.94664,
                 64:-0.53896,  63:-0.24125,  62:-0.25695,  61:-0.90069,  60:-0.53739,  59:-0.66302,  58:-0.29947,  57: 0.73163,
                 56: 0.66813,  55: 0.02584,  54: 0.24629,  53:-0.64705,  52:-0.86654,  51:-0.69908,  50:-0.46240,  49:-0.10561,
                 48: 0.87312,  47: 0.28950,  46:-0.24356,  45:-0.56997,  44: 0.67785,  43:-0.99743,  42:-0.84166,  41:-0.08518,
                 40:-0.02178,  39: 0.70452,  38:-0.28897,  37:-0.52817,  36:-0.44826,  35:-0.97110,  34:-0.21697,  33:-0.10333,
                 32:-0.34496,  31:-0.17255,  30:-0.32310,  29: 0.22905,  28:-0.53373,  27:-0.69164,  26: 0.14071,  25: 0.26260,
                 24: 0.53942,  23: 0.04112,  22: 0.61704,  21:-0.27529,  20: 0.15384,  19:-1.56066,  18:-0.06309,  17: 0.33709,
                 16: 0.49965,  15:-0.37313,  14: 0.32193,  13: 0.83976,  12: 0.41219,  11:-0.08979,  10:-0.14358,   9:-1.13995,
                  8:-0.67519,   7:-0.03692,   6: 0.30275,   5:-0.43391,   4: 0.21762,   3:-0.74414,   2: 0.68260,   1:-0.27662
   170 |      | 160: 0.22245, 159:-0.13376, 158:-0.00188, 157: 0.20124, 156: 0.34916, 155:-0.26747, 154: 0.89635, 153: 0.24975,
                152:-0.14757, 151: 0.31921, 150:-0.53178, 149: 0.05994, 148:-0.49882, 147: 0.52425, 146:-0.81709, 145:-0.40470,
                144:-0.23878, 143:-0.10271, 142:-0.75064, 141: 0.66453, 140: 0.25203, 139:-0.35207, 138: 0.59298, 137: 0.33830,
                136: 0.66053, 135: 0.88297, 134: 0.05332, 133:-0.36834, 132: 0.11186, 131: 0.82862, 130: 0.59178, 129:-0.18961,
                128: 1.10394, 127: 0.79332, 126: 0.22470, 125:-0.26110, 124: 0.81471, 123:-0.23901, 122:-0.80648, 121: 0.55199,
                120:-0.80693, 119: 0.34425, 118: 0.29034, 117:-0.36610, 116:-0.85879, 115:-0.37987, 114:-1.04331, 113:-0.75109,
                112: 1.17632, 111: 0.41542, 110: 0.40142, 109: 0.08265, 108: 0.18693, 107:-0.97149, 106:-1.14693, 105: 0.06301,
                104:-1.11743, 103: 0.78354, 102: 1.04097, 101:-0.71990, 100: 0.68756,  99:-0.66784,  98:-0.33369,  97:-1.21855,
                 96: 0.37442,  95:-0.61242,  94:-0.29136,  93:-0.10813,  92:-0.51447,  91: 0.71612,  90:-0.48970,  89: 0.35525,
                 88:-0.50628,  87:-0.98856,  86:-0.06283,  85:-0.78885,  84:-0.36511,  83:-0.40321,  82: 0.54403,  81:-0.10588,
                 80:-0.53440,  79:-0.90181,  78: 0.00460,  77:-1.29409,  76: 0.03335,  75:-0.82041,  74:-0.53815,  73: 1.11261,
                 72:-0.18904,  71:-0.43702,  70: 0.15939,  69:-0.90243,  68:-0.26439,  67:-0.07945,  66:-0.72062,  65:-0.57336,
                 64:-0.08355,  63:-0.10683,  62: 1.22006,  61: 0.82047,  60:-0.06651,  59:-1.22092,  58:-0.68202,  57:-0.17241,
                 56:-0.90000,  55: 0.52319,  54: 0.73607,  53: 0.74829,  52: 0.93251,  51: 0.34295,  50:-0.60656,  49:-1.52742,
                 48: 0.49715,  47: 0.31180,  46: 0.57684,  45:-0.68589,  44: 0.26038,  43:-0.37964,  42:-0.60704,  41:-0.75599,
                 40:-1.23963,  39: 0.28761,  38:-0.64078,  37: 0.44609,  36: 0.48881,  35: 0.73673,  34:-0.16377,  33: 0.94394,
                 32:-0.59129,  31:-0.53092,  30:-0.01869,  29: 0.60539,  28: 1.35111,  27: 0.86227,  26:-0.06875,  25:-0.08280,
                 24: 0.28584,  23:-0.74254,  22: 0.37795,  21:-0.21617,  20: 1.06045,  19: 1.37497,  18:-0.20312,  17: 0.06401,
                 16: 0.94887,  15:-0.27619,  14:-0.61591,  13: 0.25699,  12:-0.13810,  11:-0.12462,  10: 0.72225,   9:-0.30722,
                  8: 0.23727,   7: 0.01300,   6: 0.24124,   5: 0.53208,   4: 0.43019,   3:-0.69958,   2:-0.03172,   1: 0.72342
   171 |      | 160:-0.65306, 159: 0.32923, 158: 0.12336, 157: 0.66118, 156:-0.56614, 155: 0.78408, 154: 0.58440, 153: 0.63055,
                152: 0.39468, 151:-0.32215, 150:-0.45123, 149:-0.79488, 148:-0.08934, 147:-0.42582, 146:-0.28739, 145: 0.83099,
                144:-0.75690, 143:-0.85030, 142: 0.75754, 141: 0.31809, 140:-0.12898, 139:-0.19139, 138:-0.88044, 137:-0.69850,
                136:-0.42314, 135: 0.87718, 134:-0.75312, 133: 0.92659, 132:-0.45709, 131: 0.05353, 130:-1.10549, 129: 0.51491,
                128:-0.59668, 127: 0.72813, 126: 0.05773, 125: 1.12276, 124: 0.30027, 123:-0.32790, 122: 0.44628, 121: 0.73279,
                120:-0.03194, 119: 0.63041, 118: 0.11133, 117: 0.82081, 116: 0.65572, 115:-0.99554, 114: 0.02871, 113: 0.95869,
                112: 1.36139, 111: 0.38478, 110: 0.52059, 109:-0.35011, 108: 0.10098, 107:-0.55220, 106:-0.53038, 105:-0.64213,
                104:-0.31360, 103: 0.11154, 102: 1.31910, 101: 0.40438, 100: 0.67022,  99:-0.32111,  98:-0.75677,  97:-0.25902,
                 96:-0.08289,  95:-1.01291,  94:-0.88596,  93: 0.26556,  92: 0.96239,  91: 0.91962,  90:-0.04766,  89: 0.31290,
                 88: 0.20545,  87:-0.01229,  86:-0.00039,  85:-0.61481,  84: 0.48724,  83:-0.67101,  82: 0.34504,  81: 0.25587,
                 80:-0.37644,  79: 0.32055,  78:-0.69960,  77: 0.04948,  76:-0.28255,  75:-0.37600,  74:-0.24589,  73: 0.34296,
                 72: 0.83457,  71:-0.67876,  70:-0.21844,  69:-0.39248,  68:-0.30250,  67:-1.01986,  66: 0.66173,  65: 0.42679,
                 64:-0.46219,  63: 0.69652,  62: 0.88479,  61: 0.00777,  60:-0.30233,  59: 0.51690,  58:-0.69163,  57:-0.13791,
                 56:-0.46028,  55:-0.01191,  54:-0.64978,  53:-0.90268,  52:-0.65857,  51: 0.21830,  50: 0.61946,  49:-0.47860,
                 48: 0.85036,  47:-1.12675,  46:-0.30733,  45: 0.84716,  44:-0.04669,  43:-0.59542,  42:-0.14298,  41:-0.26148,
                 40: 0.70297,  39: 0.31244,  38:-0.43690,  37:-1.09254,  36: 0.17852,  35: 0.32696,  34: 0.14079,  33:-0.83297,
                 32: 0.28091,  31:-0.37489,  30:-0.63388,  29:-0.07347,  28:-0.18966,  27: 0.08685,  26:-1.04624,  25: 0.67332,
                 24: 0.46415,  23:-0.83140,  22:-0.16813,  21:-0.11910,  20:-0.04580,  19: 0.45977,  18: 0.96367,  17:-0.54179,
                 16:-0.96290,  15:-0.05079,  14: 0.08165,  13:-0.06692,  12:-0.03775,  11: 0.01316,  10:-0.10374,   9:-0.69252,
                  8: 0.03135,   7: 0.73508,   6:-0.78525,   5:-0.21048,   4:-0.31662,   3: 0.60918,   2: 0.55564,   1: 0.73268
   172 |      | 160: 0.93490, 159: 0.61135, 158: 0.11580, 157:-0.74757, 156:-0.24881, 155:-0.99675, 154:-0.51875, 153:-0.46485,
                152: 0.01289, 151:-0.48739, 150:-0.07678, 149:-0.04289, 148:-0.25625, 147:-0.69736, 146:-0.32026, 145: 0.29904,
                144:-0.64268, 143:-0.58658, 142:-1.17859, 141: 0.08583, 140:-0.57655, 139: 0.13934, 138:-0.63144, 137: 0.91992,
                136: 0.31115, 135:-0.58784, 134: 0.77710, 133:-0.31667, 132:-1.29681, 131:-1.09812, 130:-0.30788, 129:-0.17693,
                128:-0.40968, 127: 0.29194, 126: 0.55789, 125: 0.60565, 124:-0.57390, 123:-0.22596, 122: 0.12609, 121:-0.24291,
                120: 0.89499, 119:-0.22565, 118: 0.64567, 117: 1.01546, 116: 0.09746, 115: 1.08402, 114: 0.86047, 113: 0.73445,
                112:-0.27465, 111:-0.57736, 110:-1.02893, 109:-0.11326, 108:-0.70853, 107: 0.89967, 106: 0.65752, 105: 0.16026,
                104:-0.16463, 103: 0.37860, 102: 0.09741, 101:-0.14307, 100:-0.12229,  99:-0.21623,  98: 0.46089,  97:-0.21847,
                 96: 0.04743,  95:-0.68732,  94:-0.41204,  93:-0.88832,  92: 0.19098,  91: 0.35998,  90: 0.02871,  89:-0.78482,
                 88:-1.00129,  87: 0.06562,  86: 0.27460,  85: 0.08712,  84: 0.86644,  83: 0.18754,  82: 0.53398,  81: 0.56105,
                 80:-0.16988,  79:-0.07017,  78:-0.86223,  77: 0.04359,  76: 0.46841,  75: 0.73414,  74:-0.04605,  73: 0.19176,
                 72:-0.01890,  71: 0.12067,  70: 0.31656,  69:-0.51748,  68: 0.51932,  67:-0.56715,  66:-0.32321,  65:-0.51576,
                 64: 1.00481,  63: 0.81381,  62: 0.28007,  61: 0.29652,  60: 0.70431,  59:-0.39075,  58:-0.32803,  57: 0.27005,
                 56: 0.97067,  55: 0.08918,  54:-0.01300,  53: 0.09342,  52: 0.74270,  51:-0.20253,  50: 0.42799,  49:-0.19293,
                 48: 0.56255,  47:-0.49097,  46: 0.11571,  45:-0.12715,  44:-0.28577,  43: 0.94305,  42: 0.86435,  41: 0.78297,
                 40:-0.19805,  39: 0.80791,  38: 0.49295,  37:-0.27706,  36: 0.59547,  35: 0.35012,  34: 0.69400,  33:-0.56894,
                 32: 0.40369,  31: 0.49170,  30:-0.08170,  29:-0.32117,  28:-0.43171,  27:-0.39093,  26: 0.32690,  25:-0.11100,
                 24:-0.96868,  23:-0.41749,  22:-0.60478,  21:-0.75548,  20:-0.50739,  19:-0.97120,  18:-1.17993,  17:-0.15044,
                 16:-1.25130,  15:-1.34009,  14: 0.72499,  13:-0.72810,  12: 0.64807,  11: 0.20796,  10: 0.23528,   9:-0.90146,
                  8:-0.10329,   7: 0.54290,   6: 0.28730,   5:-0.17858,   4:-0.76308,   3:-0.48795,   2: 0.73621,   1: 0.80273
   173 |      | 160: 1.11316, 159: 0.59544, 158:-0.62913, 157: 1.10898, 156: 0.26993, 155: 0.74861, 154:-0.09826, 153:-0.45215,
                152:-0.32258, 151: 0.32125, 150: 0.33281, 149: 0.62136, 148:-0.36540, 147: 0.15945, 146:-0.40881, 145:-0.26778,
                144:-0.74008, 143: 0.09508, 142:-0.35532, 141: 0.62074, 140: 0.27291, 139:-0.43165, 138:-0.53666, 137:-0.48947,
                136:-0.31154, 135:-0.14989, 134: 0.33129, 133:-0.03042, 132: 0.64866, 131:-0.52114, 130: 0.23985, 129:-0.54724,
                128: 1.13671, 127:-0.49537, 126:-0.33298, 125: 0.17332, 124: 0.96451, 123: 0.57418, 122: 0.63585, 121:-0.06711,
                120: 0.72554, 119:-0.15614, 118: 0.86111, 117: 0.67138, 116:-0.15954, 115: 0.55368, 114: 0.81976, 113: 0.63414,
                112: 0.79112, 111: 0.73773, 110: 0.52698, 109: 0.77518, 108: 0.93630, 107: 1.16741, 106:-0.36909, 105:-0.84166,
                104: 0.78696, 103: 0.95344, 102: 0.24955, 101: 0.84186, 100:-0.03179,  99:-0.74894,  98: 1.03890,  97: 0.53217,
                 96:-0.03808,  95: 0.06851,  94:-0.45954,  93: 0.87856,  92: 0.78345,  91:-0.45924,  90:-0.31458,  89:-0.38539,
                 88: 1.09173,  87:-0.37731,  86:-0.96147,  85:-0.53904,  84:-0.75807,  83: 0.42261,  82:-0.42282,  81:-0.25228,
                 80:-0.08422,  79: 0.57559,  78:-0.45466,  77: 0.83481,  76:-0.65729,  75: 0.22710,  74: 0.26219,  73: 0.22040,
                 72:-0.33365,  71: 1.15291,  70:-0.45598,  69:-0.89518,  68:-0.53314,  67:-0.46844,  66:-0.35363,  65: 0.37526,
                 64:-0.05290,  63: 0.38657,  62:-0.41009,  61: 0.30388,  60: 0.63575,  59: 0.18233,  58:-0.42229,  57: 0.15303,
                 56:-0.24720,  55: 0.20785,  54: 0.51500,  53: 0.46776,  52: 0.66877,  51:-0.60462,  50: 0.93676,  49: 0.59540,
                 48:-1.01470,  47:-0.90155,  46:-0.82829,  45:-0.24394,  44: 0.35896,  43: 0.37526,  42: 0.49877,  41:-0.01194,
                 40:-0.68421,  39:-0.19762,  38:-0.18742,  37: 0.58208,  36:-0.39481,  35: 0.11804,  34:-0.52113,  33: 0.33981,
                 32:-0.61878,  31:-0.88550,  30:-0.40409,  29:-0.06150,  28:-0.15530,  27: 0.07917,  26:-0.65290,  25:-0.06927,
                 24: 0.03835,  23:-1.03212,  22:-0.69919,  21: 0.19651,  20: 0.82232,  19: 0.82835,  18:-1.14823,  17:-0.09564,
                 16:-1.04521,  15:-0.22248,  14:-0.43139,  13:-0.98782,  12:-1.07171,  11:-0.72243,  10:-0.36619,   9: 0.47001,
                  8:-0.78741,   7: 0.41084,   6: 0.70866,   5:-0.72950,   4: 0.08864,   3:-0.64618,   2:-0.48569,   1:-0.03737
   174 |      | 160:-1.06732, 159: 0.23309, 158: 0.76355, 157:-0.89285, 156:-0.88798, 155: 0.08074, 154: 0.06143, 153:-0.15542,
                152:-0.52958, 151:-1.14138, 150:-0.18385, 149:-0.29010, 148:-0.51236, 147:-0.26744, 146:-1.21869, 145: 0.04256,
                144: 0.20973, 143: 0.06293, 142:-1.51139, 141:-0.99834, 140:-0.55532, 139: 0.08198, 138: 0.74037, 137: 0.62288,
                136:-0.68917, 135:-0.91997, 134:-0.30520, 133: 0.12507, 132: 0.17114, 131:-0.53755, 130: 0.90666, 129: 0.25239,
                128: 0.76906, 127:-0.74542, 126:-0.00383, 125: 0.95178, 124:-0.27901, 123: 0.30821, 122:-0.35541, 121: 0.80398,
                120: 0.96613, 119:-0.29389, 118:-0.06126, 117: 0.37644, 116: 1.28891, 115: 0.28067, 114: 0.84008, 113: 0.76942,
                112:-0.29741, 111: 1.24865, 110:-0.08258, 109:-0.39338, 108: 0.21821, 107:-0.57305, 106: 0.68966, 105:-0.32760,
                104: 0.58138, 103: 0.01260, 102: 1.46716, 101: 0.15181, 100:-0.77069,  99:-0.19250,  98:-0.56037,  97: 0.04771,
                 96: 0.65208,  95: 0.15237,  94: 0.10652,  93: 0.87955,  92: 1.37182,  91: 1.10573,  90:-0.38681,  89: 0.05326,
                 88:-0.55496,  87: 0.75066,  86: 0.46561,  85: 0.86168,  84: 0.35241,  83: 0.46860,  82: 0.53636,  81:-0.22387,
                 80:-0.24371,  79:-0.08591,  78: 0.05382,  77: 0.42614,  76: 0.41765,  75: 1.09148,  74: 0.54528,  73: 0.19118,
                 72: 0.27151,  71: 0.01039,  70:-0.73293,  69:-0.00026,  68:-0.15749,  67: 0.49906,  66: 0.34188,  65:-0.23254,
                 64:-0.49984,  63: 0.91069,  62: 0.78491,  61: 0.44943,  60:-0.62116,  59: 0.98598,  58:-0.48681,  57: 0.25264,
                 56: 0.73864,  55: 0.58238,  54: 0.07387,  53: 0.41555,  52:-0.75651,  51:-0.09607,  50: 0.69497,  49: 0.89323,
                 48:-0.06002,  47:-0.48903,  46:-0.31254,  45: 0.16016,  44: 0.50131,  43: 0.30475,  42:-0.33847,  41:-0.09245,
                 40:-0.36671,  39:-0.22940,  38:-0.08947,  37:-0.54547,  36:-0.79258,  35:-0.32361,  34:-0.67479,  33:-0.72023,
                 32: 0.36904,  31:-0.30342,  30: 0.76826,  29: 0.63788,  28: 0.65003,  27: 0.66529,  26:-0.12580,  25:-0.35038,
                 24:-1.04543,  23: 0.20456,  22: 0.00081,  21:-0.31638,  20: 0.21368,  19:-0.85099,  18:-0.90896,  17:-0.50178,
                 16:-1.34007,  15:-0.03465,  14:-0.35128,  13:-0.27297,  12:-1.11643,  11: 0.69298,  10: 1.06291,   9: 0.77586,
                  8:-0.65289,   7:-0.55449,   6: 0.42211,   5:-0.35879,   4:-0.93769,   3: 0.05642,   2: 0.03213,   1: 0.64201
   175 |      | 160: 0.53083, 159: 1.08113, 158:-0.48248, 157:-0.49760, 156: 0.03598, 155:-0.08907, 154: 0.10889, 153:-0.58121,
                152:-0.03030, 151:-0.73031, 150:-0.30962, 149:-0.70502, 148:-0.29227, 147:-0.38385, 146:-0.04555, 145: 0.41728,
                144:-0.50412, 143: 0.03821, 142: 0.67104, 141: 0.52754, 140:-1.02276, 139:-1.22126, 138: 0.07543, 137:-0.36613,
                136: 0.78641, 135: 0.45464, 134: 0.18166, 133: 0.62209, 132:-0.39360, 131:-0.77221, 130: 0.11829, 129:-0.83823,
                128: 0.04449, 127: 0.24767, 126:-0.39525, 125:-0.51418, 124: 1.02640, 123:-1.06680, 122:-0.25445, 121:-1.50657,
                120:-0.25055, 119:-0.25877, 118: 0.74610, 117: 0.73178, 116:-0.00055, 115: 0.87810, 114: 0.19900, 113:-0.97337,
                112:-0.04927, 111:-0.14103, 110: 0.09581, 109: 0.24164, 108: 0.28289, 107: 0.03129, 106:-0.72842, 105:-0.17544,
                104:-0.18026, 103:-1.07714, 102:-0.10681, 101:-0.41385, 100: 0.71879,  99:-0.12713,  98:-0.67850,  97:-0.82578,
                 96: 0.29360,  95: 0.59184,  94:-0.02704,  93:-0.35499,  92:-0.38379,  91:-0.37368,  90: 0.78600,  89: 0.05467,
                 88: 0.88464,  87: 0.57976,  86: 0.23134,  85:-0.16061,  84: 0.23967,  83: 1.21542,  82: 0.86538,  81:-0.03007,
                 80: 0.30434,  79: 0.01336,  78: 0.00265,  77:-0.58504,  76:-1.29941,  75:-0.35366,  74: 0.25517,  73: 0.48084,
                 72: 0.12175,  71: 0.44480,  70:-0.02153,  69: 1.12867,  68:-0.43491,  67: 0.11955,  66:-0.80187,  65:-0.14850,
                 64:-0.14658,  63: 0.42954,  62: 0.14306,  61: 0.15837,  60: 1.69047,  59: 0.32488,  58:-0.06092,  57:-0.95682,
                 56:-0.87958,  55: 0.46329,  54: 0.30407,  53: 0.67586,  52:-0.16160,  51: 0.46858,  50: 0.18496,  49: 0.87210,
                 48:-0.21713,  47:-0.18083,  46:-0.50630,  45: 0.85334,  44:-0.49715,  43: 0.32213,  42: 0.74919,  41: 0.64112,
                 40: 0.52700,  39:-0.64944,  38: 0.52430,  37: 0.30402,  36: 0.71014,  35: 0.10250,  34: 0.75478,  33:-0.21052,
                 32: 0.36022,  31:-0.74643,  30:-0.12699,  29:-0.38095,  28:-0.36107,  27: 0.01178,  26:-1.03983,  25: 0.39547,
                 24:-0.76479,  23: 0.12546,  22: 0.13357,  21: 0.71761,  20:-0.80522,  19:-0.21238,  18: 0.07498,  17:-1.35507,
                 16: 0.11053,  15:-0.19160,  14:-0.42983,  13:-0.14596,  12:-0.28274,  11: 0.44428,  10:-0.95827,   9:-0.51861,
                  8: 0.73085,   7:-0.08332,   6: 0.66915,   5: 0.28166,   4:-0.00727,   3:-0.19925,   2:-0.88854,   1: 0.64408
   176 |      | 160:-0.34872, 159: 0.09617, 158: 0.39596, 157:-0.12886, 156: 0.43496, 155:-0.40170, 154: 1.13016, 153: 0.83292,
                152: 0.13766, 151:-0.03295, 150: 0.66527, 149:-0.74698, 148: 0.33920, 147: 0.10369, 146:-0.31673, 145:-0.67108,
                144: 0.19274, 143: 0.73299, 142:-0.21704, 141:-0.04091, 140: 1.10724, 139: 0.73114, 138:-0.41487, 137: 1.03273,
                136:-0.33102, 135: 0.16347, 134:-0.25529, 133:-1.22401, 132: 0.22532, 131:-0.25431, 130: 0.88326, 129: 0.23130,
                128: 0.53590, 127:-0.21114, 126:-0.35833, 125:-0.69940, 124:-0.77784, 123:-0.50947, 122:-0.64230, 121: 0.75779,
                120: 0.27731, 119:-0.70163, 118: 0.74170, 117:-0.27119, 116:-0.14973, 115: 0.22489, 114:-0.85971, 113:-0.53905,
                112:-0.85224, 111:-0.82064, 110:-0.57095, 109: 1.07292, 108: 0.93449, 107:-0.29675, 106: 0.45620, 105:-1.11488,
                104:-0.78146, 103: 0.28348, 102: 0.17659, 101:-0.56061, 100: 0.72505,  99: 0.74282,  98:-0.09814,  97:-0.46575,
                 96:-0.07181,  95:-0.44865,  94: 0.03821,  93:-0.69332,  92: 0.97089,  91: 0.61524,  90: 0.51114,  89: 0.43963,
                 88:-0.65790,  87:-0.13982,  86:-0.36765,  85:-0.44170,  84: 0.15545,  83: 0.00177,  82: 0.19664,  81:-0.58423,
                 80: 0.43146,  79:-0.25412,  78: 0.36653,  77:-0.16550,  76: 0.15860,  75: 0.72016,  74: 0.98594,  73: 1.28955,
                 72: 0.09060,  71:-0.75340,  70: 0.64669,  69: 0.44087,  68: 0.15216,  67: 0.68308,  66: 0.35242,  65:-0.24073,
                 64:-0.71032,  63:-0.14207,  62:-0.24829,  61:-0.32812,  60: 0.54104,  59: 0.62770,  58: 1.04875,  57: 0.43416,
                 56:-0.11254,  55:-0.68887,  54: 0.92187,  53: 0.05910,  52: 0.94437,  51:-0.75088,  50:-0.06423,  49: 0.56529,
                 48:-0.24065,  47:-0.00676,  46: 0.64550,  45:-0.26744,  44:-0.27192,  43:-0.69977,  42: 0.37364,  41: 0.14047,
                 40: 0.26607,  39: 0.51346,  38: 0.44206,  37: 0.13575,  36: 0.32056,  35: 0.54843,  34: 0.84301,  33:-0.76288,
                 32: 0.34933,  31:-0.35780,  30: 0.55088,  29:-0.85991,  28:-0.19397,  27: 0.31683,  26: 0.59868,  25:-1.12289,
                 24:-0.70511,  23: 0.80793,  22:-0.40266,  21:-0.79981,  20:-0.48190,  19: 0.03664,  18:-0.92325,  17:-0.71212,
                 16:-0.85572,  15: 0.07221,  14: 0.17398,  13:-0.13218,  12:-0.43924,  11:-1.01349,  10:-0.52312,   9: 0.80074,
                  8: 0.11602,   7:-0.54708,   6:-0.36980,   5: 0.01879,   4: 0.39150,   3:-0.59589,   2: 0.71099,   1:-0.18271
   177 |      | 160:-0.79870, 159: 0.44754, 158: 0.72907, 157: 0.66108, 156:-0.03708, 155: 1.24571, 154: 1.12231, 153: 0.21585,
                152: 0.05842, 151: 0.41399, 150: 0.87003, 149:-0.06822, 148: 0.06969, 147: 0.18629, 146:-0.88728, 145: 0.56123,
                144:-0.13537, 143: 0.99026, 142: 0.57096, 141: 0.28914, 140:-0.54714, 139: 0.54586, 138:-0.66954, 137:-0.01668,
                136: 0.09457, 135: 0.05462, 134:-0.65317, 133:-0.67210, 132:-0.07120, 131:-0.28812, 130: 0.09126, 129:-1.14729,
                128: 0.52800, 127:-0.23010, 126:-0.61093, 125: 0.32068, 124:-0.49106, 123:-0.68745, 122:-1.29696, 121: 0.61000,
                120: 0.35177, 119: 0.26469, 118:-0.12583, 117: 0.51244, 116: 0.40536, 115:-0.71048, 114:-0.86289, 113:-1.49634,
                112:-1.90138, 111:-0.12021, 110: 0.41074, 109:-0.58355, 108: 0.71731, 107: 0.04640, 106:-0.53723, 105:-0.01973,
                104:-0.17172, 103:-0.31735, 102:-1.93312, 101:-0.92311, 100: 0.84439,  99:-0.10357,  98:-0.50075,  97: 0.52459,
                 96:-0.46838,  95:-0.43952,  94:-0.55682,  93:-0.86202,  92:-0.11163,  91:-1.18813,  90: 0.76415,  89:-0.59847,
                 88:-1.03147,  87: 0.43508,  86: 0.56880,  85: 0.30227,  84: 0.80995,  83:-0.84330,  82:-0.63387,  81:-1.14367,
                 80:-0.51692,  79: 0.44883,  78:-0.19125,  77:-0.04413,  76: 0.38859,  75:-0.61108,  74:-0.56164,  73:-0.43832,
                 72:-0.33799,  71: 0.18475,  70: 0.40767,  69:-0.38076,  68:-0.33834,  67: 0.27185,  66: 0.63747,  65:-0.05858,
                 64: 0.33204,  63: 0.09902,  62:-0.26119,  61: 0.53630,  60:-0.66746,  59: 0.10468,  58: 0.12679,  57:-0.62054,
                 56: 0.09061,  55:-0.91250,  54: 0.21719,  53: 0.35036,  52: 0.28826,  51: 0.91478,  50:-0.31848,  49: 0.05381,
                 48:-0.81296,  47: 0.42513,  46: 0.69943,  45:-0.79721,  44:-0.97828,  43:-0.10183,  42:-0.66793,  41:-0.52095,
                 40:-0.86612,  39: 0.35556,  38:-0.34859,  37: 0.46874,  36:-0.51837,  35: 0.26696,  34: 0.85230,  33: 0.48338,
                 32:-0.27139,  31:-0.96263,  30: 0.44532,  29:-0.18878,  28:-0.47718,  27: 0.42140,  26: 0.29660,  25: 0.76619,
                 24: 0.51679,  23: 0.31863,  22:-0.33733,  21: 0.02308,  20: 0.44188,  19: 0.93312,  18: 0.84515,  17: 0.01787,
                 16:-0.08905,  15: 0.73805,  14: 0.57582,  13: 0.82945,  12:-0.15387,  11:-0.32538,  10: 0.13886,   9: 0.66695,
                  8:-0.74568,   7: 0.10139,   6: 0.62919,   5: 0.68057,   4:-0.63024,   3: 0.20363,   2: 0.62065,   1:-0.77768
   178 |      | 160: 0.04094, 159: 0.42660, 158: 1.03444, 157:-0.41091, 156: 0.75432, 155: 0.28107, 154: 0.88087, 153: 0.11479,
                152: 0.02569, 151:-0.17551, 150:-0.26508, 149: 0.65207, 148: 0.31608, 147:-0.01557, 146:-1.05371, 145:-0.90905,
                144:-0.67274, 143:-0.38751, 142: 0.38326, 141:-0.96075, 140:-0.84613, 139:-0.39467, 138:-0.12862, 137: 0.51087,
                136:-0.80147, 135:-0.61253, 134: 0.70153, 133:-0.42596, 132: 0.24936, 131: 0.64901, 130:-0.48018, 129: 0.31394,
                128: 0.09020, 127: 1.03178, 126: 0.33624, 125:-0.28006, 124: 1.16214, 123: 0.99498, 122:-0.69579, 121:-0.70915,
                120:-0.94569, 119:-0.72997, 118:-0.17217, 117:-0.42736, 116: 0.06799, 115:-0.40578, 114: 0.43702, 113:-0.01445,
                112: 0.49841, 111:-0.01396, 110:-0.37291, 109:-0.66710, 108:-0.86344, 107: 0.09904, 106:-0.78879, 105: 0.79784,
                104: 0.99313, 103:-0.19093, 102: 0.75465, 101: 0.34110, 100:-0.55974,  99:-0.79652,  98: 0.63431,  97: 0.13175,
                 96: 0.55095,  95:-0.34176,  94:-0.28661,  93:-0.27342,  92:-0.11445,  91: 0.16331,  90: 0.77349,  89: 0.26162,
                 88: 0.62509,  87:-0.87800,  86:-0.87417,  85: 0.40865,  84:-0.02983,  83:-0.36698,  82:-0.24595,  81: 1.04745,
                 80: 0.69959,  79:-0.50255,  78: 0.06265,  77: 0.76906,  76:-0.95381,  75: 0.25230,  74:-0.02620,  73:-0.04258,
                 72:-0.31233,  71:-0.64662,  70: 0.26202,  69: 1.28289,  68: 0.23471,  67:-0.62594,  66: 0.73383,  65: 0.35312,
                 64: 0.79836,  63: 0.31599,  62: 0.89868,  61:-0.47139,  60: 0.29694,  59: 0.28040,  58: 0.23553,  57:-0.75301,
                 56:-0.03523,  55: 0.80430,  54:-0.19998,  53: 0.25385,  52: 0.65718,  51:-0.86165,  50:-0.22006,  49:-0.25498,
                 48:-0.61514,  47:-0.44913,  46: 0.94642,  45: 1.03784,  44:-0.22486,  43:-0.51528,  42:-0.48858,  41: 0.59298,
                 40:-0.74532,  39:-0.97281,  38: 0.72315,  37:-0.91821,  36: 0.36754,  35:-0.35061,  34: 0.76440,  33: 0.31945,
                 32: 0.39394,  31:-0.52059,  30: 0.42516,  29: 0.01153,  28:-0.10491,  27: 0.48555,  26: 0.43738,  25:-0.13792,
                 24: 0.13582,  23:-0.72954,  22:-0.05738,  21: 1.00405,  20: 0.47678,  19:-0.40102,  18:-0.65579,  17:-1.13899,
                 16:-1.22393,  15:-0.88107,  14: 0.30123,  13: 0.60797,  12:-0.03509,  11: 0.73362,  10:-0.85161,   9:-0.28870,
                  8:-0.39867,   7:-0.61782,   6:-0.06827,   5:-0.70740,   4:-0.25834,   3: 0.61863,   2: 0.57643,   1: 0.80203
   179 |      | 160: 0.63131, 159: 0.22336, 158: 0.48660, 157: 0.12529, 156:-0.26151, 155: 1.29439, 154: 0.51226, 153: 0.37082,
                152:-0.14302, 151: 0.55607, 150:-0.03923, 149: 0.03196, 148: 0.35725, 147:-0.40056, 146:-0.40713, 145: 0.09957,
                144: 0.84518, 143: 0.37785, 142: 0.72621, 141: 0.69417, 140:-0.01877, 139: 0.74938, 138: 0.47570, 137:-0.41025,
                136:-0.44423, 135:-0.87315, 134:-0.59756, 133: 0.53573, 132: 0.78302, 131: 0.89664, 130: 0.75547, 129: 0.95470,
                128: 0.31238, 127:-0.83132, 126: 0.63526, 125:-0.31452, 124:-0.61991, 123: 0.65070, 122: 0.55833, 121:-0.53300,
                120:-0.20218, 119: 0.70428, 118:-0.54448, 117: 0.86058, 116: 0.77735, 115:-0.02428, 114:-0.36623, 113: 0.30661,
                112: 0.19865, 111: 0.62487, 110:-0.82786, 109:-0.65176, 108:-0.75364, 107:-0.49713, 106:-0.22915, 105:-0.50904,
                104:-0.13130, 103:-0.68507, 102:-0.00256, 101: 0.75838, 100:-0.03104,  99: 0.71111,  98:-0.38034,  97: 0.64506,
                 96: 0.49640,  95:-0.83663,  94:-0.49031,  93: 0.22864,  92:-0.27158,  91: 0.53246,  90:-0.61598,  89: 0.34087,
                 88:-0.46840,  87:-0.01867,  86: 0.26416,  85: 0.36720,  84: 0.55725,  83:-0.89276,  82: 0.40206,  81:-0.63002,
                 80:-0.40524,  79: 0.22107,  78:-0.59902,  77:-0.34119,  76: 0.03709,  75: 0.46788,  74: 0.88570,  73: 0.28511,
                 72:-0.29966,  71:-0.85497,  70:-0.06299,  69: 0.14171,  68:-0.20318,  67:-0.84275,  66: 0.34584,  65: 1.05339,
                 64:-0.17961,  63: 0.85636,  62:-0.04475,  61: 1.03546,  60: 0.51135,  59: 0.19572,  58:-0.84408,  57: 0.35382,
                 56: 0.69462,  55: 0.48333,  54: 0.79053,  53: 0.76632,  52:-0.33725,  51: 0.95566,  50:-0.62632,  49:-0.06739,
                 48:-0.02575,  47: 0.50594,  46:-0.11580,  45: 0.23803,  44: 0.70322,  43: 1.00706,  42: 0.38512,  41:-0.50728,
                 40:-0.81924,  39:-0.52472,  38:-0.07233,  37: 0.77289,  36: 0.16583,  35: 1.09812,  34: 0.69763,  33: 0.16924,
                 32:-0.20286,  31:-0.86282,  30: 0.79355,  29:-0.85047,  28:-1.00907,  27:-0.35840,  26: 0.61942,  25: 0.45319,
                 24: 0.33343,  23: 0.22083,  22: 0.35784,  21: 0.46103,  20: 0.45011,  19:-0.23085,  18:-0.14266,  17:-0.22403,
                 16:-0.72532,  15: 0.37136,  14: 0.16313,  13: 0.04913,  12:-0.04542,  11: 0.40436,  10: 0.66576,   9:-0.87114,
                  8: 0.39233,   7: 0.80709,   6:-0.66020,   5:-0.89933,   4: 0.08769,   3:-0.29936,   2:-0.12198,   1:-0.08660
   180 |      | 160:-0.08636, 159:-0.78181, 158:-0.62318, 157:-0.04378, 156:-0.06674, 155: 0.26383, 154: 0.11541, 153:-0.50125,
                152: 0.48120, 151: 0.78226, 150: 0.71425, 149: 0.18582, 148: 0.28628, 147:-0.59064, 146: 0.67900, 145: 0.96983,
                144:-0.66297, 143:-0.03904, 142:-0.16558, 141:-0.00557, 140:-0.96575, 139:-1.17258, 138: 0.15686, 137:-0.91816,
                136:-0.56242, 135:-0.38729, 134:-0.48921, 133:-0.06547, 132: 0.76564, 131: 0.91141, 130: 0.49107, 129: 0.42737,
                128:-0.04889, 127:-0.64772, 126: 0.06660, 125:-0.58528, 124:-0.14717, 123:-0.07885, 122:-0.98338, 121:-0.82242,
                120:-0.44377, 119:-0.15253, 118:-0.60445, 117:-0.11221, 116: 1.03867, 115: 0.48443, 114: 0.51633, 113: 0.19543,
                112:-1.02008, 111: 0.01413, 110: 0.24022, 109: 0.07163, 108:-0.27417, 107:-0.49152, 106: 0.04556, 105:-0.23574,
                104:-0.99960, 103: 0.23691, 102:-0.06675, 101:-0.72497, 100: 0.92923,  99: 0.90091,  98: 0.49386,  97: 0.34971,
                 96:-0.54809,  95:-1.03962,  94:-1.21146,  93:-0.67268,  92:-0.37573,  91: 0.22445,  90:-0.44796,  89:-0.35810,
                 88: 0.78147,  87:-0.36365,  86:-0.58126,  85:-0.21891,  84: 1.19093,  83:-0.37221,  82: 0.52377,  81:-0.78939,
                 80:-0.80058,  79: 0.77094,  78: 0.64235,  77: 0.62250,  76:-0.25155,  75: 0.81564,  74:-0.67735,  73: 1.24757,
                 72: 0.83144,  71:-0.75663,  70: 0.50665,  69:-0.23177,  68:-0.90193,  67:-0.53411,  66:-0.08335,  65:-0.66385,
                 64:-0.38217,  63:-0.45785,  62:-0.20454,  61: 0.62792,  60:-0.21566,  59: 0.30046,  58:-0.12616,  57:-0.33494,
                 56: 0.24372,  55: 0.41747,  54:-0.68839,  53:-1.30229,  52: 0.18676,  51:-0.88227,  50:-0.00077,  49:-0.57105,
                 48: 0.79188,  47:-0.82767,  46:-0.76334,  45: 0.36716,  44: 0.01436,  43: 0.80232,  42:-0.44344,  41:-0.02174,
                 40: 0.79670,  39: 0.54011,  38: 0.72550,  37: 0.21342,  36: 0.10715,  35:-0.03623,  34:-0.15166,  33:-0.65656,
                 32: 0.71482,  31:-0.16988,  30:-0.28199,  29:-0.19805,  28: 0.79770,  27: 1.12982,  26: 1.05297,  25:-0.16305,
                 24: 0.19447,  23:-0.07278,  22:-0.09237,  21: 0.81212,  20: 0.84898,  19: 0.12332,  18:-0.30724,  17: 0.51744,
                 16: 1.01951,  15: 0.07537,  14: 1.16452,  13:-0.13516,  12:-0.02775,  11: 0.28487,  10:-0.48717,   9:-0.28876,
                  8:-0.21755,   7: 0.54246,   6: 0.53069,   5:-0.53644,   4: 0.42197,   3: 1.40240,   2: 0.07519,   1: 1.03241
   181 |      | 160: 0.78933, 159: 0.49202, 158: 1.43927, 157: 0.56759, 156: 0.17928, 155:-0.49593, 154:-0.62413, 153:-0.44268,
                152: 0.78272, 151: 0.66266, 150: 0.18541, 149:-0.11956, 148: 0.73134, 147: 0.31874, 146: 0.95524, 145: 0.82523,
                144: 0.33383, 143: 0.67980, 142: 0.24402, 141: 0.46738, 140: 0.42690, 139:-0.02777, 138: 0.35322, 137: 0.29800,
                136:-0.08606, 135:-0.43407, 134: 0.35951, 133: 0.37097, 132: 0.94818, 131:-0.89121, 130:-0.06797, 129: 0.56038,
                128: 0.33977, 127:-1.04797, 126:-0.24508, 125: 0.18908, 124: 0.77861, 123: 1.47993, 122: 0.96390, 121:-0.74137,
                120:-0.06915, 119:-1.17512, 118:-0.98241, 117:-0.53623, 116: 0.78848, 115: 0.37371, 114:-0.05143, 113: 0.67358,
                112: 0.17984, 111: 0.26872, 110:-1.63284, 109:-1.36322, 108: 0.25891, 107: 0.48549, 106: 0.66750, 105:-0.77082,
                104:-0.14272, 103:-0.10047, 102: 0.29666, 101: 0.64902, 100:-0.97562,  99:-1.08812,  98: 0.27080,  97: 0.61530,
                 96:-1.01163,  95: 0.06821,  94:-0.19251,  93:-0.76661,  92:-0.71964,  91:-1.04532,  90:-1.11303,  89: 0.20156,
                 88: 0.05698,  87:-0.79151,  86: 0.51977,  85: 0.25208,  84:-1.18059,  83:-0.96999,  82:-0.84538,  81:-0.55060,
                 80:-0.94927,  79: 0.02375,  78:-0.47706,  77: 0.19312,  76:-0.77313,  75:-0.71269,  74:-0.09393,  73:-1.21222,
                 72: 0.60913,  71: 0.62678,  70: 0.38895,  69:-0.18154,  68: 0.49438,  67:-0.64516,  66:-0.61352,  65:-0.37660,
                 64: 0.20098,  63:-0.54408,  62:-0.89634,  61: 0.36814,  60: 0.56474,  59: 0.02158,  58:-0.46206,  57: 0.49250,
                 56:-0.78965,  55:-0.80620,  54: 0.58076,  53:-0.71843,  52: 0.13437,  51:-0.23383,  50: 0.28305,  49:-0.64230,
                 48: 0.86928,  47:-0.54385,  46:-0.18430,  45:-0.45635,  44:-0.58886,  43:-0.34214,  42:-0.04965,  41: 0.65830,
                 40:-0.18815,  39:-0.71932,  38: 0.75548,  37:-1.01436,  36:-0.00111,  35: 0.64750,  34: 0.68014,  33:-0.01724,
                 32: 0.09763,  31:-0.11709,  30:-0.08483,  29:-0.63747,  28:-0.55235,  27:-0.28738,  26:-0.44190,  25:-0.39071,
                 24: 0.26998,  23: 0.19228,  22: 1.38107,  21:-0.55975,  20:-0.35543,  19: 0.52763,  18:-0.33748,  17:-1.36394,
                 16: 0.05599,  15:-0.43162,  14:-0.11914,  13:-0.45592,  12: 0.31827,  11:-0.59450,  10:-0.97115,   9:-0.81276,
                  8: 0.85617,   7:-0.34871,   6:-0.03459,   5: 0.15397,   4: 0.45342,   3:-0.37041,   2:-0.93268,   1:-0.18943
   182 |      | 160:-0.20527, 159:-0.60126, 158: 0.86257, 157: 0.16035, 156:-0.02679, 155:-0.18954, 154: 0.72395, 153:-0.14928,
                152:-0.27908, 151: 0.78601, 150:-0.05243, 149: 0.40705, 148: 0.55818, 147: 1.04719, 146:-0.27972, 145:-0.08773,
                144: 0.31030, 143:-0.49167, 142: 0.28553, 141: 0.37705, 140: 0.99459, 139: 0.95820, 138: 0.12497, 137:-0.18391,
                136:-0.30609, 135: 0.76337, 134: 0.47596, 133:-0.96466, 132:-0.79080, 131:-0.97775, 130: 0.28053, 129:-0.23362,
                128:-0.19675, 127:-0.65203, 126: 0.73476, 125:-0.56588, 124:-0.15759, 123:-0.59760, 122: 0.12294, 121: 0.49658,
                120: 0.73548, 119:-0.34724, 118:-0.95742, 117: 0.04247, 116:-0.00092, 115:-0.68376, 114:-0.27003, 113: 0.88704,
                112:-0.40230, 111:-0.34475, 110: 0.30868, 109:-0.97217, 108:-0.55107, 107: 1.01914, 106:-0.84236, 105:-0.20301,
                104:-0.00273, 103:-0.69692, 102: 0.21591, 101:-0.18373, 100: 0.10588,  99: 0.33134,  98:-0.32330,  97: 0.07499,
                 96: 0.72459,  95: 0.87692,  94:-0.67513,  93: 0.56040,  92:-0.43561,  91:-0.22742,  90: 0.46944,  89:-0.50422,
                 88:-0.63435,  87: 0.70827,  86:-0.78747,  85:-0.47675,  84: 0.71975,  83:-0.69515,  82:-0.15656,  81:-0.07771,
                 80: 0.54340,  79: 0.68563,  78: 0.90986,  77: 0.49084,  76:-0.52398,  75: 0.62417,  74: 0.39670,  73:-0.60940,
                 72:-0.51994,  71:-0.56519,  70: 0.35945,  69: 0.22763,  68: 0.12601,  67: 0.66288,  66: 0.79380,  65: 0.19824,
                 64:-0.74605,  63:-1.17884,  62: 0.57186,  61: 0.54739,  60:-0.99293,  59: 0.91017,  58: 0.22014,  57: 0.20300,
                 56:-0.50978,  55: 0.05354,  54:-0.49484,  53:-0.79845,  52: 0.15267,  51:-0.33784,  50: 1.00741,  49: 0.08552,
                 48:-0.65793,  47: 0.43717,  46: 0.93529,  45: 0.06094,  44:-0.27461,  43: 0.21535,  42:-0.05209,  41:-0.04693,
                 40: 0.25010,  39: 0.18903,  38:-0.63820,  37: 0.39210,  36: 0.98080,  35:-0.00524,  34:-0.62997,  33:-0.37989,
                 32:-0.65629,  31: 0.06459,  30: 0.19179,  29: 0.48936,  28:-0.68179,  27:-0.98626,  26: 0.79478,  25:-0.21403,
                 24: 0.09807,  23: 0.50799,  22: 0.30445,  21:-0.81722,  20:-1.15776,  19:-0.27924,  18: 0.52378,  17: 0.76998,
                 16: 0.89080,  15: 0.37057,  14:-0.89954,  13:-1.04224,  12:-1.09326,  11:-0.67340,  10:-0.60469,   9: 0.18281,
                  8: 0.16876,   7:-0.56971,   6:-0.19211,   5:-0.87288,   4: 0.83918,   3:-0.51093,   2: 0.73134,   1:-0.21907
   183 |      | 160:-0.19200, 159:-0.89812, 158: 0.62642, 157:-0.58654, 156: 0.70396, 155:-0.63238, 154: 1.05107, 153: 0.03237,
                152: 0.75610, 151:-0.94119, 150:-0.63606, 149:-0.15403, 148: 0.13599, 147:-0.47645, 146: 1.12149, 145: 1.04653,
                144:-0.49424, 143: 1.07186, 142:-0.98372, 141:-0.76412, 140: 0.39059, 139: 0.30424, 138: 0.74845, 137:-0.23589,
                136: 0.47940, 135: 0.46811, 134:-0.63577, 133: 1.05212, 132: 0.55555, 131: 0.87787, 130: 0.31337, 129: 0.84802,
                128: 0.30444, 127:-0.19361, 126: 0.09593, 125: 0.94689, 124: 0.59824, 123: 0.79762, 122: 0.03410, 121: 0.07898,
                120:-0.30785, 119:-0.83895, 118: 0.10029, 117:-0.89453, 116: 0.59988, 115: 0.96428, 114:-0.49951, 113:-1.14305,
                112: 0.41877, 111: 0.31176, 110:-0.10632, 109:-0.52623, 108:-0.83954, 107:-0.49539, 106:-0.60899, 105:-0.56797,
                104:-0.13910, 103:-0.83185, 102:-0.43445, 101:-0.18741, 100: 0.06643,  99: 0.22884,  98: 0.33613,  97:-0.09527,
                 96: 0.42901,  95:-0.33606,  94:-0.52574,  93:-0.76383,  92: 0.98218,  91:-0.26210,  90: 0.51282,  89: 0.42359,
                 88:-1.01895,  87:-1.22514,  86:-0.34017,  85:-0.21454,  84:-0.17936,  83: 0.35382,  82:-0.24127,  81: 0.94171,
                 80:-0.66809,  79:-1.16295,  78:-0.72166,  77:-0.03023,  76:-0.35038,  75: 0.34657,  74: 0.10773,  73: 0.54841,
                 72: 0.44305,  71: 0.17439,  70:-0.88510,  69: 0.38082,  68:-0.70792,  67:-0.84881,  66:-0.23629,  65:-0.50366,
                 64: 0.58312,  63: 0.58383,  62: 0.77384,  61:-0.79665,  60: 0.58974,  59:-1.30181,  58: 0.66360,  57:-0.61249,
                 56:-0.09072,  55: 0.32540,  54:-0.06309,  53: 0.38418,  52: 0.07696,  51: 0.48656,  50:-1.12520,  49:-1.17296,
                 48:-0.76352,  47: 0.09937,  46: 0.13134,  45:-0.56788,  44: 0.72452,  43: 0.54748,  42: 0.59348,  41: 0.83316,
                 40: 0.29225,  39:-1.28684,  38: 0.15458,  37:-0.57543,  36:-0.53786,  35:-0.32224,  34:-0.32323,  33:-0.40198,
                 32: 1.05911,  31:-0.74150,  30:-0.05859,  29: 0.26402,  28: 0.61966,  27: 0.68886,  26: 0.34119,  25: 0.63247,
                 24: 0.53962,  23:-1.00684,  22:-1.10166,  21:-0.85271,  20:-0.21859,  19:-0.46642,  18:-0.21422,  17: 0.29337,
                 16:-0.51038,  15:-0.86646,  14:-0.28718,  13: 0.48488,  12:-0.37748,  11:-0.27644,  10: 0.63868,   9:-0.34222,
                  8: 0.87082,   7: 0.08144,   6:-0.65680,   5:-0.76243,   4:-0.99268,   3:-0.10850,   2: 0.42374,   1: 0.31679
   184 |      | 160: 0.51881, 159:-0.49802, 158: 0.81871, 157:-0.08279, 156:-0.52657, 155:-0.13084, 154: 0.24718, 153:-0.28219,
                152:-1.18200, 151: 0.35846, 150:-0.43742, 149:-0.41289, 148: 0.60188, 147:-0.41586, 146:-0.58896, 145:-0.38521,
                144: 0.18347, 143: 0.72348, 142: 0.59387, 141:-0.47566, 140:-0.63330, 139:-0.99033, 138: 0.27082, 137:-0.00298,
                136:-0.07604, 135:-0.24218, 134: 0.16122, 133: 1.04082, 132: 0.07536, 131: 0.04983, 130: 0.37344, 129:-0.92849,
                128:-0.67954, 127: 0.60724, 126: 0.04217, 125: 0.36203, 124: 0.03312, 123:-0.34074, 122:-0.14644, 121: 0.21923,
                120:-0.94529, 119: 0.08180, 118: 0.57890, 117:-1.22689, 116:-0.82027, 115: 0.77229, 114:-0.69585, 113:-0.02155,
                112: 0.36782, 111:-0.45377, 110:-0.69593, 109: 0.12331, 108: 0.32788, 107:-0.68788, 106: 0.00161, 105: 0.45658,
                104: 0.12152, 103: 0.26999, 102: 0.09518, 101: 0.50330, 100: 0.18996,  99: 0.12432,  98: 0.11682,  97:-0.41128,
                 96:-0.41208,  95:-0.75950,  94: 0.34957,  93:-0.61872,  92:-1.11586,  91:-0.97910,  90: 0.47759,  89:-0.81294,
                 88:-1.00414,  87:-0.49435,  86:-0.02361,  85: 0.05894,  84:-0.64366,  83:-0.12386,  82:-0.37302,  81: 0.25586,
                 80:-0.58706,  79:-0.26731,  78:-0.51098,  77: 0.31200,  76:-0.72205,  75: 0.57714,  74:-0.81969,  73:-0.34007,
                 72:-0.27039,  71:-0.28948,  70: 0.24751,  69:-0.50171,  68: 0.29310,  67: 0.14868,  66: 0.10890,  65: 0.59010,
                 64: 0.44873,  63:-0.80757,  62:-1.22494,  61:-0.06768,  60: 0.32452,  59:-0.43676,  58:-0.52384,  57: 1.00990,
                 56:-0.28526,  55:-0.80645,  54: 0.66028,  53: 0.70132,  52: 0.27919,  51:-0.76021,  50: 0.87655,  49: 0.88221,
                 48: 0.47872,  47:-0.46385,  46:-0.26550,  45: 0.52843,  44:-0.15731,  43:-0.67267,  42:-0.97004,  41: 0.27112,
                 40: 0.83197,  39:-0.35496,  38: 0.97095,  37:-0.07662,  36:-0.01602,  35: 0.80784,  34: 0.62518,  33: 0.19249,
                 32:-0.68598,  31:-0.44368,  30: 0.83152,  29:-0.11449,  28: 1.23917,  27: 0.15921,  26: 1.30138,  25:-0.35440,
                 24: 1.51104,  23: 0.32677,  22:-0.12861,  21:-0.64088,  20:-0.34265,  19: 0.73094,  18: 0.68167,  17: 0.34136,
                 16: 0.95958,  15: 0.41271,  14: 0.63478,  13: 0.05783,  12: 1.22040,  11:-0.09078,  10:-0.01143,   9:-0.94611,
                  8: 0.01284,   7: 0.13672,   6: 1.38036,   5:-0.62729,   4: 0.04171,   3: 0.53208,   2:-0.49159,   1: 0.19727
   185 |      | 160: 0.33619, 159: 0.75534, 158: 0.42586, 157: 0.18082, 156:-0.25957, 155:-0.06191, 154:-0.74635, 153: 1.25228,
                152: 0.00250, 151: 0.80969, 150:-0.42201, 149: 0.39849, 148: 0.22420, 147:-0.73822, 146: 0.13267, 145: 0.27065,
                144:-0.31760, 143: 0.70770, 142: 0.01050, 141: 0.06799, 140:-0.46876, 139: 0.60761, 138: 0.77592, 137:-0.37392,
                136:-0.59045, 135: 1.15657, 134: 0.22348, 133:-0.39743, 132: 0.14564, 131: 1.05770, 130: 0.22231, 129:-0.78218,
                128:-0.36397, 127: 0.14570, 126: 0.28477, 125: 0.74068, 124: 0.04856, 123:-0.56184, 122: 0.28655, 121: 0.55302,
                120: 0.77940, 119:-0.59935, 118:-0.36495, 117:-0.19192, 116: 0.40908, 115:-0.34065, 114: 0.03037, 113: 0.11352,
                112: 0.32155, 111:-0.39888, 110:-0.47822, 109: 0.40173, 108: 0.54146, 107:-0.01303, 106:-0.82772, 105:-0.89116,
                104: 0.40501, 103: 0.58007, 102:-1.34863, 101:-0.09082, 100:-0.64351,  99: 0.35780,  98: 0.56538,  97:-0.15146,
                 96: 0.39688,  95: 0.39947,  94: 0.64603,  93:-0.67749,  92:-0.24284,  91:-1.25080,  90: 0.44736,  89:-0.54025,
                 88:-0.42292,  87: 0.71941,  86: 0.25390,  85: 0.49667,  84: 0.31992,  83:-0.98302,  82:-0.42781,  81:-1.00731,
                 80:-1.36632,  79: 0.20342,  78: 0.04646,  77:-0.44270,  76: 0.26584,  75: 1.08394,  74: 0.62161,  73: 0.32952,
                 72:-0.53902,  71: 0.16624,  70: 0.19224,  69: 0.27213,  68: 0.96435,  67:-0.57152,  66: 0.09827,  65: 0.86104,
                 64:-0.25220,  63:-0.37344,  62:-0.43898,  61:-0.30383,  60: 0.14416,  59: 0.86734,  58: 0.84603,  57: 1.15989,
                 56:-0.44611,  55: 0.28248,  54:-1.06526,  53:-1.13245,  52:-0.68168,  51:-0.87241,  50:-0.45001,  49:-0.29674,
                 48: 0.06905,  47:-0.41994,  46:-0.48341,  45: 0.11789,  44: 0.62116,  43:-0.89986,  42: 0.27784,  41: 0.62680,
                 40:-1.13982,  39:-0.67957,  38:-0.58579,  37:-0.67934,  36: 0.97150,  35:-0.29077,  34:-0.68642,  33: 0.35709,
                 32: 0.29715,  31: 0.26971,  30: 0.15176,  29:-0.68150,  28: 0.84208,  27: 1.23479,  26: 0.38206,  25:-0.31473,
                 24: 0.62803,  23:-0.07039,  22: 0.59249,  21:-0.79186,  20: 0.45398,  19:-0.71918,  18:-0.58744,  17:-0.53479,
                 16: 0.03630,  15: 1.04009,  14: 0.11925,  13:-0.04704,  12:-0.96208,  11:-0.22811,  10: 0.18096,   9: 0.39148,
                  8: 1.15972,   7: 0.29257,   6:-0.40505,   5: 0.59158,   4: 0.74228,   3:-0.10580,   2: 0.82066,   1:-0.02925
   186 |      | 160: 0.57173, 159: 0.32074, 158: 0.58089, 157: 1.03925, 156:-0.15212, 155:-0.92109, 154:-0.68296, 153:-0.82551,
                152: 0.33931, 151: 0.12352, 150: 0.55598, 149:-0.12922, 148:-0.46045, 147:-0.18477, 146:-0.19072, 145: 0.50782,
                144:-0.73566, 143:-0.88789, 142: 0.59195, 141:-0.16435, 140: 0.51531, 139:-0.52867, 138:-0.21733, 137:-0.85055,
                136: 0.08095, 135:-0.40223, 134:-0.21909, 133:-0.56564, 132:-0.60404, 131: 0.36498, 130: 0.29024, 129: 0.60092,
                128:-0.75349, 127: 0.56599, 126:-0.19691, 125:-0.68457, 124: 0.09368, 123:-0.53560, 122: 0.52764, 121: 0.14495,
                120: 0.51215, 119: 0.09370, 118: 0.16603, 117:-0.90810, 116: 0.07033, 115:-0.15633, 114:-0.34892, 113: 1.40286,
                112:-0.32137, 111: 0.93519, 110: 0.18598, 109:-0.05089, 108:-0.23106, 107: 0.14160, 106: 0.68247, 105: 0.36318,
                104:-0.81292, 103: 0.78027, 102: 0.98356, 101:-0.01677, 100:-0.36162,  99: 0.41263,  98: 0.21111,  97:-0.47458,
                 96: 0.34327,  95:-0.17180,  94:-0.43285,  93: 0.55952,  92: 0.21050,  91:-0.06649,  90: 0.26112,  89:-1.04748,
                 88:-0.27585,  87:-0.05441,  86: 0.96744,  85: 0.53925,  84: 0.07682,  83: 0.37851,  82: 0.22948,  81:-0.03373,
                 80:-0.89482,  79:-0.33755,  78: 1.04957,  77: 0.32185,  76: 0.84895,  75:-0.01889,  74:-1.03990,  73: 0.36399,
                 72:-1.21642,  71:-1.53610,  70: 0.33697,  69: 0.19118,  68: 0.12978,  67:-0.01811,  66: 0.00183,  65:-0.05380,
                 64: 0.34314,  63:-0.89790,  62:-0.93987,  61:-0.24019,  60:-0.96470,  59: 1.08979,  58: 0.94505,  57: 0.80541,
                 56: 0.59389,  55:-0.40944,  54: 0.24922,  53:-0.55401,  52:-0.35301,  51: 0.87871,  50: 0.65275,  49: 1.72147,
                 48: 0.43706,  47:-0.37763,  46:-0.60863,  45:-0.37354,  44:-0.49514,  43: 0.13422,  42: 0.60178,  41: 0.22217,
                 40: 0.59810,  39: 0.34967,  38: 0.22941,  37: 0.27590,  36: 0.24157,  35:-0.60309,  34:-0.67645,  33: 0.25912,
                 32:-0.42158,  31: 0.09106,  30:-0.75072,  29:-0.11667,  28:-1.19976,  27: 0.17963,  26:-0.28410,  25: 0.37731,
                 24: 0.37322,  23:-0.15856,  22: 0.60763,  21: 0.89597,  20:-0.30450,  19:-0.36003,  18:-0.15093,  17:-0.03820,
                 16: 0.04898,  15: 0.06664,  14: 0.26130,  13:-0.02156,  12: 0.29679,  11:-0.56798,  10: 0.74092,   9: 0.55194,
                  8:-1.00066,   7:-0.06827,   6: 0.61426,   5:-0.57346,   4:-0.01211,   3:-0.59034,   2: 0.49913,   1: 0.72761
   187 |      | 160: 0.05592, 159:-0.78012, 158: 0.76462, 157:-0.87844, 156:-0.95344, 155: 0.13516, 154: 0.67971, 153:-0.30513,
                152:-1.10532, 151: 0.31960, 150: 0.02370, 149: 0.36458, 148: 0.22328, 147: 0.50559, 146:-0.69444, 145: 0.37788,
                144: 0.40237, 143: 0.11989, 142:-0.98936, 141: 0.22909, 140: 0.83002, 139:-0.66006, 138: 0.50658, 137:-0.96127,
                136: 0.51471, 135: 1.03017, 134: 0.41212, 133:-0.47502, 132:-0.04826, 131: 0.33638, 130:-0.35627, 129:-0.51841,
                128: 0.49200, 127: 0.76633, 126:-0.43736, 125:-0.77369, 124:-0.49477, 123:-0.89038, 122: 0.51917, 121:-0.66816,
                120: 0.28207, 119:-0.99230, 118:-0.84561, 117: 0.24272, 116:-0.56639, 115:-0.58896, 114:-0.37016, 113:-0.23460,
                112: 0.04447, 111:-0.20369, 110:-0.19005, 109:-0.28427, 108:-0.61650, 107:-0.78774, 106: 0.82976, 105: 0.87876,
                104: 0.76331, 103: 0.88428, 102:-0.85659, 101: 0.76949, 100:-0.81339,  99:-0.77274,  98:-0.31508,  97: 0.46412,
                 96: 0.24614,  95: 0.65425,  94:-0.28904,  93:-0.25882,  92: 0.49954,  91:-0.86555,  90:-0.82923,  89:-0.76482,
                 88:-0.81331,  87:-0.15561,  86:-0.13426,  85:-0.89223,  84:-0.59087,  83: 0.89599,  82: 0.20710,  81: 0.06291,
                 80: 0.07273,  79: 0.29517,  78:-1.02391,  77:-0.73687,  76: 0.71804,  75: 0.87594,  74:-0.27494,  73:-0.04039,
                 72:-0.39214,  71:-0.48314,  70:-0.87086,  69: 0.45980,  68:-0.18173,  67:-0.17075,  66:-0.06517,  65:-0.51314,
                 64: 0.44397,  63:-0.08276,  62:-0.87565,  61:-0.11960,  60:-0.94854,  59:-0.11859,  58: 0.70141,  57: 0.72594,
                 56:-0.31324,  55:-0.66099,  54: 0.51974,  53:-0.07746,  52:-1.02688,  51: 0.15015,  50:-0.32030,  49:-0.37942,
                 48: 0.57392,  47: 0.99600,  46: 0.37469,  45: 1.14600,  44:-0.89115,  43:-0.41052,  42: 0.37055,  41: 0.43932,
                 40:-0.78460,  39: 0.14210,  38: 0.85013,  37: 0.02189,  36:-0.21887,  35: 0.55093,  34:-0.20277,  33:-0.78695,
                 32:-0.70180,  31: 0.66274,  30:-1.02939,  29:-0.89956,  28:-0.49849,  27: 0.40829,  26:-0.83485,  25:-0.06876,
                 24:-0.46344,  23:-0.56725,  22:-0.42512,  21:-1.07328,  20: 0.15727,  19:-1.00445,  18:-0.35268,  17:-0.02077,
                 16:-0.02022,  15: 0.17258,  14: 0.57039,  13:-0.12578,  12: 0.12764,  11:-0.13518,  10: 0.54980,   9: 0.38302,
                  8:-0.72063,   7:-0.08525,   6:-0.04732,   5: 0.19517,   4:-0.29737,   3: 0.42353,   2:-0.77027,   1: 0.51283
   188 |      | 160: 0.19443, 159: 0.92356, 158: 0.82185, 157:-0.68132, 156:-0.69046, 155: 0.51123, 154: 0.70905, 153: 0.47195,
                152:-0.87116, 151: 0.65343, 150: 0.36696, 149: 0.82375, 148: 0.17196, 147: 0.51502, 146:-0.41693, 145:-0.75470,
                144:-0.60140, 143: 0.38432, 142:-0.77060, 141:-1.24303, 140:-0.41168, 139:-0.31471, 138: 0.76422, 137: 0.69593,
                136:-0.56930, 135: 0.66106, 134:-0.42685, 133:-0.14441, 132: 0.84472, 131:-0.74423, 130:-0.48502, 129:-0.43610,
                128:-0.33983, 127: 0.20330, 126: 1.25376, 125:-0.47011, 124: 0.96460, 123:-0.97040, 122: 0.53851, 121:-0.28023,
                120: 0.91403, 119: 0.74030, 118: 0.60782, 117:-0.56009, 116: 0.03404, 115: 0.87202, 114:-0.04043, 113: 0.29260,
                112: 1.18771, 111: 0.73179, 110:-0.38067, 109:-0.28333, 108:-0.04606, 107: 0.67308, 106:-0.53959, 105:-0.69486,
                104: 0.45567, 103:-0.33256, 102: 0.09314, 101: 0.08641, 100: 0.82130,  99:-0.79870,  98: 0.50138,  97:-0.03570,
                 96:-0.40306,  95:-1.02237,  94:-0.63052,  93:-0.82619,  92: 0.37703,  91: 0.45290,  90:-0.48596,  89:-0.18272,
                 88:-0.64267,  87: 0.17249,  86: 0.09728,  85: 0.19046,  84:-0.80111,  83: 0.66946,  82:-0.67067,  81: 0.78497,
                 80:-0.75091,  79:-0.18562,  78: 0.47489,  77:-0.18312,  76: 0.44089,  75: 0.31811,  74:-0.39538,  73: 0.63031,
                 72: 1.03522,  71: 0.91473,  70:-0.18906,  69: 0.71900,  68: 0.17997,  67: 0.72674,  66:-0.71516,  65: 0.70795,
                 64: 0.01905,  63:-0.55273,  62:-0.33696,  61: 0.50512,  60: 0.91210,  59:-0.42105,  58:-0.62390,  57: 0.61013,
                 56: 0.43179,  55: 0.57339,  54: 1.00634,  53:-0.43141,  52:-0.16772,  51: 0.36374,  50: 0.81525,  49: 0.13020,
                 48: 0.27642,  47:-0.01372,  46: 1.10445,  45: 0.93841,  44: 0.16980,  43: 0.89293,  42: 0.01320,  41:-0.50814,
                 40:-0.32720,  39:-0.38820,  38:-0.64735,  37: 0.75448,  36:-0.21597,  35: 0.09441,  34:-0.14102,  33: 0.27544,
                 32: 0.75803,  31: 0.12745,  30:-1.04192,  29: 0.63452,  28:-0.56949,  27:-0.21603,  26:-0.91530,  25:-1.03080,
                 24:-0.76574,  23:-0.34740,  22:-0.98478,  21:-0.17155,  20:-0.81046,  19: 0.06609,  18:-0.35163,  17: 0.48754,
                 16: 0.20327,  15:-0.84427,  14:-0.99504,  13: 0.47936,  12:-0.20577,  11: 0.08350,  10: 0.36142,   9: 0.48601,
                  8:-0.45393,   7: 0.65059,   6: 0.47662,   5:-0.64714,   4:-0.77052,   3: 0.96443,   2: 0.83475,   1: 0.01884
   189 |      | 188:-1.43581, 187: 0.64156, 186:-1.28961, 185: 0.20435, 184: 0.16465, 183:-0.53314, 182: 0.87928, 181:-1.42571,
                180:-0.09267, 179:-0.43733, 178:-1.09046, 177: 0.47184, 176: 0.05100, 175: 1.49819, 174: 0.22490, 173:-0.63994,
                172:-0.89947, 171:-2.07447, 170:-0.20790, 169: 0.89422, 168:-0.61955, 167:-0.08324, 166:-0.08858, 165: 1.57598,
                164: 0.07507, 163:-0.01990, 162: 1.37224, 161: 0.28394
   190 |      | 188:-1.09152, 187:-0.38065, 186: 1.00238, 185:-0.47316, 184: 0.05362, 183:-1.10302, 182:-1.46189, 181: 0.30869,
                180: 0.83118, 179:-1.21056, 178: 1.01779, 177: 0.09301, 176:-0.64443, 175: 0.69411, 174:-0.09762, 173:-0.34223,
                172: 0.74934, 171: 0.23286, 170:-0.50599, 169: 1.77892, 168:-0.16358, 167: 0.02749, 166:-1.56009, 165: 1.93769,
                164:-0.38194, 163:-0.30306, 162:-0.53083, 161: 0.01204
   191 |      | 188: 0.64949, 187:-0.53541, 186: 0.44621, 185:-0.40445, 184: 0.71431, 183: 1.24508, 182:-0.50945, 181: 1.04811,
                180:-0.88592, 179:-0.94081, 178: 0.63015, 177: 0.41627, 176:-1.00755, 175: 0.52382, 174: 0.70757, 173:-0.08291,
                172: 0.87409, 171: 1.53326, 170: 1.15357, 169: 0.64895, 168: 0.03455, 167:-0.49501, 166:-0.34091, 165: 0.07097,
                164: 1.36876, 163:-0.53439, 162:-0.24942, 161:-1.47753
   192 |      | 188:-0.66482, 187:-0.05947, 186:-0.23715, 185: 1.20797, 184: 0.96535, 183:-0.50271, 182:-0.24793, 181:-1.62237,
                180:-0.18527, 179: 0.82655, 178:-0.17025, 177: 0.75293, 176: 0.43874, 175:-1.17819, 174:-0.34014, 173:-0.33273,
                172: 0.23612, 171:-0.28242, 170:-0.84234, 169:-0.07408, 168:-0.71356, 167:-0.11449, 166: 1.30377, 165:-2.01482,
                164:-0.93490, 163:-0.12339, 162: 0.38594, 161:-0.04232
   193 |      | 188: 0.36310, 187:-1.06311, 186:-0.09069, 185:-0.67599, 184:-0.80166, 183: 0.82575, 182:-0.93034, 181:-1.40249,
                180: 0.53149, 179:-0.52565, 178:-1.71140, 177:-0.06341, 176: 1.64490, 175:-0.89414, 174: 0.79513, 173:-0.54768,
                172:-0.65836, 171: 0.37908, 170: 1.21069, 169: 0.04027, 168: 0.42401, 167: 1.44033, 166: 1.22789, 165: 0.04983,
                164:-0.61827, 163:-0.85771, 162: 0.32850, 161: 0.63266
   194 |      | 188: 0.83600, 187: 0.42055, 186:-1.12140, 185:-0.66181, 184:-0.83203, 183: 0.65792, 182: 0.42225, 181: 0.70342,
                180:-1.10924, 179: 0.68325, 178: 1.00972, 177:-0.61299, 176:-0.07636, 175: 0.61881, 174: 0.24757, 173: 0.27424,
                172: 0.88270, 171:-0.06850, 170:-0.57113, 169:-1.64517, 168: 0.58674, 167: 0.29265, 166: 0.01377, 165:-0.29305,
                164: 0.25434, 163: 1.08559, 162:-1.33745, 161: 0.54510
   195 |      | 188: 0.18626, 187: 0.32296, 186:-1.24992, 185: 0.39380, 184: 0.51058, 183: 0.52031, 182:-0.68742, 181: 1.65870,
                180:-0.80626, 179:-0.50995, 178: 0.33877, 177: 0.62879, 176:-0.37303, 175: 0.53552, 174:-0.88291, 173: 1.26762,
                172:-0.86252, 171: 0.42476, 170: 0.79777, 169:-0.18691, 168: 0.23930, 167: 0.17875, 166: 0.01301, 165:-0.39203,
                164:-0.65867, 163: 0.27597, 162:-0.26104, 161:-0.32617
   196 |      | 188: 0.94940, 187:-0.27931, 186: 0.12152, 185:-1.29957, 184:-0.49377, 183: 1.40240, 182:-0.51755, 181:-0.68615,
                180:-0.16103, 179:-1.04981, 178: 0.53393, 177:-1.89987, 176:-0.71691, 175: 0.20747, 174: 0.27828, 173: 1.17167,
                172: 1.30071, 171: 1.21555, 170:-0.51262, 169: 0.85418, 168:-0.81874, 167:-1.37169, 166:-0.36185, 165: 1.54795,
                164: 1.05325, 163: 0.48353, 162: 0.26316, 161: 0.46399
   197 |      | 188: 0.42975, 187:-0.18770, 186:-0.33185, 185: 0.57956, 184:-0.16558, 183: 0.14510, 182: 0.19902, 181:-0.11507,
                180:-0.83605, 179: 0.93584, 178:-1.11106, 177: 0.36651, 176: 0.51438, 175: 0.77376, 174: 0.29312, 173:-0.22408,
                172:-0.35190, 171:-1.10452, 170: 0.72391, 169:-0.95063, 168: 0.43123, 167:-1.34619, 166: 0.33889, 165:-0.05807,
                164: 0.73771, 163: 0.89132, 162: 0.57171, 161:-0.79343
   198 |      | 188:-0.89720, 187: 0.58457, 186:-0.36554, 185: 1.45150, 184: 1.96019, 183:-0.20932, 182:-0.13594, 181: 1.04781,
                180: 1.23820, 179:-0.58470, 178: 0.02720, 177: 2.16407, 176:-1.57780, 175:-0.22985, 174:-1.36067, 173:-1.25669,
                172:-0.13727, 171:-0.98437, 170: 0.42981, 169: 1.98332, 168:-0.00278, 167:-0.41726, 166: 0.56682, 165:-0.37279,
                164: 1.39272, 163:-1.30219, 162:-0.39185, 161:-0.35306
   199 |      | 188:-0.07098, 187:-0.78787, 186: 0.90353, 185: 0.39829, 184:-0.13002, 183:-0.68080, 182: 0.60349, 181: 0.92331,
                180:-0.52144, 179: 0.04053, 178:-0.13545, 177:-0.07667, 176:-0.96096, 175: 0.75482, 174: 0.08761, 173: 0.55304,
                172:-0.59522, 171:-0.72139, 170:-0.66455, 169: 0.10382, 168: 0.44470, 167: 0.23255, 166:-0.68819, 165:-0.26274,
                164:-0.76208, 163: 1.30776, 162:-0.80381, 161:-0.10329
   200 |      | 188: 0.47794, 187:-0.69364, 186: 1.02473, 185:-0.59491, 184:-1.52483, 183:-0.75075, 182: 0.57770, 181:-0.61762,
                180:-0.45905, 179: 0.62643, 178:-0.68449, 177:-0.52648, 176: 1.37153, 175:-1.88940, 174: 1.42004, 173: 0.38979,
                172: 1.28716, 171: 0.60215, 170:-0.17071, 169: 0.99087, 168:-0.85260, 167: 0.21753, 166: 1.61891, 165:-0.26026,
                164:-0.51711, 163: 0.31754, 162:-0.65211, 161:-1.23999
   201 |      | 188:-0.75391, 187:-0.73566, 186:-0.50113, 185:-0.10603, 184:-0.21397, 183:-1.11082, 182: 0.03405, 181:-0.16814,
                180: 0.76962, 179: 0.43460, 178:-0.17099, 177:-1.38870, 176:-1.43120, 175: 0.89269, 174: 0.56519, 173: 0.44455,
                172:-0.93507, 171: 0.58387, 170: 0.81930, 169:-0.77485, 168: 0.73745, 167: 1.16058, 166:-1.31920, 165:-0.04959,
                164: 0.70409, 163:-0.15285, 162: 0.27000, 161: 0.49631
   202 |      | 188: 0.09764, 187: 0.41700, 186: 1.23715, 185: 0.48143, 184: 0.42559, 183:-1.17926, 182: 0.55187, 181: 0.51703,
                180:-0.05266, 179:-0.31535, 178: 0.10421, 177:-0.34974, 176: 0.59143, 175: 0.39786, 174: 0.43413, 173: 0.25978,
                172: 0.72487, 171:-0.38894, 170:-2.07717, 169: 1.19053, 168: 0.66988, 167:-1.08200, 166:-0.75733, 165: 0.48660,
                164:-1.91141, 163: 0.29449, 162: 0.79756, 161: 1.06218
   203 |      | 188:-0.54039, 187:-0.24364, 186:-0.84207, 185:-0.23714, 184: 0.51300, 183: 0.25114, 182: 0.47869, 181: 1.24780,
                180: 0.93562, 179: 0.81394, 178: 0.44126, 177: 2.08115, 176: 1.14706, 175: 0.29047, 174:-1.96421, 173:-0.25338,
                172:-1.37969, 171: 0.36500, 170: 0.24224, 169:-1.40914, 168:-0.88546, 167: 0.30216, 166:-0.13711, 165:-0.37877,
                164: 0.73461, 163: 0.11657, 162:-1.47642, 161:-0.97697
   204 |      | 188: 0.69397, 187: 0.32736, 186:-1.51386, 185: 0.68992, 184:-0.71282, 183: 1.44063, 182:-0.58421, 181: 1.40286,
                180:-0.88809, 179: 0.40015, 178: 0.66851, 177: 1.45919, 176:-0.87090, 175:-0.72821, 174: 0.05321, 173: 0.43907,
                172: 0.81221, 171:-1.14798, 170: 0.89473, 169: 0.48678, 168:-0.88416, 167:-0.35686, 166: 1.36231, 165: 0.50189,
                164: 0.25956, 163:-2.09882, 162:-0.11343, 161:-0.22433
   205 |      | 188:-0.27437, 187: 0.17732, 186:-0.34273, 185: 0.71731, 184:-0.28792, 183: 0.40288, 182: 0.08090, 181:-1.30155,
                180:-0.30466, 179:-0.82208, 178:-1.07032, 177:-1.11296, 176:-0.66778, 175:-1.06691, 174: 1.31968, 173: 1.22331,
                172:-0.57576, 171: 0.06020, 170: 1.13727, 169:-1.12384, 168:-0.37662, 167: 0.52795, 166: 1.04310, 165:-0.40092,
                164: 1.17218, 163:-1.01925, 162: 1.00802, 161: 1.41277
   206 |      | 188:-0.48115, 187:-0.16092, 186:-1.20837, 185:-0.45499, 184: 0.43818, 183: 0.55539, 182:-0.07235, 181:-1.03781,
                180: 0.99331, 179: 0.70088, 178:-1.31814, 177: 1.10449, 176: 2.16526, 175: 0.48001, 174:-2.09485, 173:-1.10063,
                172:-0.22078, 171: 0.04178, 170: 0.87108, 169: 0.22770, 168: 0.00766, 167: 0.79497, 166:-1.51290, 165:-0.91820,
                164: 0.37417, 163: 0.18029, 162: 0.68716, 161: 0.01655
   207 |      | 188:-0.09696, 187:-0.61969, 186: 0.06776, 185: 0.65829, 184:-1.73230, 183: 0.09566, 182: 1.28414, 181: 0.74905,
