SNNS network definition file V1.4-3D
generated at Wed Jan 14 14:31:02 2015

network name : default
source files :
no. of units : 230
no. of connections : 7400
no. of unit types : 0
no. of site types : 0


learning function : Rprop
update function   : Topological_Order


unit default section :

act      | bias     | st | subnet | layer | act func     | out func
---------|----------|----|--------|-------|--------------|-------------
 0.00000 |  0.00000 | h  |      0 |     1 | Act_Logistic | Out_Identity 
---------|----------|----|--------|-------|--------------|-------------


unit definition section :

no. | typeName | unitName | act      | bias     | st | position | act func     | out func | sites
----|----------|----------|----------|----------|----|----------|--------------|----------|-------
  1 |          | noName   |  0.00000 |  0.49614 | i  |  1, 1, 1 | Act_Identity |          | 
  2 |          | noName   |  0.00000 |  0.61968 | i  |  2, 1, 1 | Act_Identity |          | 
  3 |          | noName   |  1.00000 | -0.75610 | i  |  3, 1, 1 | Act_Identity |          | 
  4 |          | noName   |  1.00000 |  0.27989 | i  |  4, 1, 1 | Act_Identity |          | 
  5 |          | noName   |  1.00000 | -0.23515 | i  |  5, 1, 1 | Act_Identity |          | 
  6 |          | noName   |  1.00000 |  0.57347 | i  |  6, 1, 1 | Act_Identity |          | 
  7 |          | noName   |  1.00000 |  0.23118 | i  |  7, 1, 1 | Act_Identity |          | 
  8 |          | noName   |  1.00000 |  0.38536 | i  |  8, 1, 1 | Act_Identity |          | 
  9 |          | noName   |  1.00000 | -0.59319 | i  |  9, 1, 1 | Act_Identity |          | 
 10 |          | noName   |  1.00000 |  0.29167 | i  | 10, 1, 1 | Act_Identity |          | 
 11 |          | noName   |  0.00000 | -0.41453 | i  |  1, 2, 1 | Act_Identity |          | 
 12 |          | noName   |  1.00000 | -0.52855 | i  |  2, 2, 1 | Act_Identity |          | 
 13 |          | noName   |  1.00000 |  0.67394 | i  |  3, 2, 1 | Act_Identity |          | 
 14 |          | noName   |  1.00000 |  0.99622 | i  |  4, 2, 1 | Act_Identity |          | 
 15 |          | noName   |  1.00000 | -0.29167 | i  |  5, 2, 1 | Act_Identity |          | 
 16 |          | noName   |  1.00000 | -0.86834 | i  |  6, 2, 1 | Act_Identity |          | 
 17 |          | noName   |  1.00000 | -0.60790 | i  |  7, 2, 1 | Act_Identity |          | 
 18 |          | noName   |  1.00000 |  0.38969 | i  |  8, 2, 1 | Act_Identity |          | 
 19 |          | noName   |  1.00000 |  0.95007 | i  |  9, 2, 1 | Act_Identity |          | 
 20 |          | noName   |  1.00000 |  0.94116 | i  | 10, 2, 1 | Act_Identity |          | 
 21 |          | noName   |  0.00000 | -0.04202 | i  |  1, 3, 1 | Act_Identity |          | 
 22 |          | noName   |  1.00000 |  0.91632 | i  |  2, 3, 1 | Act_Identity |          | 
 23 |          | noName   |  1.00000 |  0.07663 | i  |  3, 3, 1 | Act_Identity |          | 
 24 |          | noName   |  1.00000 | -0.69439 | i  |  4, 3, 1 | Act_Identity |          | 
 25 |          | noName   |  1.00000 |  0.04196 | i  |  5, 3, 1 | Act_Identity |          | 
 26 |          | noName   |  1.00000 | -0.09836 | i  |  6, 3, 1 | Act_Identity |          | 
 27 |          | noName   |  1.00000 | -0.89966 | i  |  7, 3, 1 | Act_Identity |          | 
 28 |          | noName   |  1.00000 | -0.77947 | i  |  8, 3, 1 | Act_Identity |          | 
 29 |          | noName   |  1.00000 |  0.56120 | i  |  9, 3, 1 | Act_Identity |          | 
 30 |          | noName   |  1.00000 | -0.11582 | i  | 10, 3, 1 | Act_Identity |          | 
 31 |          | noName   |  0.00000 | -0.46409 | i  |  1, 4, 1 | Act_Identity |          | 
 32 |          | noName   |  0.00000 | -0.24747 | i  |  2, 4, 1 | Act_Identity |          | 
 33 |          | noName   |  0.00000 |  0.48460 | i  |  3, 4, 1 | Act_Identity |          | 
 34 |          | noName   |  0.00000 |  0.45042 | i  |  4, 4, 1 | Act_Identity |          | 
 35 |          | noName   |  0.00000 |  0.14444 | i  |  5, 4, 1 | Act_Identity |          | 
 36 |          | noName   |  0.00000 | -0.94360 | i  |  6, 4, 1 | Act_Identity |          | 
 37 |          | noName   |  0.00000 | -0.96777 | i  |  7, 4, 1 | Act_Identity |          | 
 38 |          | noName   |  1.00000 | -0.11374 | i  |  8, 4, 1 | Act_Identity |          | 
 39 |          | noName   |  1.00000 | -0.77105 | i  |  9, 4, 1 | Act_Identity |          | 
 40 |          | noName   |  1.00000 | -0.26029 | i  | 10, 4, 1 | Act_Identity |          | 
 41 |          | noName   |  0.00000 |  0.83203 | i  |  1, 5, 1 | Act_Identity |          | 
 42 |          | noName   |  0.00000 | -0.04209 | i  |  2, 5, 1 | Act_Identity |          | 
 43 |          | noName   |  0.00000 | -0.45720 | i  |  3, 5, 1 | Act_Identity |          | 
 44 |          | noName   |  0.00000 |  0.38719 | i  |  4, 5, 1 | Act_Identity |          | 
 45 |          | noName   |  0.00000 |  0.59520 | i  |  5, 5, 1 | Act_Identity |          | 
 46 |          | noName   |  0.00000 |  0.13364 | i  |  6, 5, 1 | Act_Identity |          | 
 47 |          | noName   |  0.00000 |  0.87384 | i  |  7, 5, 1 | Act_Identity |          | 
 48 |          | noName   |  1.00000 |  0.05826 | i  |  8, 5, 1 | Act_Identity |          | 
 49 |          | noName   |  1.00000 |  0.87506 | i  |  9, 5, 1 | Act_Identity |          | 
 50 |          | noName   |  0.00000 |  0.55943 | i  | 10, 5, 1 | Act_Identity |          | 
 51 |          | noName   |  0.00000 |  0.36680 | i  |  1, 6, 1 | Act_Identity |          | 
 52 |          | noName   |  0.00000 | -0.43059 | i  |  2, 6, 1 | Act_Identity |          | 
 53 |          | noName   |  0.00000 | -0.53087 | i  |  3, 6, 1 | Act_Identity |          | 
 54 |          | noName   |  0.00000 |  0.10141 | i  |  4, 6, 1 | Act_Identity |          | 
 55 |          | noName   |  0.00000 | -0.35319 | i  |  5, 6, 1 | Act_Identity |          | 
 56 |          | noName   |  0.00000 |  0.37443 | i  |  6, 6, 1 | Act_Identity |          | 
 57 |          | noName   |  1.00000 |  0.02896 | i  |  7, 6, 1 | Act_Identity |          | 
 58 |          | noName   |  1.00000 |  0.76708 | i  |  8, 6, 1 | Act_Identity |          | 
 59 |          | noName   |  1.00000 |  0.80596 | i  |  9, 6, 1 | Act_Identity |          | 
 60 |          | noName   |  0.00000 |  0.85455 | i  | 10, 6, 1 | Act_Identity |          | 
 61 |          | noName   |  0.00000 |  0.43907 | i  |  1, 7, 1 | Act_Identity |          | 
 62 |          | noName   |  0.00000 |  0.81762 | i  |  2, 7, 1 | Act_Identity |          | 
 63 |          | noName   |  0.00000 |  0.31535 | i  |  3, 7, 1 | Act_Identity |          | 
 64 |          | noName   |  0.00000 |  0.83135 | i  |  4, 7, 1 | Act_Identity |          | 
 65 |          | noName   |  0.00000 |  0.52843 | i  |  5, 7, 1 | Act_Identity |          | 
 66 |          | noName   |  1.00000 | -0.11545 | i  |  6, 7, 1 | Act_Identity |          | 
 67 |          | noName   |  1.00000 |  0.92621 | i  |  7, 7, 1 | Act_Identity |          | 
 68 |          | noName   |  1.00000 |  0.11515 | i  |  8, 7, 1 | Act_Identity |          | 
 69 |          | noName   |  0.00000 | -0.32408 | i  |  9, 7, 1 | Act_Identity |          | 
 70 |          | noName   |  0.00000 |  0.40239 | i  | 10, 7, 1 | Act_Identity |          | 
 71 |          | noName   |  0.00000 |  0.62072 | i  |  1, 8, 1 | Act_Identity |          | 
 72 |          | noName   |  0.00000 | -0.09952 | i  |  2, 8, 1 | Act_Identity |          | 
 73 |          | noName   |  0.00000 | -0.12687 | i  |  3, 8, 1 | Act_Identity |          | 
 74 |          | noName   |  0.00000 |  0.67064 | i  |  4, 8, 1 | Act_Identity |          | 
 75 |          | noName   |  1.00000 |  0.67736 | i  |  5, 8, 1 | Act_Identity |          | 
 76 |          | noName   |  1.00000 |  0.82202 | i  |  6, 8, 1 | Act_Identity |          | 
 77 |          | noName   |  1.00000 |  0.80688 | i  |  7, 8, 1 | Act_Identity |          | 
 78 |          | noName   |  0.00000 | -0.14316 | i  |  8, 8, 1 | Act_Identity |          | 
 79 |          | noName   |  0.00000 | -0.08914 | i  |  9, 8, 1 | Act_Identity |          | 
 80 |          | noName   |  0.00000 |  0.48320 | i  | 10, 8, 1 | Act_Identity |          | 
 81 |          | noName   |  1.00000 |  0.52293 | i  |  1, 9, 1 | Act_Identity |          | 
 82 |          | noName   |  1.00000 |  0.25370 | i  |  2, 9, 1 | Act_Identity |          | 
 83 |          | noName   |  1.00000 | -0.84875 | i  |  3, 9, 1 | Act_Identity |          | 
 84 |          | noName   |  1.00000 |  0.27012 | i  |  4, 9, 1 | Act_Identity |          | 
 85 |          | noName   |  1.00000 |  0.23563 | i  |  5, 9, 1 | Act_Identity |          | 
 86 |          | noName   |  1.00000 | -0.89758 | i  |  6, 9, 1 | Act_Identity |          | 
 87 |          | noName   |  1.00000 | -0.97674 | i  |  7, 9, 1 | Act_Identity |          | 
 88 |          | noName   |  1.00000 |  0.26249 | i  |  8, 9, 1 | Act_Identity |          | 
 89 |          | noName   |  1.00000 |  0.84320 | i  |  9, 9, 1 | Act_Identity |          | 
 90 |          | noName   |  0.00000 | -0.70464 | i  | 10, 9, 1 | Act_Identity |          | 
 91 |          | noName   |  1.00000 | -0.91070 | i  |  1,10, 1 | Act_Identity |          | 
 92 |          | noName   |  1.00000 |  0.05557 | i  |  2,10, 1 | Act_Identity |          | 
 93 |          | noName   |  1.00000 | -0.28690 | i  |  3,10, 1 | Act_Identity |          | 
 94 |          | noName   |  1.00000 | -0.73034 | i  |  4,10, 1 | Act_Identity |          | 
 95 |          | noName   |  1.00000 | -0.58220 | i  |  5,10, 1 | Act_Identity |          | 
 96 |          | noName   |  1.00000 |  0.30424 | i  |  6,10, 1 | Act_Identity |          | 
 97 |          | noName   |  1.00000 | -0.70000 | i  |  7,10, 1 | Act_Identity |          | 
 98 |          | noName   |  1.00000 | -0.59502 | i  |  8,10, 1 | Act_Identity |          | 
 99 |          | noName   |  1.00000 |  0.64037 | i  |  9,10, 1 | Act_Identity |          | 
100 |          | noName   |  1.00000 |  0.80218 | i  | 10,10, 1 | Act_Identity |          | 
101 |          | noName   |  1.00000 |  0.15720 | i  |  1,11, 1 | Act_Identity |          | 
102 |          | noName   |  1.00000 | -0.76250 | i  |  2,11, 1 | Act_Identity |          | 
103 |          | noName   |  1.00000 | -0.44078 | i  |  3,11, 1 | Act_Identity |          | 
104 |          | noName   |  1.00000 | -0.09098 | i  |  4,11, 1 | Act_Identity |          | 
105 |          | noName   |  1.00000 | -0.09415 | i  |  5,11, 1 | Act_Identity |          | 
106 |          | noName   |  1.00000 |  0.80328 | i  |  6,11, 1 | Act_Identity |          | 
107 |          | noName   |  1.00000 |  0.36851 | i  |  7,11, 1 | Act_Identity |          | 
108 |          | noName   |  1.00000 | -0.86236 | i  |  8,11, 1 | Act_Identity |          | 
109 |          | noName   |  0.00000 |  0.72350 | i  |  9,11, 1 | Act_Identity |          | 
110 |          | noName   |  0.00000 |  0.42216 | i  | 10,11, 1 | Act_Identity |          | 
111 |          | noName   |  0.00000 |  0.55052 | i  |  1,12, 1 | Act_Identity |          | 
112 |          | noName   |  0.00000 | -0.28636 | i  |  2,12, 1 | Act_Identity |          | 
113 |          | noName   |  1.00000 |  0.91449 | i  |  3,12, 1 | Act_Identity |          | 
114 |          | noName   |  1.00000 |  0.23667 | i  |  4,12, 1 | Act_Identity |          | 
115 |          | noName   |  1.00000 | -0.48894 | i  |  5,12, 1 | Act_Identity |          | 
116 |          | noName   |  0.00000 |  0.92065 | i  |  6,12, 1 | Act_Identity |          | 
117 |          | noName   |  0.00000 | -0.87481 | i  |  7,12, 1 | Act_Identity |          | 
118 |          | noName   |  0.00000 | -0.18375 | i  |  8,12, 1 | Act_Identity |          | 
119 |          | noName   |  0.00000 | -0.98480 | i  |  9,12, 1 | Act_Identity |          | 
120 |          | noName   |  0.00000 | -0.95740 | i  | 10,12, 1 | Act_Identity |          | 
121 |          | noName   |  0.00000 |  0.76641 | i  |  1,13, 1 | Act_Identity |          | 
122 |          | noName   |  0.00000 | -0.85870 | i  |  2,13, 1 | Act_Identity |          | 
123 |          | noName   |  1.00000 | -0.51378 | i  |  3,13, 1 | Act_Identity |          | 
124 |          | noName   |  1.00000 |  0.71697 | i  |  4,13, 1 | Act_Identity |          | 
125 |          | noName   |  0.00000 | -0.79589 | i  |  5,13, 1 | Act_Identity |          | 
126 |          | noName   |  0.00000 | -0.72204 | i  |  6,13, 1 | Act_Identity |          | 
127 |          | noName   |  0.00000 | -0.76952 | i  |  7,13, 1 | Act_Identity |          | 
128 |          | noName   |  0.00000 | -0.49034 | i  |  8,13, 1 | Act_Identity |          | 
129 |          | noName   |  0.00000 | -0.71581 | i  |  9,13, 1 | Act_Identity |          | 
130 |          | noName   |  0.00000 |  0.05716 | i  | 10,13, 1 | Act_Identity |          | 
131 |          | noName   |  0.00000 |  0.65081 | i  |  1,14, 1 | Act_Identity |          | 
132 |          | noName   |  1.00000 | -0.47380 | i  |  2,14, 1 | Act_Identity |          | 
133 |          | noName   |  1.00000 | -0.24986 | i  |  3,14, 1 | Act_Identity |          | 
134 |          | noName   |  1.00000 | -0.93011 | i  |  4,14, 1 | Act_Identity |          | 
135 |          | noName   |  0.00000 |  0.50993 | i  |  5,14, 1 | Act_Identity |          | 
136 |          | noName   |  0.00000 |  0.86956 | i  |  6,14, 1 | Act_Identity |          | 
137 |          | noName   |  0.00000 |  0.11808 | i  |  7,14, 1 | Act_Identity |          | 
138 |          | noName   |  0.00000 | -0.70818 | i  |  8,14, 1 | Act_Identity |          | 
139 |          | noName   |  0.00000 |  0.30821 | i  |  9,14, 1 | Act_Identity |          | 
140 |          | noName   |  0.00000 |  0.75860 | i  | 10,14, 1 | Act_Identity |          | 
141 |          | noName   |  1.00000 |  0.57213 | i  |  1,15, 1 | Act_Identity |          | 
142 |          | noName   |  1.00000 | -0.35160 | i  |  2,15, 1 | Act_Identity |          | 
143 |          | noName   |  1.00000 | -0.16379 | i  |  3,15, 1 | Act_Identity |          | 
144 |          | noName   |  0.00000 | -0.88073 | i  |  4,15, 1 | Act_Identity |          | 
145 |          | noName   |  0.00000 |  0.44072 | i  |  5,15, 1 | Act_Identity |          | 
146 |          | noName   |  0.00000 | -0.16501 | i  |  6,15, 1 | Act_Identity |          | 
147 |          | noName   |  0.00000 | -0.03378 | i  |  7,15, 1 | Act_Identity |          | 
148 |          | noName   |  0.00000 |  0.46098 | i  |  8,15, 1 | Act_Identity |          | 
149 |          | noName   |  0.00000 | -0.18192 | i  |  9,15, 1 | Act_Identity |          | 
150 |          | noName   |  0.00000 | -0.29759 | i  | 10,15, 1 | Act_Identity |          | 
151 |          | noName   |  1.00000 | -0.25584 | i  |  1,16, 1 | Act_Identity |          | 
152 |          | noName   |  1.00000 |  0.85009 | i  |  2,16, 1 | Act_Identity |          | 
153 |          | noName   |  1.00000 | -0.10727 | i  |  3,16, 1 | Act_Identity |          | 
154 |          | noName   |  0.00000 |  0.52220 | i  |  4,16, 1 | Act_Identity |          | 
155 |          | noName   |  0.00000 | -0.15519 | i  |  5,16, 1 | Act_Identity |          | 
156 |          | noName   |  0.00000 | -0.20591 | i  |  6,16, 1 | Act_Identity |          | 
157 |          | noName   |  0.00000 |  0.54534 | i  |  7,16, 1 | Act_Identity |          | 
158 |          | noName   |  0.00000 |  0.44255 | i  |  8,16, 1 | Act_Identity |          | 
159 |          | noName   |  0.00000 | -0.54680 | i  |  9,16, 1 | Act_Identity |          | 
160 |          | noName   |  0.00000 | -0.15152 | i  | 10,16, 1 | Act_Identity |          | 
161 |          | noName   |  0.00009 | -0.47459 | o  | 25, 3, 1 |||
162 |          | noName   |  0.00044 | -0.93993 | o  | 25, 4, 1 |||
163 |          | noName   |  0.00052 | -0.74321 | o  | 25, 5, 1 |||
164 |          | noName   |  0.00048 | -0.15817 | o  | 25, 6, 1 |||
165 |          | noName   |  0.00063 | -0.72647 | o  | 25, 7, 1 |||
166 |          | noName   |  0.00005 | -1.15897 | o  | 25, 8, 1 |||
167 |          | noName   |  0.00029 | -0.83730 | o  | 25, 9, 1 |||
168 |          | noName   |  0.99959 | -0.79529 | o  | 25,10, 1 |||
169 |          | noName   |  0.00033 | -0.58329 | o  | 25,11, 1 |||
170 |          | noName   |  0.00020 | -0.54104 | o  | 25,12, 1 |||
171 |          | noName   |  0.33167 | -0.46380 | h  | 14, 3, 1 |||
172 |          | noName   |  0.04688 |  0.07890 | h  | 15, 3, 1 |||
173 |          | noName   |  0.02995 |  0.14561 | h  | 16, 3, 1 |||
174 |          | noName   |  0.99397 | -0.11838 | h  | 17, 3, 1 |||
175 |          | noName   |  0.22526 | -0.49302 | h  | 14, 4, 1 |||
176 |          | noName   |  0.99186 |  0.25186 | h  | 15, 4, 1 |||
177 |          | noName   |  0.00068 | -0.27604 | h  | 16, 4, 1 |||
178 |          | noName   |  0.05892 | -0.04179 | h  | 17, 4, 1 |||
179 |          | noName   |  0.04009 | -0.26253 | h  | 14, 5, 1 |||
180 |          | noName   |  0.85827 |  0.22868 | h  | 15, 5, 1 |||
181 |          | noName   |  0.98858 | -0.33483 | h  | 16, 5, 1 |||
182 |          | noName   |  0.99931 |  0.25967 | h  | 17, 5, 1 |||
183 |          | noName   |  0.04114 | -0.45178 | h  | 14, 6, 1 |||
184 |          | noName   |  0.00224 | -0.47258 | h  | 15, 6, 1 |||
185 |          | noName   |  0.01456 | -0.37777 | h  | 16, 6, 1 |||
186 |          | noName   |  0.93156 |  0.19521 | h  | 17, 6, 1 |||
187 |          | noName   |  0.02609 | -0.00413 | h  | 14, 7, 1 |||
188 |          | noName   |  0.00157 |  0.20222 | h  | 15, 7, 1 |||
189 |          | noName   |  0.77446 |  0.13295 | h  | 16, 7, 1 |||
190 |          | noName   |  0.26906 |  0.23860 | h  | 17, 7, 1 |||
191 |          | noName   |  0.01343 | -0.37274 | h  | 14, 8, 1 |||
192 |          | noName   |  0.97541 | -0.25454 | h  | 15, 8, 1 |||
193 |          | noName   |  0.99650 |  0.17070 | h  | 16, 8, 1 |||
194 |          | noName   |  0.00850 |  0.26806 | h  | 17, 8, 1 |||
195 |          | noName   |  0.29085 | -0.04963 | h  | 14, 9, 1 |||
196 |          | noName   |  0.93668 |  0.07676 | h  | 15, 9, 1 |||
197 |          | noName   |  0.00508 |  0.54280 | h  | 16, 9, 1 |||
198 |          | noName   |  0.99166 |  0.42722 | h  | 17, 9, 1 |||
199 |          | noName   |  0.16274 | -0.31957 | h  | 14,10, 1 |||
200 |          | noName   |  0.00222 |  0.14046 | h  | 15,10, 1 |||
201 |          | noName   |  0.99455 | -0.19416 | h  | 16,10, 1 |||
202 |          | noName   |  0.42083 |  0.70953 | h  | 17,10, 1 |||
203 |          | noName   |  0.99326 |  0.04492 | h  | 14,11, 1 |||
204 |          | noName   |  0.00059 | -0.04759 | h  | 15,11, 1 |||
205 |          | noName   |  0.04643 | -0.25366 | h  | 16,11, 1 |||
206 |          | noName   |  0.90559 | -0.25214 | h  | 17,11, 1 |||
207 |          | noName   |  0.96499 | -0.26647 | h  | 14,12, 1 |||
208 |          | noName   |  0.93862 |  0.41202 | h  | 15,12, 1 |||
209 |          | noName   |  0.93310 |  0.43969 | h  | 16,12, 1 |||
210 |          | noName   |  0.97767 |  0.08086 | h  | 17,12, 1 |||
211 |          | noName   |  0.90344 |  0.15275 | h  | 20, 3, 1 |||
212 |          | noName   |  0.07399 | -0.13788 | h  | 21, 3, 1 |||
213 |          | noName   |  0.03033 |  0.09044 | h  | 20, 4, 1 |||
214 |          | noName   |  0.02064 |  0.29599 | h  | 21, 4, 1 |||
215 |          | noName   |  0.95421 |  0.08628 | h  | 20, 5, 1 |||
216 |          | noName   |  0.99301 |  0.22161 | h  | 21, 5, 1 |||
217 |          | noName   |  0.08459 |  0.04494 | h  | 20, 6, 1 |||
218 |          | noName   |  0.03860 |  0.01305 | h  | 21, 6, 1 |||
219 |          | noName   |  0.97554 |  0.11754 | h  | 20, 7, 1 |||
220 |          | noName   |  0.01238 | -0.38630 | h  | 21, 7, 1 |||
221 |          | noName   |  0.86888 |  0.40607 | h  | 20, 8, 1 |||
222 |          | noName   |  0.01175 |  0.08061 | h  | 21, 8, 1 |||
223 |          | noName   |  0.03597 |  0.10289 | h  | 20, 9, 1 |||
224 |          | noName   |  0.95450 | -0.26054 | h  | 21, 9, 1 |||
225 |          | noName   |  0.98496 |  0.45858 | h  | 20,10, 1 |||
226 |          | noName   |  0.88140 | -0.43303 | h  | 21,10, 1 |||
227 |          | noName   |  0.97609 | -0.03517 | h  | 20,11, 1 |||
228 |          | noName   |  0.95283 |  0.17313 | h  | 21,11, 1 |||
229 |          | noName   |  0.99204 |  0.06130 | h  | 20,12, 1 |||
230 |          | noName   |  0.93742 |  0.05027 | h  | 21,12, 1 |||
----|----------|----------|----------|----------|----|----------|--------------|----------|-------


connection definition section :

target | site | source:weight
-------|------|----------------------------------------------------------------------------------------------------------------
   161 |      | 230:-2.34806, 229:-3.07459, 228:-2.39243, 227: 0.36075, 226:-0.95646, 225:-2.69933, 224: 1.65847, 223: 0.57645,
                222:-1.85707, 221: 1.45153, 220:-0.60675, 219:-0.42381, 218: 0.84467, 217: 0.35067, 216:-2.02137, 215: 0.12269,
                214: 2.22536, 213:-3.17468, 212: 1.05549, 211: 1.34184
   162 |      | 230:-0.25077, 229: 0.36136, 228:-0.14592, 227: 0.11929, 226:-1.27294, 225: 0.00694, 224: 1.54384, 223: 0.10337,
                222: 1.47258, 221: 0.12543, 220:-0.72794, 219:-4.86609, 218: 1.45666, 217:-2.92752, 216: 1.02944, 215:-3.92037,
                214: 1.99840, 213: 1.09880, 212:-1.72341, 211: 0.37313
   163 |      | 230: 1.28351, 229:-0.38998, 228:-3.83691, 227:-4.19421, 226: 2.17835, 225: 0.04764, 224:-2.91033, 223: 1.62888,
                222:-1.99833, 221: 0.29775, 220:-0.73655, 219:-0.47281, 218:-2.16216, 217:-3.02799, 216: 0.46536, 215: 0.00282,
                214: 0.94220, 213: 1.97471, 212: 1.95911, 211: 0.83653
   164 |      | 230:-2.92662, 229:-0.04538, 228: 1.17047, 227:-3.48626, 226:-1.28337, 225: 1.33270, 224:-1.83912, 223:-2.51048,
                222: 2.21143, 221: 0.87023, 220:-1.09200, 219:-0.19466, 218:-1.30659, 217: 1.41503, 216: 1.34129, 215:-0.06345,
                214: 2.40494, 213:-3.23440, 212:-1.60989, 211:-2.75393
   165 |      | 230: 1.75700, 229:-0.56194, 228: 1.35047, 227:-0.11563, 226:-1.66803, 225: 0.62450, 224:-3.31255, 223: 1.44446,
                222:-2.14865, 221:-2.77357, 220:-0.17752, 219: 0.01470, 218: 0.69317, 217: 1.28451, 216: 0.67490, 215:-4.06852,
                214:-2.02265, 213:-3.22275, 212: 1.26896, 211: 0.66699
   166 |      | 230: 1.38512, 229: 0.47926, 228: 0.27392, 227: 0.69211, 226:-1.97391, 225:-3.88571, 224:-2.46635, 223: 1.00433,
                222: 0.16440, 221:-0.16173, 220: 4.78149, 219:-0.40234, 218:-3.68814, 217:-0.05427, 216:-2.77160, 215:-0.57093,
                214: 1.12533, 213: 0.72820, 212:-2.60887, 211: 0.53794
   167 |      | 230: 1.80673, 229:-5.04283, 228: 1.24573, 227:-0.59570, 226:-0.58624, 225: 1.25188, 224: 0.51375, 223: 0.84112,
                222: 1.56475, 221: 0.47790, 220:-1.37024, 219: 0.18360, 218: 1.08027, 217:-0.01031, 216:-3.23920, 215: 0.35078,
                214:-3.45539, 213: 0.92199, 212:-2.68370, 211:-3.71361
   168 |      | 230: 0.82586, 229:-0.14658, 228: 1.06893, 227: 1.57888, 226: 1.80702, 225:-0.45354, 224: 2.60249, 223:-3.32184,
                222:-2.73680, 221: 0.69018, 220:-0.21249, 219: 0.18580, 218:-2.64429, 217:-2.85302, 216: 0.19744, 215: 0.65626,
                214:-2.87985, 213:-3.25113, 212:-2.74237, 211: 1.14222
   169 |      | 230:-2.99944, 229: 1.39535, 228:-4.17173, 227: 0.62779, 226:-1.71866, 225: 0.84983, 224: 2.58944, 223:-1.55108,
                222:-2.42828, 221:-3.23937, 220:-0.08324, 219:-0.36323, 218: 0.39211, 217: 0.10813, 216: 2.10070, 215: 0.13496,
                214:-2.44951, 213: 2.12560, 212: 0.81518, 211:-3.87974
   170 |      | 230:-2.50930, 229:-0.02226, 228: 1.14827, 227:-0.01168, 226: 3.43532, 225:-3.04367, 224:-2.09602, 223:-3.16342,
                222: 2.17462, 221:-2.68550, 220:-1.28539, 219:-0.68700, 218: 1.05498, 217:-0.43134, 216:-2.94818, 215: 0.03742,
                214:-2.32663, 213: 1.19028, 212: 1.25110, 211: 1.30553
   171 |      | 160: 0.19224, 159: 0.05533, 158: 0.01398, 157:-0.39792, 156:-0.02698, 155:-0.22092, 154:-0.15884, 153: 0.13701,
                152: 0.06483, 151: 0.09536, 150:-0.08193, 149: 0.07690, 148:-0.10606, 147:-0.05089, 146:-0.08973, 145: 0.10680,
                144: 0.07679, 143:-0.27436, 142: 0.05983, 141: 0.04148, 140:-0.05879, 139: 0.04693, 138:-0.02333, 137: 0.29566,
                136:-0.01158, 135: 0.02410, 134:-0.06839, 133:-0.05888, 132: 0.00610, 131:-0.20834, 130: 0.15459, 129: 0.12665,
                128: 0.13046, 127:-0.07207, 126:-0.24201, 125:-0.25865, 124:-0.20448, 123:-0.14273, 122: 0.13063, 121:-0.08686,
                120: 0.12451, 119: 0.00137, 118: 0.03628, 117: 0.26406, 116:-0.14430, 115: 0.06741, 114:-0.08149, 113: 0.07640,
                112: 0.46587, 111: 0.10658, 110: 0.05566, 109: 0.08540, 108: 0.33124, 107: 0.26393, 106: 0.23056, 105:-0.10116,
                104: 0.06301, 103: 0.24353, 102: 0.58151, 101: 0.22312, 100: 0.04939,  99:-0.10830,  98: 0.05455,  97: 0.03006,
                 96:-0.02366,  95: 0.04777,  94: 0.05768,  93: 0.14813,  92: 0.23262,  91: 0.23697,  90:-0.01206,  89: 0.15219,
                 88: 0.03076,  87:-0.06324,  86: 0.01606,  85:-0.23585,  84: 0.13980,  83: 0.02390,  82: 0.02694,  81: 0.13559,
                 80: 0.23869,  79: 0.01467,  78: 0.09517,  77: 0.05422,  76:-0.16442,  75:-0.00109,  74: 0.09414,  73:-0.04324,
                 72: 0.16934,  71: 0.18654,  70: 0.46559,  69: 0.15662,  68: 0.24465,  67: 0.05438,  66:-0.08019,  65:-0.11610,
                 64: 0.13881,  63: 0.32273,  62: 0.29591,  61: 0.17549,  60: 0.43307,  59: 0.26090,  58: 0.01293,  57:-0.32466,
                 56: 0.10268,  55: 0.19082,  54: 0.23853,  53: 0.26883,  52: 0.24452,  51: 0.30156,  50: 0.27809,  49:-0.02446,
                 48: 0.06960,  47:-0.04684,  46:-0.06057,  45: 0.10128,  44: 0.29372,  43: 0.21385,  42: 0.31239,  41: 0.08060,
                 40: 0.01371,  39: 0.12607,  38: 0.06482,  37:-0.29963,  36:-0.02497,  35:-0.19425,  34:-0.15223,  33:-0.09190,
                 32: 0.11907,  31: 0.09675,  30: 0.11067,  29:-0.02115,  28:-0.14756,  27:-0.13947,  26:-0.24988,  25:-0.13651,
                 24:-0.31692,  23:-0.08974,  22:-0.14486,  21:-0.11094,  20:-0.05368,  19: 0.02578,  18:-0.21470,  17:-0.34107,
                 16:-0.41683,  15:-0.37491,  14:-0.23559,  13:-0.28556,  12:-0.32381,  11:-0.22735,  10:-0.01714,   9:-0.01816,
                  8: 0.25273,   7:-0.06352,   6: 0.01419,   5: 0.07245,   4:-0.07931,   3: 0.14609,   2: 0.00256,   1: 0.01352
   172 |      | 160: 0.06735, 159: 0.04708, 158: 0.15458, 157:-0.06816, 156:-0.24732, 155:-0.10060, 154: 0.14081, 153:-0.14529,
                152: 0.17084, 151:-0.03936, 150: 0.14168, 149: 0.03597, 148:-0.05545, 147:-0.15130, 146: 0.32939, 145: 0.01757,
                144: 0.00024, 143:-0.06255, 142: 0.22806, 141: 0.14941, 140:-0.20790, 139: 0.02606, 138: 0.14029, 137: 0.07650,
                136: 0.16692, 135: 0.06227, 134:-0.20295, 133: 0.15535, 132:-0.03198, 131:-0.03406, 130:-0.10535, 129: 0.00850,
                128: 0.26148, 127: 0.02427, 126: 0.35619, 125:-0.10190, 124: 0.06469, 123:-0.11306, 122:-0.26814, 121:-0.12203,
                120:-0.14837, 119: 0.28547, 118: 0.10313, 117:-0.04365, 116:-0.12370, 115:-0.07498, 114:-0.27503, 113:-0.25254,
                112: 0.06247, 111: 0.09890, 110: 0.05272, 109:-0.00814, 108: 0.36676, 107: 0.38755, 106: 0.16612, 105:-0.04332,
                104:-0.12155, 103:-0.06025, 102: 0.18513, 101: 0.00354, 100:-0.08341,  99:-0.21428,  98: 0.25203,  97: 0.07665,
                 96: 0.24553,  95:-0.21684,  94:-0.31265,  93: 0.06722,  92: 0.24390,  91: 0.17869,  90: 0.16024,  89: 0.23407,
                 88:-0.12099,  87: 0.03856,  86:-0.08887,  85:-0.43999,  84: 0.24146,  83:-0.01041,  82: 0.09060,  81: 0.20835,
                 80: 0.31749,  79: 0.14931,  78: 0.08733,  77:-0.34734,  76:-0.17845,  75:-0.38852,  74:-0.02499,  73: 0.30261,
                 72: 0.34655,  71: 0.07574,  70: 0.37367,  69: 0.38878,  68: 0.10396,  67:-0.07658,  66:-0.16921,  65: 0.01298,
                 64: 0.36903,  63: 0.31174,  62: 0.41151,  61: 0.13831,  60: 0.04617,  59:-0.06210,  58:-0.22987,  57:-0.43926,
                 56: 0.00425,  55: 0.11577,  54: 0.15118,  53: 0.35431,  52: 0.40441,  51: 0.16905,  50:-0.31946,  49:-0.35062,
                 48:-0.21402,  47:-0.10925,  46:-0.04147,  45: 0.21849,  44: 0.26549,  43: 0.19289,  42: 0.12705,  41: 0.19244,
                 40:-0.29644,  39:-0.25519,  38:-0.13547,  37:-0.20812,  36:-0.23028,  35:-0.07292,  34: 0.13751,  33: 0.18353,
                 32: 0.23743,  31:-0.06158,  30: 0.09786,  29: 0.02211,  28: 0.09632,  27:-0.06531,  26:-0.36316,  25:-0.01620,
                 24:-0.15635,  23:-0.28267,  22: 0.04260,  21: 0.02749,  20: 0.14773,  19: 0.61179,  18:-0.15345,  17:-0.47015,
                 16:-0.35844,  15:-0.01185,  14:-0.29310,  13:-0.22686,  12:-0.08759,  11:-0.00102,  10:-0.10035,   9: 0.17692,
                  8: 0.30261,   7: 0.00204,   6:-0.10012,   5: 0.05967,   4:-0.03425,   3: 0.26390,   2: 0.35604,   1: 0.19903
   173 |      | 160: 0.18308, 159: 0.02472, 158: 0.16032, 157: 0.02575, 156: 0.14578, 155: 0.02384, 154:-0.11065, 153:-0.24620,
                152:-0.09347, 151: 0.00208, 150: 0.01693, 149:-0.03551, 148: 0.12239, 147:-0.04246, 146:-0.05506, 145:-0.06292,
                144:-0.36021, 143:-0.26756, 142: 0.07682, 141: 0.00135, 140:-0.39593, 139:-0.13490, 138:-0.38435, 137:-0.46796,
                136:-0.02978, 135:-0.04301, 134: 0.11875, 133: 0.14294, 132: 0.17527, 131: 0.04514, 130:-0.68306, 129:-0.40769,
                128:-0.25030, 127:-0.07268, 126:-0.04751, 125: 0.11520, 124: 0.07120, 123: 0.38948, 122: 0.36599, 121: 0.03865,
                120:-0.62983, 119:-0.25912, 118:-0.10869, 117:-0.15630, 116:-0.14325, 115:-0.38599, 114:-0.05701, 113: 0.12263,
                112: 0.44527, 111: 0.03463, 110: 0.03340, 109: 0.12254, 108: 0.16761, 107: 0.05340, 106:-0.25774, 105:-0.28864,
                104:-0.28457, 103: 0.06661, 102: 0.18563, 101: 0.03566, 100:-0.13270,  99: 0.11568,  98: 0.14124,  97:-0.14479,
                 96:-0.17358,  95:-0.40585,  94:-0.35388,  93:-0.05415,  92: 0.00455,  91: 0.03798,  90: 0.20185,  89:-0.04798,
                 88:-0.14440,  87:-0.10635,  86:-0.22106,  85:-0.51748,  84:-0.16284,  83:-0.18922,  82:-0.15027,  81: 0.12955,
                 80: 0.36787,  79: 0.24109,  78:-0.16814,  77:-0.30042,  76:-0.22061,  75:-0.32161,  74:-0.12906,  73:-0.12365,
                 72:-0.19482,  71: 0.06625,  70: 0.24577,  69: 0.27573,  68:-0.05899,  67:-0.24939,  66:-0.38138,  65:-0.14066,
                 64: 0.10602,  63: 0.18322,  62:-0.04217,  61:-0.03073,  60: 0.45948,  59: 0.24074,  58:-0.13144,  57:-0.07587,
                 56:-0.23850,  55:-0.04444,  54: 0.09452,  53:-0.05834,  52:-0.05963,  51:-0.23381,  50: 0.41470,  49: 0.24115,
                 48: 0.07040,  47:-0.19918,  46:-0.07808,  45:-0.01561,  44: 0.25392,  43: 0.01139,  42: 0.01968,  41:-0.24070,
                 40: 0.46100,  39: 0.18582,  38:-0.04235,  37:-0.24969,  36:-0.30571,  35:-0.02106,  34:-0.12696,  33: 0.17410,
                 32: 0.10288,  31:-0.08950,  30: 0.00853,  29: 0.21875,  28: 0.26337,  27:-0.08891,  26:-0.26143,  25: 0.11596,
                 24:-0.02731,  23:-0.06160,  22:-0.01359,  21:-0.13277,  20:-0.03103,  19: 0.17286,  18: 0.08615,  17: 0.08087,
                 16:-0.10792,  15:-0.17044,  14:-0.16692,  13:-0.01446,  12:-0.15064,  11: 0.05930,  10:-0.29553,   9: 0.05293,
                  8: 0.26608,   7: 0.14869,   6:-0.22852,   5:-0.11161,   4:-0.09241,   3: 0.01503,   2: 0.09172,   1: 0.00800
   174 |      | 160:-0.17712, 159:-0.01378, 158:-0.07699, 157:-0.07741, 156: 0.09146, 155: 0.12680, 154: 0.14195, 153: 0.09223,
                152: 0.20058, 151: 0.11124, 150:-0.03769, 149:-0.18846, 148:-0.00496, 147: 0.00441, 146:-0.00164, 145:-0.06938,
                144:-0.08404, 143: 0.06069, 142: 0.40477, 141: 0.26920, 140: 0.12436, 139:-0.29372, 138:-0.42949, 137:-0.22105,
                136:-0.00477, 135:-0.02958, 134:-0.08134, 133:-0.12269, 132: 0.23400, 131: 0.16584, 130:-0.07249, 129:-0.41026,
                128:-0.32362, 127:-0.00342, 126:-0.01686, 125:-0.22237, 124:-0.41215, 123:-0.06482, 122:-0.09001, 121:-0.02847,
                120:-0.36842, 119:-0.23466, 118: 0.16228, 117: 0.07540, 116:-0.03039, 115:-0.14665, 114:-0.15793, 113:-0.05691,
                112:-0.14834, 111:-0.17661, 110:-0.17396, 109: 0.11492, 108: 0.14263, 107:-0.00191, 106: 0.00786, 105:-0.03964,
                104:-0.13080, 103: 0.14274, 102:-0.21658, 101:-0.04797, 100:-0.24081,  99: 0.31903,  98: 0.14333,  97: 0.04520,
                 96:-0.04219,  95:-0.32345,  94:-0.43364,  93:-0.11148,  92:-0.15215,  91:-0.21438,  90: 0.06610,  89: 0.06942,
                 88: 0.31931,  87:-0.13324,  86:-0.10927,  85:-0.23933,  84:-0.09507,  83:-0.00060,  82:-0.05958,  81:-0.16527,
                 80: 0.36188,  79: 0.41837,  78:-0.01928,  77:-0.11367,  76:-0.03828,  75:-0.22531,  74:-0.24042,  73:-0.30421,
                 72:-0.08945,  71:-0.29867,  70: 0.50581,  69: 0.19097,  68: 0.11732,  67:-0.22559,  66:-0.07282,  65:-0.04932,
                 64:-0.11029,  63:-0.09688,  62:-0.07464,  61:-0.09558,  60: 0.30117,  59: 0.42122,  58: 0.20209,  57: 0.14329,
                 56: 0.02522,  55: 0.00144,  54: 0.00228,  53:-0.23267,  52: 0.19007,  51: 0.13243,  50: 0.25364,  49: 0.39087,
                 48: 0.30696,  47: 0.18140,  46: 0.00759,  45: 0.01830,  44:-0.13681,  43: 0.01631,  42:-0.01013,  41: 0.19135,
                 40: 0.31503,  39: 0.21392,  38: 0.11147,  37: 0.08544,  36:-0.06891,  35:-0.07808,  34: 0.09992,  33: 0.09141,
                 32: 0.12990,  31: 0.34982,  30: 0.06086,  29: 0.22572,  28: 0.05630,  27:-0.13874,  26: 0.23280,  25: 0.08064,
                 24: 0.29175,  23: 0.45493,  22: 0.27398,  21: 0.25060,  20: 0.19487,  19: 0.03950,  18: 0.27115,  17: 0.16556,
                 16: 0.36448,  15: 0.44032,  14: 0.45268,  13: 0.33979,  12: 0.50914,  11: 0.13551,  10:-0.33015,   9: 0.06377,
                  8: 0.06625,   7: 0.01556,   6: 0.18351,   5: 0.05770,   4: 0.18443,   3: 0.35743,   2:-0.03877,   1: 0.02609
   175 |      | 160:-0.22130, 159:-0.23098, 158:-0.24410, 157:-0.37284, 156:-0.07250, 155:-0.07674, 154: 0.05138, 153: 0.22661,
                152: 0.35702, 151: 0.28844, 150:-0.32248, 149: 0.00625, 148:-0.08372, 147:-0.01645, 146: 0.07340, 145:-0.02220,
                144: 0.20258, 143: 0.19269, 142:-0.05484, 141:-0.01279, 140: 0.05955, 139: 0.05198, 138: 0.11477, 137: 0.21004,
                136: 0.00918, 135:-0.27677, 134: 0.22539, 133: 0.04334, 132: 0.55969, 131: 0.08646, 130: 0.12422, 129: 0.37605,
                128:-0.06098, 127: 0.05514, 126:-0.35926, 125:-0.12620, 124:-0.07075, 123: 0.11988, 122: 0.71038, 121: 0.21003,
                120: 0.31167, 119: 0.12764, 118:-0.04543, 117:-0.06246, 116:-0.19087, 115:-0.36609, 114:-0.09599, 113: 0.56294,
                112: 0.77159, 111: 0.27439, 110: 0.21224, 109: 0.16181, 108:-0.21146, 107:-0.30122, 106:-0.05164, 105:-0.16407,
                104:-0.09848, 103: 0.18086, 102: 0.59875, 101: 0.30540, 100: 0.10736,  99:-0.05507,  98: 0.01919,  97:-0.21247,
                 96:-0.19422,  95:-0.22763,  94: 0.26906,  93:-0.08507,  92: 0.28429,  91: 0.28678,  90:-0.12505,  89:-0.07098,
                 88:-0.17653,  87:-0.35512,  86: 0.05366,  85: 0.24466,  84:-0.04653,  83:-0.05652,  82:-0.10737,  81: 0.10915,
                 80: 0.09709,  79:-0.11682,  78:-0.26212,  77:-0.03228,  76: 0.06300,  75: 0.19977,  74: 0.05444,  73:-0.14906,
                 72: 0.09852,  71:-0.00402,  70: 0.09577,  69:-0.30164,  68:-0.17980,  67: 0.00165,  66: 0.08777,  65:-0.23100,
                 64:-0.18298,  63: 0.10938,  62: 0.20692,  61:-0.02221,  60: 0.24720,  59: 0.01869,  58: 0.06255,  57: 0.06806,
                 56: 0.02598,  55:-0.08038,  54:-0.06129,  53:-0.07407,  52: 0.10890,  51: 0.14081,  50: 0.23969,  49: 0.04378,
                 48: 0.07549,  47:-0.20338,  46: 0.04970,  45:-0.05043,  44: 0.00436,  43:-0.06153,  42: 0.09902,  41: 0.07583,
                 40: 0.18061,  39: 0.28069,  38:-0.28730,  37:-0.27801,  36: 0.06562,  35:-0.05650,  34:-0.38478,  33:-0.21212,
                 32:-0.06272,  31: 0.08450,  30: 0.04511,  29: 0.20593,  28:-0.24379,  27:-0.19305,  26: 0.10555,  25:-0.04398,
                 24:-0.14702,  23:-0.13954,  22:-0.28644,  21:-0.23704,  20:-0.20035,  19:-0.08596,  18:-0.02686,  17: 0.04620,
                 16:-0.28666,  15:-0.38882,  14:-0.22457,  13:-0.35028,  12:-0.34952,  11:-0.22364,  10:-0.10929,   9:-0.05031,
                  8:-0.20437,   7:-0.15361,   6:-0.16595,   5: 0.04236,   4: 0.10621,   3:-0.24626,   2:-0.18349,   1:-0.13470
   176 |      | 160: 0.22016, 159: 0.16758, 158: 0.29752, 157: 0.23778, 156: 0.07612, 155:-0.03346, 154:-0.21163, 153: 0.02696,
                152:-0.10562, 151: 0.13861, 150: 0.10794, 149: 0.12273, 148: 0.15978, 147: 0.08385, 146: 0.08684, 145:-0.04748,
                144:-0.09085, 143: 0.04866, 142: 0.00492, 141: 0.05837, 140: 0.29437, 139:-0.09991, 138:-0.00429, 137:-0.09104,
                136: 0.15181, 135:-0.00146, 134:-0.25604, 133:-0.20262, 132:-0.30184, 131: 0.02323, 130: 0.09802, 129:-0.25563,
                128: 0.08458, 127:-0.09339, 126: 0.29068, 125: 0.20379, 124:-0.15169, 123:-0.10364, 122:-0.48244, 121:-0.04902,
                120:-0.18399, 119:-0.20656, 118: 0.03068, 117:-0.08812, 116: 0.35486, 115: 0.44795, 114: 0.26185, 113: 0.09908,
                112:-0.58883, 111:-0.28205, 110:-0.16168, 109: 0.01543, 108:-0.09544, 107: 0.22880, 106: 0.40288, 105: 0.10853,
                104: 0.18285, 103:-0.03058, 102:-0.50982, 101:-0.08472, 100:-0.31195,  99:-0.04430,  98:-0.00961,  97: 0.27110,
                 96: 0.47060,  95: 0.05862,  94: 0.06151,  93:-0.14625,  92:-0.27855,  91:-0.23908,  90: 0.00480,  89:-0.13770,
                 88: 0.07533,  87: 0.14987,  86: 0.35266,  85: 0.16596,  84: 0.07464,  83:-0.03992,  82:-0.20537,  81:-0.14356,
                 80:-0.04247,  79: 0.16484,  78: 0.00650,  77: 0.20753,  76: 0.44276,  75: 0.26749,  74: 0.12847,  73:-0.16750,
                 72:-0.22756,  71:-0.38698,  70: 0.02466,  69: 0.21588,  68: 0.19521,  67: 0.24523,  66: 0.18856,  65: 0.23717,
                 64:-0.06274,  63: 0.03210,  62:-0.30979,  61: 0.02146,  60: 0.11739,  59: 0.41146,  58: 0.23221,  57: 0.12274,
                 56: 0.20827,  55: 0.16632,  54: 0.06482,  53:-0.10729,  52:-0.01801,  51: 0.13858,  50: 0.22507,  49: 0.33279,
                 48:-0.01159,  47: 0.06387,  46:-0.02928,  45: 0.07541,  44:-0.14658,  43:-0.00395,  42: 0.00749,  41: 0.11189,
                 40:-0.01231,  39:-0.11211,  38:-0.06887,  37: 0.03437,  36: 0.08132,  35:-0.11897,  34: 0.22343,  33: 0.11713,
                 32:-0.09955,  31: 0.14956,  30:-0.17500,  29:-0.01061,  28:-0.12069,  27:-0.15910,  26: 0.04922,  25: 0.03094,
                 24: 0.17884,  23: 0.29100,  22: 0.17715,  21: 0.15535,  20: 0.03266,  19:-0.21763,  18:-0.16676,  17:-0.06011,
                 16: 0.08456,  15: 0.15915,  14: 0.27665,  13: 0.40875,  12: 0.30839,  11: 0.12737,  10:-0.03560,   9: 0.09942,
                  8: 0.05496,   7: 0.05100,   6: 0.01401,   5: 0.06068,   4: 0.24471,   3: 0.24172,   2: 0.07761,   1: 0.24053
   177 |      | 160:-0.20120, 159:-0.11326, 158: 0.11553, 157: 0.12154, 156:-0.30710, 155: 0.34981, 154:-0.16588, 153:-0.02730,
                152:-0.22502, 151:-0.25964, 150:-0.03257, 149: 0.17540, 148: 0.07203, 147:-0.28188, 146:-0.12183, 145: 0.05174,
                144: 0.29505, 143: 0.24126, 142:-0.25616, 141:-0.11145, 140:-0.46814, 139: 0.03958, 138: 0.42306, 137: 0.26570,
                136:-0.26145, 135: 0.28866, 134: 0.16981, 133: 0.19181, 132:-0.17040, 131: 0.16237, 130:-0.23169, 129: 0.29470,
                128: 0.56829, 127: 0.12039, 126: 0.46830, 125: 0.22947, 124: 0.47688, 123:-0.00607, 122:-0.31065, 121:-0.05595,
                120: 0.57109, 119: 0.49595, 118:-0.14897, 117:-0.15887, 116:-0.06153, 115:-0.13828, 114:-0.26527, 113:-0.41276,
                112:-0.23001, 111: 0.21250, 110: 0.34595, 109:-0.05458, 108:-0.11959, 107:-0.39891, 106:-0.14012, 105: 0.10701,
                104:-0.02811, 103:-0.53985, 102:-0.07225, 101:-0.07195, 100: 0.36522,  99:-0.52710,  98:-0.05981,  97:-0.27704,
                 96:-0.20460,  95: 0.30320,  94: 0.12782,  93: 0.20495,  92:-0.04568,  91: 0.10605,  90:-0.13626,  89:-0.31589,
                 88:-0.32346,  87:-0.17252,  86:-0.19774,  85: 0.17221,  84:-0.07019,  83:-0.02388,  82:-0.03403,  81: 0.16626,
                 80:-0.59628,  79:-0.21410,  78:-0.21642,  77:-0.10596,  76: 0.09821,  75: 0.15486,  74: 0.00343,  73: 0.45523,
                 72: 0.01838,  71: 0.39625,  70:-0.64647,  69: 0.04731,  68: 0.01323,  67:-0.18999,  66:-0.17711,  65: 0.15822,
                 64: 0.41918,  63: 0.40744,  62: 0.22755,  61: 0.05341,  60:-1.00599,  59:-0.69852,  58:-0.29891,  57:-0.28413,
                 56:-0.04377,  55: 0.12577,  54: 0.02970,  53: 0.36877,  52: 0.27488,  51:-0.13297,  50:-1.39543,  49:-1.13647,
                 48:-0.61226,  47:-0.13082,  46: 0.28309,  45:-0.07134,  44: 0.01747,  43: 0.08224,  42: 0.13100,  41:-0.00688,
                 40:-0.81963,  39:-0.55454,  38:-0.09794,  37: 0.22970,  36: 0.22868,  35: 0.15884,  34: 0.04138,  33:-0.00686,
                 32:-0.02841,  31:-0.47135,  30:-0.03045,  29: 0.22144,  28: 0.32923,  27: 0.33128,  26:-0.29164,  25: 0.16428,
                 24: 0.18447,  23:-0.41636,  22:-0.35297,  21:-0.40756,  20: 0.48921,  19: 0.79063,  18: 0.17262,  17: 0.30166,
                 16:-0.32437,  15:-0.09656,  14:-0.24884,  13:-0.30226,  12:-0.47524,  11:-0.11803,  10: 0.64337,   9:-0.06900,
                  8: 0.07348,   7:-0.12967,   6: 0.32439,   5: 0.10114,   4:-0.38433,   3:-0.45449,   2: 0.52641,   1:-0.23551
   178 |      | 160: 0.13318, 159: 0.24177, 158: 0.54306, 157: 0.38317, 156: 0.22804, 155: 0.17460, 154: 0.23405, 153: 0.39669,
                152: 0.02458, 151: 0.20239, 150: 0.08645, 149: 0.26079, 148: 0.24797, 147: 0.13304, 146: 0.13153, 145: 0.28659,
                144: 0.09666, 143: 0.20903, 142:-0.08741, 141: 0.20118, 140: 0.37953, 139: 0.01298, 138:-0.00199, 137:-0.02235,
                136: 0.20207, 135: 0.17767, 134:-0.03025, 133:-0.04299, 132: 0.17275, 131: 0.09906, 130: 0.25478, 129: 0.12770,
                128:-0.09496, 127:-0.21314, 126:-0.10379, 125:-0.20042, 124:-0.40620, 123:-0.26246, 122:-0.14599, 121: 0.20259,
                120:-0.03107, 119:-0.05104, 118:-0.12721, 117:-0.11666, 116:-0.24120, 115:-0.25069, 114:-0.13084, 113:-0.03974,
                112:-0.29922, 111:-0.34076, 110: 0.06324, 109:-0.16265, 108:-0.16034, 107: 0.18380, 106: 0.21047, 105:-0.24205,
                104:-0.11137, 103:-0.32563, 102:-0.48087, 101:-0.23749, 100:-0.31163,  99:-0.17647,  98:-0.14345,  97: 0.36985,
                 96: 0.26769,  95:-0.17210,  94: 0.19383,  93:-0.26596,  92:-0.39660,  91:-0.31598,  90:-0.07579,  89:-0.15173,
                 88:-0.27634,  87: 0.09656,  86: 0.19686,  85:-0.05897,  84: 0.07884,  83:-0.19178,  82:-0.21751,  81:-0.17429,
                 80:-0.18592,  79:-0.17251,  78:-0.08527,  77:-0.02461,  76: 0.22161,  75: 0.09672,  74: 0.02803,  73:-0.36969,
                 72:-0.32750,  71:-0.33870,  70: 0.01408,  69: 0.06911,  68: 0.02204,  67: 0.18188,  66: 0.17602,  65: 0.11434,
                 64:-0.06585,  63:-0.04936,  62:-0.19117,  61: 0.07656,  60: 0.18695,  59: 0.30677,  58: 0.33499,  57:-0.05207,
                 56: 0.13957,  55: 0.31689,  54: 0.03721,  53: 0.18855,  52: 0.24405,  51: 0.04637,  50: 0.50396,  49: 0.33316,
                 48: 0.03335,  47: 0.00617,  46: 0.04412,  45: 0.06575,  44:-0.06401,  43: 0.14718,  42: 0.30226,  41:-0.02585,
                 40: 0.00713,  39: 0.05843,  38:-0.06118,  37:-0.07710,  36: 0.04210,  35: 0.04486,  34: 0.28739,  33: 0.25325,
                 32:-0.02557,  31: 0.01354,  30:-0.09119,  29:-0.15610,  28:-0.03123,  27:-0.05531,  26: 0.04834,  25:-0.00265,
                 24: 0.03952,  23: 0.14193,  22:-0.01664,  21:-0.05236,  20:-0.16721,  19:-0.20748,  18:-0.29966,  17:-0.16042,
                 16:-0.20412,  15:-0.14748,  14:-0.04147,  13:-0.00906,  12:-0.17802,  11:-0.20478,  10:-0.05810,   9: 0.00118,
                  8: 0.22283,   7:-0.09295,   6:-0.20950,   5:-0.14902,   4: 0.11238,   3: 0.20480,   2: 0.09936,   1:-0.00147
   179 |      | 160: 0.06321, 159: 0.05722, 158: 0.06178, 157:-0.00917, 156: 0.05524, 155: 0.04359, 154: 0.51919, 153: 0.19102,
                152:-0.05163, 151:-0.08930, 150: 0.09975, 149:-0.13675, 148:-0.04936, 147: 0.05249, 146: 0.21899, 145: 0.02624,
                144:-0.07367, 143:-0.01044, 142:-0.04675, 141:-0.02766, 140: 0.00853, 139:-0.10391, 138: 0.15963, 137: 0.06640,
                136: 0.03861, 135: 0.01194, 134:-0.30544, 133:-0.34417, 132:-0.32793, 131:-0.25445, 130: 0.23051, 129:-0.10474,
                128: 0.06876, 127: 0.06083, 126: 0.02470, 125:-0.16326, 124:-0.19612, 123:-0.23225, 122:-0.34526, 121:-0.26487,
                120: 0.33414, 119: 0.27965, 118: 0.17648, 117: 0.24067, 116: 0.03502, 115: 0.22011, 114:-0.08429, 113:-0.39504,
                112:-0.84739, 111:-0.31241, 110: 0.04100, 109:-0.01404, 108:-0.01914, 107: 0.16366, 106:-0.15985, 105: 0.05788,
                104:-0.11755, 103:-0.35743, 102:-0.36539, 101:-0.42520, 100: 0.53059,  99: 0.16630,  98: 0.05062,  97: 0.01479,
                 96: 0.04304,  95: 0.22406,  94: 0.11627,  93:-0.25048,  92:-0.25529,  91:-0.38503,  90: 0.15919,  89: 0.43848,
                 88: 0.19368,  87: 0.22374,  86: 0.07893,  85: 0.27751,  84: 0.22633,  83:-0.04587,  82:-0.02475,  81:-0.09374,
                 80: 0.12709,  79: 0.37616,  78: 0.35511,  77:-0.05165,  76:-0.13109,  75: 0.17218,  74: 0.11059,  73: 0.21535,
                 72:-0.01504,  71: 0.17083,  70: 0.09907,  69: 0.11745,  68:-0.10761,  67: 0.27765,  66: 0.14532,  65: 0.13675,
                 64:-0.21965,  63:-0.31822,  62:-0.04835,  61: 0.06251,  60: 0.29895,  59: 0.22931,  58: 0.15481,  57: 0.12750,
                 56:-0.23957,  55:-0.34208,  54:-0.21075,  53:-0.20029,  52:-0.40864,  51:-0.15362,  50: 0.36907,  49: 0.40747,
                 48:-0.01410,  47:-0.00350,  46:-0.09559,  45:-0.10140,  44:-0.23923,  43:-0.07592,  42: 0.02241,  41:-0.09933,
                 40: 0.27273,  39: 0.15524,  38:-0.06856,  37: 0.03636,  36:-0.08902,  35: 0.02318,  34:-0.08219,  33:-0.08255,
                 32:-0.02890,  31:-0.18384,  30: 0.06940,  29:-0.31814,  28:-0.47920,  27:-0.06656,  26: 0.16816,  25:-0.40612,
                 24: 0.02853,  23: 0.16264,  22: 0.04304,  21:-0.01387,  20:-0.44076,  19:-0.42531,  18:-0.22745,  17:-0.32423,
                 16: 0.04227,  15:-0.23574,  14: 0.04875,  13: 0.06962,  12:-0.03381,  11: 0.00236,  10:-0.36518,   9:-0.38892,
                  8:-0.14257,   7: 0.03791,   6:-0.03364,   5: 0.09094,   4: 0.10295,   3:-0.06520,   2:-0.43785,   1:-0.01922
   180 |      | 160:-0.09032, 159:-0.07031, 158:-0.10599, 157:-0.13308, 156:-0.35969, 155: 0.06031, 154:-0.23758, 153:-0.22346,
                152:-0.30543, 151:-0.10345, 150:-0.09077, 149:-0.10910, 148: 0.09198, 147:-0.08493, 146:-0.24684, 145: 0.23666,
                144: 0.09489, 143:-0.04716, 142: 0.15794, 141: 0.09947, 140:-0.42610, 139:-0.19637, 138:-0.14048, 137: 0.10088,
                136: 0.09179, 135: 0.03516, 134: 0.26544, 133:-0.08031, 132: 0.39265, 131: 0.20455, 130:-0.35660, 129:-0.44620,
                128: 0.05387, 127:-0.01713, 126: 0.04812, 125:-0.02205, 124: 0.23743, 123:-0.06111, 122:-0.12334, 121:-0.27294,
                120:-0.62205, 119:-0.29873, 118:-0.16343, 117:-0.09899, 116:-0.03452, 115: 0.10185, 114: 0.21148, 113:-0.05756,
                112:-0.08674, 111:-0.20138, 110:-0.37345, 109:-0.11416, 108: 0.02746, 107:-0.34193, 106: 0.02801, 105: 0.30352,
                104: 0.41316, 103:-0.10324, 102:-0.36240, 101:-0.28980, 100:-0.25927,  99: 0.04979,  98:-0.05161,  97:-0.13831,
                 96:-0.06666,  95: 0.05297,  94: 0.03923,  93:-0.00761,  92:-0.49349,  91:-0.37566,  90: 0.06043,  89: 0.13639,
                 88: 0.02523,  87: 0.03806,  86:-0.38565,  85:-0.39689,  84: 0.12942,  83: 0.03538,  82:-0.10389,  81:-0.26171,
                 80: 0.43738,  79: 0.13913,  78:-0.27949,  77: 0.02954,  76:-0.18217,  75:-0.01568,  74:-0.31803,  73:-0.08302,
                 72:-0.03824,  71: 0.19114,  70: 0.43378,  69: 0.14723,  68: 0.05931,  67:-0.06677,  66:-0.25683,  65: 0.03994,
                 64: 0.18216,  63: 0.05548,  62: 0.30533,  61: 0.33954,  60: 0.28517,  59:-0.09093,  58:-0.13657,  57:-0.14749,
                 56: 0.16654,  55: 0.03227,  54: 0.00472,  53: 0.18929,  52: 0.55665,  51: 0.42281,  50: 0.01416,  49:-0.09460,
                 48: 0.10081,  47: 0.13757,  46: 0.09420,  45:-0.18770,  44: 0.24276,  43:-0.01800,  42:-0.10653,  41: 0.02222,
                 40: 0.09135,  39:-0.06873,  38: 0.22957,  37: 0.09803,  36: 0.09485,  35: 0.21875,  34: 0.15459,  33: 0.07040,
                 32:-0.18604,  31: 0.02718,  30: 0.07145,  29: 0.20748,  28: 0.34646,  27:-0.06782,  26: 0.21280,  25: 0.38455,
                 24: 0.16936,  23: 0.01959,  22:-0.07702,  21:-0.09287,  20: 0.07678,  19: 0.05694,  18: 0.15885,  17: 0.20318,
                 16: 0.20860,  15: 0.34485,  14: 0.10406,  13: 0.00588,  12: 0.31308,  11:-0.07923,  10: 0.11061,   9:-0.05691,
                  8: 0.34100,   7: 0.12197,   6: 0.22939,   5: 0.01950,   4:-0.08348,   3: 0.47198,   2: 0.46300,   1: 0.08567
   181 |      | 160: 0.00804, 159:-0.03897, 158:-0.33477, 157:-0.55503, 156:-0.49178, 155:-0.42898, 154:-0.54243, 153:-0.38046,
                152:-0.27472, 151:-0.07504, 150: 0.03218, 149:-0.17634, 148:-0.36184, 147:-0.31852, 146:-0.33878, 145:-0.38770,
                144:-0.24540, 143:-0.47920, 142: 0.09111, 141: 0.07731, 140:-0.20435, 139:-0.32527, 138:-0.01191, 137: 0.14764,
                136:-0.06110, 135:-0.13692, 134:-0.24755, 133:-0.12913, 132:-0.24567, 131:-0.41620, 130:-0.18057, 129:-0.29856,
                128: 0.13287, 127:-0.12022, 126:-0.06471, 125:-0.39188, 124:-0.35940, 123:-0.28383, 122:-0.46353, 121:-0.71134,
                120:-0.10538, 119:-0.02718, 118: 0.03103, 117: 0.19738, 116: 0.19978, 115: 0.10247, 114: 0.01372, 113:-0.24515,
                112:-0.71329, 111:-0.21770, 110:-0.05861, 109: 0.15496, 108: 0.44180, 107: 0.29858, 106: 0.24361, 105: 0.19031,
                104:-0.03045, 103: 0.14109, 102: 0.00199, 101:-0.16341, 100: 0.23171,  99: 0.15777,  98: 0.28434,  97: 0.24510,
                 96: 0.47980,  95: 0.31576,  94:-0.08501,  93: 0.29697,  92: 0.10995,  91:-0.00354,  90: 0.44813,  89: 0.46489,
                 88: 0.38762,  87: 0.34691,  86: 0.05759,  85:-0.02099,  84: 0.29283,  83: 0.18655,  82:-0.03139,  81:-0.10481,
                 80: 0.51924,  79: 0.16930,  78: 0.42590,  77: 0.17620,  76:-0.16707,  75: 0.15816,  74: 0.04552,  73: 0.29189,
                 72: 0.12263,  71: 0.24433,  70: 0.39019,  69: 0.41015,  68: 0.28448,  67: 0.17238,  66:-0.28738,  65: 0.05465,
                 64:-0.00885,  63: 0.07646,  62: 0.07972,  61: 0.10709,  60: 0.33759,  59: 0.20466,  58: 0.05484,  57:-0.08834,
                 56:-0.03836,  55:-0.06257,  54:-0.15652,  53:-0.22196,  52:-0.10659,  51: 0.15554,  50:-0.05127,  49: 0.23923,
                 48: 0.16180,  47: 0.18066,  46:-0.44029,  45:-0.15821,  44: 0.00595,  43:-0.18147,  42:-0.21861,  41:-0.16284,
                 40: 0.10572,  39: 0.25860,  38: 0.07783,  37:-0.10650,  36:-0.17557,  35:-0.25248,  34:-0.10782,  33:-0.21005,
                 32:-0.11620,  31: 0.02177,  30: 0.34318,  29: 0.07619,  28: 0.11503,  27:-0.09896,  26: 0.36018,  25:-0.10430,
                 24:-0.00427,  23: 0.14023,  22:-0.05875,  21:-0.09593,  20: 0.22652,  19: 0.08764,  18:-0.07192,  17:-0.44651,
                 16:-0.19513,  15: 0.07723,  14: 0.07165,  13: 0.10816,  12: 0.19204,  11: 0.08370,  10: 0.03648,   9:-0.03324,
                  8: 0.12625,   7:-0.03830,   6: 0.08415,   5: 0.02291,   4:-0.08706,   3: 0.21542,   2: 0.19338,   1: 0.17020
   182 |      | 160: 0.14061, 159: 0.19592, 158: 0.24192, 157: 0.39333, 156: 0.04333, 155: 0.00698, 154:-0.20085, 153: 0.13618,
                152: 0.11280, 151: 0.26586, 150: 0.19954, 149: 0.25460, 148: 0.11576, 147: 0.20349, 146: 0.13463, 145:-0.08970,
                144:-0.04794, 143: 0.04451, 142: 0.14103, 141: 0.18866, 140: 0.16323, 139: 0.05585, 138: 0.12852, 137:-0.03464,
                136:-0.15776, 135:-0.08298, 134:-0.13398, 133: 0.08383, 132:-0.15266, 131:-0.04127, 130: 0.22870, 129: 0.07151,
                128: 0.01106, 127:-0.17763, 126: 0.17638, 125: 0.25047, 124: 0.19288, 123: 0.14905, 122:-0.27805, 121: 0.00451,
                120: 0.22284, 119: 0.05122, 118:-0.00537, 117:-0.04719, 116: 0.43676, 115: 0.45409, 114: 0.26304, 113: 0.01643,
                112:-0.34939, 111:-0.08238, 110: 0.00257, 109: 0.09191, 108:-0.05385, 107: 0.23750, 106: 0.42206, 105: 0.37473,
                104: 0.22514, 103:-0.06556, 102:-0.21274, 101:-0.01696, 100:-0.12452,  99:-0.06598,  98: 0.08413,  97: 0.33180,
                 96: 0.38835,  95: 0.40388,  94: 0.19352,  93:-0.04798,  92:-0.11951,  91:-0.04657,  90:-0.14618,  89:-0.03956,
                 88: 0.26448,  87: 0.28065,  86: 0.40399,  85: 0.32405,  84: 0.07421,  83:-0.10114,  82:-0.11305,  81:-0.11245,
                 80:-0.13979,  79:-0.06516,  78: 0.19641,  77: 0.41784,  76: 0.48262,  75: 0.33267,  74: 0.17765,  73:-0.06704,
                 72:-0.13189,  71:-0.21558,  70:-0.27795,  69: 0.06402,  68: 0.17861,  67: 0.35966,  66: 0.31781,  65: 0.23849,
                 64:-0.07140,  63:-0.05671,  62:-0.17546,  61:-0.05423,  60:-0.32223,  59: 0.03510,  58: 0.04607,  57: 0.17068,
                 56: 0.19579,  55: 0.12612,  54:-0.07158,  53:-0.04888,  52:-0.11518,  51: 0.07100,  50:-0.27111,  49:-0.11108,
                 48:-0.10347,  47: 0.10236,  46:-0.04420,  45: 0.19313,  44:-0.11037,  43:-0.06372,  42:-0.06825,  41: 0.06646,
                 40:-0.24040,  39:-0.11872,  38:-0.10483,  37: 0.08879,  36: 0.04270,  35:-0.10765,  34: 0.12031,  33: 0.09877,
                 32:-0.06193,  31:-0.04890,  30: 0.01004,  29:-0.01881,  28:-0.08254,  27:-0.02252,  26:-0.16110,  25:-0.08056,
                 24:-0.05226,  23:-0.00131,  22:-0.02002,  21: 0.11972,  20: 0.26272,  19: 0.07402,  18:-0.10633,  17:-0.03917,
                 16:-0.10792,  15:-0.00528,  14: 0.05418,  13: 0.05062,  12: 0.11607,  11: 0.08493,  10: 0.28310,   9: 0.14826,
                  8:-0.05671,   7: 0.06743,   6:-0.04942,   5: 0.11819,   4: 0.17052,   3: 0.15306,   2: 0.09382,   1: 0.08900
   183 |      | 160:-0.22867, 159:-0.19330, 158:-0.12439, 157:-0.46967, 156:-0.07058, 155: 0.12605, 154: 0.25150, 153: 0.19434,
                152:-0.14097, 151:-0.22363, 150:-0.27477, 149:-0.24255, 148:-0.00403, 147:-0.07631, 146: 0.06209, 145: 0.29041,
                144: 0.16853, 143: 0.11351, 142:-0.20919, 141:-0.11724, 140:-0.02288, 139:-0.19254, 138:-0.06848, 137: 0.37086,
                136: 0.15366, 135: 0.28834, 134: 0.05615, 133:-0.16220, 132:-0.16217, 131:-0.11527, 130:-0.05393, 129:-0.17668,
                128: 0.03833, 127:-0.02111, 126:-0.12315, 125:-0.20339, 124:-0.00579, 123:-0.14700, 122:-0.06812, 121:-0.03301,
                120:-0.13941, 119:-0.09321, 118: 0.09751, 117: 0.28269, 116:-0.21696, 115: 0.13561, 114: 0.07945, 113:-0.14825,
                112:-0.07728, 111:-0.09409, 110:-0.01040, 109:-0.17643, 108:-0.01521, 107:-0.03025, 106: 0.19063, 105: 0.07672,
                104: 0.07602, 103:-0.13686, 102:-0.00641, 101:-0.08102, 100: 0.04081,  99:-0.25896,  98:-0.31825,  97:-0.04786,
                 96: 0.03595,  95: 0.10258,  94: 0.16541,  93:-0.09884,  92:-0.05808,  91:-0.08975,  90:-0.00314,  89: 0.01145,
                 88:-0.42128,  87: 0.00857,  86:-0.07837,  85:-0.00076,  84: 0.08586,  83: 0.15318,  82: 0.24532,  81: 0.00342,
                 80: 0.05300,  79: 0.08550,  78:-0.23087,  77:-0.21049,  76:-0.11942,  75: 0.09597,  74:-0.02632,  73: 0.20183,
                 72: 0.16015,  71: 0.21207,  70: 0.35199,  69:-0.04024,  68:-0.06220,  67: 0.03407,  66:-0.00172,  65: 0.05770,
                 64: 0.07352,  63: 0.02021,  62: 0.23344,  61: 0.20969,  60: 0.46426,  59: 0.31001,  58: 0.04978,  57:-0.25066,
                 56: 0.08023,  55: 0.06732,  54: 0.05701,  53: 0.16325,  52: 0.10460,  51: 0.05853,  50: 0.45882,  49: 0.17388,
                 48:-0.01698,  47: 0.06976,  46: 0.13779,  45: 0.00213,  44: 0.02924,  43: 0.07362,  42: 0.15929,  41:-0.11575,
                 40: 0.31844,  39: 0.16245,  38: 0.03699,  37: 0.15640,  36: 0.05023,  35: 0.13708,  34: 0.01687,  33:-0.03699,
                 32:-0.11400,  31:-0.12960,  30:-0.05201,  29:-0.12901,  28: 0.02989,  27: 0.21282,  26: 0.12361,  25:-0.06039,
                 24:-0.00370,  23:-0.03118,  22:-0.23935,  21:-0.34526,  20:-0.62392,  19:-0.46320,  18:-0.01961,  17:-0.09537,
                 16:-0.10482,  15:-0.01995,  14:-0.14930,  13:-0.25772,  12:-0.23367,  11:-0.26943,  10:-0.32264,   9:-0.13189,
                  8: 0.13302,   7: 0.15415,   6: 0.12226,   5: 0.12545,   4:-0.07234,   3: 0.07516,   2:-0.03705,   1:-0.17612
   184 |      | 160:-0.10911, 159: 0.08921, 158: 0.13746, 157:-0.00111, 156:-0.31198, 155: 0.25483, 154: 0.27908, 153: 0.06568,
                152: 0.12065, 151: 0.17821, 150: 0.27229, 149: 0.04758, 148: 0.03004, 147:-0.00449, 146: 0.29128, 145:-0.12159,
                144: 0.39518, 143: 0.18477, 142: 0.13187, 141: 0.34020, 140: 0.14155, 139:-0.04808, 138: 0.21464, 137: 0.01753,
                136: 0.03640, 135: 0.12152, 134:-0.04191, 133:-0.00073, 132:-0.10328, 131: 0.43099, 130: 0.18738, 129:-0.02744,
                128: 0.07288, 127:-0.03383, 126: 0.20630, 125:-0.20893, 124:-0.49955, 123:-0.16698, 122:-0.30558, 121: 0.00696,
                120: 0.24977, 119: 0.15522, 118: 0.12427, 117:-0.24030, 116:-0.48834, 115:-0.63611, 114:-0.77772, 113:-0.64954,
                112:-0.71117, 111:-0.27344, 110: 0.04894, 109:-0.14160, 108:-0.27209, 107:-0.18245, 106:-0.24439, 105:-0.12586,
                104:-0.29705, 103:-0.55226, 102:-0.80333, 101:-0.38586, 100: 0.09529,  99: 0.07222,  98:-0.25263,  97:-0.09954,
                 96:-0.05837,  95: 0.07054,  94:-0.36007,  93:-0.35816,  92:-0.55085,  91:-0.45590,  90:-0.14299,  89:-0.01723,
                 88:-0.04588,  87:-0.11601,  86: 0.10806,  85:-0.08980,  84: 0.34923,  83:-0.18860,  82:-0.03181,  81:-0.12669,
                 80:-0.41020,  79: 0.12300,  78: 0.21242,  77:-0.34638,  76: 0.24816,  75:-0.13783,  74: 0.07032,  73: 0.23966,
                 72: 0.04028,  71:-0.08377,  70:-0.19128,  69:-0.01535,  68: 0.08548,  67:-0.07173,  66: 0.05787,  65: 0.03339,
                 64:-0.11914,  63:-0.02278,  62: 0.04042,  61:-0.20798,  60:-0.19889,  59:-0.25092,  58: 0.14231,  57: 0.08151,
                 56:-0.24525,  55: 0.03970,  54:-0.13385,  53: 0.06948,  52:-0.05467,  51:-0.17658,  50:-0.38716,  49:-0.17270,
                 48:-0.21879,  47: 0.05694,  46: 0.03293,  45:-0.00090,  44:-0.14593,  43:-0.12408,  42: 0.02132,  41: 0.14415,
                 40: 0.09636,  39:-0.13035,  38:-0.13335,  37: 0.22849,  36: 0.00383,  35: 0.28598,  34: 0.15753,  33: 0.13987,
                 32:-0.00115,  31:-0.17601,  30: 0.26808,  29:-0.11060,  28: 0.08711,  27: 0.30396,  26: 0.02920,  25:-0.21318,
                 24: 0.25333,  23: 0.23782,  22: 0.08102,  21:-0.00765,  20: 0.10801,  19: 0.18500,  18: 0.18942,  17: 0.22507,
                 16: 0.28126,  15: 0.06067,  14:-0.10153,  13: 0.02549,  12: 0.13533,  11: 0.00449,  10:-0.10796,   9: 0.09517,
                  8:-0.06862,   7:-0.28818,   6:-0.15012,   5: 0.36283,   4: 0.00730,   3: 0.00083,   2: 0.21367,   1:-0.01061
   185 |      | 160:-0.22525, 159:-0.04711, 158:-0.01889, 157:-0.38441, 156:-0.12582, 155:-0.37858, 154:-0.55414, 153:-0.01766,
                152:-0.16651, 151:-0.12257, 150:-0.07879, 149: 0.24269, 148: 0.05961, 147:-0.01971, 146: 0.12379, 145: 0.17289,
                144:-0.20899, 143:-0.16721, 142:-0.60794, 141:-0.29576, 140: 0.24398, 139: 0.08796, 138:-0.21623, 137: 0.28319,
                136:-0.09649, 135:-0.20615, 134:-0.01438, 133:-0.12761, 132:-0.03606, 131: 0.27558, 130: 0.23948, 129: 0.50728,
                128:-0.09271, 127: 0.19269, 126: 0.10389, 125: 0.25639, 124: 0.02365, 123: 0.02672, 122: 0.63655, 121: 0.33164,
                120: 0.12437, 119: 0.19317, 118:-0.13835, 117: 0.20530, 116: 0.15865, 115: 0.00724, 114: 0.20173, 113: 0.61609,
                112: 0.92807, 111: 0.44426, 110: 0.18506, 109: 0.18531, 108:-0.29183, 107:-0.05196, 106: 0.13685, 105:-0.23391,
                104:-0.14702, 103: 0.12642, 102: 0.88927, 101: 0.64640, 100:-0.16690,  99:-0.22199,  98:-0.07946,  97:-0.04515,
                 96:-0.01253,  95:-0.06427,  94: 0.25500,  93: 0.35738,  92: 0.38305,  91: 0.34720,  90:-0.27593,  89: 0.06687,
                 88: 0.22405,  87: 0.01623,  86:-0.01263,  85: 0.08166,  84:-0.21968,  83: 0.24143,  82: 0.14766,  81: 0.00608,
                 80:-0.03986,  79:-0.07519,  78:-0.24303,  77: 0.38807,  76: 0.25243,  75:-0.34799,  74: 0.25384,  73: 0.03434,
                 72: 0.13146,  71:-0.13899,  70: 0.46346,  69:-0.00802,  68:-0.01191,  67: 0.31909,  66: 0.24745,  65:-0.27020,
                 64: 0.11611,  63: 0.29400,  62: 0.24535,  61:-0.02803,  60: 0.32560,  59: 0.14975,  58:-0.07662,  57: 0.03124,
                 56: 0.23472,  55: 0.40874,  54: 0.44701,  53: 0.19411,  52: 0.06548,  51: 0.22972,  50: 0.29428,  49: 0.14917,
                 48: 0.01706,  47:-0.02563,  46:-0.05824,  45: 0.45068,  44: 0.32808,  43: 0.23158,  42: 0.44959,  41: 0.15321,
                 40: 0.04079,  39:-0.00030,  38:-0.07542,  37:-0.05338,  36: 0.22194,  35:-0.17537,  34:-0.19826,  33:-0.02829,
                 32: 0.49358,  31: 0.40428,  30: 0.08940,  29: 0.03421,  28:-0.45471,  27:-0.27461,  26:-0.46949,  25:-0.24822,
                 24:-0.57354,  23:-0.09379,  22:-0.16198,  21:-0.18267,  20:-0.11140,  19:-0.17763,  18:-0.50235,  17: 0.11946,
                 16:-0.62612,  15:-0.57100,  14:-0.41132,  13:-0.38187,  12:-0.37332,  11:-0.20676,  10: 0.09428,   9: 0.25833,
                  8:-0.36085,   7:-0.00717,   6:-0.47425,   5:-0.30209,   4:-0.30742,   3:-0.33059,   2: 0.21177,   1: 0.07392
   186 |      | 160: 0.00551, 159:-0.11750, 158:-0.51813, 157: 0.08380, 156:-0.19908, 155:-0.55315, 154: 0.21917, 153:-0.24037,
                152: 0.02404, 151:-0.02489, 150: 0.08162, 149:-0.22945, 148:-0.06368, 147:-0.02198, 146:-0.17458, 145:-0.30158,
                144:-0.54591, 143: 0.20317, 142: 0.16843, 141:-0.32332, 140:-0.02165, 139:-0.10761, 138: 0.09977, 137:-0.38617,
                136:-0.22883, 135:-0.12724, 134:-0.25631, 133:-0.23969, 132:-0.24925, 131:-0.02802, 130: 0.26937, 129: 0.26010,
                128: 0.09558, 127:-0.04339, 126:-0.20428, 125: 0.14674, 124:-0.37263, 123:-0.02391, 122:-0.12437, 121:-0.15898,
                120: 0.05002, 119: 0.03139, 118:-0.13431, 117:-0.26075, 116:-0.07527, 115:-0.30548, 114:-0.42601, 113:-0.15291,
                112:-0.62834, 111:-0.16159, 110: 0.49250, 109: 0.10611, 108:-0.08656, 107: 0.36166, 106:-0.01714, 105:-0.44198,
                104:-0.48299, 103: 0.00561, 102:-0.29766, 101:-0.30959, 100: 0.35083,  99: 0.55111,  98: 0.23284,  97: 0.22990,
                 96: 0.11331,  95:-0.15580,  94:-0.20396,  93:-0.15554,  92:-0.15628,  91:-0.20088,  90: 0.14648,  89:-0.18390,
                 88: 0.02705,  87: 0.30023,  86: 0.26968,  85: 0.40045,  84:-0.06416,  83:-0.05788,  82:-0.22008,  81:-0.06019,
                 80:-0.23329,  79:-0.13927,  78: 0.63628,  77: 0.03707,  76: 0.06089,  75: 0.11257,  74: 0.18274,  73: 0.23040,
                 72:-0.11392,  71:-0.00708,  70:-0.78224,  69: 0.10282,  68:-0.01960,  67: 0.23989,  66:-0.05510,  65: 0.02645,
                 64:-0.45104,  63:-0.63921,  62:-0.69135,  61:-0.50855,  60:-0.35497,  59:-0.10069,  58: 0.33691,  57: 0.25429,
                 56:-0.31401,  55:-0.44742,  54:-0.46100,  53:-0.85309,  52:-0.90453,  51:-0.51462,  50: 0.20372,  49: 0.44246,
                 48: 0.13298,  47: 0.05208,  46: 0.06991,  45:-0.46393,  44:-0.48563,  43:-0.37993,  42:-0.41635,  41:-0.40268,
                 40: 0.03608,  39: 0.57589,  38:-0.06003,  37: 0.22373,  36:-0.32188,  35:-0.23248,  34:-0.14211,  33:-0.00733,
                 32:-0.22334,  31:-0.38888,  30: 0.00396,  29: 0.17349,  28:-0.16825,  27: 0.30909,  26: 0.47997,  25:-0.29358,
                 24: 0.24265,  23: 0.21847,  22: 0.18634,  21: 0.00736,  20:-0.10199,  19:-0.24092,  18:-0.02589,  17: 0.05359,
                 16: 0.57367,  15: 0.34903,  14: 0.35337,  13: 0.47845,  12: 0.44650,  11: 0.31751,  10: 0.10668,   9:-0.06590,
                  8:-0.34063,   7:-0.05626,   6:-0.23891,   5: 0.07740,   4: 0.18946,   3: 0.18342,   2:-0.13723,   1: 0.13085
   187 |      | 160:-0.07819, 159:-0.17947, 158: 0.06264, 157:-0.16689, 156:-0.41583, 155:-0.21405, 154:-0.46984, 153:-0.47239,
                152:-0.39241, 151:-0.24489, 150:-0.09782, 149:-0.10363, 148:-0.15651, 147:-0.13287, 146:-0.13407, 145:-0.35892,
                144:-0.31514, 143:-0.47556, 142:-0.41710, 141:-0.15291, 140:-0.14330, 139:-0.09885, 138:-0.21651, 137:-0.29134,
                136:-0.21985, 135:-0.35060, 134:-0.29092, 133:-0.16714, 132:-0.20700, 131:-0.23073, 130:-0.18737, 129:-0.16109,
                128:-0.12115, 127:-0.05735, 126:-0.03419, 125:-0.18826, 124: 0.00469, 123:-0.19014, 122:-0.18879, 121:-0.06349,
                120:-0.04569, 119: 0.01479, 118:-0.01976, 117:-0.04536, 116: 0.05177, 115: 0.19423, 114: 0.27084, 113:-0.03283,
                112: 0.05741, 111: 0.22985, 110: 0.05093, 109: 0.03715, 108:-0.05056, 107: 0.14693, 106: 0.27820, 105: 0.15115,
                104:-0.15982, 103: 0.12541, 102: 0.38283, 101: 0.32427, 100:-0.15839,  99:-0.04507,  98: 0.03271,  97: 0.13709,
                 96: 0.25037,  95:-0.21892,  94:-0.13214,  93: 0.24684,  92: 0.48345,  91: 0.10795,  90:-0.09781,  89: 0.07584,
                 88: 0.05593,  87: 0.13698,  86:-0.00803,  85:-0.33548,  84: 0.06129,  83: 0.25444,  82: 0.30808,  81: 0.18611,
                 80: 0.18021,  79: 0.35970,  78: 0.21636,  77: 0.09100,  76: 0.16719,  75:-0.31098,  74: 0.09984,  73: 0.38886,
                 72: 0.17489,  71: 0.05427,  70: 0.40435,  69: 0.42497,  68: 0.23167,  67: 0.11832,  66:-0.04788,  65:-0.01273,
                 64: 0.13455,  63: 0.26563,  62: 0.11610,  61: 0.07922,  60:-0.01375,  59: 0.20664,  58: 0.05607,  57: 0.00098,
                 56: 0.19866,  55: 0.10605,  54: 0.23960,  53: 0.12301,  52: 0.07884,  51: 0.10987,  50: 0.05445,  49:-0.00046,
                 48: 0.06959,  47:-0.03461,  46:-0.17182,  45: 0.29092,  44:-0.04693,  43:-0.02858,  42: 0.10371,  41: 0.11358,
                 40: 0.14802,  39: 0.09001,  38:-0.15231,  37:-0.11837,  36:-0.20937,  35:-0.07555,  34: 0.00109,  33: 0.10288,
                 32: 0.17870,  31: 0.09177,  30:-0.23665,  29: 0.17623,  28:-0.07863,  27:-0.11700,  26:-0.31929,  25:-0.25571,
                 24:-0.30396,  23:-0.07576,  22: 0.04561,  21: 0.17257,  20:-0.25314,  19:-0.23411,  18:-0.31559,  17:-0.32802,
                 16:-0.42552,  15:-0.38201,  14:-0.25170,  13:-0.22493,  12: 0.03434,  11: 0.14867,  10:-0.09805,   9:-0.10874,
                  8:-0.23969,   7:-0.16862,   6:-0.23336,   5:-0.04722,   4:-0.04523,   3: 0.13931,   2: 0.24640,   1: 0.03437
   188 |      | 160: 0.05878, 159: 0.04481, 158: 0.29854, 157: 0.43784, 156: 0.18281, 155: 0.43995, 154: 0.12938, 153:-0.17011,
                152:-0.28703, 151:-0.23188, 150: 0.13056, 149: 0.15812, 148: 0.23596, 147: 0.20081, 146:-0.01254, 145: 0.10018,
                144: 0.07042, 143:-0.10660, 142:-0.05892, 141: 0.05147, 140:-0.15517, 139: 0.09124, 138: 0.07936, 137:-0.12365,
                136: 0.08753, 135:-0.13470, 134:-0.10601, 133: 0.02224, 132: 0.30825, 131:-0.12216, 130:-0.30041, 129:-0.23549,
                128:-0.13584, 127:-0.06102, 126:-0.28998, 125:-0.02825, 124: 0.59377, 123: 0.19636, 122: 0.32266, 121: 0.03494,
                120:-0.26422, 119:-0.13324, 118:-0.24623, 117:-0.33553, 116:-0.27734, 115: 0.02878, 114: 0.44942, 113: 0.12908,
                112: 0.19336, 111:-0.09988, 110:-0.56206, 109:-0.54870, 108:-0.45765, 107:-0.70696, 106:-0.00900, 105: 0.29854,
                104: 0.57892, 103: 0.11335, 102:-0.22873, 101:-0.15510, 100:-0.36930,  99:-0.53866,  98:-0.50004,  97: 0.06211,
                 96: 0.03249,  95: 0.31163,  94: 0.34606,  93:-0.19347,  92:-0.23629,  91:-0.22010,  90:-0.17188,  89:-0.50137,
                 88:-0.18152,  87: 0.20535,  86: 0.16949,  85:-0.05869,  84:-0.18410,  83:-0.35066,  82:-0.20045,  81:-0.09256,
                 80:-0.28309,  79:-0.32699,  78:-0.19843,  77:-0.04242,  76:-0.32657,  75: 0.19739,  74:-0.26947,  73:-0.29984,
                 72:-0.33317,  71:-0.15286,  70:-0.32641,  69: 0.04744,  68: 0.03564,  67:-0.10829,  66:-0.15945,  65: 0.08976,
                 64: 0.02369,  63:-0.01624,  62:-0.24217,  61:-0.08826,  60:-0.18458,  59:-0.06136,  58:-0.13960,  57:-0.02881,
                 56: 0.10193,  55:-0.02889,  54:-0.03929,  53: 0.06689,  52: 0.17029,  51:-0.14083,  50:-0.08269,  49:-0.02856,
                 48: 0.07004,  47: 0.04460,  46: 0.31952,  45:-0.05086,  44: 0.07117,  43: 0.05960,  42:-0.15578,  41: 0.03322,
                 40:-0.13938,  39:-0.31035,  38: 0.07149,  37:-0.05201,  36: 0.11915,  35: 0.08968,  34: 0.32621,  33: 0.00764,
                 32:-0.13106,  31:-0.02574,  30:-0.54491,  29:-0.45210,  28:-0.19169,  27:-0.24392,  26:-0.14876,  25: 0.07472,
                 24: 0.18254,  23:-0.24620,  22: 0.10699,  21: 0.12288,  20:-0.57584,  19:-0.29524,  18:-0.21898,  17:-0.21119,
                 16: 0.00453,  15: 0.05467,  14: 0.18025,  13:-0.00809,  12: 0.06711,  11:-0.07294,  10:-0.58733,   9:-0.57409,
                  8: 0.07019,   7: 0.28415,   6: 0.09492,   5:-0.01490,   4:-0.07078,   3:-0.17493,   2:-0.36391,   1:-0.24720
   189 |      | 160:-0.12364, 159:-0.15013, 158:-0.19176, 157:-0.18953, 156: 0.05808, 155: 0.08492, 154: 0.06086, 153: 0.16802,
                152: 0.26055, 151: 0.13171, 150:-0.21429, 149:-0.20618, 148:-0.01583, 147:-0.01091, 146: 0.11212, 145: 0.01547,
                144: 0.12376, 143:-0.09305, 142:-0.02634, 141: 0.11802, 140: 0.08134, 139:-0.22999, 138:-0.23420, 137:-0.16590,
                136: 0.02959, 135:-0.15716, 134:-0.03018, 133:-0.16734, 132:-0.10314, 131:-0.04436, 130:-0.21774, 129:-0.16933,
                128:-0.08736, 127: 0.37898, 126:-0.02501, 125:-0.14057, 124:-0.18234, 123:-0.17265, 122:-0.17965, 121: 0.11673,
                120:-0.06066, 119:-0.02972, 118: 0.23831, 117: 0.31796, 116:-0.12796, 115:-0.16164, 114:-0.09937, 113:-0.21006,
                112:-0.08042, 111:-0.04478, 110:-0.03661, 109: 0.12946, 108: 0.23641, 107:-0.07133, 106:-0.12751, 105:-0.02628,
                104:-0.22010, 103:-0.16332, 102:-0.20671, 101: 0.10949, 100:-0.14084,  99: 0.19533,  98: 0.13022,  97: 0.03331,
                 96: 0.03249,  95:-0.07747,  94:-0.11142,  93:-0.10146,  92:-0.05179,  91:-0.13303,  90:-0.05517,  89: 0.23584,
                 88: 0.34617,  87:-0.04905,  86:-0.02173,  85: 0.04530,  84:-0.02926,  83:-0.00536,  82:-0.08912,  81:-0.08002,
                 80: 0.15024,  79: 0.35521,  78: 0.18589,  77: 0.15303,  76: 0.22171,  75: 0.07739,  74: 0.17624,  73:-0.22494,
                 72:-0.16333,  71:-0.30731,  70: 0.31892,  69: 0.07049,  68: 0.17136,  67: 0.04700,  66:-0.00173,  65:-0.10024,
                 64: 0.10089,  63: 0.04183,  62:-0.11704,  61:-0.05217,  60: 0.25390,  59: 0.37329,  58: 0.29871,  57: 0.10726,
                 56: 0.00638,  55:-0.03992,  54: 0.21202,  53: 0.17942,  52:-0.01615,  51:-0.05487,  50: 0.26386,  49: 0.36476,
                 48: 0.32174,  47: 0.04265,  46:-0.04003,  45: 0.07262,  44: 0.11219,  43: 0.09438,  42: 0.09566,  41: 0.11241,
                 40: 0.14230,  39: 0.28153,  38: 0.05990,  37: 0.01889,  36: 0.07542,  35:-0.15680,  34: 0.09592,  33: 0.00190,
                 32: 0.05801,  31: 0.22509,  30: 0.05934,  29:-0.00979,  28:-0.19860,  27:-0.12602,  26:-0.11182,  25:-0.13014,
                 24:-0.08696,  23: 0.01120,  22:-0.04852,  21: 0.05525,  20: 0.09826,  19: 0.02563,  18: 0.09684,  17: 0.11290,
                 16: 0.05808,  15: 0.03668,  14:-0.09338,  13:-0.04096,  12: 0.00096,  11:-0.00126,  10:-0.20095,   9:-0.01044,
                  8:-0.06647,   7: 0.03595,   6:-0.12891,   5: 0.06314,   4: 0.07091,   3:-0.02544,   2: 0.00724,   1:-0.14443
   190 |      | 160: 0.09268, 159: 0.05943, 158:-0.04907, 157:-0.04341, 156:-0.13260, 155:-0.35495, 154:-0.02969, 153:-0.10866,
                152:-0.00572, 151: 0.11867, 150: 0.17724, 149:-0.00884, 148:-0.08682, 147:-0.18159, 146: 0.12712, 145: 0.02466,
                144:-0.06933, 143: 0.04182, 142: 0.15136, 141: 0.10355, 140:-0.20519, 139: 0.11036, 138: 0.19236, 137: 0.02718,
                136: 0.24039, 135: 0.34867, 134:-0.10306, 133:-0.01214, 132: 0.05804, 131:-0.19438, 130:-0.04385, 129: 0.02752,
                128: 0.33513, 127: 0.15216, 126: 0.48158, 125: 0.18672, 124: 0.04850, 123:-0.23474, 122:-0.14575, 121:-0.33980,
                120:-0.12722, 119: 0.12238, 118: 0.24644, 117: 0.16881, 116: 0.10915, 115: 0.00948, 114:-0.14922, 113:-0.18998,
                112:-0.16116, 111:-0.08290, 110:-0.29529, 109:-0.06705, 108: 0.13730, 107: 0.16649, 106:-0.06082, 105: 0.04470,
                104: 0.04278, 103:-0.18629, 102: 0.00513, 101:-0.06163, 100: 0.17224,  99:-0.05090,  98: 0.22654,  97: 0.09797,
                 96: 0.08658,  95:-0.11941,  94:-0.23011,  93: 0.04535,  92: 0.00992,  91: 0.22425,  90: 0.24105,  89: 0.35702,
                 88: 0.21982,  87: 0.07144,  86:-0.35215,  85:-0.12727,  84: 0.03289,  83: 0.17791,  82: 0.27461,  81: 0.33051,
                 80: 0.39275,  79: 0.19053,  78: 0.14993,  77:-0.38298,  76:-0.43558,  75:-0.08999,  74: 0.03967,  73: 0.32980,
                 72: 0.37180,  71: 0.39989,  70: 0.09529,  69: 0.25316,  68:-0.04772,  67:-0.26654,  66:-0.17033,  65: 0.10704,
                 64: 0.06704,  63: 0.20244,  62: 0.30292,  61: 0.04210,  60: 0.09132,  59:-0.41372,  58:-0.04658,  57:-0.25815,
                 56:-0.14928,  55: 0.12452,  54: 0.15648,  53: 0.08498,  52: 0.08851,  51:-0.03953,  50:-0.36596,  49:-0.43574,
                 48:-0.10811,  47:-0.02226,  46: 0.06132,  45: 0.11712,  44: 0.14892,  43:-0.03777,  42: 0.06588,  41:-0.04612,
                 40:-0.12119,  39:-0.29113,  38:-0.17973,  37: 0.05892,  36: 0.06124,  35: 0.10292,  34: 0.00848,  33:-0.03642,
                 32: 0.00063,  31:-0.11772,  30: 0.11538,  29: 0.24099,  28: 0.18214,  27:-0.33180,  26: 0.12437,  25:-0.10367,
                 24:-0.04538,  23:-0.14100,  22: 0.10630,  21: 0.15829,  20: 0.42791,  19: 0.43549,  18: 0.00703,  17:-0.23291,
                 16:-0.15755,  15: 0.06001,  14:-0.06248,  13:-0.06835,  12: 0.25304,  11: 0.29260,  10: 0.20032,   9: 0.05871,
                  8: 0.07357,   7:-0.07354,   6:-0.15522,   5:-0.10833,   4:-0.07846,   3: 0.02014,   2: 0.13947,   1: 0.37735
   191 |      | 160:-0.06187, 159: 0.17468, 158: 0.41597, 157:-0.26333, 156: 0.06203, 155: 0.34783, 154: 0.26258, 153: 0.55551,
                152:-0.05236, 151: 0.02702, 150:-0.06282, 149: 0.03348, 148: 0.09463, 147:-0.11463, 146:-0.08027, 145:-0.05137,
                144: 0.17050, 143: 0.01024, 142:-0.43238, 141:-0.17386, 140: 0.33270, 139:-0.01768, 138:-0.02142, 137: 0.27731,
                136: 0.08517, 135: 0.16625, 134:-0.08981, 133:-0.23253, 132:-0.43338, 131: 0.03117, 130: 0.40032, 129: 0.23510,
                128: 0.00892, 127: 0.08238, 126: 0.40006, 125: 0.01489, 124:-0.07515, 123:-0.28644, 122:-0.06337, 121: 0.10176,
                120: 0.60871, 119: 0.33807, 118: 0.25338, 117: 0.38441, 116: 0.09273, 115:-0.00782, 114: 0.11820, 113:-0.01398,
                112:-0.05891, 111: 0.16227, 110: 0.45245, 109: 0.28107, 108:-0.10670, 107:-0.12265, 106: 0.00130, 105:-0.04857,
                104:-0.10577, 103:-0.48305, 102:-0.04377, 101: 0.19880, 100: 0.39116,  99: 0.12770,  98:-0.05260,  97:-0.27821,
                 96:-0.28720,  95:-0.01413,  94: 0.21407,  93:-0.02923,  92: 0.13287,  91:-0.06955,  90:-0.00275,  89: 0.30215,
                 88:-0.36482,  87:-0.23169,  86:-0.22925,  85: 0.11707,  84:-0.00922,  83: 0.32714,  82: 0.40910,  81: 0.03056,
                 80: 0.19208,  79: 0.39896,  78:-0.15376,  77: 0.07671,  76: 0.32982,  75: 0.04539,  74: 0.52274,  73: 0.38283,
                 72: 0.31754,  71: 0.10544,  70: 0.62662,  69: 0.03536,  68:-0.00439,  67: 0.37998,  66: 0.40196,  65: 0.31237,
                 64: 0.18181,  63: 0.18514,  62: 0.21800,  61: 0.21799,  60: 0.32725,  59: 0.07070,  58: 0.27957,  57: 0.20115,
                 56: 0.20077,  55: 0.28945,  54: 0.29510,  53: 0.34280,  52:-0.35055,  51:-0.01569,  50: 0.38386,  49: 0.02515,
                 48:-0.06865,  47:-0.05376,  46:-0.07054,  45: 0.29469,  44:-0.05342,  43: 0.15145,  42: 0.48857,  41: 0.01900,
                 40:-0.10702,  39: 0.11951,  38:-0.10535,  37: 0.29176,  36: 0.13494,  35: 0.14790,  34:-0.06444,  33:-0.03779,
                 32:-0.03007,  31: 0.02512,  30:-0.02927,  29:-0.41351,  28:-0.42553,  27: 0.07888,  26: 0.03346,  25:-0.19201,
                 24:-0.09127,  23: 0.03871,  22:-0.14810,  21:-0.18726,  20:-0.35543,  19:-0.33206,  18:-0.10857,  17:-0.10239,
                 16:-0.21790,  15:-0.61822,  14:-0.24858,  13:-0.42631,  12:-0.31334,  11:-0.16194,  10: 0.01640,   9: 0.22237,
                  8: 0.15610,   7: 0.06908,   6:-0.27185,   5: 0.04095,   4:-0.20096,   3:-0.41771,   2: 0.05034,   1:-0.03110
   192 |      | 160:-0.09349, 159:-0.21156, 158:-0.06776, 157:-0.32834, 156:-0.20569, 155:-0.09672, 154: 0.25096, 153: 0.26858,
                152: 0.45709, 151: 0.25854, 150:-0.01662, 149:-0.00503, 148: 0.00386, 147: 0.02781, 146: 0.15188, 145:-0.01781,
                144: 0.11503, 143: 0.11410, 142: 0.28766, 141: 0.51348, 140: 0.16889, 139: 0.11204, 138: 0.03073, 137: 0.09219,
                136:-0.07567, 135:-0.18238, 134:-0.44071, 133:-0.32621, 132: 0.22865, 131: 0.45867, 130: 0.27238, 129: 0.04921,
                128: 0.11617, 127:-0.05882, 126:-0.15540, 125:-0.46244, 124:-0.62249, 123:-0.24499, 122: 0.32825, 121: 0.35013,
                120: 0.19464, 119: 0.21668, 118: 0.04559, 117:-0.08306, 116:-0.28333, 115:-0.08836, 114:-0.22212, 113: 0.23750,
                112: 0.40402, 111: 0.30128, 110:-0.03048, 109: 0.01486, 108:-0.27804, 107:-0.27257, 106:-0.20290, 105:-0.04626,
                104:-0.00422, 103: 0.20829, 102: 0.53450, 101: 0.32505, 100: 0.13238,  99: 0.00679,  98:-0.28134,  97:-0.16265,
                 96: 0.08990,  95: 0.09818,  94:-0.03671,  93: 0.22711,  92: 0.47285,  91: 0.16786,  90:-0.02569,  89:-0.00616,
                 88: 0.01589,  87:-0.15425,  86:-0.01767,  85: 0.08708,  84: 0.27214,  83: 0.11272,  82: 0.28761,  81: 0.13769,
                 80: 0.06094,  79: 0.17390,  78:-0.06163,  77:-0.10597,  76:-0.04673,  75:-0.07334,  74: 0.08810,  73: 0.22242,
                 72: 0.32074,  71: 0.14639,  70: 0.13016,  69:-0.03830,  68: 0.04108,  67:-0.00945,  66: 0.11976,  65: 0.03182,
                 64: 0.05074,  63: 0.06675,  62: 0.17501,  61: 0.02025,  60:-0.06351,  59: 0.11118,  58: 0.06533,  57:-0.08144,
                 56: 0.07179,  55: 0.20125,  54: 0.07075,  53: 0.01295,  52: 0.10159,  51: 0.12113,  50:-0.13643,  49:-0.13482,
                 48: 0.04830,  47:-0.08504,  46:-0.00909,  45: 0.13358,  44: 0.02936,  43: 0.05714,  42: 0.25379,  41: 0.21095,
                 40: 0.11618,  39: 0.00500,  38:-0.03199,  37:-0.00392,  36: 0.05105,  35:-0.11266,  34:-0.00481,  33: 0.03097,
                 32: 0.19414,  31: 0.10484,  30: 0.04796,  29: 0.00835,  28:-0.06415,  27: 0.00410,  26: 0.08368,  25:-0.15714,
                 24: 0.04677,  23: 0.32294,  22: 0.33040,  21: 0.18805,  20: 0.03035,  19: 0.03732,  18: 0.00531,  17:-0.22833,
                 16:-0.04624,  15: 0.15796,  14: 0.13260,  13: 0.13592,  12: 0.15811,  11: 0.03205,  10:-0.05375,   9: 0.02932,
                  8: 0.11629,   7: 0.00212,   6: 0.05845,   5: 0.23725,   4: 0.33308,   3: 0.04924,   2:-0.05127,   1: 0.09553
   193 |      | 160: 0.15063, 159:-0.14320, 158: 0.02768, 157:-0.35801, 156: 0.20959, 155:-0.31072, 154:-0.09186, 153:-0.07666,
                152:-0.45857, 151:-0.14775, 150:-0.20824, 149:-0.00467, 148:-0.10957, 147: 0.06068, 146:-0.26289, 145:-0.14056,
                144:-0.34697, 143:-0.50746, 142:-0.25067, 141:-0.20720, 140:-0.17306, 139:-0.19677, 138:-0.35143, 137: 0.05053,
                136:-0.09548, 135:-0.03178, 134: 0.26740, 133: 0.00580, 132: 0.14810, 131:-0.60580, 130:-0.25378, 129:-0.14403,
                128:-0.11526, 127:-0.10797, 126:-0.27710, 125: 0.08800, 124: 0.59470, 123: 0.06550, 122: 0.00964, 121:-0.19775,
                120:-0.01753, 119:-0.21424, 118: 0.01176, 117: 0.45389, 116: 0.40304, 115: 0.65375, 114: 0.67320, 113: 0.23827,
                112: 0.52241, 111: 0.26621, 110:-0.18067, 109: 0.08260, 108: 0.43591, 107: 0.31889, 106: 0.52721, 105: 0.26377,
                104: 0.29363, 103: 0.36471, 102: 0.65493, 101: 0.38128, 100:-0.08304,  99: 0.09385,  98: 0.25556,  97: 0.19037,
                 96: 0.18380,  95: 0.30701,  94: 0.21381,  93: 0.17780,  92: 0.48178,  91: 0.34234,  90: 0.18271,  89: 0.45397,
                 88: 0.54148,  87:-0.03359,  86: 0.05960,  85: 0.24096,  84:-0.03040,  83: 0.11789,  82: 0.08683,  81: 0.12291,
                 80: 0.66269,  79: 0.27864,  78:-0.04497,  77: 0.41166,  76:-0.30649,  75: 0.29511,  74: 0.38415,  73: 0.12560,
                 72: 0.28057,  71: 0.31422,  70: 0.58332,  69: 0.15905,  68: 0.27950,  67: 0.18510,  66:-0.03421,  65: 0.08604,
                 64: 0.20990,  63: 0.41212,  62: 0.31672,  61: 0.30152,  60: 0.67747,  59: 0.39335,  58:-0.08582,  57: 0.01515,
                 56: 0.28444,  55: 0.10706,  54: 0.23024,  53: 0.06922,  52:-0.03507,  51: 0.26862,  50: 0.44742,  49: 0.48686,
                 48: 0.36249,  47: 0.14165,  46:-0.11867,  45: 0.10115,  44: 0.16914,  43: 0.09447,  42: 0.09395,  41:-0.03342,
                 40: 0.12031,  39: 0.14257,  38: 0.08147,  37:-0.24089,  36: 0.05993,  35:-0.29099,  34:-0.21933,  33:-0.33465,
                 32:-0.00389,  31: 0.27254,  30: 0.08337,  29:-0.20817,  28:-0.05584,  27:-0.30861,  26:-0.19684,  25:-0.18332,
                 24:-0.44992,  23:-0.34626,  22:-0.24767,  21: 0.00733,  20: 0.01169,  19:-0.30232,  18:-0.31583,  17:-0.35963,
                 16:-0.52931,  15:-0.34136,  14:-0.19653,  13:-0.22490,  12:-0.12728,  11:-0.03192,  10:-0.14603,   9: 0.00537,
                  8: 0.07701,   7: 0.09017,   6:-0.03901,   5:-0.08362,   4:-0.31852,   3:-0.11463,   2:-0.32828,   1: 0.07130
   194 |      | 160: 0.23566, 159: 0.12867, 158: 0.11451, 157: 0.40757, 156: 0.19827, 155: 0.18496, 154: 0.48758, 153: 0.21372,
                152: 0.49851, 151: 0.26916, 150: 0.28636, 149: 0.22318, 148: 0.20061, 147: 0.27290, 146: 0.31463, 145: 0.17681,
                144:-0.19777, 143: 0.04694, 142: 0.55432, 141: 0.23738, 140:-0.21212, 139: 0.29910, 138: 0.20356, 137:-0.01289,
                136: 0.13345, 135: 0.22719, 134: 0.03525, 133: 0.34211, 132: 0.20864, 131: 0.35573, 130:-0.35164, 129: 0.32319,
                128: 0.38690, 127: 0.18564, 126: 0.20828, 125: 0.26918, 124: 0.24005, 123: 0.57902, 122: 0.25247, 121: 0.15601,
                120:-0.15082, 119: 0.07517, 118:-0.00717, 117:-0.35047, 116: 0.00791, 115:-0.17550, 114:-0.08963, 113:-0.17016,
                112: 0.37483, 111: 0.09685, 110:-0.14720, 109:-0.36061, 108:-0.15936, 107:-0.03279, 106:-0.30191, 105:-0.04085,
                104:-0.28556, 103:-0.14430, 102: 0.07600, 101: 0.06398, 100: 0.05006,  99:-0.08452,  98:-0.23935,  97:-0.28382,
                 96:-0.32126,  95:-0.36417,  94:-0.44711,  93:-0.18671,  92: 0.18155,  91: 0.09572,  90:-0.08165,  89:-0.19829,
                 88:-0.33533,  87:-0.26095,  86:-0.29692,  85:-0.27595,  84:-0.32766,  83:-0.58676,  82:-0.03164,  81: 0.22262,
                 80:-0.09457,  79:-0.12040,  78: 0.14032,  77:-0.11825,  76:-0.43262,  75:-0.33790,  74:-0.20924,  73:-0.10843,
                 72: 0.19465,  71: 0.15809,  70:-0.28745,  69:-0.02180,  68:-0.11062,  67:-0.15178,  66:-0.28446,  65:-0.11059,
                 64:-0.24770,  63: 0.12665,  62: 0.18084,  61:-0.06128,  60:-0.26107,  59:-0.53732,  58:-0.21545,  57:-0.24337,
                 56:-0.48136,  55:-0.28690,  54:-0.06704,  53: 0.08925,  52: 0.08547,  51:-0.20460,  50:-0.63690,  49:-0.52427,
                 48:-0.34333,  47:-0.21926,  46: 0.15213,  45:-0.15120,  44: 0.23129,  43:-0.13402,  42:-0.30929,  41: 0.14810,
                 40:-0.21603,  39:-0.53365,  38:-0.07242,  37:-0.09517,  36:-0.05483,  35: 0.06374,  34: 0.19648,  33: 0.16989,
                 32: 0.08569,  31:-0.11488,  30: 0.01391,  29: 0.14127,  28: 0.12305,  27: 0.00675,  26:-0.04594,  25:-0.09245,
                 24: 0.01210,  23:-0.16601,  22: 0.12382,  21: 0.04950,  20: 0.10826,  19: 0.42931,  18: 0.12972,  17: 0.00798,
                 16: 0.13877,  15: 0.24532,  14: 0.01352,  13:-0.07217,  12: 0.02722,  11:-0.01847,  10: 0.15226,   9: 0.29248,
                  8: 0.04045,   7:-0.01428,   6:-0.19934,   5:-0.20273,   4:-0.18925,   3:-0.20488,   2:-0.03308,   1: 0.10665
   195 |      | 160: 0.02633, 159:-0.03899, 158: 0.22935, 157:-0.08823, 156: 0.06405, 155: 0.45398, 154: 0.61364, 153: 0.12807,
                152: 0.18045, 151: 0.13239, 150:-0.01518, 149:-0.02686, 148: 0.04612, 147: 0.08341, 146: 0.09293, 145:-0.08365,
                144: 0.06817, 143: 0.03485, 142: 0.26418, 141: 0.17108, 140: 0.06752, 139:-0.04913, 138:-0.28224, 137:-0.38688,
                136: 0.05054, 135:-0.22416, 134: 0.00068, 133:-0.02390, 132: 0.00768, 131:-0.14312, 130:-0.05370, 129:-0.31313,
                128:-0.17877, 127:-0.01637, 126:-0.13574, 125:-0.25825, 124:-0.08614, 123:-0.03597, 122: 0.02657, 121: 0.05182,
                120:-0.02021, 119: 0.14177, 118: 0.20098, 117: 0.08344, 116:-0.18346, 115: 0.01072, 114: 0.11003, 113:-0.17772,
                112:-0.17517, 111:-0.05550, 110:-0.01017, 109:-0.07147, 108: 0.06526, 107: 0.12950, 106:-0.08787, 105: 0.02276,
                104:-0.26467, 103:-0.01649, 102:-0.10358, 101: 0.03014, 100: 0.12133,  99: 0.19919,  98: 0.00186,  97: 0.02676,
                 96:-0.01404,  95:-0.18939,  94:-0.17174,  93:-0.34868,  92: 0.09044,  91:-0.11536,  90: 0.09184,  89: 0.34089,
                 88: 0.04145,  87:-0.18301,  86: 0.17799,  85: 0.04355,  84: 0.18175,  83: 0.03891,  82: 0.20056,  81: 0.07748,
                 80: 0.33060,  79: 0.40912,  78: 0.15345,  77:-0.20971,  76:-0.10646,  75:-0.08023,  74:-0.01518,  73: 0.15614,
                 72: 0.11129,  71:-0.08467,  70: 0.47283,  69: 0.01041,  68:-0.16032,  67: 0.03307,  66:-0.05014,  65: 0.06668,
                 64:-0.13292,  63:-0.23291,  62:-0.06595,  61: 0.03282,  60: 0.45205,  59: 0.17127,  58: 0.04499,  57:-0.04650,
                 56:-0.08432,  55:-0.28830,  54:-0.10834,  53:-0.19986,  52:-0.11303,  51: 0.01849,  50: 0.50541,  49: 0.41854,
                 48: 0.41196,  47:-0.07904,  46:-0.10354,  45: 0.00061,  44:-0.01832,  43: 0.10073,  42: 0.02878,  41: 0.07040,
                 40: 0.50161,  39: 0.19887,  38: 0.10441,  37:-0.20050,  36:-0.13004,  35: 0.03308,  34: 0.10451,  33: 0.13410,
                 32: 0.02349,  31: 0.00531,  30:-0.24658,  29:-0.07143,  28:-0.33420,  27:-0.07731,  26: 0.27920,  25:-0.15796,
                 24: 0.03400,  23: 0.15268,  22: 0.00062,  21: 0.06211,  20:-0.44121,  19:-0.33782,  18:-0.34511,  17:-0.50426,
                 16: 0.03433,  15:-0.13909,  14:-0.01613,  13:-0.10562,  12: 0.11765,  11: 0.01717,  10:-0.59035,   9:-0.01680,
                  8:-0.20313,   7:-0.09857,   6:-0.24741,   5: 0.09121,   4: 0.07213,   3: 0.06681,   2:-0.35343,   1:-0.20927
   196 |      | 160:-0.15849, 159:-0.25715, 158:-0.41360, 157:-0.23823, 156:-0.25431, 155:-0.26876, 154:-0.39013, 153:-0.15678,
                152:-0.31374, 151:-0.18282, 150:-0.28114, 149:-0.35655, 148:-0.31109, 147:-0.33531, 146:-0.33475, 145:-0.00193,
                144:-0.18383, 143:-0.21260, 142:-0.36603, 141:-0.32108, 140:-0.36030, 139:-0.38689, 138:-0.01291, 137: 0.00499,
                136:-0.01181, 135:-0.00209, 134: 0.16272, 133: 0.10057, 132:-0.26095, 131:-0.08080, 130:-0.27269, 129:-0.41859,
                128: 0.14702, 127: 0.18180, 126: 0.19574, 125: 0.18385, 124: 0.28686, 123: 0.05851, 122:-0.19403, 121:-0.36267,
                120:-0.31402, 119:-0.23874, 118: 0.14825, 117: 0.17853, 116: 0.26977, 115: 0.03259, 114: 0.06391, 113: 0.00153,
                112:-0.19899, 111:-0.20568, 110:-0.42353, 109: 0.11001, 108: 0.08697, 107:-0.12084, 106:-0.17118, 105: 0.14347,
                104: 0.23561, 103: 0.11682, 102:-0.24006, 101:-0.22649, 100: 0.04410,  99: 0.05501,  98: 0.07866,  97:-0.02387,
                 96: 0.08676,  95: 0.51438,  94: 0.18690,  93: 0.16736,  92:-0.21773,  91:-0.00447,  90:-0.02498,  89:-0.15930,
                 88: 0.21710,  87: 0.11701,  86: 0.06514,  85: 0.53797,  84: 0.03154,  83: 0.18049,  82:-0.17668,  81:-0.08586,
                 80:-0.24271,  79:-0.23535,  78:-0.08373,  77:-0.06731,  76:-0.07694,  75: 0.46000,  74:-0.03442,  73: 0.02682,
                 72:-0.22508,  71: 0.05407,  70:-0.45341,  69:-0.38917,  68:-0.31951,  67:-0.33373,  66:-0.07979,  65: 0.01261,
                 64:-0.00930,  63:-0.19815,  62:-0.29002,  61:-0.10464,  60:-0.17610,  59:-0.34819,  58:-0.31715,  57: 0.11591,
                 56:-0.11756,  55:-0.25039,  54:-0.39082,  53:-0.26925,  52:-0.38494,  51:-0.19648,  50:-0.25331,  49:-0.06386,
                 48:-0.10716,  47: 0.05177,  46:-0.09054,  45:-0.35965,  44:-0.10487,  43:-0.20080,  42:-0.35895,  41:-0.16824,
                 40:-0.11252,  39: 0.06064,  38: 0.13711,  37: 0.21066,  36:-0.05219,  35: 0.01284,  34:-0.16053,  33:-0.12300,
                 32:-0.35555,  31:-0.17461,  30: 0.06955,  29: 0.00327,  28: 0.17789,  27:-0.01763,  26: 0.26541,  25: 0.31613,
                 24: 0.28349,  23: 0.05409,  22:-0.11074,  21:-0.02060,  20: 0.29155,  19: 0.16968,  18: 0.25032,  17: 0.46959,
                 16: 0.31439,  15: 0.29325,  14: 0.27348,  13: 0.27724,  12: 0.04777,  11: 0.13821,  10: 0.07601,   9:-0.30114,
                  8:-0.01997,   7: 0.06819,   6: 0.41245,   5: 0.02841,   4:-0.11173,   3:-0.24254,   2:-0.29492,   1: 0.02149
   197 |      | 160: 0.05829, 159:-0.17629, 158: 0.08544, 157:-0.18426, 156:-0.27826, 155:-0.07511, 154:-0.18970, 153: 0.03178,
                152:-0.21136, 151:-0.32807, 150: 0.06757, 149: 0.02239, 148: 0.00149, 147:-0.22794, 146: 0.21354, 145: 0.21453,
                144: 0.12151, 143:-0.24178, 142:-0.42141, 141:-0.09836, 140:-0.12576, 139: 0.16797, 138: 0.49596, 137: 0.25160,
                136: 0.17310, 135: 0.23138, 134:-0.10246, 133:-0.02828, 132:-0.42801, 131:-0.06268, 130:-0.12135, 129: 0.16819,
                128: 0.56099, 127: 0.12442, 126: 0.61720, 125: 0.36758, 124: 0.38794, 123:-0.24202, 122:-0.16083, 121:-0.14952,
                120: 0.01500, 119: 0.21883, 118: 0.21503, 117: 0.04076, 116: 0.13400, 115: 0.38428, 114: 0.18082, 113:-0.24568,
                112: 0.03794, 111: 0.21485, 110: 0.03610, 109:-0.05910, 108: 0.10190, 107: 0.07481, 106:-0.00650, 105: 0.12343,
                104: 0.06192, 103:-0.09156, 102: 0.25005, 101: 0.13176, 100: 0.24601,  99:-0.12716,  98:-0.17906,  97:-0.15683,
                 96:-0.01751,  95:-0.00937,  94:-0.14904,  93: 0.16969,  92: 0.39068,  91: 0.27697,  90:-0.06099,  89:-0.01921,
                 88:-0.47910,  87:-0.31625,  86:-0.12922,  85:-0.25067,  84:-0.09680,  83: 0.13486,  82: 0.36953,  81: 0.37953,
                 80: 0.10887,  79:-0.09335,  78:-0.15835,  77:-0.12629,  76:-0.30037,  75:-0.16133,  74: 0.05280,  73: 0.51808,
                 72: 0.46708,  71: 0.41993,  70:-0.04885,  69: 0.07054,  68:-0.15089,  67:-0.16124,  66:-0.20893,  65: 0.08507,
                 64: 0.23128,  63: 0.41347,  62: 0.46497,  61: 0.11626,  60:-0.26215,  59:-0.56211,  58:-0.28726,  57:-0.26801,
                 56: 0.15795,  55: 0.18654,  54: 0.12468,  53: 0.23961,  52: 0.11361,  51:-0.14784,  50:-0.56508,  49:-0.52788,
                 48:-0.28815,  47:-0.03997,  46: 0.24234,  45: 0.22597,  44: 0.12149,  43: 0.21010,  42: 0.12280,  41:-0.08085,
                 40:-0.40037,  39:-0.32353,  38: 0.03431,  37: 0.11809,  36: 0.03215,  35: 0.15171,  34:-0.18393,  33: 0.06496,
                 32: 0.11543,  31:-0.29972,  30:-0.08210,  29: 0.25645,  28: 0.16515,  27:-0.06962,  26:-0.34194,  25:-0.05862,
                 24:-0.05108,  23:-0.24913,  22:-0.29236,  21:-0.16594,  20: 0.07029,  19: 0.14298,  18:-0.05148,  17:-0.32461,
                 16:-0.10590,  15:-0.12206,  14:-0.15550,  13:-0.36389,  12:-0.16171,  11: 0.11812,  10: 0.26745,   9: 0.11628,
                  8: 0.10994,   7: 0.27609,   6: 0.08078,   5: 0.04765,   4:-0.31175,   3:-0.19994,   2: 0.37881,   1: 0.40771
   198 |      | 160: 0.22890, 159:-0.07834, 158:-0.15009, 157: 0.15113, 156: 0.08915, 155:-0.34332, 154:-0.00547, 153: 0.04967,
                152: 0.33367, 151: 0.14755, 150: 0.00251, 149: 0.01128, 148: 0.03126, 147: 0.16432, 146: 0.08186, 145: 0.00251,
                144:-0.23204, 143: 0.06712, 142:-0.23561, 141:-0.05808, 140: 0.31674, 139: 0.21278, 138: 0.04355, 137:-0.27258,
                136: 0.10101, 135:-0.14086, 134:-0.02300, 133: 0.08453, 132:-0.00119, 131:-0.18576, 130: 0.18800, 129: 0.14708,
                128: 0.08049, 127:-0.02382, 126:-0.28724, 125:-0.00299, 124: 0.15079, 123: 0.23063, 122: 0.32748, 121: 0.27320,
                120: 0.24845, 119: 0.26771, 118:-0.02862, 117:-0.16768, 116:-0.01670, 115: 0.08966, 114: 0.19762, 113: 0.17195,
                112: 0.31317, 111: 0.26515, 110:-0.10065, 109:-0.10707, 108:-0.11697, 107: 0.06087, 106: 0.00080, 105:-0.01108,
                104:-0.20276, 103: 0.18580, 102: 0.48838, 101: 0.32731, 100: 0.23730,  99:-0.19628,  98:-0.17897,  97: 0.16301,
                 96: 0.25407,  95: 0.01947,  94:-0.12662,  93:-0.04160,  92: 0.61229,  91: 0.43753,  90:-0.01037,  89:-0.23705,
                 88: 0.02226,  87: 0.37001,  86: 0.43157,  85: 0.24038,  84: 0.03480,  83:-0.13551,  82: 0.12129,  81: 0.27716,
                 80:-0.26204,  79:-0.08980,  78: 0.52293,  77: 0.32538,  76:-0.10107,  75:-0.28125,  74: 0.03287,  73: 0.12133,
                 72: 0.12783,  71:-0.10993,  70:-0.45775,  69:-0.01486,  68: 0.27462,  67: 0.10453,  66: 0.13628,  65:-0.12736,
                 64:-0.24800,  63:-0.26339,  62:-0.39924,  61:-0.37150,  60:-0.38016,  59: 0.11280,  58: 0.32102,  57: 0.31003,
                 56:-0.22341,  55:-0.35121,  54:-0.15544,  53:-0.36547,  52:-0.58841,  51:-0.33263,  50:-0.13267,  49: 0.15484,
                 48: 0.23620,  47:-0.23818,  46: 0.12200,  45:-0.13059,  44:-0.34794,  43:-0.16958,  42:-0.26160,  41: 0.05116,
                 40: 0.08191,  39: 0.04901,  38:-0.00619,  37:-0.14530,  36:-0.04380,  35:-0.15642,  34:-0.19499,  33:-0.09983,
                 32:-0.02201,  31:-0.02512,  30:-0.20292,  29:-0.16302,  28:-0.32502,  27: 0.05668,  26:-0.01172,  25:-0.24126,
                 24:-0.03965,  23:-0.02917,  22:-0.06141,  21: 0.20155,  20: 0.02434,  19:-0.16536,  18:-0.01774,  17:-0.21839,
                 16: 0.16265,  15:-0.03666,  14: 0.00119,  13:-0.03561,  12: 0.06334,  11: 0.21570,  10: 0.07484,   9:-0.00279,
                  8:-0.40651,   7:-0.00825,   6:-0.09330,   5: 0.02132,   4: 0.20913,   3:-0.16483,   2:-0.50914,   1:-0.08826
   199 |      | 160:-0.08752, 159: 0.18220, 158: 0.08208, 157: 0.22549, 156: 0.31949, 155: 0.09174, 154: 0.35606, 153: 0.38044,
                152: 0.38030, 151: 0.31704, 150: 0.07388, 149: 0.25437, 148: 0.16160, 147: 0.12439, 146: 0.29384, 145: 0.09481,
                144: 0.25343, 143: 0.35018, 142: 0.31044, 141: 0.38909, 140: 0.15554, 139: 0.21359, 138: 0.16645, 137: 0.31919,
                136: 0.12947, 135: 0.15693, 134: 0.11832, 133: 0.04779, 132: 0.31728, 131: 0.29265, 130: 0.10859, 129: 0.37913,
                128:-0.03905, 127:-0.02895, 126:-0.11271, 125:-0.12310, 124:-0.34763, 123:-0.07229, 122: 0.12719, 121: 0.29699,
                120: 0.16570, 119: 0.07917, 118:-0.20312, 117:-0.08501, 116:-0.22547, 115:-0.30475, 114:-0.33982, 113:-0.03436,
                112: 0.03462, 111:-0.04591, 110: 0.28922, 109: 0.02966, 108:-0.00232, 107: 0.00921, 106: 0.00472, 105:-0.24054,
                104:-0.19866, 103:-0.24499, 102:-0.09971, 101:-0.09453, 100:-0.05678,  99:-0.10475,  98:-0.02112,  97:-0.12520,
                 96:-0.13022,  95:-0.27783,  94:-0.13829,  93:-0.08856,  92:-0.14436,  91:-0.08788,  90: 0.00604,  89:-0.05085,
                 88:-0.32016,  87:-0.09357,  86: 0.06246,  85:-0.34278,  84:-0.04812,  83:-0.20429,  82:-0.05484,  81:-0.08002,
                 80:-0.15251,  79:-0.24953,  78:-0.15064,  77:-0.03456,  76: 0.06676,  75:-0.25022,  74:-0.18853,  73:-0.35049,
                 72:-0.01103,  71:-0.11252,  70:-0.03462,  69:-0.00474,  68:-0.02018,  67: 0.06912,  66:-0.05451,  65:-0.23638,
                 64:-0.24151,  63:-0.08561,  62: 0.17085,  61: 0.12720,  60:-0.03279,  59:-0.07301,  58: 0.05737,  57:-0.28043,
                 56:-0.13816,  55: 0.08450,  54: 0.07634,  53: 0.03344,  52: 0.31656,  51: 0.06320,  50: 0.17675,  49:-0.11714,
                 48:-0.18216,  47:-0.07764,  46: 0.01524,  45: 0.11264,  44: 0.11366,  43: 0.09343,  42: 0.17594,  41: 0.09369,
                 40:-0.02983,  39:-0.06380,  38:-0.01411,  37:-0.06789,  36: 0.11113,  35: 0.16393,  34: 0.18615,  33:-0.05287,
                 32: 0.04640,  31: 0.08575,  30: 0.29052,  29: 0.13759,  28: 0.05953,  27: 0.22274,  26: 0.03695,  25: 0.08536,
                 24:-0.07737,  23:-0.13955,  22:-0.13599,  21:-0.19985,  20: 0.15442,  19: 0.38325,  18: 0.17975,  17: 0.05491,
                 16: 0.01807,  15: 0.06515,  14:-0.12969,  13:-0.20098,  12:-0.27807,  11:-0.28803,  10: 0.09283,   9: 0.23965,
                  8: 0.20256,   7:-0.05163,   6:-0.08413,   5: 0.00447,   4: 0.14494,   3:-0.00496,   2: 0.25213,   1:-0.17786
   200 |      | 160: 0.13306, 159: 0.15862, 158: 0.39573, 157: 0.36230, 156: 0.21615, 155: 0.16085, 154: 0.25846, 153: 0.15230,
                152:-0.03425, 151:-0.01523, 150:-0.08349, 149: 0.05079, 148: 0.31506, 147: 0.31436, 146: 0.21181, 145: 0.22303,
                144:-0.00566, 143: 0.11303, 142: 0.10929, 141:-0.14020, 140:-0.09178, 139:-0.06846, 138:-0.06284, 137:-0.24992,
                136: 0.32218, 135: 0.12060, 134: 0.33951, 133: 0.24205, 132: 0.06236, 131:-0.36622, 130:-0.16515, 129:-0.27876,
                128:-0.43643, 127: 0.24895, 126:-0.00804, 125: 0.18604, 124: 0.55962, 123: 0.22865, 122:-0.12626, 121:-0.14274,
                120:-0.03362, 119:-0.10909, 118:-0.10123, 117:-0.01402, 116: 0.14508, 115:-0.03579, 114: 0.30229, 113:-0.20756,
                112:-0.27815, 111:-0.28360, 110:-0.20678, 109:-0.57298, 108:-0.11994, 107: 0.04952, 106:-0.20288, 105: 0.05695,
                104: 0.07924, 103:-0.14174, 102:-0.53371, 101:-0.36197, 100:-0.13806,  99:-0.22694,  98:-0.05814,  97: 0.26311,
                 96:-0.08333,  95:-0.26707,  94: 0.24992,  93:-0.55885,  92:-0.37761,  91:-0.21697,  90: 0.08700,  89: 0.16244,
                 88:-0.00778,  87:-0.14116,  86:-0.20137,  85: 0.04734,  84: 0.13021,  83:-0.20419,  82:-0.13926,  81:-0.06764,
                 80:-0.01763,  79: 0.32762,  78:-0.08549,  77:-0.33658,  76:-0.01609,  75: 0.26930,  74: 0.14287,  73: 0.11909,
                 72:-0.14955,  71:-0.13492,  70:-0.05592,  69:-0.06984,  68:-0.46775,  67:-0.14020,  66: 0.22622,  65: 0.19089,
                 64:-0.04755,  63:-0.09850,  62:-0.19959,  61:-0.04439,  60: 0.01968,  59:-0.25736,  58:-0.27730,  57: 0.24825,
